<?xml version="1.0"?>
<opencv_storage>
<opencv_ml_svm>
  <format>3</format>
  <svmType>C_SVC</svmType>
  <kernel>
    <type>RBF</type>
    <gamma>3.3750000000000002e-02</gamma></kernel>
  <C>2.5000000000000000e+00</C>
  <term_criteria><iterations>20000</iterations></term_criteria>
  <var_count>352</var_count>
  <class_count>2</class_count>
  <class_labels type_id="opencv-matrix">
    <rows>2</rows>
    <cols>1</cols>
    <dt>i</dt>
    <data>
      0 1</data></class_labels>
  <sv_total>6</sv_total>
  <support_vectors>
    <_>
      0. 0. 1.15384623e-01 1.53846160e-01 1.15384623e-01 7.69230798e-02
      3.46153855e-01 6.53846204e-01 6.15384638e-01 3.84615391e-01
      4.61538494e-01 7.69230783e-01 7.30769277e-01 4.23076928e-01
      3.07692319e-01 5.38461566e-01 6.53846204e-01 5.38461566e-01
      2.30769247e-01 3.84615399e-02 3.84615399e-02 3.84615399e-02
      3.84615399e-02 9.23076987e-01 9.61538494e-01 1. 4.23076928e-01
      3.46153855e-01 3.46153855e-01 3.46153855e-01 3.46153855e-01
      3.07692319e-01 3.07692319e-01 7.30769277e-01 8.84615421e-01
      8.84615421e-01 7.30769277e-01 3.84615399e-02 3.84615399e-02
      3.84615399e-02 3.84615399e-02 1.15384623e-01 1.15384623e-01
      3.84615399e-02 3.84615399e-02 3.84615399e-02 3.84615399e-02
      8.46153855e-01 9.23076987e-01 9.23076987e-01 6.53846204e-01
      2.69230783e-01 2.30769247e-01 2.30769247e-01 1.92307696e-01
      1.92307696e-01 1.92307696e-01 2.69230783e-01 9.23076987e-01
      9.23076987e-01 9.23076987e-01 3.84615399e-02 3.84615399e-02 0.
      3.84615399e-02 1.53846160e-01 3.46153855e-01 5.38461566e-01
      6.92307711e-01 6.15384638e-01 4.23076928e-01 3.84615391e-01
      3.84615391e-01 5.00000000e-01 5.38461566e-01 4.61538494e-01
      3.07692319e-01 1.53846160e-01 0. 0. 0. 0. 1.92307696e-01
      5.00000000e-01 6.92307711e-01 6.53846204e-01 4.61538494e-01
      3.46153855e-01 2.69230783e-01 3.07692319e-01 3.84615391e-01
      4.61538494e-01 7.30769277e-01 6.53846204e-01 5.00000000e-01
      3.84615399e-02 0. 3.84615399e-02 0. 1.15384623e-01 6.53846204e-01
      7.30769277e-01 3.84615391e-01 2.30769247e-01 1.92307696e-01
      1.92307696e-01 1.92307696e-01 1.53846160e-01 2.30769247e-01
      3.07692319e-01 7.69230783e-01 6.92307711e-01 6.15384638e-01 0. 0.
      0. 0. 1.15384623e-01 3.07692319e-01 3.84615391e-01 4.23076928e-01
      3.46153855e-01 3.46153855e-01 3.84615391e-01 3.46153855e-01
      3.46153855e-01 3.46153855e-01 5.00000000e-01 3.84615391e-01
      2.69230783e-01 0. 0. 0. 0. 0. 0. 0. 4.37500000e-01 7.34375000e-01
      1.56250000e-02 0. 0. 0. 1.71875000e-01 7.03125000e-01 1. 1.
      7.50000000e-01 6.87500000e-01 8.28125000e-01 8.59375000e-01
      7.50000000e-01 7.50000000e-01 7.03125000e-01 7.34375000e-01
      8.12500000e-01 7.18750000e-01 6.56250000e-01 6.25000000e-01
      6.87500000e-01 6.71875000e-01 6.56250000e-01 7.03125000e-01
      6.87500000e-01 9.21875000e-01 7.81250000e-01 3.43750000e-01 0. 0.
      0. 1.56250000e-02 2.18750000e-01 0. 0. 0. 0. 0. 0. 0. 0. 0. 0. 0.
      0. 0. 0. 0. 0. 0. 0. 0. 0. 0. 0. 0. 0. 0. 0. 0. 0. 0. 0. 0. 0. 0.
      0. 0. 0. 0. 0. 0. 0. 0. 0. 0. 0. 0. 0. 0. 0. 0. 0. 0. 0. 0. 0. 0.
      0. 0. 0. 0. 0. 0. 0. 0. 0. 0. 0. 0. 0. 0. 0. 0. 0. 0. 0. 0. 0. 0.
      0. 0. 0. 0. 0. 0. 0. 0. 0. 0. 0. 0. 0. 0. 0. 0. 0. 0. 0. 0. 0.
      6.62251655e-03 0. 1.65562914e-03 4.96688765e-03 4.96688765e-03
      6.62251655e-03 6.62251655e-03 3.31125818e-02 4.63576168e-02
      7.94702023e-02 6.95364252e-02 2.20198676e-01 3.06291401e-01
      2.83112586e-01 6.55629158e-01 6.73841059e-01 7.53311276e-01
      4.85099345e-01 1. 6.95364237e-01 4.17218536e-01 4.81788069e-01
      2.71523178e-01 2.68211931e-01 1.52317882e-01 2.64900655e-01
      1.44039735e-01 2.26821199e-01 1.02649003e-01 9.43708643e-02
      5.13245016e-02 8.11258256e-02 5.46357632e-02 1.82119198e-02
      2.98013240e-02 2.31788084e-02 8.27814545e-03 1.15894042e-02
      6.62251655e-03 3.31125828e-03 1.65562909e-02 1.65562914e-03
      8.27814545e-03 3.31125828e-03 3.31125828e-03 3.31125828e-03
      6.62251655e-03 3.31125828e-03 1.65562914e-03 0. 3.31125828e-03
      4.96688765e-03 1.65562914e-03 1.65562914e-03 0. 1.65562914e-03 0.
      0. 0. 0. 0. 0. 0. 0. 0. 0. 0. 0. 0. 0. 0. 0. 0. 0. 0. 0. 0. 0. 0.
      0. 0. 0.</_>
    <_>
      0. 0. 1.59999996e-01 7.99999982e-02 3.99999991e-02 3.99999991e-02
      1.99999988e-01 5.99999964e-01 5.19999981e-01 1.19999997e-01
      1.59999996e-01 3.59999985e-01 6.39999986e-01 9.59999979e-01
      9.59999979e-01 6.80000007e-01 5.60000002e-01 5.60000002e-01
      4.39999998e-01 3.99999991e-02 3.99999991e-02 3.99999991e-02
      3.99999991e-02 6.39999986e-01 7.99999952e-01 8.79999995e-01
      3.59999985e-01 2.80000001e-01 3.19999993e-01 3.19999993e-01
      3.99999976e-01 4.39999998e-01 4.79999989e-01 7.99999952e-01
      8.39999974e-01 7.99999952e-01 1.19999997e-01 3.99999991e-02
      3.99999991e-02 3.99999991e-02 3.99999991e-02 1.19999997e-01
      1.19999997e-01 3.99999991e-02 3.99999991e-02 3.99999991e-02
      3.99999991e-02 1.19999997e-01 5.99999964e-01 1. 9.59999979e-01
      5.60000002e-01 4.79999989e-01 4.79999989e-01 5.60000002e-01
      4.39999998e-01 5.99999964e-01 6.39999986e-01 9.59999979e-01
      9.59999979e-01 3.19999993e-01 3.99999991e-02 3.99999991e-02
      3.99999991e-02 3.99999991e-02 2.39999995e-01 3.59999985e-01
      3.59999985e-01 3.59999985e-01 3.99999976e-01 4.39999998e-01
      4.79999989e-01 5.60000002e-01 5.19999981e-01 5.60000002e-01
      7.19999969e-01 5.99999964e-01 3.19999993e-01 3.99999991e-02
      7.99999982e-02 3.99999991e-02 3.99999991e-02 3.19999993e-01
      5.19999981e-01 6.39999986e-01 5.60000002e-01 5.60000002e-01
      4.39999998e-01 3.99999976e-01 4.79999989e-01 4.79999989e-01
      4.79999989e-01 5.60000002e-01 3.99999976e-01 2.80000001e-01
      3.99999991e-02 3.99999991e-02 3.99999991e-02 3.99999991e-02
      1.59999996e-01 3.19999993e-01 3.99999976e-01 4.39999998e-01
      4.39999998e-01 3.99999976e-01 3.99999976e-01 4.39999998e-01
      4.79999989e-01 5.60000002e-01 5.60000002e-01 5.99999964e-01
      3.59999985e-01 1.19999997e-01 0. 0. 0. 0. 3.99999991e-02 0. 0. 0.
      3.99999991e-02 1. 1. 9.19999957e-01 0. 0. 0. 0. 3.99999991e-02
      3.99999991e-02 0. 3.99999991e-02 1. 0. 0. 3.03030312e-02 1.
      1.01010101e-02 0. 0. 1.01010101e-02 4.04040404e-02 4.14141417e-01
      5.25252521e-01 5.15151501e-01 4.14141417e-01 3.73737365e-01
      3.93939406e-01 4.04040396e-01 4.14141417e-01 4.44444448e-01
      4.94949490e-01 6.06060624e-01 5.15151501e-01 4.84848499e-01
      4.64646459e-01 4.24242437e-01 3.83838385e-01 4.14141417e-01
      4.34343427e-01 5.15151501e-01 5.15151501e-01 5.45454562e-01
      4.84848499e-01 3.43434334e-01 2.02020202e-02 1.01010101e-02
      1.01010101e-02 0. 1.01010101e-02 3.03030312e-02 0. 0. 0. 0. 0. 0.
      0. 0. 0. 0. 0. 0. 0. 0. 0. 0. 0. 0. 0. 0. 0. 0. 0. 0. 0. 0. 0. 0.
      0. 0. 0. 0. 0. 0. 0. 0. 0. 0. 0. 0. 0. 0. 0. 0. 0. 0. 0. 0. 0. 0.
      0. 0. 0. 0. 0. 0. 0. 0. 0. 0. 1.46627566e-03 0. 0. 0. 0. 0. 0. 0.
      0. 0. 1.46627566e-03 0. 0. 0. 1.46627566e-03 0. 0. 0. 0. 0.
      5.86510263e-03 0. 0. 2.93255132e-03 1.46627566e-03 0.
      1.46627566e-03 5.86510263e-03 0. 4.39882698e-03 3.95894423e-02
      1.46627566e-03 4.39882698e-03 1.17302053e-02 1.17302053e-02
      3.37243415e-02 2.63929628e-02 7.33137829e-03 4.39882688e-02
      1.75953079e-02 3.37243415e-02 4.54545468e-02 5.57184741e-02
      9.97067466e-02 4.69208211e-02 1.17302053e-01 1.17302053e-01
      1.99413493e-01 1.77419350e-01 3.21114361e-01 3.41642231e-01
      4.26686227e-01 6.80351913e-01 1. 9.69208181e-01 7.43401766e-01
      5.54252207e-01 3.34310859e-01 1.83284461e-01 1.37829915e-01
      7.62463361e-02 5.86510263e-02 2.63929628e-02 4.39882688e-02
      1.90615840e-02 5.57184741e-02 8.79765395e-03 1.31964814e-02
      1.61290318e-02 4.39882698e-03 7.33137829e-03 4.39882698e-03
      1.46627566e-03 8.79765395e-03 0. 1.46627566e-03 1.46627566e-03
      2.93255132e-03 5.86510263e-03 0. 4.39882698e-03 0. 1.46627566e-03
      0. 0. 1.46627566e-03 0. 0. 0. 0. 5.86510263e-03 0. 0. 0. 0. 0. 0.
      0. 0. 0. 0. 0. 0. 0. 0. 0. 0. 0. 0. 0. 0. 0. 0. 0. 0. 0. 0. 0. 0.
      0.</_>
    <_>
      0. 0. 1. 3.70370373e-02 3.70370373e-02 7.40740746e-02
      3.70370388e-01 6.66666687e-01 4.81481493e-01 2.96296299e-01
      4.07407403e-01 7.03703701e-01 6.66666687e-01 2.96296299e-01
      2.59259254e-01 4.81481493e-01 5.92592597e-01 3.70370388e-01
      2.22222224e-01 3.70370373e-02 3.70370373e-02 3.70370373e-02
      3.70370373e-02 9.25925910e-01 9.25925910e-01 8.88888896e-01
      3.70370388e-01 2.96296299e-01 2.96296299e-01 3.33333343e-01
      3.33333343e-01 2.96296299e-01 3.70370388e-01 8.51851881e-01
      8.88888896e-01 8.51851881e-01 1.11111112e-01 0. 0. 0.
      3.70370373e-02 1.48148149e-01 1.85185194e-01 7.40740746e-02
      7.40740746e-02 3.70370373e-02 0. 1.11111112e-01 5.18518507e-01
      7.03703701e-01 7.03703701e-01 4.81481493e-01 3.70370388e-01
      2.96296299e-01 2.59259254e-01 3.33333343e-01 4.07407403e-01
      5.92592597e-01 7.40740776e-01 5.55555582e-01 2.96296299e-01 0. 0.
      0. 0. 1.11111112e-01 2.22222224e-01 2.96296299e-01 3.70370388e-01
      2.96296299e-01 3.33333343e-01 2.59259254e-01 2.96296299e-01
      4.44444448e-01 8.51851881e-01 8.51851881e-01 7.77777791e-01
      7.40740746e-02 0. 0. 0. 0. 5.92592597e-01 8.51851881e-01
      8.51851881e-01 3.70370388e-01 2.59259254e-01 2.22222224e-01
      2.22222224e-01 2.22222224e-01 2.22222224e-01 2.59259254e-01
      2.59259254e-01 2.96296299e-01 1.85185194e-01 7.40740746e-02 0. 0.
      0. 0. 1.48148149e-01 2.96296299e-01 3.70370388e-01 4.07407403e-01
      3.70370388e-01 2.96296299e-01 2.96296299e-01 3.33333343e-01
      3.70370388e-01 3.70370388e-01 4.81481493e-01 4.44444448e-01
      2.96296299e-01 0. 0. 0. 0. 1.85185194e-01 4.81481493e-01
      7.40740776e-01 6.29629612e-01 4.07407403e-01 2.96296299e-01
      3.33333343e-01 3.33333343e-01 2.59259254e-01 4.07407403e-01
      6.66666687e-01 6.29629612e-01 4.07407403e-01 0. 0. 0. 0. 0. 0. 0.
      5.30303061e-01 1.51515156e-01 6.06060624e-02 3.03030312e-02
      1.51515156e-02 1.51515156e-02 1.21212125e-01 7.12121248e-01 1.
      8.33333373e-01 5.60606062e-01 5.00000000e-01 6.36363626e-01
      6.51515186e-01 6.36363626e-01 6.06060624e-01 7.27272749e-01
      8.63636374e-01 9.24242437e-01 7.42424250e-01 5.60606062e-01
      6.06060624e-01 6.06060624e-01 6.51515186e-01 6.81818187e-01
      7.27272749e-01 6.66666687e-01 8.03030312e-01 8.93939435e-01
      6.96969748e-01 1.51515156e-02 0. 0. 0. 0. 0. 0. 0. 0. 0. 0. 0. 0.
      0. 0. 0. 0. 0. 0. 0. 0. 0. 0. 0. 0. 0. 0. 0. 0. 0. 0. 0. 0. 0. 0.
      0. 0. 0. 0. 0. 0. 0. 0. 0. 0. 0. 0. 1.91938574e-03 0. 0. 0. 0. 0.
      0. 0. 1.91938574e-03 0. 0. 0. 0. 0. 0. 0. 0. 0. 0. 0. 0. 0. 0. 0.
      1.91938574e-03 0. 0. 0. 1.91938574e-03 0. 0. 1.91938574e-03
      1.91938574e-03 7.67754298e-03 0. 0. 0. 0. 1.91938574e-03 0. 0.
      5.75815700e-03 1.91938574e-03 3.83877149e-03 1.91938574e-03
      1.15163140e-02 0. 1.91938574e-03 2.87907869e-02 5.75815700e-03
      9.59692895e-03 1.72744710e-02 1.15163140e-02 3.83877158e-02
      2.49520149e-02 2.11132430e-02 4.03071009e-02 3.45489420e-02
      3.83877158e-02 7.10172728e-02 4.41458710e-02 1.30518228e-01
      4.99040298e-02 1.34357005e-01 1.36276394e-01 2.43761986e-01
      1.95777342e-01 4.06909764e-01 5.10556579e-01 5.35508633e-01 1.
      8.57965410e-01 9.75047946e-01 5.56621850e-01 7.77351201e-01
      4.58733201e-01 3.28214973e-01 2.93666005e-01 2.30326295e-01
      1.40115157e-01 1.36276394e-01 1.99616119e-01 9.40499008e-02
      1.51631474e-01 6.33397326e-02 6.71785027e-02 3.07101719e-02
      6.52591139e-02 6.33397326e-02 2.11132430e-02 1.72744710e-02
      4.41458710e-02 1.34357000e-02 1.53550860e-02 1.15163140e-02
      1.91938574e-03 3.83877149e-03 0. 0. 0. 0. 0. 0. 0. 0. 0. 0. 0.
      1.91938574e-03 0. 0. 0. 0. 0. 0. 0. 0. 0. 0. 0. 0. 0. 0. 0. 0. 0.
      0. 0. 0. 0. 0. 0. 0. 0. 0. 0. 0. 0.</_>
    <_>
      7.14285731e-01 7.61904776e-01 6.66666687e-01 7.14285731e-01
      6.66666687e-01 6.66666687e-01 6.66666687e-01 6.66666687e-01
      7.61904776e-01 7.61904776e-01 8.09523821e-01 8.09523821e-01
      7.14285731e-01 6.66666687e-01 7.61904776e-01 7.14285731e-01
      6.66666687e-01 6.66666687e-01 7.61904776e-01 7.61904776e-01
      7.14285731e-01 7.61904776e-01 7.14285731e-01 6.66666687e-01
      6.66666687e-01 6.66666687e-01 6.66666687e-01 7.14285731e-01
      7.61904776e-01 7.14285731e-01 6.66666687e-01 6.19047642e-01
      6.66666687e-01 6.19047642e-01 7.14285731e-01 7.14285731e-01
      7.61904776e-01 7.61904776e-01 7.61904776e-01 7.61904776e-01
      8.09523821e-01 8.09523821e-01 7.61904776e-01 7.61904776e-01
      5.71428597e-01 3.80952388e-01 2.85714298e-01 3.33333343e-01
      9.52380970e-02 2.38095239e-01 2.85714298e-01 3.80952388e-01
      2.85714298e-01 1.42857149e-01 0. 9.52380970e-02 0. 1.42857149e-01
      1.90476194e-01 3.33333343e-01 4.28571433e-01 4.28571433e-01
      4.76190478e-01 5.71428597e-01 6.19047642e-01 6.66666687e-01
      7.14285731e-01 8.09523821e-01 8.09523821e-01 7.14285731e-01
      7.61904776e-01 7.61904776e-01 7.14285731e-01 6.19047642e-01
      5.71428597e-01 6.66666687e-01 6.66666687e-01 7.61904776e-01
      7.14285731e-01 7.61904776e-01 5.23809552e-01 5.71428597e-01
      7.14285731e-01 6.66666687e-01 6.66666687e-01 4.76190478e-01
      4.28571433e-01 4.76190478e-01 5.23809552e-01 5.23809552e-01
      5.23809552e-01 5.23809552e-01 4.76190478e-01 3.33333343e-01
      3.33333343e-01 3.80952388e-01 3.80952388e-01 2.38095239e-01
      1.42857149e-01 9.52380970e-02 0. 9.52380970e-02 1.90476194e-01
      2.85714298e-01 3.33333343e-01 2.85714298e-01 2.85714298e-01
      3.80952388e-01 4.76190478e-01 4.28571433e-01 4.76190478e-01
      3.80952388e-01 4.28571433e-01 4.76190478e-01 4.76190478e-01
      5.23809552e-01 5.71428597e-01 6.19047642e-01 6.66666687e-01
      7.14285731e-01 7.14285731e-01 7.14285731e-01 7.61904776e-01
      7.14285731e-01 8.09523821e-01 6.19047642e-01 6.66666687e-01
      7.14285731e-01 8.09523821e-01 9.52380955e-01 1. 7.14285731e-01
      6.19047642e-01 6.19047642e-01 6.19047642e-01 5.71428597e-01
      6.48648679e-01 5.54054081e-01 4.59459484e-01 3.64864886e-01
      2.83783793e-01 1.75675675e-01 2.02702701e-01 3.24324340e-01
      4.05405402e-01 4.18918937e-01 5.67567587e-01 5.40540576e-01
      3.91891897e-01 3.91891897e-01 5.00000000e-01 7.16216207e-01
      7.56756783e-01 6.75675690e-01 6.89189196e-01 7.29729772e-01
      7.02702701e-01 8.64864886e-01 1. 8.91891897e-01 7.29729772e-01
      7.97297299e-01 8.37837875e-01 8.10810804e-01 6.89189196e-01
      6.62162185e-01 7.97297299e-01 7.29729772e-01 7.97297299e-01
      7.97297299e-01 6.75675690e-01 3.64864886e-01 1.27782360e-01 0. 0.
      0. 0. 0. 2.22588629e-02 0. 0. 0. 0. 0. 0. 0. 0. 0. 0. 0. 0. 0.
      5.77081647e-03 0. 0. 0. 0. 0. 0. 0. 0. 0. 3.46248969e-02 0. 0. 0.
      0. 0. 7.41962064e-03 0. 0. 0. 0. 0. 0. 0. 0. 0. 0. 0. 0. 0.
      1.15416329e-02 0. 0. 0. 0. 0. 0. 0. 0. 0. 0. 0. 0. 0. 0. 0.
      1.89612526e-02 0. 0. 0. 0. 0. 0. 0. 0. 8.65622461e-02 0. 0. 0. 0.
      3.70981060e-02 0. 0. 4.69909310e-02 0. 0. 0. 3.79225053e-02 0. 0.
      7.17229992e-02 0. 0. 6.59521855e-03 0. 0. 2.56389111e-01 0.
      1.31904371e-02 0. 0. 9.72794741e-02 0. 3.01731259e-01
      4.78153341e-02 0. 1.24484748e-01 0. 6.59521855e-03 1.07996702e-01
      1. 1.26957953e-01 4.94641392e-03 2.63808742e-02 3.42126966e-01
      1.26957953e-01 1.64880464e-03 0. 0. 0. 5.49876332e-01 0. 0. 0.
      8.24402319e-04 5.77081628e-02 1.89612538e-01 0. 0. 0.
      4.94641392e-03 0. 1.97856557e-02 2.30832659e-02 0. 0. 0. 0. 0. 0.
      4.53421287e-02 4.12201136e-03 0. 0. 0. 2.47320696e-03 0. 0. 0. 0.
      0. 0. 0. 0. 0. 0. 0. 0. 0. 0. 0. 0. 0. 0. 0. 3.62737030e-02 0. 0.
      0. 0. 0. 0. 0. 2.47320696e-03 0. 0. 0. 0. 0. 0.</_>
    <_>
      0. 0. 0. 0. 0. 0. 0. 0. 0. 0. 0. 0. 0. 0. 0. 0. 0. 0. 0.
      2.72727281e-01 1.81818187e-01 1.81818187e-01 9.09090936e-02 0.
      9.09090936e-02 9.09090936e-02 2.72727281e-01 3.63636374e-01
      4.54545468e-01 4.54545468e-01 6.36363626e-01 7.27272749e-01
      6.36363626e-01 7.27272749e-01 5.45454562e-01 7.27272749e-01
      7.27272749e-01 6.36363626e-01 8.18181872e-01 7.27272749e-01
      8.18181872e-01 6.36363626e-01 7.27272749e-01 5.45454562e-01
      3.63636374e-01 2.72727281e-01 3.63636374e-01 2.72727281e-01
      3.63636374e-01 3.63636374e-01 2.72727281e-01 3.63636374e-01
      4.54545468e-01 4.54545468e-01 6.36363626e-01 5.45454562e-01
      6.36363626e-01 6.36363626e-01 6.36363626e-01 5.45454562e-01
      2.72727281e-01 2.72727281e-01 2.72727281e-01 3.63636374e-01
      3.63636374e-01 3.63636374e-01 2.72727281e-01 2.72727281e-01
      4.54545468e-01 6.36363626e-01 7.27272749e-01 7.27272749e-01
      7.27272749e-01 8.18181872e-01 1. 1. 9.09090936e-01 9.09090936e-01
      9.09090936e-01 1. 1. 1. 1. 9.09090936e-01 9.09090936e-01
      7.27272749e-01 7.27272749e-01 4.54545468e-01 5.45454562e-01
      6.36363626e-01 8.18181872e-01 7.27272749e-01 6.36363626e-01
      4.54545468e-01 2.72727281e-01 2.72727281e-01 2.72727281e-01
      2.72727281e-01 3.63636374e-01 2.72727281e-01 2.72727281e-01
      3.63636374e-01 3.63636374e-01 2.72727281e-01 3.63636374e-01
      3.63636374e-01 3.63636374e-01 3.63636374e-01 4.54545468e-01
      3.63636374e-01 2.72727281e-01 2.72727281e-01 3.63636374e-01
      4.54545468e-01 3.63636374e-01 3.63636374e-01 2.72727281e-01
      2.72727281e-01 2.72727281e-01 2.72727281e-01 2.72727281e-01
      2.72727281e-01 1.81818187e-01 2.72727281e-01 2.72727281e-01
      2.72727281e-01 2.72727281e-01 2.72727281e-01 2.72727281e-01
      2.72727281e-01 2.72727281e-01 3.63636374e-01 2.72727281e-01
      2.72727281e-01 0. 0. 0. 8.57142881e-02 1.14285715e-01
      2.00000003e-01 2.00000003e-01 2.00000003e-01 3.71428579e-01
      7.14285731e-01 8.85714293e-01 9.71428573e-01 1. 8.57142866e-01
      8.57142866e-01 7.42857158e-01 5.71428597e-01 4.57142860e-01
      4.28571433e-01 4.00000006e-01 4.00000006e-01 3.71428579e-01
      5.71428597e-01 5.42857170e-01 4.85714287e-01 4.85714287e-01
      5.71428597e-01 3.14285725e-01 3.14285725e-01 3.71428579e-01
      4.00000006e-01 4.85714287e-01 6.00000024e-01 7.14285731e-01
      5.71428597e-01 5.14285743e-01 3.14285725e-01 0. 1.18402287e-01 0.
      0. 0. 0. 0. 2.56776046e-02 1.42653356e-03 0. 0. 1.42653356e-03
      2.85306713e-03 1.42653356e-03 2.28245370e-02 0. 2.85306713e-03 0.
      1.42653356e-03 1.42653356e-03 8.55920091e-03 4.85021397e-02 0. 0.
      0. 2.56776046e-02 1.85449366e-02 0. 0. 0. 0. 7.13266805e-02 0. 0.
      0. 1.14122685e-02 2.71041375e-02 3.85164060e-02 0. 0. 0.
      2.13980041e-02 0. 9.41512138e-02 2.56776046e-02 0. 0. 0. 0.
      9.98573471e-03 0. 1.95435092e-01 1.85449366e-02 4.27960046e-03
      1.42653356e-03 1.42653356e-03 6.84736073e-02 5.70613425e-03 0. 0.
      0. 3.56633402e-02 0. 0. 1.42653356e-03 0. 7.13266805e-03
      1.31241083e-01 0. 2.85306713e-03 4.27960046e-03 5.56348078e-02
      2.85306713e-03 1.42653356e-03 6.13409430e-02 1.85449366e-02
      2.69614846e-01 1.28388023e-02 9.98573471e-03 0. 4.99286763e-02
      1.54065624e-01 1.42653356e-03 0. 1.46932960e-01 2.56776046e-02
      2.28245370e-02 4.27960046e-03 1.24108419e-01 0. 2.85306713e-03
      1.69757500e-01 0. 1.42653356e-03 4.56490740e-02 0. 6.56205416e-02
      3.83737534e-01 1.42653356e-03 5.56348078e-02 5.70613425e-03
      2.85306713e-03 2.08273903e-01 5.70613425e-03 3.49500716e-01
      7.56062791e-02 2.28245370e-02 1.58345222e-01 1.85449366e-02
      2.85306722e-02 1.25534952e-01 1. 1.45506427e-01 4.70756069e-02
      7.98858777e-02 3.85164052e-01 1.35520682e-01 1.12696148e-01
      2.85306713e-03 1.85449366e-02 1.56918690e-02 2.46790305e-01 0.
      5.84878772e-02 2.28245370e-02 6.70470744e-02 1.74037099e-01
      1.16975754e-01 8.55920091e-03 2.71041375e-02 1.99714694e-02
      3.13837379e-02 7.13266805e-03 6.41940087e-02 5.42082749e-02
      2.85306713e-03 2.56776046e-02 2.85306713e-03 0. 1.85449366e-02 0.
      5.70613444e-02 1.99714694e-02 1.85449366e-02 1.42653356e-03
      2.85306713e-03 2.13980041e-02 2.28245370e-02 5.70613425e-03 0. 0.
      6.84736073e-02 0. 0. 7.13266805e-03 1.42653356e-03 0.
      2.13980041e-02 0. 4.27960046e-03 0. 8.55920091e-03 0. 0.
      2.85306713e-03 0. 4.42225412e-02 0. 0. 0. 5.70613425e-03
      1.14122685e-02 0. 0. 1.56918690e-02 0. 0. 0. 4.27960046e-03 0. 0.</_>
    <_>
      0. 0. 1.42857149e-01 2.14285731e-01 4.28571463e-01 7.14285731e-01
      1. 8.57142925e-01 5.71428597e-01 5.71428597e-01 5.71428597e-01
      5.00000000e-01 4.28571463e-01 4.28571463e-01 5.00000000e-01
      5.71428597e-01 7.14285731e-01 6.42857194e-01 7.14285731e-01
      6.42857194e-01 7.14285731e-01 3.57142866e-01 4.28571463e-01
      3.57142866e-01 4.28571463e-01 4.28571463e-01 3.57142866e-01
      2.85714298e-01 4.28571463e-01 5.71428597e-01 5.00000000e-01
      4.28571463e-01 5.00000000e-01 4.28571463e-01 4.28571463e-01
      4.28571463e-01 5.00000000e-01 3.57142866e-01 2.85714298e-01
      3.57142866e-01 4.28571463e-01 2.85714298e-01 4.28571463e-01
      5.71428597e-01 6.42857194e-01 7.14285731e-01 6.42857194e-01
      5.00000000e-01 5.71428597e-01 5.71428597e-01 7.14285731e-01
      8.57142925e-01 7.14285731e-01 7.14285731e-01 6.42857194e-01
      7.14285731e-01 7.85714328e-01 6.42857194e-01 6.42857194e-01
      7.14285731e-01 8.57142925e-01 8.57142925e-01 6.42857194e-01
      5.00000000e-01 4.28571463e-01 4.28571463e-01 3.57142866e-01
      2.14285731e-01 2.14285731e-01 2.14285731e-01 2.14285731e-01
      2.85714298e-01 2.85714298e-01 2.14285731e-01 2.14285731e-01
      2.14285731e-01 2.85714298e-01 5.71428597e-01 6.42857194e-01
      7.14285731e-01 6.42857194e-01 6.42857194e-01 5.71428597e-01
      4.28571463e-01 2.85714298e-01 2.85714298e-01 2.14285731e-01
      2.85714298e-01 2.14285731e-01 2.85714298e-01 2.85714298e-01
      5.00000000e-01 5.00000000e-01 5.71428597e-01 5.00000000e-01
      5.71428597e-01 5.71428597e-01 6.42857194e-01 6.42857194e-01
      5.00000000e-01 5.71428597e-01 5.00000000e-01 5.00000000e-01
      5.00000000e-01 5.71428597e-01 6.42857194e-01 5.71428597e-01
      8.57142925e-01 7.85714328e-01 6.42857194e-01 5.00000000e-01
      4.28571463e-01 4.28571463e-01 5.00000000e-01 5.71428597e-01
      5.71428597e-01 3.57142866e-01 3.57142866e-01 3.57142866e-01
      3.57142866e-01 3.57142866e-01 3.57142866e-01 3.57142866e-01
      3.57142866e-01 3.57142866e-01 2.85714298e-01 2.85714298e-01
      2.85714298e-01 2.85714298e-01 2.85714298e-01 2.85714298e-01
      3.57142866e-01 2.14285731e-01 2.14285731e-01 2.14285731e-01
      2.14285731e-01 6.07843161e-01 6.86274529e-01 6.86274529e-01
      6.07843161e-01 5.09803951e-01 2.94117659e-01 3.52941185e-01
      6.07843161e-01 7.64705896e-01 9.60784376e-01 1. 7.84313738e-01
      6.27451003e-01 6.66666687e-01 5.88235319e-01 5.88235319e-01
      5.09803951e-01 4.11764711e-01 3.33333343e-01 2.94117659e-01
      4.50980395e-01 5.49019635e-01 5.88235319e-01 5.29411793e-01
      3.52941185e-01 2.94117659e-01 1.96078435e-01 2.15686277e-01
      2.54901975e-01 2.94117659e-01 4.31372553e-01 5.09803951e-01
      4.11764711e-01 3.92156869e-01 2.15686277e-01 1.96078438e-02
      1.08630955e-01 0. 0. 1.48809527e-03 0. 4.46428591e-03
      1.93452388e-02 0. 2.97619053e-03 0. 0. 1.19047621e-02
      2.97619053e-03 1.48809524e-02 4.46428591e-03 0. 1.48809527e-03
      5.95238106e-03 1.48809527e-03 8.92857183e-03 3.72023806e-02
      4.46428591e-03 1.48809527e-03 1.48809527e-03 1.78571437e-02
      1.33928573e-02 8.92857183e-03 0. 0. 0. 8.03571418e-02 0.
      1.48809527e-03 0. 1.33928573e-02 3.12500000e-02 3.86904776e-02
      1.48809527e-03 1.19047621e-02 2.97619053e-03 1.63690485e-02
      1.48809527e-03 4.46428582e-02 2.52976194e-02 0. 1.48809524e-02
      4.46428591e-03 0. 3.72023806e-02 2.97619053e-03 1.30952388e-01
      1.78571437e-02 8.92857183e-03 2.97619053e-03 7.44047621e-03
      1.48809524e-02 3.12500000e-02 1.48809527e-03 0. 0. 5.20833358e-02
      0. 0. 8.92857183e-03 0. 1.63690485e-02 1.10119052e-01
      2.97619053e-03 1.93452388e-02 1.93452388e-02 6.54761940e-02
      5.95238106e-03 1.04166670e-02 4.31547612e-02 5.80357164e-02
      2.91666687e-01 2.38095243e-02 3.42261903e-02 1.48809527e-03
      1.02678575e-01 3.98809522e-01 1.33928573e-02 2.97619053e-03
      2.93154776e-01 6.25000000e-02 4.76190485e-02 4.46428591e-03
      1.90476194e-01 1.33928573e-02 1.48809527e-03 3.67559522e-01
      1.48809527e-03 8.92857183e-03 6.99404776e-02 1.48809527e-03
      7.58928582e-02 5.37202418e-01 2.97619053e-03 7.44047612e-02
      1.33928573e-02 5.95238106e-03 1.71130955e-01 1.33928573e-02
      2.88690478e-01 5.05952388e-02 2.67857146e-02 7.29166716e-02
      1.63690485e-02 1.78571437e-02 1.10119052e-01 1. 7.88690522e-02
      1.93452388e-02 3.57142873e-02 2.82738090e-01 1.05654761e-01
      1.04166670e-02 0. 0. 0. 2.55952388e-01 0. 4.46428591e-03 0.
      4.01785709e-02 8.03571418e-02 1.35416672e-01 1.48809527e-03
      1.48809524e-02 4.46428591e-03 3.12500000e-02 0. 7.88690522e-02
      3.57142873e-02 0. 8.92857183e-03 1.04166670e-02 1.48809527e-03
      1.63690485e-02 4.46428591e-03 7.58928582e-02 1.78571437e-02
      1.63690485e-02 0. 0. 4.31547612e-02 1.04166670e-02 5.95238106e-03
      0. 0. 4.46428582e-02 0. 0. 1.48809527e-03 0. 4.46428591e-03
      3.42261903e-02 0. 2.97619053e-03 2.97619053e-03 1.04166670e-02 0.
      0. 0. 0. 5.80357164e-02 0. 0. 0. 0. 3.42261903e-02 0. 0.
      2.38095243e-02 0. 1.48809527e-03 0. 0. 0. 0.</_></support_vectors>
  <decision_functions>
    <_>
      <sv_count>6</sv_count>
      <rho>-1.9892418303899342e-01</rho>
      <alpha>
        7.4744285324034454e-01 9.8758539124352740e-01
        1.0358656966381368e+00 -8.4255854458631774e-01
        -1.1232286975780854e+00 -8.0510669895760467e-01</alpha>
      <index>
        3 4 5 0 1 2</index></_></decision_functions></opencv_ml_svm>
</opencv_storage>
