<?xml version="1.0"?>
<opencv_storage>
<opencv_ml_ann_mlp>
  <format>3</format>
  <layer_sizes>
    120 40 65</layer_sizes>
  <activation_function>SIGMOID_SYM</activation_function>
  <f_param1>1.</f_param1>
  <f_param2>1.</f_param2>
  <min_val>-9.4999999999999996e-01</min_val>
  <max_val>9.4999999999999996e-01</max_val>
  <min_val1>-9.7999999999999998e-01</min_val1>
  <max_val1>9.7999999999999998e-01</max_val1>
  <training_params>
    <train_method>BACKPROP</train_method>
    <dw_scale>1.0000000000000001e-01</dw_scale>
    <moment_scale>1.0000000000000001e-01</moment_scale>
    <term_criteria>
      <iterations>30000</iterations></term_criteria></training_params>
  <input_scale>
    2.4658578749035112e+01 -8.7885743088230231e-02
    4.0531725241676275e+00 -5.0748473153574913e-01
    3.0836359240350650e+00 -2.0362013409524153e+00
    4.3025276256286613e+00 -3.7235195220389374e+00
    4.1850953512409683e+00 -3.2332322329812277e+00
    4.4713263728993473e+00 -3.7122860334293719e+00
    4.2712761345742321e+00 -3.6182084503878196e+00
    2.9268988590411622e+00 -1.4832492365409153e+00
    5.7348211136940179e+00 -3.5977757935316507e-01
    3.8042825759520042e+01 -5.2388757375994417e-02
    3.9619742565955036e+00 -2.8466052634441290e+00
    4.7916302740116725e+00 -3.9648173473655666e+00
    4.3077380348278140e+00 -3.1619050440910743e+00
    4.4062672142145560e+00 -3.3258853706534817e+00
    4.8552450595937939e+00 -3.8586094590413285e+00
    4.7602030264165593e+00 -3.7068848725906358e+00
    4.3567585912174911e+00 -3.1205036939653921e+00
    4.6450063895031022e+00 -3.4677802842585206e+00
    4.5538919561041373e+00 -3.6886569116292032e+00
    3.5844984354749632e+00 -2.2735954297592982e+00
    3.2482728752580636e-01 -4.3376791836117250e-02
    4.5149857833064980e-02 -2.8174261475103751e-01
    1.3897140390323835e-02 -8.3298159387857851e-01
    1.1413711487527333e-02 -1.3945976441370564e+00
    1.0145081698956686e-02 -1.3637082215046730e+00
    1.0834083778839189e-02 -1.5506667383356760e+00
    1.1712022792821505e-02 -1.3824489271249187e+00
    1.6782368705363288e-02 -6.3902846967203286e-01
    6.1141983779735877e-02 -1.8159290649408641e-01
    3.8512602987557693e-01 -3.6182510518561521e-02
    2.3936105664103230e-01 -5.9786227439867737e-02
    3.0505529865044814e-02 -3.5453959847740490e-01
    1.1812073579707625e-02 -1.1442104160774200e+00
    1.1709002322714667e-02 -1.8385899652628817e+00
    1.1627308518179528e-02 -1.4419517306828749e+00
    1.2148245464852797e-02 -1.7664540599403300e+00
    1.1434195433323226e-02 -1.8735159470848637e+00
    1.3358079340838259e-02 -8.5924946699195404e-01
    4.4055348798159033e-02 -2.3020809424722685e-01
    2.6905624417807933e-01 -3.9719446268947453e-02
    2.3227987637071110e-01 -6.3378803904798678e-02
    2.8713970414952127e-02 -3.6459430399124820e-01
    1.1094372075688320e-02 -1.0998403853738317e+00
    1.1645221074938133e-02 -1.5823312715126707e+00
    1.0184559105590782e-02 -1.0429790486879167e+00
    1.0404083793023869e-02 -1.1799384734030429e+00
    1.0992751850201094e-02 -1.5915884652811654e+00
    1.2504097498822024e-02 -8.5437876346132102e-01
    4.3177883384978376e-02 -2.4700369445894710e-01
    3.2590156472095999e-01 -3.8564331805160376e-02
    2.1113650265327330e-01 -6.4770898213265302e-02
    2.9119947539700455e-02 -3.6149756367110025e-01
    1.1138587408079751e-02 -1.1331421562272221e+00
    1.1498753848840982e-02 -1.6637037526456355e+00
    1.0222289105633192e-02 -1.2119503132302745e+00
    1.0763428442038156e-02 -1.3456462731499308e+00
    1.0758659918798876e-02 -1.4925803484912774e+00
    1.2507363443942763e-02 -8.1250200227660252e-01
    4.3773287462931201e-02 -2.4216739224841857e-01
    3.4880349709459896e-01 -4.8480977309735121e-02
    2.3427252997703368e-01 -5.9319141597941341e-02
    3.1459600700041626e-02 -3.2205154032867972e-01
    1.1214462346786903e-02 -1.0390870773773948e+00
    1.0843025307128990e-02 -1.7119932614541489e+00
    1.1101484931029637e-02 -1.7331481085156304e+00
    1.1842797211110898e-02 -1.9862648795351892e+00
    1.1665943809254595e-02 -1.7947876516900507e+00
    1.3096026320635317e-02 -7.7032543941890386e-01
    4.9445031795398810e-02 -2.1731881773032788e-01
    3.8082727342226491e-01 -3.7236750195198523e-02
    2.4367918382352893e-01 -5.4483444026282968e-02
    3.2812399160801906e-02 -2.9843697791180207e-01
    1.1253437249038595e-02 -9.8627506031512646e-01
    1.1068136419794664e-02 -1.6568082706505092e+00
    1.1228254905356517e-02 -1.5450188254152883e+00
    1.1577194755808335e-02 -1.7758224954613380e+00
    1.1241571355686836e-02 -1.7731196298879368e+00
    1.2914400056235521e-02 -8.0253072063385056e-01
    4.9175316697799724e-02 -2.0640311182653870e-01
    3.7016026066829549e-01 -3.2556988792750569e-02
    2.1213732974006153e-01 -5.8779319358353330e-02
    3.1482081701192197e-02 -3.2093415171394868e-01
    1.1056785651679679e-02 -1.0241578850005413e+00
    1.1037730056131994e-02 -1.4977571749568681e+00
    1.0713227767241101e-02 -1.0617990906638042e+00
    1.0746308504215967e-02 -1.2521314533377386e+00
    1.0826950790537160e-02 -1.6041724165680618e+00
    1.2235582122643212e-02 -8.3844652438768763e-01
    4.5674520001924353e-02 -2.3328403385631596e-01
    3.1638457911475265e-01 -3.1895588235841599e-02
    2.1005776451226613e-01 -6.6473399851615086e-02
    2.9021845175752146e-02 -3.4750318180896272e-01
    1.1220496700500798e-02 -1.1584403934830314e+00
    1.1746855116756964e-02 -1.7012110837929288e+00
    1.0981357504117136e-02 -1.0929875821239787e+00
    1.0385260532236724e-02 -1.2152086506837951e+00
    1.0713270680202275e-02 -1.5834899002637282e+00
    1.2063978389281228e-02 -8.7153169188547241e-01
    4.4457416302348556e-02 -2.4995072285689568e-01
    2.9601783755655808e-01 -3.5402386135082675e-02
    2.0767292501345960e-01 -7.1637219934207658e-02
    3.0567550047238139e-02 -3.4016709143953588e-01
    1.1707924231888801e-02 -1.1358276600475279e+00
    1.1425232305375132e-02 -1.7755966525415698e+00
    1.2184104596942658e-02 -1.4758491252827934e+00
    1.2749595500999123e-02 -1.7026910943930307e+00
    1.0499426991941542e-02 -1.5681335086001920e+00
    1.3337325519816031e-02 -8.5478984293125293e-01
    4.7456383703138101e-02 -2.4216897468103804e-01
    2.5785303399962695e-01 -3.7329780035055257e-02
    3.0689039827241005e-01 -5.5669264226983685e-02
    4.7504365550246147e-02 -2.5553350646464718e-01
    1.4841828168435408e-02 -7.3252637688190314e-01
    1.1584972401457101e-02 -1.1980426490983884e+00
    1.0042037185974127e-02 -1.1732102794890160e+00
    1.0466253366628877e-02 -1.1605213098172220e+00
    1.1929412099696963e-02 -1.0915116906068729e+00
    1.7550241478396365e-02 -5.9871078251869125e-01
    7.2354508057475772e-02 -1.9028046480551342e-01
    3.2328694752394432e-01 -2.7710309787766656e-02</input_scale>
  <output_scale>
    5.2631578947368418e-01 4.9999999999999994e-01 5.2631578947368418e-01
    4.9999999999999994e-01 5.2631578947368418e-01 4.9999999999999994e-01
    5.2631578947368418e-01 4.9999999999999994e-01 5.2631578947368418e-01
    4.9999999999999994e-01 5.2631578947368418e-01 4.9999999999999994e-01
    5.2631578947368418e-01 4.9999999999999994e-01 5.2631578947368418e-01
    4.9999999999999994e-01 5.2631578947368418e-01 4.9999999999999994e-01
    5.2631578947368418e-01 4.9999999999999994e-01 5.2631578947368418e-01
    4.9999999999999994e-01 5.2631578947368418e-01 4.9999999999999994e-01
    5.2631578947368418e-01 4.9999999999999994e-01 5.2631578947368418e-01
    4.9999999999999994e-01 5.2631578947368418e-01 4.9999999999999994e-01
    5.2631578947368418e-01 4.9999999999999994e-01 5.2631578947368418e-01
    4.9999999999999994e-01 5.2631578947368418e-01 4.9999999999999994e-01
    5.2631578947368418e-01 4.9999999999999994e-01 5.2631578947368418e-01
    4.9999999999999994e-01 5.2631578947368418e-01 4.9999999999999994e-01
    5.2631578947368418e-01 4.9999999999999994e-01 5.2631578947368418e-01
    4.9999999999999994e-01 5.2631578947368418e-01 4.9999999999999994e-01
    5.2631578947368418e-01 4.9999999999999994e-01 5.2631578947368418e-01
    4.9999999999999994e-01 5.2631578947368418e-01 4.9999999999999994e-01
    5.2631578947368418e-01 4.9999999999999994e-01 5.2631578947368418e-01
    4.9999999999999994e-01 5.2631578947368418e-01 4.9999999999999994e-01
    5.2631578947368418e-01 4.9999999999999994e-01 5.2631578947368418e-01
    4.9999999999999994e-01 5.2631578947368418e-01 4.9999999999999994e-01
    5.2631578947368418e-01 4.9999999999999994e-01 5.2631578947368418e-01
    4.9999999999999994e-01 5.2631578947368418e-01 4.9999999999999994e-01
    5.2631578947368418e-01 4.9999999999999994e-01 5.2631578947368418e-01
    4.9999999999999994e-01 5.2631578947368418e-01 4.9999999999999994e-01
    5.2631578947368418e-01 4.9999999999999994e-01 5.2631578947368418e-01
    4.9999999999999994e-01 5.2631578947368418e-01 4.9999999999999994e-01
    5.2631578947368418e-01 4.9999999999999994e-01 5.2631578947368418e-01
    4.9999999999999994e-01 5.2631578947368418e-01 4.9999999999999994e-01
    5.2631578947368418e-01 4.9999999999999994e-01 5.2631578947368418e-01
    4.9999999999999994e-01 5.2631578947368418e-01 4.9999999999999994e-01
    5.2631578947368418e-01 4.9999999999999994e-01 5.2631578947368418e-01
    4.9999999999999994e-01 5.2631578947368418e-01 4.9999999999999994e-01
    5.2631578947368418e-01 4.9999999999999994e-01 5.2631578947368418e-01
    4.9999999999999994e-01 5.2631578947368418e-01 4.9999999999999994e-01
    5.2631578947368418e-01 4.9999999999999994e-01 5.2631578947368418e-01
    4.9999999999999994e-01 5.2631578947368418e-01 4.9999999999999994e-01
    5.2631578947368418e-01 4.9999999999999994e-01 5.2631578947368418e-01
    4.9999999999999994e-01 5.2631578947368418e-01 4.9999999999999994e-01
    5.2631578947368418e-01 4.9999999999999994e-01 5.2631578947368418e-01
    4.9999999999999994e-01 5.2631578947368418e-01 4.9999999999999994e-01
    5.2631578947368418e-01 4.9999999999999994e-01 5.2631578947368418e-01
    4.9999999999999994e-01</output_scale>
  <inv_output_scale>
    1.8999999999999999e+00 -9.4999999999999996e-01
    1.8999999999999999e+00 -9.4999999999999996e-01
    1.8999999999999999e+00 -9.4999999999999996e-01
    1.8999999999999999e+00 -9.4999999999999996e-01
    1.8999999999999999e+00 -9.4999999999999996e-01
    1.8999999999999999e+00 -9.4999999999999996e-01
    1.8999999999999999e+00 -9.4999999999999996e-01
    1.8999999999999999e+00 -9.4999999999999996e-01
    1.8999999999999999e+00 -9.4999999999999996e-01
    1.8999999999999999e+00 -9.4999999999999996e-01
    1.8999999999999999e+00 -9.4999999999999996e-01
    1.8999999999999999e+00 -9.4999999999999996e-01
    1.8999999999999999e+00 -9.4999999999999996e-01
    1.8999999999999999e+00 -9.4999999999999996e-01
    1.8999999999999999e+00 -9.4999999999999996e-01
    1.8999999999999999e+00 -9.4999999999999996e-01
    1.8999999999999999e+00 -9.4999999999999996e-01
    1.8999999999999999e+00 -9.4999999999999996e-01
    1.8999999999999999e+00 -9.4999999999999996e-01
    1.8999999999999999e+00 -9.4999999999999996e-01
    1.8999999999999999e+00 -9.4999999999999996e-01
    1.8999999999999999e+00 -9.4999999999999996e-01
    1.8999999999999999e+00 -9.4999999999999996e-01
    1.8999999999999999e+00 -9.4999999999999996e-01
    1.8999999999999999e+00 -9.4999999999999996e-01
    1.8999999999999999e+00 -9.4999999999999996e-01
    1.8999999999999999e+00 -9.4999999999999996e-01
    1.8999999999999999e+00 -9.4999999999999996e-01
    1.8999999999999999e+00 -9.4999999999999996e-01
    1.8999999999999999e+00 -9.4999999999999996e-01
    1.8999999999999999e+00 -9.4999999999999996e-01
    1.8999999999999999e+00 -9.4999999999999996e-01
    1.8999999999999999e+00 -9.4999999999999996e-01
    1.8999999999999999e+00 -9.4999999999999996e-01
    1.8999999999999999e+00 -9.4999999999999996e-01
    1.8999999999999999e+00 -9.4999999999999996e-01
    1.8999999999999999e+00 -9.4999999999999996e-01
    1.8999999999999999e+00 -9.4999999999999996e-01
    1.8999999999999999e+00 -9.4999999999999996e-01
    1.8999999999999999e+00 -9.4999999999999996e-01
    1.8999999999999999e+00 -9.4999999999999996e-01
    1.8999999999999999e+00 -9.4999999999999996e-01
    1.8999999999999999e+00 -9.4999999999999996e-01
    1.8999999999999999e+00 -9.4999999999999996e-01
    1.8999999999999999e+00 -9.4999999999999996e-01
    1.8999999999999999e+00 -9.4999999999999996e-01
    1.8999999999999999e+00 -9.4999999999999996e-01
    1.8999999999999999e+00 -9.4999999999999996e-01
    1.8999999999999999e+00 -9.4999999999999996e-01
    1.8999999999999999e+00 -9.4999999999999996e-01
    1.8999999999999999e+00 -9.4999999999999996e-01
    1.8999999999999999e+00 -9.4999999999999996e-01
    1.8999999999999999e+00 -9.4999999999999996e-01
    1.8999999999999999e+00 -9.4999999999999996e-01
    1.8999999999999999e+00 -9.4999999999999996e-01
    1.8999999999999999e+00 -9.4999999999999996e-01
    1.8999999999999999e+00 -9.4999999999999996e-01
    1.8999999999999999e+00 -9.4999999999999996e-01
    1.8999999999999999e+00 -9.4999999999999996e-01
    1.8999999999999999e+00 -9.4999999999999996e-01
    1.8999999999999999e+00 -9.4999999999999996e-01
    1.8999999999999999e+00 -9.4999999999999996e-01
    1.8999999999999999e+00 -9.4999999999999996e-01
    1.8999999999999999e+00 -9.4999999999999996e-01
    1.8999999999999999e+00 -9.4999999999999996e-01</inv_output_scale>
  <weights>
    <_>
      -3.9944910912646296e+00 -4.9423511883730159e-01
      1.6835756592450155e+00 2.0437068881076087e-01
      2.9659981099762502e+00 -2.8958030211854822e+00
      -5.8624548174098678e-01 2.6182575780307837e-01
      2.2272479307101734e-01 1.6327848201627946e+00
      -4.7803707106474180e-01 -4.2941303757715099e+00
      -1.8345818901865458e+00 1.3128503769001458e+00
      1.0316855527277986e+00 -9.3066110094607857e-01
      -3.5850647056203440e+00 -2.5999522372588526e+00
      6.7789063355969514e-01 2.0786299295648054e+00
      -1.4375229138603949e+00 8.1786284344129134e-01
      -3.7026402632996085e+00 -2.0322441807424774e+00
      2.3328758526314508e+00 -1.1345678875101068e+00
      8.3264262889837093e-01 2.6550505323006424e-01
      4.9761778396069927e+00 9.9064444717774496e+00
      1.6255396770753598e+00 3.6892279457423560e-01
      -1.2219948027186402e+00 -5.7846133932318677e+00
      2.6873774349617237e+00 -3.8469910982679485e+00
      3.3037971524064988e+00 -4.5692821620627084e+00
      -3.1218816382021330e+00 7.6020278151970422e-01
      2.3180957076358921e+00 3.0733296511785917e+00
      -1.0749200631482623e+00 -3.2488607699710434e+00
      2.9537705999696260e+00 -6.8371687963950647e+00
      5.5365947158593691e+00 -3.8719294319776716e+00
      1.4205251443279472e+00 -5.8497071467722817e-01
      -3.5067944863854006e+00 -6.2586679572046915e+00
      7.8471858443620612e-01 -1.0566505942879147e+00
      -3.0224569631074467e+00 -3.6150095209584121e-01
      -2.1951541612210921e+00 -5.5235133921518571e+00
      3.8277669170619491e-02 2.1708578608902465e+00
      3.6261833846584599e+00 -7.3675229017997754e+00
      -5.6049415076277709e-01 -2.9535547633739991e+00
      -2.9366853817308489e+00 3.8096685426215346e+00
      6.4869706093344677e+00 3.2714374310158929e+00
      -6.1948833591107118e+00 1.7847506406661355e+00
      2.5791424546366954e+00 1.8316243433205814e+00
      4.7764086265855719e+00 -2.1411841327935806e+00
      2.9587713601090165e-01 -2.0066621017591215e+00
      -2.0723530681446460e+00 -1.2127040992176019e+00
      1.7782570140152503e+00 -7.6806383938333511e-01
      7.1469042194090238e-01 3.0302296017026431e+00
      -5.4024182855369918e-01 -2.5815849965153075e+00
      -1.6218389672455291e+00 -5.7923793985747425e+00
      -5.0774839920656198e+00 -2.2612384839466966e+00
      2.4148793844706784e+00 -1.9021642195032643e-01
      1.5190113222713344e+00 -8.4230608321881242e+00
      -1.2222969905731564e+00 -2.6052276101462146e+00
      2.5052200483001434e+00 -6.5080409949493490e-01
      -1.0246625688914259e+00 2.1344783148316262e+00
      -1.4897030349542086e+00 -2.1736843959889236e+00
      -1.6962105478114526e+00 -1.9005600854325027e+00
      1.4198327999762850e-01 -1.3638056758599950e+00
      1.5985147870338667e+00 8.0411073432995082e+00
      -2.7188792558742347e-01 4.1432765436826582e+00
      5.3673929629277528e-01 -2.2378617149466220e+00
      -1.1429704433023262e+00 -3.3429169332960722e+00
      -1.8982487200911529e+00 3.8983947956438443e+00
      -4.6223409606138066e+00 -3.0988695255284471e+00
      1.1092357434875444e+00 1.2276439080621504e+00
      2.9169267999515207e+00 3.0960962622808492e+00
      -8.2281042241577875e+00 5.8380495727376580e+00
      3.1496512742117191e+00 2.2428611426322655e-02
      8.5041838147232385e-01 1.0132089617044169e+01
      -2.0078718286071640e+00 -4.7730936313755334e+00
      -8.0438417498556825e-01 -1.9839225693033752e-01
      6.8045224121286507e+00 -5.4088413163042013e+00
      -1.1577140136067836e+00 -3.5951243708977327e+00
      7.9669114288589151e+00 -8.3138778049370521e-01
      2.2871780887221544e+00 -6.5247727845743109e+00
      -5.4314350977987946e-01 -3.0889146387984354e+00
      -2.8267520148844638e+00 5.6303875817937388e-01
      5.4356942978250231e+00 -8.9858058923693918e+00
      6.9195315659882028e-01 2.4338880881303804e+00
      5.1255513881893444e+00 -5.2920370492377939e+00
      -9.5934811713070434e-01 7.3051584461120029e+00
      -8.8942300794665314e+00 -1.3844307673401504e+00
      -9.8991341240836697e+00 -2.2564440872397640e+00
      -4.7319514961278415e+00 9.7068429341466036e+00
      1.8172780354539027e+00 7.5339572438890787e+00
      3.5769658892145428e+00 -7.2138761481745304e+00
      -8.7027344469618440e-01 5.1262581937504059e-01
      1.2069741000168385e-01 -7.6285941034761606e+00
      7.1224957144564751e+00 1.1529170508077575e+00
      1.3077477728097726e+00 -5.2424291937324590e+00
      -1.1847175806847183e+00 1.7578661996063991e-01
      3.3088325874468536e+00 -6.8104480416833386e+00
      -6.8601785397880799e-01 -3.6971805078475191e+00
      3.4252109963649753e+00 -1.6421518122404615e+00
      1.1157829385122655e+01 -7.4284693765328536e-02
      -2.6014196828051776e-03 -4.9555676193349028e+00
      4.2044013493782071e+00 -2.4854527554444865e+00
      5.4598772958972308e+00 -2.6031729336481835e+00
      9.9250618094554941e+00 1.0014422935124550e+01
      4.7696542295235522e+00 -3.1056424200345130e+00
      -1.1977663559979166e+00 4.9866212455953240e+00
      5.2365430947198712e+00 -1.6342050418420777e+00
      8.0813883301371403e-01 1.5249639284339209e+00
      -3.2125405580919382e+00 9.3698933558098774e-01
      -5.8683423196441631e-01 -7.5093835857048141e-01
      4.4957414802719882e+00 -4.9309879177561733e+00
      3.3599280179786426e+00 -6.8362297134543066e+00
      -2.1431346924126706e+00 -1.7789746653719916e+00
      3.2783062417365278e+00 1.2124453491819862e+00
      -2.1776429319690163e+00 1.8678280463821368e+00
      9.1963748175251248e-01 5.3262818489404484e-01
      7.2347457458893700e+00 -6.4528454930102850e+00
      -1.7845301416621000e+00 -4.8799047949484233e+00
      8.0678198890505914e+00 -4.7462164021790620e-01
      1.9706294708813217e+00 -1.1106483681133124e+00
      -1.1423691818045816e+00 3.6177825747800334e+00
      -3.0468650491436622e-01 2.4103485379320748e+00
      6.8865939576496471e+00 -9.0902738572019555e+00
      1.6639823805580685e+00 3.0888847980547056e+00
      -4.5363380188639874e-01 -1.6190431418422959e+00
      -9.4739725322562984e-01 -1.8414037942518438e-01
      1.0721196545466166e+01 4.6513241637081757e+00
      -6.8208720156002460e+00 -1.6218364271476273e+00
      -3.9956054247787658e+00 5.7813979127455077e+00
      6.1581617702981291e+00 2.1318771082723462e-01
      -2.0769930879467813e+00 -3.5691050340137598e+00
      5.5646096267253196e+00 -4.8473230101912073e+00
      4.3738488631703332e+00 4.2275914210661698e+00
      -2.1552920223945464e+00 4.4977410897914600e+00
      -3.4380527333583655e+00 -8.1044985915897954e+00
      8.4822034376100781e+00 -1.7900747811098128e-01
      2.3616228386978491e+00 3.6074704835984583e+00
      -1.3889346928455151e+00 3.0855804032936383e-02
      4.7371037868837957e+00 -2.2625862711924971e+00
      -5.0594295640896965e+00 -7.7032020786075277e+00
      -4.0131978332122138e+00 -3.4991808673868836e+00
      -3.3717412035450409e+00 -1.0624474482234207e+00
      -4.2067255028941544e+00 -5.9812365236102565e+00
      -1.1028554290224442e+00 -7.0163104633801909e+00
      -3.1963652462198588e-01 2.9202753196946755e-02
      6.2638280460729252e+00 3.7832580082616172e+00
      -5.3716521557466113e+00 5.3266767904706116e+00
      -1.1112189673862639e+01 5.7164398045625662e+00
      2.8315628442369492e+00 -9.4648520958385873e-01
      3.8712648854764637e+00 -3.9996487116220334e+00
      2.1430390188044663e+00 -1.7519990366416767e+00
      -6.1597728273556571e+00 -2.2554824785187826e+00
      -7.8020249874957426e-01 -4.6528149682158846e+00
      6.1905448703053807e+00 -7.1076938615866914e-01
      -5.3393818614393496e+00 1.0349946109788648e+00
      -7.0169376833242039e+00 -8.4561124051100867e-01
      1.4166872028113861e+01 1.8718359898406949e+00
      -2.1583804763045125e+00 -2.3320681873002713e+00
      6.3965843711474357e-01 -3.7931811025798218e-01
      2.8120777055243624e+00 -4.7965660928369319e-01
      -9.0015596394361075e-01 -3.8678853691839583e+00
      5.1040623615988050e+00 -3.8601165834770153e+00
      4.0956905657999982e+00 -4.3353288397179723e-02
      -5.3786917507397041e+00 -3.3056600117610175e+00
      -1.4161787371635755e+00 1.2313391989450115e+00
      2.2273763800887317e-01 1.3311601095475927e+00
      2.5741701277179945e+00 -6.1474268087685138e+00
      -5.3949731073098146e+00 4.7360873420881529e+00
      -5.9090933527046969e+00 -4.4120490505214240e+00
      -5.4683343077042978e-02 -7.9252956715135907e+00
      4.5190190111469288e+00 4.2898476935660472e+00
      1.2969232472293324e+00 8.6834091712313000e-01
      -3.7740486872464287e+00 -4.7147968858211424e+00
      7.1543082749905125e+00 -6.6525289174071851e+00
      2.0758635263931180e-01 -3.4939264510990133e+00
      -2.8172397088306940e+00 1.4032410033890100e-01
      7.1447674921451942e-01 5.9025928539094075e+00
      -4.8519523515270828e+00 -1.2460150947051620e+00
      9.1894449561087066e-01 9.7869326143064095e-01
      -4.0058208535930460e+00 2.0981944193006914e+00
      -3.4575735002561907e+00 2.5923179942376233e+00
      -1.9349602185036898e+00 6.8977351716637869e-01
      8.1542695643200880e-02 2.7808287865061327e+00
      2.8541768758684887e+00 3.6627468405722503e+00
      1.2841306377820294e+00 -3.1309928942346481e+00
      1.8026310886153665e+00 -1.9101270740372481e-01
      -1.9813886043336024e+00 -1.6105438300206949e+00
      1.2158652832160421e+00 1.8315804959809218e-01
      -3.9552865256952798e+00 2.4680064120005718e-01
      -6.8797680707707176e-01 2.6675891958525888e+00
      2.8414248080219009e+00 1.3663672386038057e+00
      -1.2624361912327418e+00 -3.4934090647901570e+00
      3.6341903419835259e-01 3.1096296273710839e+00
      -6.5971739750840488e+00 5.9473655777168521e-01
      6.7380214965711458e+00 -2.2337142232120506e+00
      -2.4999546424269514e+00 5.5819457788741667e-01
      -3.1959558698972201e+00 6.2435786498144363e+00
      -2.7474193496413127e-02 3.7890011821700740e+00
      -3.1411328680902693e+00 6.2664048821446749e-01
      -3.4662318265182095e+00 -1.8122931296191036e+00
      -7.3504893805875993e+00 -1.2365845790667078e-01
      8.6765053510389478e-01 -2.5631216249357718e+00
      -1.1642354820881566e+00 2.0150462994192715e+00
      -2.0210650814124369e+00 1.1532518653653876e+00
      2.7863982979140163e+00 2.5995290959211714e+00
      3.1720451756051569e+00 2.6252317332781500e-01
      1.3596227865276658e+00 7.5273099942870758e-01
      -3.6332903805598753e+00 1.8428875953667696e+00
      1.8917374524963280e+00 2.9002686209415427e+00
      1.4935676247873664e+00 -2.1015325851122104e+00
      2.2898916486931529e+00 2.4157772424958680e-02
      3.7755464607716402e+00 -1.6030092696134318e-01
      -8.8792937328515242e-01 -1.5781437233110136e+00
      -5.9287104833539384e-01 1.2029588859192972e+00
      4.3999132452533196e+00 -3.5399110160412040e+00
      5.1935627049026900e+00 3.5411064925411112e-01
      -1.5025457195051939e+00 -7.4695258904773787e-01
      -1.2128826390552913e-02 -7.3700911729284047e-01
      8.2248680282315545e-01 -2.8832403274392143e-01
      -2.1655672793351535e+00 -4.3767581379180580e+00
      1.0606774935862046e-01 4.6908903544215352e+00
      -2.7244880912415788e+00 5.2579278181099831e-01
      -1.4993925251057416e+00 1.2770165849701816e+00
      4.1737522700279541e+00 9.1089747541502974e-01
      4.4520568735588045e-01 -5.8095070972837026e-01
      2.3486427497861298e-02 -9.7639858883630393e-01
      -4.3370956140841281e+00 1.6432494159989819e+00
      -5.1941169949195343e-01 -1.5551850795659856e+00
      -1.4268044431581950e+00 -2.8996678354743395e+00
      6.1380503822713859e+00 3.5281552343558659e-01
      3.5625284964001369e+00 -2.7818568901869867e+00
      -1.4383175098924159e+00 -3.8475765885015627e+00
      6.5381741596625209e-01 -3.6048598151038821e-02
      3.2751407966377459e+00 2.3813175471188086e+00
      6.4964507804248783e-01 -1.6080725130901321e+00
      3.2489823080528395e+00 -1.7711756650661636e-01
      -5.4897068178973134e+00 1.8607789707399809e+00
      -1.5346921038537731e+00 2.1674106425220055e-01
      2.8296712979018429e-01 3.3344813739034140e-01
      1.3795234314671774e+00 -3.7031384312642190e+00
      -1.1324374269732127e+00 4.8000802791309400e+00
      -2.2854361417033315e+00 2.3121181247603078e+00
      1.6092108482110681e+00 8.8110168826172475e-01
      1.2787464010791771e+00 -1.3629906344239666e+00
      -1.0153691645161340e+00 1.3787257185994779e+00
      -1.9497257619341848e+00 -3.9156101119476676e+00
      -2.2601872932641900e+00 5.3329683669544288e+00
      2.0160188908621572e+00 -5.6706946839923402e+00
      -2.4606164603770404e+00 -2.4902955113339522e+00
      3.1480647202327909e+00 -7.3470149956172504e-01
      1.4496823640538172e+00 -6.8790753770330193e-01
      3.4308168243134296e+00 -4.5019523857957333e-01
      2.5010270569260289e+00 3.9149173644130286e+00
      -3.9413139834949358e+00 -3.8078854784045291e+00
      5.3412915935442342e+00 2.7710268413486023e+00
      -2.2541083975866267e+00 -2.7278878284953945e-01
      1.6564250314185427e+00 2.3875923557698560e+00
      -3.7567555239788337e+00 5.2908907593201402e+00
      -1.2054154118996536e+00 -3.9513638241822757e-01
      4.5771812581819971e-01 1.0813373494239846e+00
      8.9407170325230645e-01 -8.7925917788122432e-01
      8.3594586265217352e-01 2.8186868437539649e+00
      1.8184500008604241e+00 8.1107218900947284e+00
      -6.8547191758000142e-02 -1.8010953873960178e+00
      1.2647444557959286e+00 1.7293726573485284e+00
      -2.4753754035339656e-01 3.6372568676688655e+00
      1.8267403569429779e+00 1.4841219465177578e+00
      1.5457810665927318e+00 -2.5052320474249212e+00
      -1.9256325791369702e+00 -6.5482602279687834e+00
      7.9677389629460882e-01 -2.8260879024520302e+00
      -1.1262166625373335e-02 -1.2118629869845405e+00
      2.6951712447903131e-01 -2.9025022115307957e+00
      1.0061878132023259e+00 3.8242431592282000e+00
      -5.2716195686445229e+00 -1.4205731891635025e+00
      3.9690747502610972e+00 1.7314053347629632e+00
      -5.6107627977172827e+00 2.6287342596266017e-01
      -1.2036331154717561e+00 -3.7952203229123680e+00
      -4.2698273979811609e-02 5.4112567678561119e+00
      3.5645789495402460e+00 1.8188218196834960e-01
      -1.6746621662232246e+00 3.5456565355559757e+00
      3.8430155891948972e+00 -1.4068395847083071e+00
      2.5824043538733950e+00 4.5710946591680850e+00
      -4.3823844184186278e+00 -1.8782747871378951e+00
      4.8422462565728113e+00 -1.9271559923383517e+00
      1.3909209036244443e+00 -1.6254005046220910e+00
      2.6818521625172322e+00 7.1860578523289309e-01
      -5.0535712615359101e+00 -6.9566171052145254e-01
      -2.2479493659416168e+00 8.3497229773227701e+00
      1.3939605224484672e-01 -4.2297594727785679e+00
      1.2930953748080884e+00 -2.2803228978388792e+00
      -4.3516104950025281e-01 2.0537160607443989e+00
      3.4387118420828311e+00 2.9699854285387146e+00
      -5.2239290353141818e+00 -6.4774039906765876e-02
      5.8473681270269218e-01 2.3371590150580284e+00
      -2.7876791577325322e+00 -1.6699123690711541e+00
      -2.8856918950157513e+00 -5.0467886622476954e-01
      -9.0670191534389655e-01 -9.1877166979730585e-01
      1.5864788289276002e+00 -4.9275845348021080e-01
      4.7433694384284779e+00 1.0358581001777490e-02
      -2.5465239498447758e+00 7.1915634704387621e-01
      -7.3311226295468113e-01 1.8379918956794092e+00
      8.6763008236351857e-01 -4.8043788473327992e-01
      1.4899463280328753e+00 -7.6866864603296552e+00
      3.5122446940793788e+00 4.2416274661884668e+00
      3.8080002244380111e+00 3.0408551371189669e+00
      1.1263618816415690e+00 -4.0851139660155904e-02
      -4.2036743272379482e+00 -1.6936499681423338e+00
      -4.5662968174836802e+00 4.4449543411855936e+00
      -3.6428179739324213e+00 3.0740230166753241e-01
      9.2733867078328813e-01 4.7845827552287762e-01
      -3.7683474056969266e+00 -1.9934236225224655e-01
      -5.0291566582011695e+00 3.6963619976555768e+00
      -3.5081397693412204e+00 -3.9274790959290105e+00
      2.4530955062189457e+00 -3.4620613720406013e+00
      -1.4176936375260323e+00 2.0524916254512253e+00
      -2.0085285859314554e+00 2.8993681350100869e-02
      -8.4364644778920883e-01 3.7560224124373152e+00
      -1.6603746519971427e+00 -7.4466457205858179e+00
      8.9501828515151949e-01 4.6929795654262435e-01
      -2.6334627482712922e+00 1.3410985254069629e+00
      3.9443762959986062e+00 5.6157066325594218e-01
      -2.5374261022942202e+00 1.9143558999963970e+00
      -2.8022394318087409e+00 -4.9190057934063249e+00
      1.9845101923098669e+00 4.4013109558976021e-01
      1.9951705989664872e-01 3.3574007137677966e+00
      -1.4581663371619733e+00 5.5379406102638740e+00
      -2.5333742150298852e+00 -4.2817618337532313e+00
      9.9929148467076034e-01 5.5746064334407510e+00
      -1.3367443393370793e+00 8.5302194986552859e-01
      4.2915124115383385e+00 -7.3778781588646583e+00
      1.1183125697016596e+00 -3.9523664965803791e+00
      8.5128379967260215e-01 -2.5669161636496933e+00
      2.5513848241319295e+00 3.5603546080548965e+00
      -9.1344696198806974e-01 3.4571193660120323e+00
      -1.0437669323014529e+00 5.7234691007173888e-01
      -1.4533064991218418e+00 1.8881877277288023e-01
      -9.4666496061742456e-01 1.8742635686278832e+00
      2.9766878420448800e-01 1.3718655028158314e-01
      1.6400636485722528e+00 2.0056904397154438e-01
      -3.9984942564773207e+00 8.8119284692588307e-01
      7.9355485583722463e-01 2.0472966307497753e+00
      3.2020792494667543e+00 1.3002093362745921e+00
      -9.9332955322768524e-01 -3.8550565505724338e-01
      2.3148850381668358e+00 -9.2489999910720677e-01
      2.1681029856440928e+00 -2.2644273439588306e-01
      -1.7792041470746986e-01 5.8968631683676005e+00
      2.1771517202322110e+00 2.8581191547861895e+00
      2.9970191825724424e-01 1.8981201624462523e+00
      4.2362770725474137e+00 1.9202285372341321e+00
      2.6410124450766213e+00 -2.0377842201044333e-01
      -2.1260498483466241e+00 -2.7254730262847220e+00
      -1.3312694653372366e+00 2.3698269456042986e+00
      2.8852457702930479e+00 3.9193292201618668e-01
      -2.2556567089507706e+00 1.2342642853803570e+01
      1.3057767384966916e+00 -3.7409952383552270e+00
      2.1936068731660177e+00 2.2927030862458386e-01
      4.3603573376563407e+00 -3.5736118007386728e+00
      3.7234381622939190e+00 -1.5189488661059507e+00
      -1.0968324077559939e+00 1.4647575936369215e+00
      -4.5538416008606459e+00 -1.2392296193334833e+01
      -2.5927805002792383e+00 -2.8219870907717532e+00
      -8.3922689567399245e-01 7.1276120223961570e-01
      -3.0725379646870215e+00 1.4470126096535086e+01
      -2.8434386354811845e+00 -2.4642601833064544e+00
      2.4119217631052869e+00 -2.2671970823017271e+00
      -1.6670419781834622e+00 1.6243555947772705e+00
      2.6116549397198017e+00 -5.4816397820358065e-01
      -3.8433644394354864e+00 3.3121593000629455e+00
      3.5947748699610478e+00 2.1871342558427962e+00
      4.0027977942538300e+00 6.2854805814143835e-02
      5.4481956850244657e+00 4.0354907065170426e-01
      -8.0244592825398815e+00 -4.0105194602518734e+00
      -2.3284483913333090e-01 -8.2109342630265019e+00
      -4.4079459644533054e+00 5.9357526775108731e+00
      -6.6527815697500858e-01 -3.7297741668115636e+00
      4.7784256960758933e+00 -8.4503113636248572e-01
      4.7659068458511236e+00 -1.7468359499890800e+00
      1.2284621327761467e+00 -4.6490976408262985e-01
      -2.9566024370563762e+00 -1.4486476712096696e-01
      1.5780845087209188e+00 -5.1713083553053343e+00
      3.7792123915332415e-01 2.0379689048612057e+00
      -3.4243168014103578e+00 2.0672772359500136e+00
      -1.0221439969475682e+01 -2.1972209647084973e+00
      2.5679493280949757e+00 -3.9752332272658513e+00
      -5.7838772639024514e+00 -4.2552679564188232e+00
      4.5014047971055433e+00 2.5979382726085847e+00
      6.4607776162419461e-01 2.1716631485059557e-01
      -1.0939942931272506e+00 5.7538092450945288e-01
      -1.2100342579773073e+00 1.3955514856361790e+00
      -2.3456982890430313e+00 -1.6495675743349228e-01
      -5.6635029621818189e+00 -2.3034956211669004e+00
      2.5117433659948070e+00 1.6750805560542079e+00
      2.1042550174695780e+00 -2.6327371782802809e+00
      2.2958664645623581e+00 -3.6851778264506510e+00
      1.8968592700002282e+00 -3.3963417943181708e+00
      1.8244443035397365e-01 1.7143551665817020e-02
      3.1369071946577778e+00 -2.6216581580415035e+00
      -2.4443315678087605e+00 -1.9800903197796496e+00
      -8.7973436566007346e-01 -1.6410380562694493e+00
      2.7437120306566096e+00 -1.8965312052080199e+00
      -1.3473646154077688e+00 -2.2946209172198073e+00
      -6.0824956091451232e-01 3.6951438533916692e-01
      -1.2517733008946472e+00 6.6792709876127079e-02
      3.3467149639102716e+00 1.0798992137377010e-01
      -4.6805657188028871e+00 -4.1163027086716231e-01
      2.0710380959519044e+00 -3.8928388200920003e+00
      -3.5136325290104944e+00 -2.1995463229046053e-01
      2.5288426808439137e+00 3.7533928807821626e+00
      1.7088250094209383e+00 -2.8898463817950548e-01
      -5.9356215773119236e-01 -5.3777690133982095e+00
      -1.3258251322657070e+01 -6.6456139891770061e-01
      1.7211774464024405e+00 1.1317832292398997e+01
      -7.8088601670274671e-01 -2.1912568663583780e+00
      -2.2212065145370845e+00 -4.2383855271966437e+00
      -1.0751465330714524e+01 -3.2935138327960543e+00
      -3.5912792183705694e-01 4.3803901001030505e+00
      -2.3112912222685074e+00 1.0508852355197595e+00
      3.3005863297663520e+00 1.9159935087581694e+00
      9.7636830266162333e-01 4.8636874238424821e-01
      3.2657217630345481e-01 -8.6987582859852477e+00
      -1.5988122949133339e+00 -7.2619618565332733e-01
      6.2317119597719461e-01 -2.7212683499737409e+00
      -8.5048352421807516e-01 -6.5418431876391092e-01
      -3.2802811278254294e+00 -1.5766314324012747e+00
      7.8914674911820104e-01 6.1548295685278038e+00
      4.7173801672476632e+00 2.0770613021642235e+00
      7.2452165425921189e+00 -1.2594871792222708e+00
      -8.2039891319442082e-01 -5.6598065679196994e+00
      2.8021798561883653e+00 -4.3898856449333373e-01
      8.5616394750271301e+00 4.9637710363029014e-01
      -3.2297977527693296e+00 -3.2775760266401885e+00
      -7.2060592402487833e+00 8.5886509325631366e-01
      -9.2121318133627472e-01 4.8850277077685945e-02
      -2.5709920092969889e+00 3.7999863605738687e-01
      -1.5281845760756307e+00 1.9417237919067700e+00
      -1.0762910371657493e-01 7.4215936666911397e-01
      1.7178390599936790e+00 3.5595517878721932e+00
      2.2917576264860999e+00 -1.0540642041358490e+00
      2.3787235670824636e+00 3.1176746709479102e+00
      2.6688992569203869e+00 -2.0279801678544942e+00
      2.7817558566171163e-01 2.7620202419419820e-01
      6.8964721285667296e-01 1.8214009249096309e-02
      5.1754343162326411e+00 1.2204347414434817e+00
      1.8273471160295403e+00 -2.9072183047326017e-01
      -5.0701058275172342e+00 1.0693676409324524e+00
      -1.5825195770029513e-02 -3.9745847143309632e-01
      -8.6478358868416971e-01 -2.7542681791893973e+00
      8.6699066003166445e-02 -1.3342252471158775e+00
      -5.5851094357358626e-02 9.4074351773659837e-01
      3.8162987050735248e-01 2.4335484418168378e+00
      6.0646113995098894e-01 7.9188451631399814e-02
      -2.0001618287587068e+01 -2.2950696961001951e+00
      -1.2586942717834633e+00 -3.2515453103509351e-01
      4.2638199453163911e-01 1.8428972415229916e+00
      2.2705837285835333e+00 2.9681081190233360e+00
      -1.1031888623791519e+00 2.6933429853903276e-02
      2.0835348604904941e-01 -3.7825915505405407e+00
      2.1650942344228548e+00 3.2129930240320452e-02
      1.0589310380731536e+00 -9.7660685869071973e-01
      1.4994136772688225e+00 -9.2915012432089072e-01
      7.4986890578079918e-02 -2.2843020679430279e+00
      3.6217454727114989e-01 2.3297188158271855e+00
      6.7573240444183691e+00 4.4157204459853547e+00
      6.2229140819353743e+00 -6.0103012205315187e-01
      -6.6259732393262132e+00 -4.0503268477766188e+00
      -7.3034874179236642e-01 1.2669043467976644e+00
      5.7100519902574842e-01 8.4672177223415190e-01
      7.2957047220628395e+00 -2.7994400057703417e+00
      3.4716486468528833e+00 -6.8198559446733640e+00
      2.7843882080946738e+00 3.5360807378002153e+00
      3.3865732691634816e+00 2.8911949672218540e-01
      -7.8784503762768079e+00 -4.4967825024607784e+00
      3.2541193717983847e+00 -2.2944013803729417e+00
      1.9799481652016329e+00 4.3249575360898778e+00
      -1.0856492277168790e+00 -1.7453882682898827e+00
      1.7376729127409323e+00 -1.8183670388531570e-01
      1.1703173652217977e+00 -5.2409356031685705e+00
      -7.6506339081220520e-01 -1.4714667876074443e+00
      5.1801932118409972e+00 -4.2684234081203759e-01
      -1.7417846366440155e+00 -3.0139253257655820e+00
      -5.1597865640975948e-01 -2.9620741514208806e+00
      5.2598180260730731e-01 -3.4642526148967051e-01
      3.9863852326835567e+00 -2.8065398609377210e+00
      -4.2489146503891213e+00 -1.6108352729995128e+00
      -7.9409384756682746e+00 4.8682117445599351e+00
      -2.0219982495309123e+00 -2.5129261176485689e+00
      -5.5508645511703421e+00 2.7273746980752640e+00
      -7.8634584594666368e-01 7.8586896419313948e-02
      4.7270230501871682e+00 -3.3353911472052080e+00
      2.1569893059895833e+00 -1.8036874350228567e+00
      8.5738973584557421e+00 -1.4764672525257074e+00
      1.0293956633848021e+01 3.7735559416851649e+00
      -3.1758690713337540e-01 -2.2917846731545248e+00
      5.7121100528268309e+00 -3.1026646396186299e+00
      -5.4537766573413089e+00 2.9680881752344122e+00
      4.5064464562436166e+00 3.3095529690106572e-03
      -4.3850162188604287e+00 3.0129501628643722e+00
      -8.9831576746867270e-01 5.3011523985119631e+00
      4.0877785264791529e+00 -6.2663385483650946e-01
      -2.1089911446923604e+00 -4.9061005928352017e+00
      -4.6425062083429038e+00 -4.3973110786459744e+00
      2.1551605379831953e-01 1.3199139203960082e+00
      -7.2918834638127705e-01 -7.1138294287198072e+00
      -1.7408027512392096e+01 -1.7674673180971141e+00
      1.2150277779605392e+00 3.1176091686678000e+00
      -2.1907978776569133e+00 -3.5976543897419608e+00
      -1.0373341543157768e+01 4.5054176957020591e+00
      -6.7902981518520074e+00 3.8292429633959242e+00
      2.2915749585689804e-01 4.1198975770152781e+00
      -5.5841852693201144e-01 1.2213512227989333e-01
      -8.2583791896144874e+00 6.5899295048465039e+00
      8.3911329585257413e+00 -9.8663055223115692e-01
      2.1348005554121676e+00 2.5223652985682499e+00
      -5.0593874009276778e+00 -3.3822005290634589e+00
      -1.0198398205412091e+00 -3.2744843466149365e-01
      3.3855371705071926e+00 6.5896485320342327e-02
      9.0857318871436366e-01 2.7592461399152590e+00
      1.7560247019581126e+00 -4.2813334239021632e+00
      7.3237078015212931e-01 9.9887492082319285e-01
      4.7038011294193245e+00 4.1940867931328265e+00
      -2.0550374814522918e+00 -3.4909559841107907e-01
      7.5782119039082871e-02 -1.2015798828930417e-01
      -4.9797004006745551e+00 -7.2794595330082910e+00
      -3.3662074516946543e+00 6.2887833976338445e+00
      7.8612469442594435e-01 -5.9426840088486150e+00
      -3.9499051632371813e+00 -8.5971469235659779e+00
      -6.4361356565611916e-01 -8.9953369024091643e+00
      -6.2726442948824639e+00 2.1023774325492259e+00
      7.6696972272351460e-01 -4.5573428430223419e+00
      -2.2508237660204236e+00 2.8236232920582851e+00
      -2.2928220145323439e+00 -5.8777656412797818e-01
      2.2517031538395882e+00 -3.9047669847712956e+00
      -4.6567473170181986e+00 -4.8461238302693393e-01
      -9.3969982054275938e-02 1.4586420914767165e-01
      1.5805586170113504e+00 -1.0894661449003529e+01
      -3.4056486279676390e+00 -9.7481174780959218e-02
      9.1217819458957017e-01 -7.5316262306072304e+00
      3.6269939775705970e+00 8.2850966158758366e-01
      -3.3615577581449982e+00 1.1912810696655668e-01
      -1.1282113843772030e+00 6.1291351270988699e+00
      1.6426678393703404e+00 5.5480666921095807e+00
      3.3520294072718260e+00 1.1195920146070211e+00
      -2.7240540114561260e+00 3.8226190191984446e+00
      -1.6919041195778310e+00 -3.0937756668999339e+00
      -1.9750073438960538e+00 -3.8882634672993166e-01
      5.1801065676899416e+00 -1.8408181115777640e+00
      5.2683999936073942e+00 -4.3121968870074689e-01
      5.9754309827213827e+00 -2.8587293922149866e+00
      2.9287773274749709e+00 2.3570165618069949e+00
      -2.3675177958539657e+00 3.0583951082929555e+00
      3.3451948089599424e+00 3.6324891053881574e+00
      5.0752709952523105e+00 4.4825403953792478e+00
      6.1760231523134290e-01 -2.4830943578692093e+00
      1.5103462987391172e+00 1.3144405250058728e+00
      1.1240444708079564e+00 -4.3793361461123723e+00
      -4.7412617913231143e+00 4.1603766886013016e-01
      -1.2009126924437115e+00 -7.8522258706927675e+00
      4.6727352216006786e+00 -3.0381469921458143e-01
      -3.0408065465335250e+00 8.2057976514206032e-01
      4.8798677234446197e+00 2.6026985279754729e+00
      4.4217458644447505e-01 2.8421265650145413e+00
      1.5084196294245980e+00 -3.4631452797457180e-01
      1.6075534181952964e+00 2.0667428240383745e+00
      1.2277030701343712e+00 -3.3201201733509604e+00
      -1.6711608412011336e-01 1.6162774394518928e+00
      2.3685243076394205e+00 -3.8541196842972308e-01
      -1.9324773917780838e+00 5.7057960982612899e-01
      2.9009250768620118e+00 -4.3146356844628784e+00
      -3.4758454038743941e-01 2.0969041178283532e+00
      -3.0150956137956300e+00 -1.3594060084527557e+00
      1.3801767246608294e+00 1.2736554529868140e+00
      -5.2841792267150307e+00 -1.9313319558040845e+00
      -4.5134611411929235e+00 1.9582265233668192e-01
      2.4106455178962269e+00 4.5765081500595186e-03
      -6.5241774343959091e-01 -3.7058369845788663e-01
      -2.5478275865680711e-01 2.3428560241477445e+00
      -6.0366033553351182e+00 -2.5255973038825257e+00
      1.7922927015856620e+00 -2.6051410410359560e-01
      -4.7739038238724394e+00 4.5746444674697493e+00
      3.4271216809527844e-01 -1.8686556700716557e+00
      1.7009348695095089e-01 2.6240637684259860e+00
      3.5001047335531168e+00 -1.6326307879161181e-01
      1.2914754754750104e+00 1.6958573014599070e+00
      -2.5441899629005076e+00 -2.6541509761333519e+00
      1.1634373201489310e+00 -3.4692703655957118e+00
      2.1373239519638600e+00 4.8192254102376575e+00
      1.9220320517769500e+00 1.1371710055936288e+00
      -5.2209336074394996e-01 -4.2174827484050255e+00
      4.5347765095732701e-01 1.3494625980082857e+00
      -1.3928951741940796e+00 1.7360852003096157e+00
      -2.0441988460367844e+00 1.6340547123457787e+00
      -7.0000733953407590e-01 -6.1084591487145605e+00
      -3.2322951176610371e+00 -7.9215356484351476e-02
      -7.6415684958592616e+00 -7.4348055940585900e-01
      1.4993584541929281e+00 -1.2070528220394501e+00
      -2.8996504322085950e+00 -2.2313926005919729e-01
      -3.6896141534182880e+00 2.6635286801971980e+00
      -9.3380871674568811e-01 6.2350516066447712e+00
      1.1182936698256674e+00 -1.1189239432354924e-01
      4.8403291465101734e+00 -1.3054960918974495e-01
      -1.1878487329990410e+01 7.7991097906409292e+00
      4.4503501740293236e+00 -2.6769102743210818e+00
      -2.7878740845512588e+00 8.1134533548151233e-01
      2.2620233228824227e+00 1.0636832852382947e+00
      7.9889456833829386e-01 3.2692068056301853e+00
      -1.3640940318104620e+00 3.4252242306205520e+00
      -2.3360798638377187e-01 2.8530258364112804e-01
      -2.6075182916128608e+00 7.9409964775897741e+00
      3.8616776642427815e+00 7.2167377112174176e+00
      9.5076500280171516e-01 -1.0275723077529897e+00
      1.6143034208308477e-01 -5.2067848637972745e+00
      -2.3474547276138429e+00 5.5818690009036214e+00
      -5.5059046679715760e+00 -3.7369672762833256e-01
      -3.2985861180568485e+00 4.1941922299048890e+00
      -1.2374451578533703e+00 -2.5956160004339810e+00
      -1.0507839866086401e+00 6.0102658988892088e+00
      -2.4795450973386757e+00 1.4672404673840829e+00
      -5.3137704607525849e-01 1.8733300242360191e+00
      3.0945771327412266e+00 -6.8790827126731680e-01
      -2.5904678886978250e+00 -3.3318336159513855e+00
      -3.7301274806220108e-01 1.6894446876258198e+00
      3.3300642763175610e+00 -6.8584697715849174e-01
      -1.5655856796750258e+00 5.1409536696251623e-01
      1.3295360845695359e-01 5.2296246320549655e-01
      -3.4887166350064072e+00 -1.5140746926038970e+00
      -2.6051329498954847e+00 -5.0388039915031593e+00
      3.3445060319064037e+00 2.5027332943606000e+00
      -2.0027613073677131e+00 -5.0965940196325044e-01
      -6.4224202654716256e-01 -3.7779109503275738e+00
      3.9117973958385699e+00 -3.0886564783700043e-01
      3.6062998342126038e+00 -4.3030587519676411e+00
      -2.7750392202432335e+00 4.0852198339130581e+00
      6.3021660552218703e+00 3.5211878682473929e+00
      3.1309221505355680e+00 -5.7689952992679872e-01
      -1.4496674204953675e+00 2.6974180517219408e+00
      -2.2980610961431767e+00 8.7796457908903092e-01
      4.4683584052188585e-01 7.2801284075629968e-02
      -3.5288500125932125e+00 -4.5765671904061228e-01
      1.3846407167499484e+00 -1.4687648023974458e+00
      7.6250455661584242e+00 -6.5224847994273472e-01
      -2.0823283852338905e+00 -7.4509389716077123e-02
      -3.2323621520004080e+00 9.3156007239699223e-01
      5.3710211301549504e-01 1.7656790631912758e+00
      3.0771374713856164e-01 3.9915080877853333e+00
      -1.7949499916262568e+00 1.1467530473176095e+00
      -3.9119585206983229e+00 6.1733494286898072e-01
      -3.5188720448898474e+00 -1.1300589916754797e+00
      3.9392335018672360e+00 -2.1469815028414949e-01
      -3.7537670578355770e-01 -2.4533464582412652e+00
      1.7829099319668915e+00 1.8355875012727798e+00
      3.9143071169341437e+00 -2.5690324444923878e+00
      -3.2440861414842357e+00 -6.4942347115417522e+00
      6.4993725337833874e+00 -3.3201969221533187e+00
      5.2985185565043764e+00 -9.2315206779036174e-01
      5.3195363483451985e-01 2.2648320105955992e+00
      -1.8995669201088119e+00 3.8313682011986211e-01
      1.7877364916613816e+00 -3.2320806205286867e-01
      9.9474229759291788e-01 4.0398311834859291e+00
      -2.4579873307020472e+00 3.1982380352505735e-01
      4.6834300038232479e+00 -5.0164387692495529e+00
      -6.1523195244730433e-01 1.3171166093343087e+00
      -2.6786378726792126e+00 5.3517878592693222e+00
      1.7952328065554510e+00 -4.9054932901303037e+00
      2.2132196649977698e+00 3.5682550278503267e+00
      -5.7165490199182356e+00 -1.7727688756048852e+00
      -4.3103436142031013e+00 6.9175825694060924e+00
      -1.0510197377087924e+00 3.9139682308128454e+00
      1.0867597975284630e+01 -2.4026223057110565e+00
      1.8299270979597682e+00 -5.1694935234896455e+00
      -2.0466389598820869e+00 -4.5498223281677941e+00
      3.3907675538429469e+00 3.1274335490952776e+00
      4.3081525531041409e+00 -7.4906458882530123e+00
      -6.7348425994969863e-01 -4.1840007434132902e+00
      9.1406018199414518e+00 -7.5757468413003002e+00
      5.2702404766140605e+00 4.8378048802753142e+00
      2.8861601524903788e+00 6.7741621162510174e-02
      -1.8198015631529443e+00 -1.9592609706265063e-01
      1.0758935867805703e+00 1.5886433714437973e+00
      9.9885756065851683e-01 -1.1450045684645336e+00
      3.7490483829604542e+00 2.7182369805985132e+00
      7.6271849151081006e-01 -4.9505501504402405e+00
      -3.0829350240404869e+00 7.2550163251827744e+00
      8.8012629739133408e-01 1.1288750452096816e+00
      -2.5422731588536052e+00 -3.6651343459059689e+00
      3.2131989773797986e+00 5.3360968905987729e+00
      -2.7802102925214323e+00 3.9700284738581608e+00
      -2.2558665102110282e+00 1.0548690661163759e+01
      6.4131566970611669e+00 5.0492833949093363e-01
      3.6421476629482483e+00 4.6336496038639332e+00
      -2.7808559230465946e-01 -3.3662306056889433e+00
      3.7280804503653622e+00 1.5329990430686264e+00
      2.7601842584325692e-01 -3.8708294112351846e+00
      -5.5883126623354853e+00 -6.5545255738603565e+00
      -2.1642885670511847e+00 -3.7791296353613499e+00
      5.0783188961566994e-01 -3.7022265564914782e+00
      -6.2142258740594611e+00 -5.1947706663157878e-01
      3.3766497526347923e+00 -2.1179551268256551e+00
      3.4517760938912451e-01 -4.2675776880875409e+00
      -2.1375574893766849e-01 -8.0471953905606020e-02
      -4.8322959252641251e+00 -3.9799030044568604e+00
      -2.6092886588478756e+00 -7.0776235210247052e+00
      4.1956005216758294e+00 -4.0643003662172310e+00
      1.0687743817705959e+00 -9.5248489058085877e+00
      -1.0421062952695165e+01 1.3527027745758193e+00
      -6.2428986593935427e+00 4.9681669160003610e+00
      -7.9325454869090761e-01 -1.4534983256722893e+00
      6.3819533839096971e+00 -1.3762429096263082e+00
      -2.2924594723917524e+00 5.5691862374239891e+00
      -1.0676260234984098e+00 4.4875420609837988e+00
      -3.1730475065254038e+00 -1.4021476320943387e+00
      -1.6441254769024087e+00 7.1745134826542296e+00
      -4.5920600873220474e+00 3.9643160857320159e-01
      2.8220796231117076e+00 -1.2622023083748768e+00
      2.7095772091179537e-01 -8.3310954436255391e-01
      -5.5296108682977865e+00 -2.9348937102641135e+00
      3.1562831722492128e+00 -7.9763556754404205e-02
      2.4525135684928593e-02 -4.1364198399003911e+00
      1.5620299784097480e+00 1.9644055669231367e-01
      1.8397845170711575e+00 6.7808348845378730e-01
      -1.8121745593096381e-01 3.0248796971752090e+00
      -1.6461323086404824e+00 -5.0537422970903503e+00
      4.3833947635610997e+00 -4.3354293074547874e+00
      -5.5813758354357565e+00 -3.2364032773475229e+00
      -3.1375341776608136e-03 5.6852909525039959e+00
      -3.7753296135751868e+00 -3.7053677483345262e+00
      -1.1201116269705567e+01 -1.4028323479535971e+00
      -2.7613946668844175e-01 -4.4498425541380300e+00
      -3.1432477456243819e+00 5.5089059159915390e+00
      -3.0153669996769512e+00 1.2047711380393857e+00
      1.7414308826200464e+00 1.8935281846032543e+00
      1.8010062558951101e+00 2.9576275851314855e+00
      4.1206180122787277e+00 -1.1483661108376889e+01
      -4.3552636577779517e-03 6.4319967308864170e+00
      3.8691387889672382e+00 -3.2703707537057736e+00
      -2.2313395493548152e+00 1.6505161789105558e+00
      8.6382859163637615e-01 -1.5118602804657544e-01
      1.5306078230070677e+00 -1.4176941439740434e+00
      -4.8032404145247245e+00 8.6528146378587625e+00
      4.3023136966473201e+00 -2.5227651544207352e-01
      -2.6511247201097465e-01 1.1884708441902927e+00
      -2.0767607367951939e+00 8.1794975862078290e-01
      4.2430708413185814e+00 7.0008457685071521e+00
      1.0733429417878388e+00 6.5839143168404721e+00
      5.0669965961645733e+00 1.2878042794926301e+00
      -5.4406633595972353e-01 -6.8033175093907694e+00
      -1.6695288810322985e+01 -6.9719051832522050e+00
      -4.0242585867862894e+00 -3.6404431831737085e+00
      -2.5382226558580854e+00 -3.1816638645179705e+00
      4.8416911787649388e+00 -5.9744907983990156e+00
      1.5660868057130788e+00 1.3605121722800628e+00
      -2.1792260224281286e+00 3.6350002300237163e+00
      5.3382961167618248e+00 -7.0728028470707400e+00
      -4.6255458458751928e+00 7.9192552838488188e+00
      2.7750204357640964e+00 -7.0162671121482214e+00
      -2.0928036234636389e+00 -5.0440508066225158e+00
      -1.5971378931946747e+00 5.6524314113144236e-01
      -5.8168232292493167e+00 2.6815830359768483e-01
      -4.3378655146508338e+00 4.5034367932982358e+00
      -1.0281500270050428e+01 1.1237147628626434e+00
      -3.0273974365157339e+00 -1.9091056325728168e+00
      -2.1667726816934789e+00 -4.8100421251762997e+00
      5.6483632656669363e+00 5.9674385647701040e+00
      2.8509251418489137e+00 -4.7950093531950226e-02
      8.5920316592917647e+00 4.1554311799937258e+00
      -1.0509362652206768e+00 -6.4726577373032264e+00
      -1.3383089793492854e+01 -3.6208445443421504e+00
      8.7239775205623482e-01 -8.1245368250055741e+00
      -1.9649765949465883e+00 -4.4697051361954250e+00
      7.0562801865324631e-01 -6.4142910626268588e+00
      -2.6233239399363981e+00 1.6364182663758133e+00
      -4.6636523153824644e-01 4.7071068909741971e+00
      5.8440075460806860e+00 -3.2795116405586064e+00
      -1.0467562465604956e+00 1.2536537572780748e+01
      -2.3178867408735098e+00 4.4722104491799408e-01
      -3.9755131180401020e+00 -2.9933111925824964e+00
      1.6392781055722065e+00 2.4570246821100898e+00
      1.5071973206503705e-01 -8.2515490681171610e-01
      -9.5417493118540286e-01 3.3538141921095819e+00
      1.7488478408235699e+00 4.0130877367054305e+00
      2.5513542662314936e+00 1.8817242119468875e+00
      -1.2074848590494618e-01 -1.7138946345055144e+00
      4.9111292082421869e+00 -3.7730990463476849e-01
      -1.5642140416825705e+00 9.8803405190177829e-01
      5.2177705076766907e+00 -2.6775618263537160e+00
      -3.5190558615612528e+00 -3.1946859131814973e+00
      -4.3119911058566363e+00 -1.3474802950447922e+00
      1.1064761492180362e+00 -8.5610305468429659e-01
      -8.0904783252015244e-01 6.6054899473662534e+00
      -1.8692979580809064e+00 1.1556715715521455e+00
      1.4551345025019420e+00 -3.8144268811205673e+00
      1.0192964663707191e+00 -1.4355288742564574e+00
      1.8046090197321565e+00 -1.5842637617152959e+00
      1.2649376090378932e+00 -4.4254353377977373e-01
      -6.8002001326177144e+00 -3.4486695551564877e+00
      3.5780359067914819e-01 -5.9695373196541923e-01
      -1.1301657348505396e+00 -4.7076111209849586e-01
      -1.7090900054345195e+00 3.1989221268637018e+00
      1.0823987684372078e+00 4.2946634198648006e+00
      -1.0391202171868632e+00 7.9215646220693925e-01
      3.1291616057853231e+00 4.5970883493709529e+00
      -8.3052869765157560e+00 1.6100187036962299e+00
      1.2459061135510112e+00 -1.8774312441568484e+00
      3.8555721391608233e+00 2.5931452527509724e+00
      1.4817872908968872e+00 1.0908183519614301e+00
      3.1042725808776575e+00 3.3591431695236889e+00
      -1.1002365428829117e+00 -2.7672588643666103e+00
      -5.2313507170783549e+00 1.8010315860280166e+00
      -1.1088965542956611e-01 1.3050505889418993e+00
      -2.0899315112095249e+00 5.5047855393987879e+00
      -5.1167119066207789e+00 -1.0743467079411235e+00
      3.7247486931288982e+00 -2.1340177571071881e+00
      -3.4162427746075346e+00 1.8589907432291326e+00
      -2.2115124610820165e+00 -3.1966040715860942e+00
      -1.7634688489094086e-01 -9.2986874974504397e-01
      5.4063539941027692e+00 -9.6897694937301415e-01
      4.1876577635565898e-01 4.9913059297484574e+00
      9.4622086524363036e-01 -2.4979462620730856e-02
      -2.4885571298393274e-02 6.2044680043585620e-01
      6.5006626687122382e-01 -3.4024262588822979e-01
      -7.9008946540579938e-01 1.4825165482692206e+00
      -2.8672395341241375e+00 -3.1141141558448413e+00
      -2.2812373907167166e-01 -2.3459543278897294e-01
      -2.6898309186575355e+00 2.6533965800896833e+00
      1.8280392241614862e+00 3.8400178775874396e+00
      -7.5913287157909615e-01 9.0065257237485014e-02
      3.6206455109104230e+00 -6.3019348159070987e-01
      -1.5353637171777779e+00 1.9361165828068838e+00
      -2.8717840941787331e-01 -2.1852620825737015e+00
      -1.9421937919446646e+00 -3.9170074043621730e+00
      1.2488865218655683e+00 -3.3514677794611152e+00
      -6.1208143651749758e-01 6.7233692582925704e+00
      3.7960688131186626e+00 -9.4553357809329679e+00
      -3.3537534424976201e+00 2.1634817578108012e+00
      4.0324596538656081e+00 -8.0784680408311149e-01
      6.0598128109726268e+00 -5.6713202523217832e-01
      1.3264014998283915e+00 8.5908862573919764e-01
      2.5035834831302677e+00 3.6745681241842152e+00
      -1.5407150436629427e+00 2.3508406049325714e+00
      -1.3854600761912710e+00 1.6566133529442306e-01
      3.7606458911475049e+00 -5.0478315770080440e-01
      -4.0602564860328902e+00 -2.7867539936107999e+00
      3.4016084996663110e+00 6.5136822941931101e+00
      2.3182160346095393e+00 1.7612886408135144e+00
      -1.2835084962576049e+00 -4.4361994825419435e+00
      6.0001047431174754e+00 -3.7845456560518880e+00
      3.3096544094110619e-01 3.6647482939186613e+00
      -1.7920238634607353e+00 -2.7209870211585647e+00
      -6.6992143145798078e-01 -2.6726149599863427e+00
      -6.0191352730312913e+00 -3.5007185618075534e+00
      -3.4864825259269439e+00 -3.9489498366636053e+00
      -4.6074403492547011e+00 1.7355867489450179e+00
      9.1019183821005001e+00 -1.0862478851639537e+01
      -2.0928730833622597e+00 1.5009410871919517e+00
      1.1875041046552687e+01 -2.1545956879761720e-02
      -4.7347006617160986e-01 9.5660349292089419e-01
      -5.5226671580770093e-01 -2.6296041487218796e-01
      -9.0246985682872316e-01 4.6948717481352906e+00
      -6.0785957950633795e+00 1.0556580157651261e+00
      4.6973002276521161e+00 -3.4712352161516369e-01
      6.3272140388919969e+00 1.0670474382591445e+01
      9.3529355564948513e-01 -4.1858516144155615e+00
      -1.6126738393490967e+00 1.1700308083941872e+01
      2.4731603408334686e+00 3.4744623538270254e+00
      -1.1188076103582500e-01 -3.8383959238529486e+00
      1.0220654935039853e+01 7.9503428999758974e-01
      3.7366554785736823e+00 -1.3668966567196448e+00
      -6.6298122902542307e+00 4.4891100787392757e+00
      1.6588772496182729e+00 -3.2398055539763040e+00
      4.6861752807390120e+00 -1.2367869540808751e+00
      -8.1365164290437271e+00 -1.3168470131392307e+00
      -4.0327640788699242e+00 3.8283807132390546e+00
      -1.1520319468831369e+01 -1.0696258960344261e+01
      2.7309438699951494e-01 3.8320161243972866e+00
      1.7063356168075223e+00 -5.9239124301729955e+00
      1.5395508903403890e-01 2.4274122329882459e+00
      -1.0127493700278909e+00 2.1864439648042225e-01
      -2.0122625207613414e+00 2.9720526658688269e+00
      3.2074594827988614e+00 1.9424443019543787e+00
      5.0693733424415022e-01 -9.7075993793138793e-01
      8.2138925938192831e+00 4.8275243032368307e+00
      2.1081403703875519e+00 2.2977925101564507e+00
      -1.3223372368184314e+00 5.7098790381841962e+00
      8.5816312419266683e-01 3.1429529710488735e+00
      3.4336812971918347e+00 -3.6084973976207233e+00
      4.2224314398278828e+00 -1.3903108117020924e+00
      4.7664446668238831e+00 -6.7263849007351362e-01
      -3.6954657140232849e+00 6.9291648628851634e+00
      -1.4242921079713813e+00 -3.5536466834162933e-01
      2.9420267443890324e+00 7.3159567581241420e+00
      9.4609354746607421e-01 2.6290936475718123e+00
      -5.5652041144291120e+00 5.0414079690325959e+00
      -9.4190884594839410e+00 -8.6523069150729537e+00
      1.3207875843864123e+00 5.3439743505252695e+00
      -3.9626519749556270e+00 -8.0191859686621818e+00
      1.6497689749916828e+00 1.0694931749289884e+00
      -8.2585036780946499e+00 -5.3308247497220729e-01
      -1.0859061983304748e+01 7.9061131208588202e+00
      5.9477999995991337e-01 -1.6725268800501119e+00
      8.1054193346330253e-02 -6.5317891623833924e-01
      -4.3506263854195124e+00 5.0118047548771827e+00
      -6.8085037338343843e+00 -1.4200265414981923e+01
      -6.6131436499655543e+00 -4.8404543726643166e+00
      -4.8980541689179899e+00 -4.2122674743121884e+00
      -6.6126142771756884e+00 -1.5416690797442385e+01
      1.1825721807811661e+01 2.7973665560674599e+00
      -3.1773247637407325e+00 -8.2692396239497850e+00
      5.4599885463059179e+00 2.9662572066715076e+00
      -4.3780519096269908e+00 5.4902627030128262e+00
      -6.1066349865837855e-01 1.6695394735882729e+00
      6.1083328999529991e+00 -5.5716979651807099e+00
      -3.5910461894385177e+00 -4.4613789928724925e+00
      -3.4053503753857366e+00 -8.5996035302332405e+00
      -3.5816982268411328e+00 -6.0526236604036123e+00
      -7.1479067043006150e+00 -7.0111109308710793e+00
      2.0443685001757920e-02 3.2918695885989129e+00
      6.3710418118570367e+00 5.6185495367425931e-01
      2.5769053385500613e+00 -1.7601815764455100e+00
      -2.8076246815865438e+00 9.6401260323884106e+00
      -4.6645018787564636e+00 -7.3890981137909528e-01
      1.1851228624791821e+00 7.4534564956060105e+00
      -5.1252483602576220e+00 -8.3304380450775621e+00
      4.8326150312755960e+00 -5.3980873648357868e+00
      2.0560694016254452e-01 -9.9884672428182437e+00
      2.6714219369485526e+00 -9.1027996693728530e-01
      9.3850982969323997e+00 -7.8769899306130799e+00
      -6.8765646238242866e+00 -2.8640573014341757e+00
      2.5284167029308282e+00 1.0512380371821672e+01
      7.8526344820024558e+00 7.6875313342074394e+00
      5.4236766065756861e+00 -2.0195723613678881e-01
      8.3033241680167169e+00 5.0766590066693915e+00
      -5.0451094183707390e+00 3.5422414820642891e+00
      5.8085842218580330e+00 2.6568919282695713e-01
      1.0918800020707571e+00 4.5184675822203353e+00
      -8.0318053627543951e-01 -6.2012597805751768e-01
      -7.0030583309909067e-01 5.1819554803546914e+00
      5.8384395073087809e+00 7.7281954740757025e-02
      1.1064912675600984e+00 -1.3472317103421647e+00
      -4.4937454559825130e-01 6.4770220086499668e+00
      2.3636764535389920e+00 -2.9596700199565285e-01
      7.5788009764999176e+00 -6.0070872681132288e+00
      3.5753921839135638e+00 4.5275103671941908e-01
      2.9844488843449755e+00 4.2524113621959323e+00
      3.9233786091223846e+00 -8.2659295368443375e-01
      1.4599570602832768e+00 1.0121981069568164e+01
      7.9238013100330500e+00 -8.0269490298278505e+00
      -5.6349464631093733e+00 3.2245582250562328e+00
      1.2937329495809697e+00 -4.8311384250439321e-01
      6.5749243203602221e+00 -4.7246010985944364e+00
      6.1529723285788878e+00 -5.1672749586795037e+00
      6.1723446756220115e+00 1.2468889185864445e+01
      8.8304601542052961e+00 -1.4217714271170927e+00
      3.2869444117848126e+00 -5.6945129731687878e+00
      -2.3340380375812448e+00 3.3867139020986436e+00
      -2.5634268085554146e-01 -5.4054778716269087e+00
      2.7812033704173134e+00 8.7971907603884496e+00
      6.0555361530397211e-01 -1.4228475090259213e-01
      2.2128449446677798e-01 3.2803570960714773e-01
      -6.9746924056904476e+00 3.8346801619347040e+00
      3.3159795005579453e+00 -5.6411668221964706e-01
      5.4218870848700806e-01 -2.4284857472880099e+00
      4.4565367096374437e+00 -7.3084999525291006e-01
      -4.6548941447402452e+00 7.8273583508347526e+00
      -2.0100121880494615e+00 5.4506819183479971e+00
      -5.9900611341132732e+00 -1.9242345620431418e+00
      -9.3229386879179976e-01 -3.1610509364270545e-01
      -1.0003335639609738e+00 4.0815140170764472e+00
      2.0740075820696005e+00 -4.4803673385857383e+00
      2.5686424672177810e+00 -5.6564771275564487e+00
      8.2561322948763527e-01 -8.3208036261359748e+00
      -7.4839723996910690e-01 6.4476115827906817e+00
      -4.8435825439865576e-01 -3.8375850806609755e+00
      -3.4785454859310692e+00 -4.6492241050783836e+00
      4.0703530834621207e+00 -2.3727303496409802e-01
      4.0170698379121428e-01 -1.3103892200309455e+00
      2.5101760739277514e+00 -4.1497508438501605e+00
      2.2288395484060910e+00 -3.1950542253583664e-01
      3.0371760686977463e+00 -4.8932848650542295e+00
      -5.9651126051525205e+00 -8.5715874676990034e-01
      7.8674395160086057e+00 -1.5407720901709182e-01
      -5.1219794363093847e+00 -4.2420856665673945e+00
      -9.2880452675784630e-01 2.9854365563438567e+00
      -4.2000499203012609e+00 8.9615918877251555e-01
      -3.4180042626596308e+00 6.2178863525976436e+00
      -6.5202232880758251e+00 3.4644292234204110e-01
      2.3044538095684941e+00 8.3656488175850114e+00
      -2.5691262790534348e+00 6.7076789754055333e-01
      -3.6196298999686163e+00 -2.1265111184637170e-01
      -7.5727881195693858e-01 -4.6346863508203180e+00
      1.9232909141697652e-01 -2.8141696753047971e+00
      -8.3297181930456332e-01 5.5636118586871042e-01
      -3.4665550712693936e+00 -4.0197295721400819e+00
      4.0544209778955698e-01 6.4696981157534301e+00
      1.8653175946775387e+00 -4.8413218259205220e+00
      -7.2956959922646449e+00 -1.0357633889441709e+00
      7.6159209397775021e+00 -5.4383833153784067e-01
      -3.5607628869704055e+00 -4.7675917331839740e-01
      1.1685502973255568e+00 1.7835748842350854e+00
      1.5895310637038804e-01 3.6887065441875527e-01
      2.1438683540905823e-01 7.1899658563315760e-01
      -1.3071163925958698e-01 2.6675902760881089e+00
      -1.0075944757654172e+01 -4.6953197281673100e+00
      -4.9813467684555093e+00 -1.7762606454201768e+00
      -1.3527153601589652e+00 3.0882140202402439e+00
      4.9239136148050405e-01 1.7803837868264365e+00
      9.6264930090252909e-01 3.6992052020514525e+00
      -1.2082526879257638e+00 -3.2708298146285593e+00
      -9.5660537890952546e-01 1.1055150993023397e+00
      1.2447303526245250e-01 1.7460618572988679e-01
      3.0960340041060270e+00 1.6765425231816502e+00
      -2.6183968278506931e+00 1.2504769566903584e-01
      1.7730697350075315e+00 -1.6776749165654290e+00
      -4.1945889077690754e+00 6.6120000568314197e+00
      1.5594936084134963e+00 -2.2183644330108261e+00
      5.0598851551874535e-01 -3.0995651323658389e+00
      9.0762066903952776e-01 5.0433867718801988e+00
      -3.3156466681676382e+00 7.8385968460695732e-01
      4.3090584928825928e+00 -1.2721301751207361e+00
      -6.0205487146419334e-01 -4.0480977882704910e-01
      3.5435796267449091e+00 1.3362831798904624e+00
      3.8053734422492065e+00 2.0340903688443359e+00
      4.6300009198862629e-01 -1.4097090320976982e+00
      -1.1618014123060749e+00 -1.4870576110873406e+00
      1.6971338805364180e+00 1.0961562222987969e-01
      6.2946984586964057e+00 2.5175110476849434e+00
      -9.6105682463418418e-01 9.3453797777204384e-01
      7.8489408619012568e-01 1.8035625986930395e+00
      1.6961523844243040e+00 3.8955819440118447e+00
      3.1051230485697068e-01 -3.7920264629444751e+00
      2.0898440412800912e+00 3.3128780613563498e+00
      7.8521941827513357e+00 3.4194441892613523e+00
      2.2612962125334528e+00 1.0851924139286726e+00
      2.4163454280455086e+00 -1.2008273548154355e-01
      -3.3554651482468021e+00 -1.5314284229970625e+00
      -5.5803076214578162e+00 2.9435313490374521e-01
      1.9224759041588837e+00 -4.7314387237293234e+00
      -1.7088058505207357e+00 2.5617631790176337e-01
      -1.2788278636304600e+00 4.8459426392286253e-01
      -4.4625526953192045e+00 9.2986626211375356e-01
      2.0205273408041089e+00 -2.9590368489880770e-01
      -1.5762020788767084e+00 3.6698375969871728e+00
      -4.8125557216896590e-02 -6.2707095958529360e+00
      6.0637988238918155e+00 -1.6135983715090713e-01
      2.0050604437804154e+00 1.9393745826604725e+00
      2.9537812955173364e-02 -2.0488610701963421e+00
      5.1555819248304440e+00 -1.7155776899882358e+00
      4.5579359926017791e+00 -6.2134099803110587e-01
      -5.5052427565544293e-01 2.7582218875251291e-01
      -5.4770590554635614e+00 -3.7596157289783174e+00
      9.0451576268207268e-01 3.4526600261884250e+00
      -1.8696791685023015e+00 6.8199586336729014e+00
      -9.1383808792813970e-01 2.5580497013861430e+00
      8.6435434892656404e-01 6.2248063258647273e+00
      -4.3243572825731080e+00 1.8520884523514194e+00
      -7.2306030321400367e+00 -5.0039537830561285e+00
      -1.0288108518141734e+00 -5.1546227157025859e-01
      -7.7768437807307994e-02 4.1151966800436468e-01
      3.4507451999986563e+00 -7.5155402819683239e+00
      -5.5638306337480996e+00 -2.0481052859216327e+00
      4.2942524027043385e+00 6.8410270984769572e-01
      4.9171134684148630e+00 1.7618411554805928e+00
      4.2316146208333372e+00 -3.6630288861024636e+00
      1.2481787260961668e+00 1.7740083623896759e+00
      -4.2364112190760652e+00 2.5156065977903106e+00
      -1.1134072359892830e+00 -8.5888137026937861e-01
      3.9321083798182577e+00 -3.1252886795214838e+00
      3.0845687713345775e+00 3.3568775356487999e+00
      -1.7427403249970914e+00 -8.5131224635665548e-01
      -6.3397094847681341e+00 1.5761591992770372e+00
      -8.1792330503333233e-01 2.7921904655727241e+00
      -2.7285462838901129e+00 1.6052163446067176e+00
      1.1344207518089922e+00 1.8699702842164798e+00
      -4.3216341162604682e-01 -7.9389456007665471e+00
      1.7467046889611331e+00 -6.1012912996364466e-01
      -5.6803174242256960e-01 1.8910818595730985e+00
      -5.5033075828709244e+00 -1.0401828909821356e+00
      -7.5998465321487512e+00 2.7645324156645656e-01
      -5.3186433348703277e-01 -2.6482472100651262e+00
      -2.7641304657038517e+00 -8.0710812730543928e+00
      -1.7172270792807967e+00 -8.9069404569386701e-01
      4.0287719448807486e+00 6.1261956952084482e+00
      1.3024287949919715e+00 2.8316542963231854e+00
      -2.8379635712397242e+00 2.9099583589807176e+00
      -1.2066468199844889e+01 6.6255058814802679e+00
      1.6682814424123016e+00 -1.6801473341364830e+00
      -5.1658023289800803e-01 5.8732335456790974e+00
      3.2083035249486898e+00 5.5738182791293438e+00
      -3.7237188973355480e+00 -5.7291364594232137e+00
      -4.2658347284170892e+00 -2.2718767515682483e+00
      4.1249446646036331e-01 6.6607857172012856e+00
      6.8787149822075655e-01 3.1084006146787586e+00
      6.4649178530705498e-01 2.5093824359980301e+00
      -2.2520696323013181e+00 -6.2716252688847121e+00
      5.1553887410170773e+00 5.4359383179361780e+00
      9.4005961839760257e+00 -3.8503252454389005e+00
      1.4815849700076244e+01 3.7806408867524621e+00
      -4.5873373116500078e+00 -6.5516301605655325e-01
      3.7684724842321011e+00 3.3842640482345407e+00
      3.2426792658815788e+00 -4.3517518948490626e+00
      -4.1212649515464861e+00 1.0589935224425409e+00
      -4.3626883202875018e+00 1.2024476992143601e+01
      1.8778808654805992e+00 -7.9455818851673887e-01
      -1.0448017602045274e+00 -2.1922909644657206e+01
      -7.9713076862634624e-01 -5.5258920746829228e+00
      -4.9684968233666895e+00 -8.6550800224454978e+00
      3.2207807441978162e+00 3.4537583914912005e+00
      7.9251887330448740e+00 1.7973967051620428e+00
      -1.4700525267302997e+00 -2.6177213630915269e-01
      7.8654318824382730e-01 -4.0230864438137237e+00
      -1.2002624909363906e-01 1.7136998284448364e+00
      1.9813171772171788e+01 -3.3756486131383878e-01
      -3.2558071399571391e+00 -1.0018325459616331e+00
      5.5855912134131911e+00 -1.0790943224326655e+00
      -5.6391159481725079e+00 4.0194782031184957e+00
      -6.6042282972074098e+00 -8.0842379911214444e+00
      2.8244004893901185e+00 -2.1015853159341851e+00
      -8.2822270235642181e-01 2.8741046862056890e-01
      -5.1548284662596098e+00 -6.8917446939864186e+00
      -3.1164052253064090e+00 3.2917184797744747e+00
      -5.9249647706857100e+00 8.9265377065525564e-01
      -3.9713687993771485e+00 -7.8173570438371132e-01
      2.4327230159258990e+00 -1.5161479065379553e+00
      2.1919088392742028e-01 -8.6923403148684866e+00
      8.9660138548732480e+00 -5.1742007192728823e-01
      -1.3081200790048992e+00 -2.4380886231743828e+00
      -6.8738998582636845e-01 -9.6935782110115127e+00
      6.3668059507772767e-01 5.5198514887419947e-01
      3.6124586565968135e+00 7.1176851118982505e+00
      3.8046526347784426e+00 1.7678127135140496e+00
      6.8115152920064874e+00 -2.8350786808413059e-01
      3.9742076189589732e+00 1.3761150407499109e+01
      -5.9842597195573770e+00 -3.6759402695936689e+00
      -1.4381786437908752e+00 4.1033335275124738e+00
      -2.2407998063766810e+00 3.0248779529964573e+00
      -8.6067460798234734e+00 -7.3539098115813779e+00
      -4.6873501456786624e+00 1.6039507012092549e+00
      5.3961631004163655e+00 2.2844057471354803e-01
      3.2510412861182170e+00 -7.7351884348996192e-01
      3.3135605548377152e+00 -1.4094333701331159e+00
      8.0410021732429424e+00 3.0682401897396644e-01
      6.9176062480257068e+00 -1.3937853815545644e+01
      -5.0393366143480174e+00 5.2062452472019451e+00
      -1.7596035066247309e+00 -3.9578976027729201e-01
      3.4735705571640416e+00 -6.1092329583662561e+00
      -5.2911062784453549e+00 1.4882496766921729e+00
      2.7031320606252667e+00 -7.4179388687415209e+00
      4.8996965563482533e+00 1.8363619957176070e+01
      -1.0065785356335669e+01 5.9237447598019433e+00
      5.3142741642843836e+00 3.5886618046529177e+00
      1.0300486600660436e+01 -2.8634389795018195e-01
      1.7801042593652874e-01 5.6283413133139453e+00
      -2.5676466944836904e+00 -5.3900701938501454e+00
      -4.5089381422227373e+00 2.4341232455225139e+00
      2.8130488139713190e+00 -1.7624166499106306e+00
      -5.9753320220484687e+00 8.3349112489197907e-01
      5.7635429101464331e+00 2.0088031313511272e+00
      2.1688283773000605e+00 4.2313182876313843e-01
      2.6442465248756304e+00 -2.1074935177534222e+00
      -5.3831133161553772e+00 -8.1240432703377197e-01
      1.4746525002513350e+01 -4.2038209333273185e-01
      3.6105183279780610e+00 -9.4252485616750654e+00
      -2.9305302577168377e+00 2.5426857181538409e-01
      -4.4071669734871666e-01 -1.8522439913027205e-01
      -6.9373140598646437e+00 -5.1898107883142579e+00
      -7.7429340087729033e+00 9.6922609441911611e-01
      4.6562579231657271e+00 4.5383002120428122e+00
      3.3528713333614020e+00 5.2920701897149787e+00
      -7.1242979171138598e+00 1.0172231875072512e+01
      3.7105312780081618e+00 -2.5724836722149780e+00
      3.3199125847806013e+00 -5.3592241768632460e+00
      5.8673805641532626e+00 7.8740755938167284e-01
      -4.5354296771039632e-01 -7.3597245794968131e+00
      1.1140309295518092e+00 3.4019089331965970e+00
      7.1719789290988478e-01 -2.5955927910738430e-01
      -3.8905404104777954e+00 -2.0082787975759242e+00
      3.2637867587840874e-01 -4.1862045846539688e+00
      -9.6051492402061983e-02 1.3870940071301772e+00
      -2.2720800081944632e+00 1.4648077522140512e+00
      -1.0013991349419117e+01 2.8202445250340111e+00
      1.6101989182360230e+00 3.8830454295783108e+00
      -2.6809236535110920e-01 -1.5302403203966780e-01
      -4.6722735684681540e+00 -8.0000988513416740e+00
      2.5973531200276061e+00 -6.9219823268762970e-01
      -1.0724222942813495e+00 -2.0839314770563360e+00
      -1.1013218185471510e+01 1.5626908221807587e+00
      5.2702751098076712e+00 1.3764036332794740e+00
      5.4839281755908971e+00 -5.5531155459331387e+00
      -1.3704537544107627e+00 5.0826135840707245e+00
      2.0059966267974256e+00 2.4101273564034762e+00
      -1.5182882216379121e+00 1.3350506516161558e+00
      -1.4452315328995828e+00 2.9692796956984173e-02
      2.3327230517110116e+00 6.7897130654457316e-01
      6.1830765959111078e+00 -2.0901722593396888e+00
      1.8605369531357070e+00 1.4698285978963399e+00
      -4.9335722587880131e+00 -6.3465527815833509e+00
      7.6264857017006955e+00 6.4002495687885033e-02
      8.4713670587870393e-01 -7.4324041784312638e-03
      -2.7507542016031921e+00 5.0746241003998249e-01
      5.8470143317054002e-01 2.2524225988594995e+00
      1.9073103338571498e+00 6.9754503325881456e-02
      5.9704831850221138e+00 -2.2878358868145190e+00
      -1.0756505456856535e+01 -4.2505069212059263e+00
      -5.9351783170015935e+00 6.0030426268366055e-01
      -4.7308732482872493e+00 1.1533989853698496e+00
      1.0150718282432851e+00 -7.3192012507052040e-01
      1.2055425930589332e+00 2.5748533295937972e+00
      -2.4707883844471937e-01 -1.3346083058737365e-01
      -9.2855422921379438e-01 2.1318161374641789e+00
      -7.9331575233559470e-01 2.9866766559608604e+00
      2.8462345634012753e+00 9.3767796982793499e+00
      6.8498519420190460e+00 -2.1229448333555298e-01
      2.6598765668229571e+00 -2.6047987667956605e+00
      -1.0219289025354066e+00 5.9049423594656743e+00
      -6.2535351523255196e+00 3.3177239452304272e+00
      1.1584395189708110e+00 6.6895344615007890e-01
      -3.8066144028076132e+00 -3.2789591829653491e+00
      2.4951057043698066e+00 -1.3392445869155031e-01
      -1.2464358939988016e+00 -1.4402487920414302e+00
      -2.2678097630672095e-01 8.2629902312391346e-01
      5.9195547585632557e-01 -2.7657202657417029e-01
      3.9576604829468693e+00 6.1059543249028900e+00
      -1.5476646076460743e+00 1.5135140695985090e+00
      -2.4141242904852587e+00 1.2321436352656391e-01
      -7.8266166071868204e-01 5.0897850398063298e+00
      -1.6914448558542935e-01 2.7506226796674156e+00
      -6.1964677081252162e-01 2.7458025012789906e+00
      6.0695915336322654e+00 9.9084401626824847e-01
      -5.6198157793531722e-01 4.9411714496460526e+00
      -5.4132054133659180e+00 -1.8865235528031752e+00
      -4.1018099624603188e+00 2.3884647537473498e+00
      6.0674335400771398e+00 -2.8200794039195203e+00
      -2.0716237661151184e-02 1.3846372168500507e+00
      -4.1453401064268069e+00 2.4223247905173682e+00
      -2.9338016346457043e+00 1.4176593319129429e+00
      3.2024992200878860e-01 1.9524990922263574e-01
      -2.0427964218643564e+00 3.0427125317596007e+00
      4.9839922236049272e-01 2.5938613159578955e-01
      6.2204878136851771e-01 1.1422885648101699e+00
      6.6883972949698733e-01 -9.1075549538208944e-01
      4.2862075025271418e+00 -2.7634912169969567e-01
      -6.6413844300938250e+00 1.4548044874540893e+00
      3.3876040028578180e+00 -4.2265159732386994e+00
      -1.2086041286339897e+00 -1.8210705026362568e+00
      -1.1281338056679671e+00 1.8230817400603969e+00
      6.7014029082433328e+00 -6.5013319486103816e-01
      -7.1231934762584457e+00 -9.7007349689039746e-01
      6.8680007569221875e+00 8.7739775718974866e-01
      5.6664917179110619e+00 5.9839652998087152e+00
      -5.8480982188628365e+00 -2.2038148746848627e+00
      4.4062780811552429e+00 -1.0039840340495547e+00
      3.4055062361815314e-01 -4.2400315843147478e+00
      5.9303831537539198e+00 2.1132055166884340e+00
      -6.1571879986914357e+00 -1.2545836793797920e+00
      -4.5511034186465311e+00 7.5918007980870728e-01
      -6.0455600185061140e+00 3.0812201607940910e+00
      -5.6873917448945577e-01 -2.1384886004243175e+00
      -1.1209548520443983e+01 6.8340642175964184e-01
      1.5426876244774179e+00 -3.4597017663396934e+00
      -2.7570498796184961e+00 -3.5396839457697848e+00
      9.8513101407807235e-01 2.4073254945988459e-01
      -2.6777379385909157e+00 4.2639283378694710e+00
      1.1591579272631996e+00 6.5416030878447851e+00
      4.3315414567552590e+00 5.0662895349160131e+00
      9.5674525265830734e-01 9.0904419763003919e+00
      6.3134331970181323e-01 -7.0303311370628851e-01
      -4.3875702377828381e+00 2.3687792333086071e+00
      1.8022576361284115e+00 -4.3873378741816396e+00
      3.5212839446461977e+00 4.4973420874244878e+00
      -1.5403394899295741e+01 -4.2398343738761222e+00
      4.7243424386224069e+00 4.4736010046681205e+00
      6.0668684381274751e+00 3.9570010914059894e+00
      -7.3680524818697513e-01 4.0576403848171596e+00
      -3.4998229700474837e+00 -8.4595264579820899e+00
      -4.8980131504070030e+00 -2.5974563379056215e+00
      7.5716148232669489e-01 -4.4589910921775244e+00
      -6.9253432709424168e+00 -6.2972117397323082e+00
      -1.4677673966005166e+01 -3.6225322505228358e-01
      4.9633235784152756e+00 -2.7024753317960593e+00
      -3.5369900911577479e+00 -1.3233924691970147e+00
      1.2519632849784996e+00 -1.1493967877046893e+00
      1.4575396087334860e+00 1.3314812449373359e+00
      -1.8029057377456417e+00 1.1500815280682856e+01
      -1.4502885354213011e+00 4.2400224650799050e+00
      -1.5781326696655362e+00 3.5952525787798768e+00
      2.4825576503961821e+00 1.4260968802928327e+00
      4.6116269530947124e-01 6.8220126657754399e-01
      7.3921945155729416e+00 1.3296521637172953e+00
      1.2535248279773907e+00 8.2681778550732676e-01
      -8.2294758218418345e+00 -7.2415940672996353e+00
      2.6711313083211383e+00 9.3819984460657295e+00
      -8.5111776207136600e+00 -3.1447960811960125e+00
      2.7730721189544805e+00 -5.0973912885693373e+00
      1.3147763491352629e+00 1.4034972196964797e+00
      -7.3130462665981799e+00 -3.2774841606497538e+00
      5.3002695863787679e+00 4.3936912662042915e-01
      6.5307962484939575e+00 3.8172435558081830e-01
      -3.7245153218260603e+00 2.8204050355870097e-01
      1.0409647843511964e+01 -8.0893878203140801e+00
      3.5792786795119680e+00 8.8039720737664062e-01
      3.9508119400826023e+00 1.6177138215537623e+00
      -6.6327140164930318e+00 1.0204484332381609e+01
      2.3182229922294777e+00 4.2139674102477214e+00
      2.8194926070286503e+00 -1.0209536600866072e+01
      -3.2756552071940743e+00 -6.2920232804793219e+00
      -3.9760834867152979e+00 -7.2224606559328679e+00
      2.1667609331241300e+00 2.0135653766970392e+00
      5.9433886179636204e+00 2.8336951473770395e+00
      -3.8214969539440560e+00 -3.7549718905978731e+00
      8.4902981464226048e+00 -8.6894412849440705e+00
      1.4176256145370720e+00 -5.1852265698162121e+00
      3.6261767296616991e+00 -1.1808839765722057e+00
      1.8030599656984785e+00 -3.7410000365267928e+00
      1.3941080818992233e+00 2.1902059090495678e+00
      -4.4068822991187337e+00 5.0447072402229098e+00
      4.1637498367372112e+00 -4.4790486150952180e+00
      -2.3510080066744724e-01 -2.6027035229266384e+00
      2.2080956496598558e+00 -3.0178572532974673e-01
      -2.9992364834432084e+00 -4.2838763186952260e+00
      3.4884326340040328e+00 6.1557243667250994e+00
      4.4971280067249300e+00 -1.1891640894073718e+00
      -8.4847894601025473e+00 6.8752224236158241e+00
      2.3966494032038459e+00 7.9033373223922103e+00
      -9.1269049776363200e+00 -5.0259071241555766e+00
      2.0277167359915711e+00 -6.3072407705424256e+00
      1.1623090574044676e+01 -5.2968638828116612e+00
      -9.2955596163365115e+00 -8.0109752224802193e+00
      9.3613056509209240e+00 -1.0754822513260887e+00
      -3.5250336479930193e+00 -1.1129173845009619e+01
      4.8856521333158272e+00 3.7150594934080861e+00
      1.6890044607659496e+00 -3.1084586504203044e+00
      4.4173596159672153e+00 3.0768633931134479e+00
      3.2167390670096800e+00 -2.5574047547083292e+00
      5.9988618016286948e+00 7.4142267899721910e+00
      2.7698212573902464e-01 2.6546146148005256e+00
      -5.2091919528449058e+00 -3.7283344151055586e+00
      -5.8438279447693171e+00 1.5776857249412124e-01
      1.4208816501974790e+00 -5.4773762803111059e-01
      -6.4923025376079195e+00 7.0106475083478637e-01
      4.0528455170712672e+00 2.5971589116356966e+00
      -1.2092336028608033e+00 6.4816519888040894e-02
      2.4330223803540499e-01 2.0489358395686317e+00
      -2.7762607114512461e+00 1.8241156019797251e+00
      -5.2327678128477118e+00 1.9319106824887702e+00
      -4.5835568685401140e-01 1.2555562396119122e+00
      -4.1674708302481909e+00 -1.3202251530294720e+00
      -2.9740508517341855e+00 -6.7700348417742495e-01
      7.2779725759848564e+00 3.7295600712971921e-01
      -1.4574176667508838e+00 3.1195933803388090e+00
      3.6455805249934343e+00 1.6652875081076739e+00
      2.0793993189529778e+00 -6.5565767470641738e+00
      8.3581333757831588e-01 -5.1513575051007203e+00
      -3.9761200007224278e+00 1.1415060545161138e+00
      -1.2447845055640573e-01 7.4018160139156945e+00
      3.7605985367600834e+00 -2.1376712926900896e+00
      -6.0810277075156005e+00 -1.3166498562018911e+00
      -1.4790110442976949e+00 8.7669370772192767e-01
      3.6795013567923984e+00 9.3324497515755472e-02
      5.3425126829321394e+00 -6.5990988486186293e+00
      9.7667277199004054e+00 1.5626229892116845e+00
      5.5253702545300403e+00 1.5343150694939789e-01
      2.9780777720882461e+00 2.8288783593024447e-01
      -4.8076265626082009e+00 1.1550680352426507e-01
      3.4708265530161320e-01 -6.5371886107773598e+00
      1.9305570142120287e+00 -6.4884389835069758e+00
      2.2970513349858375e+00 -6.6558174188185726e-01
      1.7703403201104668e+00 1.1327127758058916e+01
      7.1328304429002038e+00 5.9573988102074518e+00
      -2.0035103536506571e+00 1.0150484371942827e+01
      -7.0237137129926710e+00 2.4880184847378657e+00
      1.8727113682625096e+00 1.6616944183521070e+00
      6.8164873857935182e-01 -1.0076215055195894e+01
      1.0399578300270709e+00 3.3838591650358016e+00
      2.2905096815913422e+00 -3.1761379926196716e+00
      -5.7782363084329436e-01 -7.4556010220403257e+00
      -6.4097110317696071e+00 4.7604103777789648e+00
      -3.7396290667213123e+00 -2.0046041847395051e+00
      -5.4970926333423629e+00 -4.5493207889491333e-01
      9.1375616368552870e-01 -1.0563460380197320e+00
      -6.6987977623355812e+00 1.7697595924300702e-01
      2.2998550746084798e+00 1.1755113521847786e+00
      3.0682285152818345e+00 -1.2064163999066992e+00
      -5.3208393078036424e+00 2.4605981580002567e-01
      -5.4326552483941368e+00 9.0080741364863359e-01
      3.2313236008110779e+00 -4.5161244143498704e+00
      7.0245195911106224e+00 2.7347719358681570e+00
      -1.9218272534153300e+00 -2.4614318833203641e+00
      -2.5440019609788340e+00 6.7184616742604364e+00
      -6.7381609275063115e+00 -7.8013329670178044e-02
      -5.0184972143541753e+00 -1.9885791346754635e+00
      6.0425915110922173e+00 6.0591081962731985e-01
      6.7084053147751754e-01 1.3260504394580328e+00
      4.7909109186658210e+00 2.4179467910918411e+00
      -2.4806838169613443e+00 -4.0654916952359832e+00
      -2.2012720384115125e+00 -6.1337061656946401e-01
      1.2360517966882507e+00 -6.9812772815765749e+00
      1.2471573894052630e+01 -5.1655306096636766e-01
      -4.3175981349634185e+00 1.1012030024893571e+00
      -3.6856983377915675e-01 2.1901405359864015e+00
      8.6242583682775831e-01 -2.4103708048559525e+00
      -2.4592427296745596e+00 -1.7317752532608216e-01
      -2.5845214700788928e+00 4.1596119885639782e+00
      -1.1665898348036235e+01 5.2026170054750978e+00
      -1.6788424346962636e+00 3.3512480228752546e+00
      -9.0319594091794209e-01 7.9021312955082674e+00
      -1.1468248337062965e+00 6.8839088804175628e+00
      4.6346641087314261e-01 2.8062379985111212e+00
      1.2786620074898680e+00 -1.5524931591104052e-01
      -3.6999112499092668e+00 -2.3524243815221433e+00
      -3.1001724616171650e-01 -5.9741751640666125e+00
      1.7104112128348554e+00 -3.4501398503077745e+00
      1.1210078566042213e+01 2.0806254108083038e+00
      2.6861757092427139e+00 2.3081856373722656e-01
      3.4010269367815660e+00 2.1730402400798741e+00
      -4.2284407427583082e+00 2.7142419180541530e+00
      1.9713587021258909e+00 -7.1982669286949585e-01
      -3.3505279819070628e+00 -2.6712598760671642e+00
      7.6264406588583178e+00 8.6442616654530458e-02
      -5.2616339651364852e+00 -2.5341961525324828e+00
      -3.8979034848568737e+00 4.8781687515876051e+00
      -5.6386029315985295e+00 -5.5486460351423073e-02
      -3.6519674776557842e+00 2.7904307951685490e+00
      -2.9264348382955491e-01 1.9926526944097507e+00
      -2.6547150515547764e+00 -3.3291041147483154e+00
      -1.6652179921878074e-01 -1.4834838853342518e+00
      2.9781424926740248e+00 4.1562089282632160e+00
      2.6360564771911621e+00 4.9049252406090443e-01
      5.6685872362813630e+00 -1.9815387028927589e+00
      -9.2502177543182040e-01 4.8755339351800089e+00
      -3.0354501889036465e+00 1.8229183532106463e+00
      -8.4806436185842349e-01 -2.9364140912333569e+00
      -1.6425769347634855e-01 -1.0357409922410678e-01
      1.3886985432744667e-01 -4.1159128216136445e+00
      -1.7444803101751964e+00 -7.6246844931905289e-01
      1.4889151846045334e+00 -4.3548647603963273e+00
      -8.4737335147146611e-02 5.4112525898187371e+00
      -1.4699301400485929e+00 3.5083825651807915e-01
      -2.2802249152859622e+00 5.5014680403969596e-01
      -1.5709660898772311e+00 -8.3347321078303449e-02
      6.5930517622093960e+00 3.6328291189589472e+00
      -2.1125126354055563e+00 -3.9501249101871597e-02
      -8.9513011068244164e-01 6.3865609319567995e-01
      -2.1690972910707096e+00 3.1277793790454922e+00
      -1.5784667267993300e+00 -2.1368702184598489e+00
      -1.0657870694460119e+00 1.8717569446172257e+00
      -4.2026800897824543e+00 -3.8606222957358716e-01
      -2.8477035198030953e+00 1.5289606012052364e+00
      2.2732748820444693e+00 2.1253876087887349e+00
      -1.0150661853332383e+00 -3.4581380470762157e-01
      5.3392262953832548e+00 3.4542806670893307e+00
      4.7439546813302940e+00 -6.5334034045873013e+00
      3.2578828919990293e+00 4.1791104701340736e+00
      8.2377019613559166e-01 -2.9968419997587717e-02
      1.7421519575066564e+00 4.7068625035655680e+00
      -2.4702080983103433e-02 3.5361101501650776e+00
      -5.2754555538187065e-01 -3.1392312412885603e-01
      -1.2755305530685858e+01 5.7548518173946628e-01
      -6.2609220033033344e+00 3.1980662251243813e-01
      5.8436738956251251e+00 9.4160096823463455e+00
      1.8575926335547939e+00 3.3511987535238270e+00
      -2.3842215737340675e+00 -3.0600073615959744e-01
      -8.2356309180629435e+00 1.5687238855757568e+00
      -1.4549895224738552e+00 6.2511628825252208e+00
      3.8231729239863732e+00 7.0481613668979017e+00
      -8.5670340124568281e+00 -5.5103612622132916e+00
      -6.2044006006601371e-01 2.7198755111634858e+00
      -2.3012273386853526e+00 -1.2544455990304604e+00
      3.9103646486823367e+00 3.2746090405233077e+00
      1.2542906576434527e+00 1.1939449711196117e+01
      -6.4812077807769954e+00 -1.7249956344355757e-01
      4.2799043545689592e+00 -2.9317399866869351e+00
      6.8362799316609628e+00 -2.0550622577043258e+00
      -2.2069266023040086e+00 -4.1596287734483695e-01
      -5.1061020443212026e+00 3.8061792079736709e+00
      -6.6114658665837700e+00 -1.1076813446305373e-03
      -2.6085484583458167e+00 -1.2040713937346068e+00
      -1.1934997319859113e+00 -7.8949459717339749e+00
      -1.5718096411094590e-01 -2.2919025595630649e-01
      3.0272872111188374e+00 3.7189640867925560e+00
      1.6622838918478439e-01 2.1891674384067996e+00
      -2.8030974568397532e-01 -1.0857022138065042e+00
      -4.8478891282748311e+00 1.4896990358984452e+00
      -5.1914326276910669e+00 1.0495487193426566e+01
      1.0961526913918796e+01 6.5878608547409820e+00
      3.1997098032969853e+00 -2.1600204940030183e+00
      -1.0250091477192458e+00 1.9080241582113804e+00
      2.2327834459181344e+00 -3.1785765209934040e+00
      1.7422587958495239e+01 -6.3689007487800131e+00
      -1.2384965623579833e+00 8.3599530406990077e+00
      3.0820607043894070e+00 -1.8619694597722081e+00
      -2.0113114278765440e+00 -3.5988808239969892e+00
      2.3139286908733445e+00 -6.2787950361738680e+00
      1.3262034052909648e+00 -7.1120113449114664e+00
      -1.7692977640352217e+00 -1.5657209230796481e+00
      -7.0224875460234113e+00 -2.2999892339408374e+00
      -1.1653342605356687e+00 6.9259546276499293e+00
      -2.1837887043960227e+00 1.7092115497927201e+00
      6.6870104340941019e+00 4.6188322939741544e-01
      7.1167200963380495e+00 -6.9090005459508186e+00
      -8.1468523644698188e-01 9.9654803501008071e-01
      1.1852228737196942e+01 1.1769248085862378e+00
      -2.5279678737242519e+00 1.0340036257517808e+00
      5.7454383886245939e+00 1.0352272127746302e+01
      -3.9257861147199895e+00 -3.8350870193530229e+00
      1.4076142010545933e+00 5.9290613001815187e+00
      -6.4515677852962119e+00 -6.0069974780881106e+00
      4.4706470640332325e+00 -3.8274051480726423e-01
      8.8358071255507280e+00 -4.8871169296785490e+00
      -3.5629618439576727e+00 -1.1059668124610671e+01
      9.7340705968697829e+00 -3.4512458614383399e+00
      5.4230245445619918e-01 -1.6331080333652213e+01
      -7.7818544742975577e+00 -1.3790544609454935e+01
      2.2278748279596776e+00 5.1065316350714685e-01
      3.7036935946724143e+00 1.8521835232354715e+00
      6.3472405226575042e+00 5.2190346260308136e+00
      2.1656428711193239e+00 -3.8118705816707741e+00
      -5.4830440074600135e+00 2.0291105279771564e+00
      5.1618060518250068e+00 -1.4451815952062286e-01
      -2.0005285326793092e+00 -4.0074686294268620e+00
      1.2866803561928755e+00 1.9434225912023959e+00
      -5.7525567978035552e-01 -1.4524656941746716e+00
      -4.9989629619249637e-01 3.2526784661426746e+00
      -1.5118724200559968e+00 4.2502559153573056e+00
      -2.5290505117145528e+00 -4.0446656005434036e+00
      5.1678187538203924e+00 6.6485859947870996e+00
      9.2920552514500994e+00 -4.6402977685787086e+00
      6.9351337700654145e+00 -5.2956015456501495e+00
      8.9301929065304879e+00 1.1961202537218103e+00
      1.8120763994587923e+00 -1.9911172862623566e+01
      6.7867234858075749e+00 6.8301492529998784e+00
      -9.5195102472751247e-01 9.6337491210662943e-02
      -2.1062315035652555e+00 -1.9241105809868333e+00
      6.8081959967597117e+00 -2.7578314700069448e+00
      -1.0878782663170934e+00 4.6326676092125867e+00
      3.8219029115038583e+00 2.0634240585603312e+00
      -4.5022431862024357e+00 8.2256098235582242e-01
      -9.5294908496028210e+00 -1.1856560802315779e+00
      1.9361152966253430e+00 5.8725743757375071e-01
      -8.1647921260673790e+00 1.8140752292310831e+00
      2.4846350699927164e+00 7.3076513228955017e-02
      2.1008264057501553e+00 2.7170942200130783e+00
      -5.1278429551658071e+00 1.2806257583103642e+01
      -3.3450994846428133e+00 -2.8662278236541820e+00
      -1.7961972073290742e+00 4.1804343046258037e+00
      4.8255809399782619e+00 3.0259667867953159e+00
      9.9289322181768842e+00 -2.1742319363894258e+00
      6.7097345333612379e+00 -2.0777564505855151e+00
      1.3728303513245353e-02 -3.1387961444816947e+00
      -1.0206869831677176e+01 1.0319975478584791e+00
      -2.5775928976091884e+00 4.2307933088726397e+00
      1.3403136608501973e+00 1.2985402940398677e+01
      -6.2275613110330559e+00 -3.8510221611790176e+00
      -2.3776813523843093e-01 -9.5087762622618888e-01
      5.7935418979626441e+00 6.9409012099491330e+00
      -2.1712852046914852e-01 -3.7976283023048811e+00
      -4.9097592633892138e+00 1.1818895663915283e+01
      -1.1528597859333400e+00 3.5357411620483847e+00
      1.1050889000055293e+00 3.6321955778893383e-01
      -1.4266601322974488e+01 8.5952676215224866e-01
      4.1791209073869675e+00 -2.6842774082542014e+00
      -6.2454760422173115e+00 -4.8641611520021771e-01
      2.8784074479881103e+00 6.9401985074896180e+00
      9.8544801702668083e-01 3.5788318589513497e+00
      -5.8798401872346497e+00 -7.7917366596152213e-02
      7.5860219692197750e-01 -4.0996719279255034e+00
      9.2672914071972308e+00 7.4500773005439056e+00
      7.8310993584133914e+00 5.0634728060094014e+00
      -7.5681841545219308e-01 -2.1946099398332337e+00
      2.0201841733839077e+00 2.2870839540568957e+00
      6.8917431845484556e-01 7.9632694006940481e+00
      4.2405172988284905e+00 8.5004765014966854e-01
      6.0058968663535571e-02 -6.0714030416834612e+00
      -2.0282226341807061e+00 3.5872319669933126e+00
      1.9992047006376858e+00 1.6974184590452868e+00
      -3.1562987229598654e+00 -8.0635585564627839e+00
      -1.0521196400190698e+01 4.3462380373631309e+00
      -3.3506802179967408e+00 -3.9903290481299536e-01
      1.1843910120095609e+00 -6.6017848407306789e-01
      4.1345225935438157e-01 1.1699447638561161e+01
      -3.8133745111739534e+00 1.9842371771342926e+00
      -5.7485870745741421e+00 3.7077593387167118e+00
      2.5832967447758626e-01 1.0893247762845496e+01
      -1.9160840893820448e+00 2.1206393834148245e+00
      9.9882826162092253e-01 -5.5129343082712401e-01
      1.0464225149140531e+00 -1.4850296828194018e+00
      3.9685775088875657e+00 1.5545418974371448e+00
      -2.4978572042506797e+00 5.5176743016643419e+00
      4.0098733308303158e+00 4.6083206314458041e+00
      -2.6602491026884045e-01 4.0140444087060345e+00
      -8.9233708073477225e-01 2.7203658523093024e+00
      -4.9183462748458223e-01 -6.7901333699657584e+00
      1.4839240317697755e+00 1.6777963047844953e+00
      -4.8308949689253815e+00 2.5759625817638674e+00
      1.2389426790962659e+00 -4.7865814374383095e+00
      -2.5307779571905789e+00 3.8765587789864955e+00
      -2.4681127202084319e-01 -1.3724473086027862e+00
      6.0104123266646443e+00 -7.1638927799990393e-01
      -3.7515576360546192e+00 1.3867770883244290e+00
      2.0782225544964343e+00 5.6916263699263689e+00
      2.9157071067937884e-01 -7.0523801798874564e+00
      -1.6178592532475156e+00 -2.4609635236053723e-01
      -2.7628215702795611e+00 -8.0344369045895825e-01
      -5.8636468076354212e-02 5.0386481072569476e+00
      3.4832504070130194e-01 3.6076290543098972e+00
      -4.3661300489554661e-01 4.5263769302376966e+00
      4.0521359519834421e+00 3.7461479786731329e+00
      -3.1306400713908500e-02 5.0190372815618547e+00
      -2.6527982750891006e+00 1.3952431450477123e+00
      -2.4574364268478939e+00 3.2521299470391347e+00
      3.2554834227470741e+00 -4.6374404456762264e+00
      2.9085851433076693e-01 -6.2669063734752752e+00
      1.3418770165267370e+01 -1.2782512326592701e+00
      4.8821401023011228e+00 -1.3524350260825979e+00
      4.0407993327026794e+00 1.8028789695666887e+00
      -1.3847317315091778e-01 -3.2567601407377850e-01
      5.5238581312726200e+00 2.3179627549968553e+00
      1.7592894356601112e+00 2.6143141734047042e+00
      4.6090968147185469e+00 6.3024834305610233e-01
      -5.6428040948003355e-01 -1.8788773948795472e+00
      -4.0861573334581687e+00 -2.0657145852000629e+00
      -6.1867064418353044e+00 9.2985545417139742e-02
      -6.0277638958752764e+00 -4.0532299305056698e+00
      2.6533480923754410e-01 3.5773821608108691e+00
      -7.6144656897544916e-01 -4.8631447458072623e+00
      -2.3740722220605188e+00 4.6670134197631743e+00
      1.6300426920648483e+00 1.3789001774955876e+00
      2.6886597047586229e+00 -1.9040620675829416e+00
      5.5492866841266686e+00 2.3301715622648889e+00
      -2.6490875247129136e-01 2.0725100580632980e+00
      3.1311866556091905e+00 -1.5333868969709403e+00
      9.9664598512853764e-01 -5.4845961763839923e-01
      -5.7352265706700278e-01 -3.9453284630042440e-01
      -1.5146224909541361e+00 -1.4420152223815945e+00
      4.0797370027105218e-01 2.6270489683431801e+00
      6.3900292324659063e+00 -1.8460820992557128e+00
      1.1686313147271383e+00 6.4259618204892677e+00
      -2.2458921185344884e+00 -1.7328109196779662e+00
      -2.4135976657425942e+00 5.5387482894511708e-01
      3.1165135807961231e+00 2.4399297544317569e+00
      -2.7474636487436901e+00 2.0919573215065150e+00
      1.7177967236746587e+00 -3.8869791889838362e-01
      3.3840407503253398e+00 -8.4761342559054409e-01
      -4.6476962685509116e-01 6.4848976401369063e-01
      -9.0008998593699208e-01 2.9323559683399281e-01
      -4.7196743688414697e+00 -6.5692633782962568e+00
      -6.5061005494924762e-01 1.0127823333424193e+00
      7.2247399681371869e+00 2.0577026111880552e+00
