<?xml version="1.0"?>
<opencv_storage>
<opencv_ml_ann_mlp>
  <format>3</format>
  <layer_sizes>
    120 40 65</layer_sizes>
  <activation_function>SIGMOID_SYM</activation_function>
  <f_param1>1.</f_param1>
  <f_param2>1.</f_param2>
  <min_val>-9.4999999999999996e-01</min_val>
  <max_val>9.4999999999999996e-01</max_val>
  <min_val1>-9.7999999999999998e-01</min_val1>
  <max_val1>9.7999999999999998e-01</max_val1>
  <training_params>
    <train_method>BACKPROP</train_method>
    <dw_scale>1.0000000000000001e-01</dw_scale>
    <moment_scale>1.0000000000000001e-01</moment_scale>
    <term_criteria>
      <iterations>30000</iterations></term_criteria></training_params>
  <input_scale>
    2.5321083298129111e+01 -9.1314009112901731e-02
    4.0260961726265201e+00 -5.1234838837182617e-01
    3.0200348219488915e+00 -1.9870279923008149e+00
    4.2191777664218080e+00 -3.6370872379195434e+00
    4.1038277812840693e+00 -3.1297395411659985e+00
    4.4090429690687136e+00 -3.6423065237403369e+00
    4.0993317545806756e+00 -3.4575770113393753e+00
    2.8890902772228246e+00 -1.4632265928321839e+00
    5.7041639782400875e+00 -3.6977995035867944e-01
    4.0643788987757929e+01 -5.2997103790879845e-02
    3.9102589896476547e+00 -2.8047108679416026e+00
    4.8337719600963860e+00 -4.0075577980572623e+00
    4.3747433834877487e+00 -3.2234446410173025e+00
    4.4677185516481286e+00 -3.3782019373467254e+00
    4.9133579958422393e+00 -3.9008439118311240e+00
    4.8172009122294268e+00 -3.7429131938892208e+00
    4.4183149498833361e+00 -3.1726029760507841e+00
    4.6921559803130473e+00 -3.5216901872652477e+00
    4.5931184402202181e+00 -3.7442509951576404e+00
    3.5088519711171648e+00 -2.2192976251888417e+00
    3.2148849397020729e-01 -5.0425492103945362e-02
    4.4981437391974091e-02 -2.8660652652083418e-01
    1.4077937599008312e-02 -8.2180768529492532e-01
    1.1427916597605902e-02 -1.3727368281679813e+00
    1.0243796211260984e-02 -1.3736177684045776e+00
    1.0888938355387973e-02 -1.5470085866577226e+00
    1.1737195009807069e-02 -1.3496791545332070e+00
    1.7103189103492063e-02 -6.2826381797598774e-01
    6.4025875068036739e-02 -1.8202274380886480e-01
    4.1083219376722996e-01 -3.4198386854290330e-02
    2.2658477918425959e-01 -7.0581590877982978e-02
    2.9758782075061357e-02 -3.5994042501113926e-01
    1.1863485456778452e-02 -1.1333199085446044e+00
    1.1626359899168352e-02 -1.8008263309534276e+00
    1.1675533152812468e-02 -1.4264580930997117e+00
    1.2203797666563494e-02 -1.7466422074297498e+00
    1.1421680002203225e-02 -1.8540358185589727e+00
    1.3421691121648300e-02 -8.5811222498473450e-01
    4.5174968735822538e-02 -2.3704664528346525e-01
    2.8589439150956841e-01 -3.8114323093859835e-02
    2.2672009246167710e-01 -7.1349327604397314e-02
    2.8411851241461377e-02 -3.6980595179267345e-01
    1.1187735808904755e-02 -1.1025536424551694e+00
    1.1642519580956714e-02 -1.5589135750151457e+00
    1.0302544112703337e-02 -1.0175369273709485e+00
    1.0534626201683654e-02 -1.1606931547258987e+00
    1.1029287304420533e-02 -1.5919517985264933e+00
    1.2509616453643240e-02 -8.6382553317216060e-01
    4.3749062441023313e-02 -2.5621359665750004e-01
    3.4614944073555198e-01 -3.7352002106913834e-02
    2.1918045560042212e-01 -6.7722467014574086e-02
    2.9513691774763109e-02 -3.6379007346744197e-01
    1.1191096403197877e-02 -1.1334018577667631e+00
    1.1502211551924102e-02 -1.6489900517787173e+00
    1.0266600172844300e-02 -1.1807323669592114e+00
    1.0841404372383127e-02 -1.3236683941241099e+00
    1.0762864818830507e-02 -1.4969296063282649e+00
    1.2533595374463526e-02 -8.1968433404988650e-01
    4.4983730717691427e-02 -2.4794275032516136e-01
    3.7057032713580734e-01 -4.6707626091113751e-02
    2.4838690504062796e-01 -5.8527579712973982e-02
    3.2584303089941001e-02 -3.2215525547050061e-01
    1.1237485678771225e-02 -1.0444024884190113e+00
    1.0865296294527685e-02 -1.7016281936580122e+00
    1.0921597756304031e-02 -1.6664997477931784e+00
    1.1655080467830559e-02 -1.9124919274449268e+00
    1.1602167676324382e-02 -1.7809286126338748e+00
    1.3077830929049116e-02 -7.7329238803871958e-01
    5.0705836212612029e-02 -2.2176713967520914e-01
    4.0483554136644434e-01 -3.6067975431755370e-02
    2.5824413589443546e-01 -5.4079831652038300e-02
    3.3569317351831170e-02 -3.0164528666521467e-01
    1.1244441491268015e-02 -9.9798980132615167e-01
    1.1082851909310442e-02 -1.6389432755087603e+00
    1.1093687056503562e-02 -1.4753743086600062e+00
    1.1448828114386264e-02 -1.7038449930056816e+00
    1.1200526426762626e-02 -1.7573236367468650e+00
    1.2836058754477950e-02 -8.0811442387945465e-01
    4.7982246425336730e-02 -2.1362290496509423e-01
    3.7916804218074562e-01 -3.3916013858994086e-02
    2.2506348719135183e-01 -6.0329295784272617e-02
    3.1359891376149363e-02 -3.2993679471507298e-01
    1.1082085190846351e-02 -1.0369552324142077e+00
    1.1119910999723001e-02 -1.4842320438639456e+00
    1.0755050318402537e-02 -1.0187647880352930e+00
    1.0844312226043318e-02 -1.2133033968778468e+00
    1.0882591913820445e-02 -1.6002124237957072e+00
    1.2173758624492459e-02 -8.4930167619269403e-01
    4.3288234982238410e-02 -2.4673342365563231e-01
    3.2298553042650252e-01 -3.4654069162913359e-02
    2.2126159058844413e-01 -6.8851880487630537e-02
    2.8965115125044467e-02 -3.5699171986630257e-01
    1.1265199213635642e-02 -1.1633719881646201e+00
    1.1766919072931641e-02 -1.6791919213141169e+00
    1.1014672917750644e-02 -1.0602147886753683e+00
    1.0495310935661832e-02 -1.1887742911860242e+00
    1.0761861898788087e-02 -1.5801133130236089e+00
    1.2066321924794416e-02 -8.8131660169653148e-01
    4.2702608391138187e-02 -2.6502563440166338e-01
    3.0874969002896352e-01 -3.6729774982433107e-02
    2.1772304881429549e-01 -7.0882809355685319e-02
    3.1032268814752715e-02 -3.4916669412076179e-01
    1.1734193833710648e-02 -1.1329319764839090e+00
    1.1418412628305365e-02 -1.7665746796414901e+00
    1.2213792843303940e-02 -1.4738933511814583e+00
    1.2803040657245166e-02 -1.6994511315551664e+00
    1.0553657078711408e-02 -1.5696106797023508e+00
    1.3444940558798095e-02 -8.5160837646324117e-01
    4.7944227120196803e-02 -2.4925604493192893e-01
    2.7345593680246366e-01 -3.6296957280368393e-02
    3.1994628828729244e-01 -5.4806859172249388e-02
    4.9537523032058876e-02 -2.5540793579576204e-01
    1.5119823356808303e-02 -7.2749596573662745e-01
    1.1638027559444541e-02 -1.1900223659746090e+00
    1.0096495580052321e-02 -1.1812517954353701e+00
    1.0523279060408898e-02 -1.1643327570398698e+00
    1.2031135475295955e-02 -1.0728771088497571e+00
    1.8106809201000957e-02 -5.8516707268160173e-01
    7.6063573781298174e-02 -1.8809591840609638e-01
    3.4441931083747185e-01 -2.6120375742700878e-02</input_scale>
  <output_scale>
    5.2631578947368418e-01 4.9999999999999994e-01 5.2631578947368418e-01
    4.9999999999999994e-01 5.2631578947368418e-01 4.9999999999999994e-01
    5.2631578947368418e-01 4.9999999999999994e-01 5.2631578947368418e-01
    4.9999999999999994e-01 5.2631578947368418e-01 4.9999999999999994e-01
    5.2631578947368418e-01 4.9999999999999994e-01 5.2631578947368418e-01
    4.9999999999999994e-01 5.2631578947368418e-01 4.9999999999999994e-01
    5.2631578947368418e-01 4.9999999999999994e-01 5.2631578947368418e-01
    4.9999999999999994e-01 5.2631578947368418e-01 4.9999999999999994e-01
    5.2631578947368418e-01 4.9999999999999994e-01 5.2631578947368418e-01
    4.9999999999999994e-01 5.2631578947368418e-01 4.9999999999999994e-01
    5.2631578947368418e-01 4.9999999999999994e-01 5.2631578947368418e-01
    4.9999999999999994e-01 5.2631578947368418e-01 4.9999999999999994e-01
    5.2631578947368418e-01 4.9999999999999994e-01 5.2631578947368418e-01
    4.9999999999999994e-01 5.2631578947368418e-01 4.9999999999999994e-01
    5.2631578947368418e-01 4.9999999999999994e-01 5.2631578947368418e-01
    4.9999999999999994e-01 5.2631578947368418e-01 4.9999999999999994e-01
    5.2631578947368418e-01 4.9999999999999994e-01 5.2631578947368418e-01
    4.9999999999999994e-01 5.2631578947368418e-01 4.9999999999999994e-01
    5.2631578947368418e-01 4.9999999999999994e-01 5.2631578947368418e-01
    4.9999999999999994e-01 5.2631578947368418e-01 4.9999999999999994e-01
    5.2631578947368418e-01 4.9999999999999994e-01 5.2631578947368418e-01
    4.9999999999999994e-01 5.2631578947368418e-01 4.9999999999999994e-01
    5.2631578947368418e-01 4.9999999999999994e-01 5.2631578947368418e-01
    4.9999999999999994e-01 5.2631578947368418e-01 4.9999999999999994e-01
    5.2631578947368418e-01 4.9999999999999994e-01 5.2631578947368418e-01
    4.9999999999999994e-01 5.2631578947368418e-01 4.9999999999999994e-01
    5.2631578947368418e-01 4.9999999999999994e-01 5.2631578947368418e-01
    4.9999999999999994e-01 5.2631578947368418e-01 4.9999999999999994e-01
    5.2631578947368418e-01 4.9999999999999994e-01 5.2631578947368418e-01
    4.9999999999999994e-01 5.2631578947368418e-01 4.9999999999999994e-01
    5.2631578947368418e-01 4.9999999999999994e-01 5.2631578947368418e-01
    4.9999999999999994e-01 5.2631578947368418e-01 4.9999999999999994e-01
    5.2631578947368418e-01 4.9999999999999994e-01 5.2631578947368418e-01
    4.9999999999999994e-01 5.2631578947368418e-01 4.9999999999999994e-01
    5.2631578947368418e-01 4.9999999999999994e-01 5.2631578947368418e-01
    4.9999999999999994e-01 5.2631578947368418e-01 4.9999999999999994e-01
    5.2631578947368418e-01 4.9999999999999994e-01 5.2631578947368418e-01
    4.9999999999999994e-01 5.2631578947368418e-01 4.9999999999999994e-01
    5.2631578947368418e-01 4.9999999999999994e-01 5.2631578947368418e-01
    4.9999999999999994e-01 5.2631578947368418e-01 4.9999999999999994e-01
    5.2631578947368418e-01 4.9999999999999994e-01 5.2631578947368418e-01
    4.9999999999999994e-01 5.2631578947368418e-01 4.9999999999999994e-01
    5.2631578947368418e-01 4.9999999999999994e-01 5.2631578947368418e-01
    4.9999999999999994e-01</output_scale>
  <inv_output_scale>
    1.8999999999999999e+00 -9.4999999999999996e-01
    1.8999999999999999e+00 -9.4999999999999996e-01
    1.8999999999999999e+00 -9.4999999999999996e-01
    1.8999999999999999e+00 -9.4999999999999996e-01
    1.8999999999999999e+00 -9.4999999999999996e-01
    1.8999999999999999e+00 -9.4999999999999996e-01
    1.8999999999999999e+00 -9.4999999999999996e-01
    1.8999999999999999e+00 -9.4999999999999996e-01
    1.8999999999999999e+00 -9.4999999999999996e-01
    1.8999999999999999e+00 -9.4999999999999996e-01
    1.8999999999999999e+00 -9.4999999999999996e-01
    1.8999999999999999e+00 -9.4999999999999996e-01
    1.8999999999999999e+00 -9.4999999999999996e-01
    1.8999999999999999e+00 -9.4999999999999996e-01
    1.8999999999999999e+00 -9.4999999999999996e-01
    1.8999999999999999e+00 -9.4999999999999996e-01
    1.8999999999999999e+00 -9.4999999999999996e-01
    1.8999999999999999e+00 -9.4999999999999996e-01
    1.8999999999999999e+00 -9.4999999999999996e-01
    1.8999999999999999e+00 -9.4999999999999996e-01
    1.8999999999999999e+00 -9.4999999999999996e-01
    1.8999999999999999e+00 -9.4999999999999996e-01
    1.8999999999999999e+00 -9.4999999999999996e-01
    1.8999999999999999e+00 -9.4999999999999996e-01
    1.8999999999999999e+00 -9.4999999999999996e-01
    1.8999999999999999e+00 -9.4999999999999996e-01
    1.8999999999999999e+00 -9.4999999999999996e-01
    1.8999999999999999e+00 -9.4999999999999996e-01
    1.8999999999999999e+00 -9.4999999999999996e-01
    1.8999999999999999e+00 -9.4999999999999996e-01
    1.8999999999999999e+00 -9.4999999999999996e-01
    1.8999999999999999e+00 -9.4999999999999996e-01
    1.8999999999999999e+00 -9.4999999999999996e-01
    1.8999999999999999e+00 -9.4999999999999996e-01
    1.8999999999999999e+00 -9.4999999999999996e-01
    1.8999999999999999e+00 -9.4999999999999996e-01
    1.8999999999999999e+00 -9.4999999999999996e-01
    1.8999999999999999e+00 -9.4999999999999996e-01
    1.8999999999999999e+00 -9.4999999999999996e-01
    1.8999999999999999e+00 -9.4999999999999996e-01
    1.8999999999999999e+00 -9.4999999999999996e-01
    1.8999999999999999e+00 -9.4999999999999996e-01
    1.8999999999999999e+00 -9.4999999999999996e-01
    1.8999999999999999e+00 -9.4999999999999996e-01
    1.8999999999999999e+00 -9.4999999999999996e-01
    1.8999999999999999e+00 -9.4999999999999996e-01
    1.8999999999999999e+00 -9.4999999999999996e-01
    1.8999999999999999e+00 -9.4999999999999996e-01
    1.8999999999999999e+00 -9.4999999999999996e-01
    1.8999999999999999e+00 -9.4999999999999996e-01
    1.8999999999999999e+00 -9.4999999999999996e-01
    1.8999999999999999e+00 -9.4999999999999996e-01
    1.8999999999999999e+00 -9.4999999999999996e-01
    1.8999999999999999e+00 -9.4999999999999996e-01
    1.8999999999999999e+00 -9.4999999999999996e-01
    1.8999999999999999e+00 -9.4999999999999996e-01
    1.8999999999999999e+00 -9.4999999999999996e-01
    1.8999999999999999e+00 -9.4999999999999996e-01
    1.8999999999999999e+00 -9.4999999999999996e-01
    1.8999999999999999e+00 -9.4999999999999996e-01
    1.8999999999999999e+00 -9.4999999999999996e-01
    1.8999999999999999e+00 -9.4999999999999996e-01
    1.8999999999999999e+00 -9.4999999999999996e-01
    1.8999999999999999e+00 -9.4999999999999996e-01
    1.8999999999999999e+00 -9.4999999999999996e-01</inv_output_scale>
  <weights>
    <_>
      1.7445338647663051e+00 1.6295186626556484e+00
      -4.2589079920565336e+00 -2.8358832116202928e+00
      7.9405424226770611e+00 9.1897490020252282e-01
      -2.0529765997489209e+00 1.7717358935070568e+00
      1.6445900686959534e+00 -3.6111614811081365e+00
      4.2314797941230369e+00 1.5663184470749940e+00
      7.8294334043899427e-01 1.6692643471506539e+00
      -3.7738261311388271e-02 -1.7593357198841056e-01
      -3.9763981171010849e+00 1.0272153850628070e+00
      1.5488270604590257e+00 3.9504489117433854e+00
      -3.6632708497551874e+00 -1.9445837932606971e+00
      -5.1248363338049945e+00 -4.5003357219611483e-02
      -3.0432881470196556e+00 -2.5252836401495666e+00
      4.2640753819978521e+00 -1.1405010746621620e+00
      7.8194103395223022e+00 1.1818393586428537e+00
      -5.5855908125424980e-01 -1.9742659888877567e+00
      3.7170036579471670e+00 -7.2622846428518975e-03
      1.5580578542845938e+00 2.1358114317056920e+00
      3.6686939754676509e+00 2.4157763264978058e+00
      -3.0945715031612475e-02 1.4885052446977198e+00
      -2.8000877433218427e+00 -4.2146190361539633e+00
      -8.2704714395820256e-01 -3.3511313918543544e+00
      3.5019513240805202e+00 -4.3478719721084431e+00
      -4.2884557688869780e+00 -2.8454659128553645e+00
      6.2613516510801190e+00 4.8549957877418448e+00
      -4.1466605631151570e+00 -3.5069099194985349e+00
      1.2172268723702262e+00 3.3654624722866662e+00
      -2.5984402551678500e+00 2.9382848201532275e+00
      -5.2201565039564004e+00 1.2388340792807279e-02
      4.5023600500413314e+00 2.9780745789662579e+00
      4.3215319276175612e-01 3.4149801515172804e+00
      5.7724362801956479e+00 -2.3537019119849818e+00
      -1.9501354796527655e+00 1.3840552418170797e+00
      1.3757692063581060e+00 1.0070238365928463e+00
      -3.7049344319804232e+00 -2.0499351879220518e+00
      1.9133643672035570e+00 5.1880817388557130e+00
      4.4611254996462729e-01 4.9778950928271444e+00
      1.8418388463778951e-01 3.6124090611298820e-01
      8.8682711057968771e+00 2.0595470451502629e+00
      6.8342777413987865e-01 1.6276558666189478e+00
      -2.5246839210732599e+00 -3.6828539384709802e+00
      -5.9213384314958297e+00 3.3114896447765494e+00
      -3.0904826815207844e+00 -2.6131747620658725e+00
      4.7013195555543383e+00 -2.6029108564406367e-01
      -2.0555906394553376e+00 2.1022879387177356e+00
      2.6868201999648673e+00 -1.3326627279440953e-01
      3.7067859238622018e+00 -3.6057732422545943e+00
      7.6911860724963244e-01 2.5228539274000461e+00
      1.7275093490876112e+00 5.6125264070246041e+00
      -1.3945553718675185e-01 3.0604208112889969e-01
      -3.0438616752897002e-01 2.9741432607510219e+00
      7.0673651526319325e-01 -9.3263661451181934e-01
      -1.9310367704270959e+00 -3.8681902121288025e-01
      2.8352174946830497e+00 3.9153941972085931e+00
      -1.5728437594149539e-01 1.0482253481408883e+01
      3.7501923051227193e+00 -9.4952877590277274e-01
      7.8500923165602794e+00 8.8322233690829908e+00
      -6.4267293152650939e-01 1.5259345733375136e+00
      5.5089873409699948e+00 -4.5165348300183670e+00
      -6.2921194132173819e-01 1.8463931029663276e+00
      9.7646030618981019e+00 -8.8302087265548046e+00
      -8.3519478166877992e+00 -4.2454248122065259e+00
      -6.6110038849986241e-01 4.5058299972409506e+00
      1.8101046231719107e+00 1.6751675092995424e+00
      5.5588858250068824e+00 4.8569429556006116e-01
      -1.5631376655612716e+00 -5.0678725451102249e+00
      2.6231943474356654e+00 8.7758987801757860e-01
      -1.6324447569177571e+00 1.0720535317851621e+00
      -5.1404150933322388e+00 7.8582908996448553e-01
      -6.9470164733181852e+00 -2.9718373758258827e+00
      -4.7585267495879853e+00 5.6432709437879831e+00
      -7.2952434532165578e+00 -1.0926690821967733e+00
      -8.3785875755424772e+00 -1.7345838184293805e+00
      -1.9275428422400991e+00 -2.2564876423851090e+00
      3.4336641853825907e-02 7.3001015924970885e+00
      6.6974643022405740e+00 -6.0135165988154853e+00
      5.1467383918386878e+00 -3.0903607638597292e+00
      3.0138642039701274e-01 -6.9304124447929299e-02
      -2.0063947765672094e+00 -2.3793749425567650e+00
      1.2031939707259753e+00 1.7229387131601936e+00
      1.3701492817064558e+01 -5.5061609864440895e+00
      -6.4996738515922825e-01 -9.6435807288562962e+00
      -1.9497129868048897e+00 -1.1874368053536015e+00
      -1.1967314638011801e+00 -6.8765119528784338e+00
      7.7680731257765192e+00 8.8923286080291919e-01
      -3.4358306147275783e+00 -1.8385075746105219e+00
      -5.0403185705307187e+00 -3.9501991234401046e-01
      5.0244110399307305e+00 -6.6617665763014369e+00
      -4.7895346232529343e+00 7.6720755328446169e+00
      2.4130121459639735e+00 -8.0499929496843303e-01
      5.4882014930686518e+00 5.4746461088208500e+00
      -2.8256960637738699e+00 1.0607104357825724e-01
      5.7869292669118622e+00 2.9178377980317634e+00
      -5.1720990405806022e-01 2.5258253319613124e+00
      8.6123601736786104e-01 1.0750177094118603e+01
      5.3385536161599951e+00 2.9933134973439448e+00
      1.1703593497738041e+00 2.3633600508994905e+00
      -6.0035316783226322e-01 -9.1444137062873110e-01
      6.7338809520173082e-01 3.8245918523630007e-01
      -6.8400885229259663e+00 -1.4931408564742947e+00
      1.5354075891071243e+01 -2.0132163767486722e+00
      -4.5384411192195246e+00 -4.6444012609399818e+00
      1.1889210587737467e+00 8.4314398725444828e-01
      -3.2321764754682345e+00 3.8578644335380203e+00
      4.1725177325850069e+00 -7.7158531753666475e+00
      9.5826696420228208e-01 -1.9225205330766755e+00
      -1.6819001370027669e+00 -7.8790306694120140e+00
      9.1452187479167826e+00 -4.4441398470482441e-01
      -1.3623673063759432e+01 3.1611887681492101e+00
      8.5580259272123413e+00 7.2640792010780881e+00
      8.5542156223238326e+00 4.2444871548078389e+00
      -3.4110528140697562e+00 -1.5024410294599944e-01
      3.9347000797007716e+00 1.0138810811738237e+01
      -9.8813078663934950e-01 -3.3283912964279549e+00
      4.0201642413082816e-01 -4.0343145868502948e+00
      7.0039648813658202e+00 1.3326343616570013e+00
      5.0805523035592266e+00 1.6930101336513595e-01
      -8.7461331069191531e-02 -3.4746180468405745e+00
      -8.6103888635436210e-01 6.7163047030972232e+00
      1.6984856721411330e+00 1.7277171633633537e+00
      5.4369215391039800e+00 -8.6061569337557824e+00
      -6.6275863484556856e+00 3.3148964480790211e+00
      1.8717529175747188e-01 8.9819571139087273e+00
      2.5911602360771453e+00 5.5903628332452335e+00
      2.7161101029748069e-01 -4.0162164943357928e+00
      1.5733530232184481e+00 -7.0417287013760346e+00
      4.1711117819290049e+00 -3.2436490660518822e+00
      4.8916020488475489e+00 -4.7780832169568868e+00
      1.7066226227886372e+00 1.3795831443954507e+00
      3.2785175765165162e+00 -4.8353860835220219e+00
      1.3870201116683705e+00 1.8255797425568656e+00
      -6.0702860049776204e+00 -4.8563269463807768e-01
      3.1914220608037014e+00 -1.2612760033467876e-01
      1.6996022120489093e-01 -6.7083898922218372e+00
      -3.1620393042922283e+00 -1.4731573131407243e+00
      -7.4291219964043442e+00 -8.5687552338879969e-01
      9.9727721122666790e-01 -4.9185057342009193e+00
      7.3803649105386393e-02 1.1585414120186011e+01
      -2.9859625858068215e+00 -1.9483508482107684e-01
      2.3357188379109592e+00 -1.7531024350865363e+00
      1.7604197406043669e+00 -2.7620123369158169e+00
      5.0036508936993229e-01 2.7283765490263012e+00
      -6.1340611730427552e+00 6.2261310608110474e+00
      -5.1572827618304240e+00 3.4161163428320251e+00
      1.0323005138069163e+00 2.8281795580990146e+00
      4.3932794828953261e+00 2.8824466783509806e+00
      -2.2517633355128090e+00 -5.0173778412205330e+00
      4.7784797912642940e-01 -6.7336348468699314e-01
      5.8789275216596426e+00 -8.9316841501291955e-01
      6.4980970103161422e+00 5.4165623979394812e+00
      -2.1320974987750012e+00 -1.1510134476627440e+00
      5.2491046746989882e+00 1.2359990299496743e-01
      1.0959008860408990e+00 1.2724705900622724e+00
      1.3052120629254462e+00 -5.9971264674554954e+00
      -4.6710706869924556e-01 5.9591568845161313e-01
      1.6967876722857398e+00 1.4326854968004250e+00
      2.2581869734413340e+00 1.6208089755075525e-02
      -1.2251656974808380e+00 2.0041204400755093e+00
      -7.0426264235959946e-01 2.6137516440962845e+00
      -1.6358018066698385e+00 7.3402170166907101e+00
      -2.5823718144608505e+00 3.1774365684379382e+00
      -2.0941706863962111e+00 5.8183145980125728e+00
      -3.9224080837619093e+00 1.7505616615053539e+00
      -3.4203523785751506e+00 1.3847132945342406e+00
      2.0149422450120946e+00 -6.6160119392510386e-01
      1.5126570860829762e+00 -1.8080907171849989e+00
      -3.1095562041221387e+00 -1.0081609692106477e+00
      -1.2810107160264976e+00 -2.4801400372786628e+00
      6.7488983794804380e-01 1.6906551805426691e+00
      1.3335199669655942e+00 -2.4953332514146029e+00
      3.8812391772187125e+00 -2.2105381429612168e+00
      2.9062336610603832e+00 -2.2556416376601532e-01
      3.5187759132639571e+00 -2.2759503196108342e+00
      1.8616761334848249e+00 5.2482929680998325e+00
      -3.0284684614897212e-01 4.3572182613297400e-02
      1.1624948485111228e+00 -1.8160962801081981e+00
      6.0818685105699801e+00 3.1587278399329999e+00
      2.9813205479127430e-01 -2.1324865901545986e+00
      3.1937977453977751e+00 -1.4084481333302006e+00
      3.3277569567780003e+00 3.2006865048652372e-01
      -3.1418897707062157e+00 5.8423929677563677e+00
      2.4365944975684810e+00 8.2360180072451761e-01
      4.1031820824424257e+00 4.4885538841172395e-01
      -6.7748710643979804e+00 -2.1782322775059555e+00
      -4.2432029208465085e+00 -9.0383946140030846e-01
      3.9671129601289907e+00 -1.4760961521532971e+00
      2.6429717517335121e+00 1.0339287365837031e+00
      -5.5518095479247709e+00 -3.4960153721168994e+00
      2.3890326553286639e-01 7.1542063408294965e-01
      3.0290896980496136e+00 -7.4028439720811678e-01
      4.1670745709911783e+00 -5.6979881713702785e+00
      -4.3761016954742082e+00 3.8643099463215327e+00
      -3.8410615046743204e+00 1.3569121504526120e+00
      -1.5771738086214937e-01 9.4207655163883619e-01
      2.5291904018230443e-01 9.6382704420365717e-01
      -1.1963612586998031e+00 -9.3632688076678261e-01
      -8.3305734730513670e-02 -3.0203169015997267e+00
      2.9999337914000773e-01 2.0318293346848502e+00
      5.1339108226086090e+00 6.1255950656252189e-01
      2.5404635065967764e+00 -2.1232863236405870e+00
      5.1084615271533451e-01 -1.1138143372661597e+00
      -2.0164974195194332e+00 -1.5369121494917415e+00
      -3.6350371952535232e+00 -2.4382396649073215e+00
      1.7336307937225155e+00 -9.1850053359391637e-01
      -2.3224453145628901e+00 -9.2140793033826551e-01
      -1.8044755860592863e+00 1.0515266927594087e+00
      1.3598532613477914e+00 -4.0121823266799366e+00
      -4.3194709309463715e+00 3.0242659240729401e+00
      2.4063489953062294e+00 -3.6645569307522685e-01
      -1.5454777971279645e+00 3.1562764835828929e+00
      -8.1593861027777145e-03 -2.0653388834196327e+00
      2.0544449766570394e+00 -9.1880640254179316e-02
      -7.0206932944262035e-01 -1.3869744335594247e+00
      -1.0792469937631717e+00 3.3355326987794269e+00
      1.7040659831863239e+00 -3.8716354290205310e+00
      3.5347248875984899e-01 1.3475927965490366e+00
      -6.6975597264262984e-02 3.8399120624938003e+00
      -3.5468887005544553e-01 -1.9276541322353440e+00
      -2.0035307772982307e+00 -1.7023142928456518e+00
      2.2757982360379353e-01 5.7777229516809825e-01
      5.4871953887002132e+00 2.0160861698481463e+00
      -7.6365901385705337e-01 6.5593712924805347e-01
      2.7556167879515403e+00 -5.1662793876765170e+00
      -2.4222701102988902e+00 1.6466468767512095e+00
      8.1783123987008588e-01 4.7118865640590268e-01
      -3.6106502602828261e-01 -3.6915964110614952e+00
      -1.6044405538569668e+00 -1.5912339578379504e+00
      5.6437838254254968e-01 -2.4888010317597984e+00
      1.0244334743050165e+00 -7.5584421182869344e+00
      -2.0864983268709407e+00 -5.9166108695192532e-01
      9.4379768671283182e-01 -2.0057196946341644e+00
      -4.1344638015143742e+00 -5.7041861249255743e-01
      1.7150064317152838e+00 6.2162887142196022e-01
      4.7669664492635322e+00 5.3292247338864858e+00
      5.2852446769927464e-01 -4.6643874298494108e+00
      -3.0784200082479978e+00 2.6505396988174662e-01
      -6.8562259483167214e+00 1.8589267124463811e+00
      -2.9728931226411653e-01 -1.2540258474085503e-01
      -6.9140698222953931e+00 -4.1476451727429007e+00
      1.4362128938887939e-01 4.7195346091852972e+00
      4.6870740818788477e+00 9.7510443806911640e-01
      -7.9872968378897757e-01 6.2570811562763575e+00
      -2.1646959358809523e+00 -1.2030013739633916e+00
      2.9538162190819967e-01 -1.7052784258213596e+00
      -7.4130596349357747e-01 -8.0094809367098510e+00
      -3.9740307857220674e+00 -1.5956569890057921e+00
      -4.3505235398690028e+00 1.4986751470782353e+00
      1.4277241236992979e+00 -3.1825770833007696e+00
      -1.7101701181291771e+00 -5.4004478160923668e+00
      -1.6451675925227840e+00 -1.3450997548801058e+00
      -1.5759024114669400e+00 -4.7510322010062334e+00
      -9.5883352669610726e+00 -3.0249339412939763e-01
      -1.2342140115132003e+00 2.0683402976785690e+00
      -3.2905186851985241e-01 4.8347368842898293e+00
      -1.2708517672159896e+00 -7.9662182869615550e-01
      -3.6257155310677418e+00 -8.3014556657819172e-01
      -9.9513814104660980e+00 4.2399294777223613e+00
      -2.6343237991378365e-01 1.6334054897247983e+00
      9.8866571314946339e-01 5.8574458099507893e+00
      1.7931143372784413e+00 1.0249740259559672e+00
      -3.1210491105048362e-02 -1.5856410223613298e+00
      1.1605669065421909e+00 -7.2005491784709663e-01
      5.8771742161576750e+00 4.9866927169920379e+00
      2.8648389052490302e+00 4.2355536484470351e+00
      -1.2104184802759270e+00 1.1430534629200380e+00
      -3.5553466050314535e+00 2.0808992806544119e-01
      -8.3236546177379822e-01 2.2486772684963050e+00
      1.3249908986637262e+00 2.3636079128546719e+00
      -7.8239304095732010e-01 -5.8111371667319452e-02
      -3.5402322692378618e-01 2.0288036481818833e-01
      -1.5575111256680561e+00 -1.5838622683791117e+00
      1.5776865552323130e-01 -6.6109412876387685e-01
      3.4718337062171050e+00 -8.4233458128661065e-01
      2.0025215209470368e+00 4.2960342828196278e+00
      -3.8114053933584602e+00 3.3487568355108364e+00
      7.0536342944833008e-01 1.4973909175627425e+00
      -5.2127300160148700e+00 7.7055629085030102e+00
      -9.3834561588179533e-01 4.8296673153183400e+00
      -1.0290547342143412e+00 4.0677410608047797e+00
      1.4352570732798902e+00 4.6739084649242807e-01
      -5.2569011613717507e+00 -4.4839910350801828e+00
      2.3245862431630622e+00 -1.2726421521674431e+00
      8.5258310974083951e-01 3.3660005923007148e+00
      -1.3752893365673406e+00 -1.9300344879517975e-01
      -1.4153464709029036e+00 1.2420367297978163e+00
      -1.2578924202699318e+00 -2.8999331193459632e+00
      -9.1159956780572138e-01 1.7278835738305205e+00
      3.5275311144442059e+00 5.3296951877394969e+00
      -3.7814067518434671e+00 1.9449746786695177e+00
      4.1471206924356139e+00 -6.2170440597572636e+00
      -1.3775168883065096e+00 -1.0860925877620806e+00
      -2.8520490281040409e+00 4.9896902447145186e-01
      6.2704420714788220e+00 8.9460127439415871e-01
      2.1715008806401848e+00 -4.7572953473050870e+00
      -1.7890934404366854e+00 1.3020105816719976e+00
      -1.8730207917031658e+00 1.7611794786034318e-01
      1.9047679541209488e+00 -2.0585594800074607e+00
      1.5090113583988665e-01 4.9902180111210592e+00
      2.7390185772746154e+00 -4.4911030264638307e-01
      -4.1235388448574604e+00 2.4764798794411416e+00
      -2.9668000526313953e+00 -3.7985864636893383e+00
      1.9586111478957302e+00 -6.0277614007769573e+00
      1.4316581768440406e+00 3.3156282820223657e+00
      5.7658246014260328e-01 -4.3879019456130935e-01
      -1.3494328011023380e+00 -3.6866083763567685e+00
      -4.1478310136649965e-01 -4.3984908639029312e+00
      1.6749514187013905e+00 -2.8981230197888737e+00
      -1.8799091917986450e+00 -4.9149175016653923e-01
      -3.8735251106002804e+00 4.5138641948292397e+00
      1.2652070547434715e+00 1.6148755538567330e+00
      -1.4890557952207850e+00 -1.5270896505987519e+00
      3.8104702741623575e-01 -1.6625271550591907e+00
      1.3444571314374321e+00 -1.5302301520370727e+00
      -2.8528920166239629e+00 -3.6634052246130739e+00
      2.0058000215394198e+00 -4.1349884477012342e+00
      -7.1617244597139278e+00 -8.1533087743430499e-01
      2.5774883177337080e+00 -2.9013559446697639e+00
      5.2339225135183109e-01 2.3797556285323966e+00
      -9.8443255699016685e-01 8.2120226227231585e-02
      -2.2681115169244124e+00 -2.4491572609367860e+00
      -6.2756567791023103e+00 -1.0185283082963690e+00
      -2.0219393474411982e+00 -8.6464051466639114e-01
      -8.9475720977737450e-01 4.4148956774263493e+00
      1.8924642838539645e+00 -3.8421335299165769e+00
      1.3220684694655078e+00 -2.5722425380562264e+00
      -2.1110261267404664e+00 -1.0032766151389552e+00
      -2.5658315776864820e+00 6.0832190012934140e-01
      5.1695680806975806e-02 -7.1352571695266276e-01
      -4.7570473897024321e+00 -3.5290672976122033e+00
      8.5519955171261608e-01 8.3976917306889456e-02
      -2.8853456472778674e+00 -2.7736829653523989e+00
      -2.2974152967856813e+00 5.4975398909800366e-01
      3.3232309663623356e+00 3.6448871331969155e+00
      -5.4040546655652770e+00 -4.4959998742586524e+00
      1.0031698377456026e+00 -9.6902016724195794e-01
      -1.9627908118901847e+00 -4.3523927350235843e+00
      -2.8528995403029964e+00 -1.1069302150238320e+00
      9.2110186846184272e-02 -2.2239843885520734e+00
      -2.2958199819066132e+00 -2.2064799641850303e+00
      -8.7284742578604446e-01 1.1481412388222874e+00
      3.2763734813051237e-01 -2.9751129275486372e+00
      4.2390533680289693e+00 -5.3487241795242983e+00
      1.5449224072006922e+00 -4.9235077567404453e+00
      1.1236432454119097e+01 -8.1109278826088349e-01
      6.1630294112363835e+00 -1.4688542394485686e+00
      -7.1989841948023192e-01 -1.5757028027941129e+00
      1.4602484691934956e+00 -2.6392860263047591e+00
      1.1009882479354978e+00 6.9036976229639502e-01
      2.9075326377707360e+00 -3.7506654796576515e+00
      -2.4819248488297228e+00 2.7268438165943105e+00
      8.4530272287236325e+00 -6.4220878066012883e+00
      3.7992981455584907e-01 -4.3229347748367675e-01
      -1.2456277297173639e+00 4.9039844382943638e+00
      2.8420135103551494e+00 4.9878965412949459e+00
      5.7718247726677174e-01 1.4745665930020657e-01
      2.4295820913199577e+00 -2.0372272840278360e+00
      -5.5130455593454308e-01 -2.3108459592929225e+00
      3.0312126074738976e-01 1.6401639445039788e+00
      -7.0076711375984884e+00 -3.2989165016966702e+00
      1.5531398254191595e+00 1.0721639773636622e+00
      1.5703393648444633e-01 -2.2831441177190128e+00
      -1.2314427614320140e+00 -7.6442431419561627e+00
      -2.7119337085221833e+00 2.1033044321112757e+00
      2.8597084313585839e+00 -1.4878254161028429e-01
      -8.9934880978186083e-01 -3.8629609110879675e+00
      4.0225592621013184e-01 -1.3796137958618075e+00
      -2.4409772722869221e+00 3.9666877591885847e+00
      -1.0831074225027404e+00 3.4400942400312720e+00
      2.9458382998956516e+00 5.6173989414703502e+00
      1.8971111927565407e-01 -3.3887725653067573e+00
      -3.8660233356159521e+00 -3.1818074062812882e+00
      -3.0465079335942020e+00 -1.4475296285467674e+00
      -5.3976128095365477e+00 2.9583713238595144e+00
      -2.4361269950908411e+00 -1.6430914163758248e+00
      2.3898592834308436e+00 5.4715428273348063e+00
      2.2290574710110493e+00 1.5376187848926575e+00
      1.5414563799510477e+00 2.0421651844248944e-02
      -4.1587638235337683e-02 8.7513505998872376e-01
      -2.8406045590116129e+00 -5.5329673836975166e+00
      3.1598016969248914e+00 -2.9584894587165800e+00
      -2.6710109316636079e+00 1.6638261415777282e+00
      -2.8667899017440144e+00 -2.6730333481762329e+00
      -5.7927074094363000e+00 -4.6171683076581642e-03
      2.0158407573005639e+00 -1.9462832855442647e-01
      1.5888499150097972e+00 -2.2432241467699372e+00
      5.2784192743606417e-01 3.1321919110938627e+00
      2.9520384881138599e+00 8.7874575188014159e-01
      -1.9081732110527458e+00 1.3937781577261261e+00
      4.8036945825939821e+00 3.6554243346056672e+00
      1.1138986174053609e+00 -2.8704455184985256e+00
      1.4117940511378293e+00 6.1319317593462663e-01
      3.1340957413915795e+00 -7.0686076192222125e-01
      1.1290348048011016e+00 -3.4663679893762813e+00
      -3.1623410673870977e-01 4.8904868536027122e+00
      2.7532863001190715e+00 -2.8195193154323384e-01
      3.3643836409284296e+00 -4.7992419829970316e+00
      1.7068065494547020e+00 3.6982343473163422e+00
      -4.8900513302002513e-02 -3.0797886443680395e-01
      -1.7362298418723698e+00 -6.0079729106852242e-01
      1.6528722464489101e+00 2.4368072338906850e+00
      -1.7940558875614523e+00 -4.0605881025605886e+00
      -2.3432520202930238e+00 5.5535350637865388e+00
      5.2893471524003912e+00 -1.7881321967365111e+00
      2.5728088158676647e+00 -1.1987636597883815e+00
      -2.1301257203264772e+00 3.9282880672872383e-01
      6.5056988375596136e-01 -2.9411781336535849e+00
      -1.6328040216272210e-01 2.8957780204888328e+00
      -4.4823199254030586e+00 -2.3663188430008706e+00
      4.7914683019420972e+00 2.7839861930650951e+00
      4.5745289776166107e+00 1.2817064843822670e+00
      1.7642755690183718e+00 -6.4981706999275157e-01
      -4.2339902784336729e+00 9.8581487447350336e-01
      1.3170805430678134e+00 3.7750533109834281e+00
      1.0561498590903037e+01 3.1265501950700414e+00
      3.7715876696426798e+00 3.4634814553650628e+00
      -2.0557241688174370e+00 -2.5301573312492881e-01
      -1.7367379971092142e-01 2.0356585589477008e+00
      -3.8681464698687851e-01 -4.6626508509124109e-01
      4.4229640834844810e+00 -1.6938267508584310e+00
      3.4923412471448172e+00 -5.1185940002377306e+00
      2.0013273103364599e+00 4.5647390126864185e+00
      -9.8377746400401322e-01 1.6257420622125067e+00
      -3.2697532945982744e+00 9.8271516874297760e-01
      5.9721211138243135e-01 1.2114616865150691e+00
      -1.1551331447581075e+00 -1.1963510756868119e+00
      -6.1398383561993564e-01 2.3540931655117459e+00
      -1.9735017485577773e+00 -4.5992283479794993e-01
      1.8722939430657346e+00 -2.0326437077322819e+00
      -1.3992410859649513e+00 -1.7519587329168458e+00
      -4.3187601549484684e+00 -8.7742028997228516e-01
      3.1475645937642254e+00 -8.3591884985274612e-01
      1.2910158597089876e+00 1.6037901103584391e+00
      -1.1021417806672316e+00 3.0185010545137825e-01
      -5.7100909805582256e-01 -1.3156338339108318e+00
      4.0166125301951876e+00 2.3660651660417562e+00
      -1.3464745600063988e-01 -1.9893050909036580e+00
      2.3835174673721777e+00 -2.3982459965727809e+00
      -1.3871028893204185e-01 5.7863310024418864e+00
      2.0258049220524148e+00 -2.4200088890621023e+00
      3.3419351851323547e+00 -2.8533605575979633e+00
      -4.0586233588011728e-01 -2.8416978727666659e-01
      -6.4681702596433830e+00 3.4477108846230662e+00
      -7.9732150863473370e+00 2.5274965147233246e+00
      3.9166021861128542e+00 4.5369342921716370e-02
      -2.1193687173573545e+00 2.7345786741439171e-01
      -7.4226691135240530e-01 -6.2266790425668974e+00
      4.2156780305611546e-01 -1.0607120840273798e+00
      2.8168207717938913e+00 8.0690972795382732e-01
      -5.2268226693241937e+00 -3.7332591513686348e+00
      -1.1088696088037082e+00 -3.0112697851186780e+00
      5.2870797409475365e+00 -2.9873749906257729e+00
      6.6244763318762034e+00 5.2570571648397946e-01
      -3.9400602016946595e-01 1.3472632257664671e-01
      4.8301299623696101e+00 7.7929964429734273e+00
      5.5158280630951246e+00 -1.2657953574716549e+00
      2.8150985385162834e+00 3.1240023766477423e+00
      2.0885008162789758e+00 2.3271998560824576e+00
      -7.2854386991023301e-01 -2.3260563017394409e+00
      3.2290403483019509e-01 3.4147408462982631e+00
      9.1222972192533334e+00 5.7016869362762792e+00
      -1.9638849159650535e+00 6.4223627170277542e-01
      -4.8804588876811366e+00 -1.9943113645534181e+00
      -8.3117705931235175e+00 6.3785294511333461e+00
      3.9676312641309379e+00 3.3983102099840217e+00
      3.2381558224133085e+00 -2.4728792250302893e+00
      -7.0986717496789409e-01 8.8217372594710353e-01
      -1.7247724289975563e+00 3.4075423968814889e-01
      1.0673516339559891e-01 -3.5325276605619371e+00
      4.0148129333333680e+00 -2.8077857420981891e+00
      -1.7610557098106638e-01 2.5721239191115020e+00
      -4.7420917784141956e+00 6.8922556764413550e+00
      -3.0864686714648220e+00 5.3960884085405614e-01
      3.2254779132652440e+00 -4.0950086594146651e+00
      -9.4526140363450095e-01 1.1867765191081991e+00
      -2.1721695947015851e+00 1.9501653694423535e+00
      -4.5972859505276711e+00 2.3958105254116377e+00
      2.8241918238852227e-02 2.2528644666942887e+00
      -4.1438799756640110e-01 -5.7861637417750034e-01
      -2.1168673162039364e+00 -2.8222460431817181e-01
      1.3336176891360177e-02 4.3756792544401915e+00
      2.9119566325816477e-02 -4.6509402354177887e+00
      6.1955332416347249e+00 -8.8281223066029124e+00
      -3.4789460975233264e+00 -5.3200110964291341e+00
      -8.5259186566219842e+00 -2.0099780869630024e+00
      3.2893299429846996e+00 1.1011644758959408e+01
      1.1545595314171296e+01 1.1974454690437453e+00
      3.9567091810251211e+00 2.1883329047980135e-01
      2.5731964061485496e-01 2.9879485058475899e+00
      -5.0854183891682307e+00 8.9825964972171968e-01
      3.4840907757503521e+00 8.7271883871875158e+00
      -5.2854864213913073e+00 1.2096555604055416e+01
      1.8924132055527727e+00 -9.1802170645076797e-01
      -2.3728809991782818e+00 1.4063039876523391e+00
      -2.2192596722885329e+00 -5.7798644326918351e+00
      2.5635744010374859e+00 -5.1964121395777463e+00
      -8.8814328573722836e+00 -1.1583302304235361e+00
      4.1649313269885804e+00 2.2479865322090783e-01
      1.4422198222806662e-01 -3.7978305563433257e-01
      1.6419428917512615e+00 4.2705719739730519e+00
      -2.7746601388341285e+00 -7.7387288496544704e-01
      -3.7559645245610076e+00 -3.4830302399086657e+00
      1.0670890079093191e+01 -1.0671179698554782e+00
      1.7177055639699925e+00 2.1277135110089815e-01
      -1.3985901095324964e+00 -2.6140553900987212e-01
      -3.5521386795579599e+00 1.1819190291483135e+01
      3.2038132695551331e+00 3.1733745216584945e+00
      2.0382321054556640e+00 -6.4574864879861700e+00
      7.1300707038461342e-01 2.5916283539073226e-01
      -2.6630155188439537e+00 2.6305431703496427e+00
      1.2345153510502733e+00 1.1968388254112488e+00
      -2.2448307337177549e+00 3.9379408521637376e+00
      -4.5910359625357611e+00 -5.6120921633592069e-01
      -2.8251642225958584e-01 -1.9283455770792488e+00
      -4.4180402915463386e+00 -3.7231564775212580e+00
      -4.4249433657983044e+00 3.4893528199524687e-01
      3.3631265149862304e+00 1.0217050349013392e+00
      2.9284731206981176e+00 -5.5218269092164327e+00
      -2.0092861796285846e-01 1.2101557817279367e+00
      -5.8770602907475968e+00 7.2287779446269207e-01
      -7.0798442405233821e+00 -3.4202334379644368e+00
      -4.7946321734422002e+00 1.4583012663712407e+00
      1.0586469466242769e-01 9.0936357213219896e+00
      2.2196448402693789e-01 -2.9148898590191195e+00
      7.6994661932589537e-01 6.4246662588134917e+00
      -1.1564075402917111e+00 -7.6127372598016061e+00
      -2.4491342401475298e+00 -7.9401593183614505e-02
      -4.8829579148764637e+00 -1.9354893275695220e+00
      2.4205332672463258e+00 2.5171830142424096e+00
      3.9864817913536781e+00 2.8697787738017526e+00
      -5.6465720612013435e+00 -2.0877555869549655e+00
      6.5262583879689329e+00 3.4761849283981108e+00
      1.1087676626843874e+00 -7.3956567668825401e-01
      3.0015478793824180e+00 8.9309398068827772e-01
      1.7290084536564190e+00 5.7215406103028876e-01
      3.5290645447915696e+00 3.8828372909890145e+00
      1.0761819590266429e+01 -2.1679431765246466e+00
      -1.3041561794074998e+00 2.8664142317497663e+00
      -1.0353379707250469e-01 -3.5771110451400876e+00
      -5.4160771462279556e+00 4.3234890565390405e-01
      1.2283385148970194e+00 1.0205416788471131e+00
      4.3295374944918480e-01 -1.6930633187126134e+00
      -7.2221884041170732e+00 -3.5245388402793676e-01
      5.6749238021133115e+00 -5.2659677891547982e+00
      -2.5408088657175987e+00 2.0075764531316809e+00
      -1.3651178986282203e-01 -5.1270753361710169e+00
      -2.7588675234426994e+00 -6.3699858491764969e+00
      1.2392370954306764e+00 2.6724954403585000e+00
      -1.0179217303826343e-01 2.0123766383666282e+00
      8.3221989677147468e-01 2.9095245636934224e+00
      2.4062278123066623e+00 -1.8574831768945150e+00
      2.6235592394324838e+00 1.7798714252117083e+00
      1.7955055179623576e+00 4.3074553591246117e-01
      2.0284504444151863e+00 4.3058572837452630e-01
      5.2010925085301123e+00 2.4644459994482273e+00
      7.1143063794895847e+00 -2.5263658895044108e+00
      2.0480737753958729e+00 -1.5025722283039462e+00
      2.4788590157666097e+00 2.5170154714361974e+00
      1.2607183950349992e+00 4.8602140703800023e+00
      2.6836817728681028e+00 8.3567005505845138e-01
      3.9173928398536115e+00 -1.0244029151505250e+00
      -3.0982722987289173e+00 -5.7660183835538981e-01
      -5.9567937361191339e+00 1.4724665566177557e+00
      7.9471481540609956e-01 2.1938059242678682e+00
      2.3951407979373998e+00 1.3502563747894814e+00
      7.6978627494521623e-01 -1.9210443133069137e+00
      -3.7639119417659062e-01 -7.5998297211066648e+00
      -2.6851945878442298e+00 -1.3859740848150437e+00
      -1.6511831807187021e+00 9.4128393213431627e-01
      -4.0685187107213219e+00 4.2598764630090784e+00
      -1.2185594371758832e+00 -6.8770966378387943e-01
      1.7766177453062888e+00 -1.5253945256993173e+00
      7.2445293413977851e-01 2.0826702938101374e+00
      1.9473462262627725e+00 9.6856744175943987e-01
      4.5813270771502514e+00 -2.8645653218636391e+00
      2.1805170305961967e+00 -8.8633373015235328e-01
      3.4615980277777463e+00 1.9295858430625463e+00
      3.6965082441960673e-01 -8.9945592930081220e-01
      4.3501835225201979e-01 -2.8659972744858109e-01
      2.5810779910350665e+00 -1.8874696776244539e+00
      1.9191873148958307e+00 4.7124970350409429e-01
      1.8095554646503165e+00 4.9300493528705642e+00
      -2.0952437815092537e+00 1.4065036842420520e+00
      6.1188191790448054e-01 1.8844800169510292e+00
      -6.9518205208895623e+00 -6.9990184522993867e-02
      -5.9374272546638196e-01 4.1755131408702431e+00
      6.4917088562684073e+00 -2.2021106241244195e+00
      3.4254758556106180e+00 -7.0415050557708259e-01
      3.2662617074806160e+00 1.0660507148736338e+00
      -6.9492046960989065e+00 -1.6841050676188878e+00
      1.2148045019510316e+00 3.7889393911937859e+00
      3.1484832297595973e+00 -2.1519122519043603e+00
      -6.7591300613469052e+00 4.5276700041148974e+00
      -4.0178680129984201e+00 -8.5356904096180364e-01
      -1.2068808616778322e-01 2.7913487836904647e+00
      -3.5000241371731846e+00 -1.2271590621524344e+00
      -1.0660476358316486e+00 -3.3410534947782979e+00
      3.6740615378511325e+00 3.6102809180185882e+00
      -4.0751336927757725e-01 1.0567889756642221e-01
      6.7441599056512977e+00 2.3228892720939736e+00
      2.0056361416107177e-01 -4.9687124611252118e+00
      -3.4719802446094312e+00 4.9460538709350776e-01
      2.8613298976619306e+00 -6.5839520866993650e-01
      4.4283347608209878e-01 6.7343447070920137e-01
      2.6120128017006589e-01 -5.4773772002568712e+00
      -3.4434319693412205e+00 3.8826793960683119e+00
      1.7072343339337954e+00 -1.8366325437278688e+00
      7.2829319455104258e-01 -9.6990171448842510e-01
      1.8409170908837649e+00 3.6798366210806095e+00
      -3.7722490604423382e+00 -2.4982127707017034e+00
      6.1786242298135781e+00 -2.5815901330478630e-01
      7.0045257651643738e+00 -1.3377844624826840e+00
      -7.7926403590122317e-01 7.3405828123490141e-02
      1.1685768628518525e+00 -1.3782307331747210e+00
      7.3535771386720947e+00 1.1819705268075067e+00
      -4.9182936640060948e+00 7.5054667956532413e+00
      7.1330736826386465e-01 9.4093517891179257e-01
      -3.8548908142993827e+00 3.5236948625858862e+00
      1.3038324420890570e+00 2.4058060058825239e+00
      1.8605109795240979e+00 1.1662471686404632e+00
      2.8949714371503408e+00 -3.7730114468988876e+00
      5.5049260425461377e-01 3.3057880743838219e+00
      -1.7484441030797302e+00 -4.3691385842575698e+00
      -2.5712300025556969e+00 1.3093967367025630e+00
      -6.2081705007224686e-01 -2.3499580246302127e-02
      1.8225132240917676e+00 1.2648523111250509e+00
      1.7159619397524092e-01 -7.6538488925868196e+00
      4.5108473089558068e+00 1.8549745849179144e+00
      -2.6072800200628992e+00 -1.8726994593142494e+00
      7.2845284961695800e-01 -4.9858117598131590e+00
      5.0850820336602243e-01 -2.0752870111279216e+00
      4.6562787115403905e+00 5.4952829399729164e-01
      -2.1560555230523754e-01 6.7873455892050527e-01
      5.0421357016725432e-01 -5.2133625589391053e-02
      -1.8673702797492678e-01 3.6406599924947476e+00
      2.5050658646650801e+00 -1.4827815119109531e+00
      4.3180248121617124e+00 -1.5546040141282069e+00
      1.4540063828685763e+00 2.2475981070308038e+00
      -2.4697247785672134e-02 1.3686995171877103e+00
      1.0940854125419364e-02 3.6222365075732177e+00
      -8.2047513251644155e-01 1.5744442581164264e+00
      2.8847393536273285e+00 1.0129095567833602e+01
      -1.8087643382110130e+00 -6.9853580528799606e+00
      -4.9748955179362575e+00 4.7887346138734728e+00
      -9.6290787299974068e-01 4.0430855177660421e+00
      -4.1875941094121485e+00 4.0176377074525327e-01
      6.9760941752786332e+00 -7.2106858329043302e+00
      -2.7540327670520026e-01 5.1819382021206355e+00
      -4.2848434458086917e+00 -3.1090904141321789e+00
      -2.6008586083165595e+00 -4.7007634078948062e+00
      -7.8376234823557767e-02 -1.9774255781755281e+00
      -4.8752237308643922e+00 5.6704254643030572e+00
      -6.2311114903057367e+00 4.6926365267009673e-01
      3.5435985492265258e+00 -2.5507410438105032e+00
      4.3134856477749564e+00 5.3134460951440401e+00
      7.5840926434402895e+00 -1.8701470246830318e-02
      -4.3238780058789574e+00 2.9604226793848167e+00
      -2.8404285532102684e+00 -1.7748226185678079e-01
      3.7615178125624077e-01 -1.8149601332010397e+00
      3.9944993225350083e+00 1.2288811675684490e+00
      -1.8246666387305639e+00 7.7589624358080309e+00
      3.1440793870178987e+00 4.3804340518008305e+00
      -4.3143529408016832e+00 -6.4815753991507226e+00
      -2.5873310822013607e+00 1.2206583457791818e+00
      4.0796208286416968e+00 7.3452036196581476e+00
      -4.5293772287332441e+00 -1.7696329703343121e+00
      -1.3439235300716865e+00 -1.5744380126789141e+00
      -4.6173777443206037e+00 4.0595138203245149e+00
      5.4330069777401464e+00 -7.5568111315269979e+00
      1.5385862235757570e+00 -6.0799026563243430e-01
      -6.7230528717841587e+00 2.7452233625375442e+00
      -9.0143620421739108e+00 5.0075187018318568e+00
      1.8277979476667308e+00 8.2822253807077251e-01
      -1.0970966167879044e+00 -1.8179139544839304e+00
      6.2874417097664859e-01 1.9185402853378395e+00
      3.5029404548744529e+00 3.2670144833975479e+00
      -5.4055946890776874e-01 -5.5553979614800031e-01
      2.2543093285718401e+00 -1.9064765350767596e+00
      -5.2479662251878012e-01 2.1855875949524712e+00
      -7.1677440888972599e-01 6.7064144304400752e-01
      -5.7127757487267266e+00 5.9535684937440045e+00
      5.7896308543016524e+00 -4.9715199566894812e+00
      1.3906771482585230e+00 -5.9098277050719945e+00
      -3.7474527946693983e+00 -1.8488627874507864e+00
      -4.8549775070878640e+00 -7.9802519298265806e-01
      6.7171801923305818e-01 3.4127569520204326e+00
      4.0104487314014220e-01 8.4351242878959953e-01
      -1.7662995390740430e+00 -2.6276773877702708e+00
      3.4817162688948122e+00 5.3501312056466492e+00
      -2.2908741998126492e+00 1.7296914646268926e+00
      9.5412583379515095e+00 5.0885091373683544e-01
      1.2600594602192097e+00 8.5204068669820110e+00
      7.9852799089070112e+00 7.0834200072838016e-01
      -5.7629930642076077e-01 2.2421509281258807e+00
      -4.7246260424884241e+00 -6.0094879075345204e+00
      3.6817010913436086e+00 1.9040488372585767e+00
      9.2306477941782039e-01 1.7875190491276922e+00
      7.2443139271386672e+00 3.3143691271204134e+00
      -4.5228433665311657e-01 1.4769795238084733e-02
      -1.1561216366223765e+00 2.0145371948524966e+00
      5.2326918260701172e+00 -5.6410872800092502e+00
      6.9407502754071961e+00 -5.3794447173016593e+00
      3.5611896765802933e+00 -4.2758636680304809e+00
      -7.7052445617387164e+00 9.0919339404372468e-01
      -1.1044701322426120e+00 7.7184636466518146e+00
      2.6468470560498975e-02 1.2151307720778771e+01
      4.1143596710167669e+00 7.5264058347418299e+00
      1.8182392823410913e+00 -8.5214283095008847e-01
      8.5469291688866511e-01 2.9231775574917696e+00
      -1.9064976495385311e+00 2.8238353461628116e+00
      -1.2586813860218307e+00 6.4197906354872469e-01
      -2.2708373674616649e+00 1.7225246603562505e+00
      2.8765746180547782e+00 9.4384424644438036e-01
      -2.0171183858675974e+00 -4.3216279669710591e+00
      2.4277134651219412e-01 -7.0416188135398827e-01
      2.2828198520224317e+00 8.7227113367061057e-02
      4.5530992149339369e+00 -2.4113606656384516e+00
      5.8766970471322546e+00 4.0437311071399726e+00
      -3.9445134001542709e-01 4.9683536140246041e+00
      5.0998031583140522e+00 -2.6935250852100014e+00
      1.4426023661559610e+00 -2.8573888931136047e+00
      9.3718082582857125e+00 -4.9458136392909779e-01
      5.7493955593117463e-01 1.3115404413790510e+00
      3.0164337584029938e-01 -1.5708256064455577e+00
      8.4497994154129934e+00 9.3726324904706519e+00
      5.0959178785095274e+00 7.5943232708026365e+00
      2.0599588536717026e+00 6.8588256985812646e-01
      6.2995543074657760e+00 -9.3987484943978252e+00
      1.2651976547242612e+00 -1.5566244334006207e+00
      -2.0853276919090393e+00 4.9789993854360057e+00
      -1.1649595945021794e+01 -2.7869444796241680e+00
      -3.6808493159187430e+00 2.7633558942197793e+00
      1.9014711332969807e+00 -1.3869519408138358e+00
      5.0968726236011097e+00 1.5721742079547361e+00
      2.5595564391746626e+00 -4.2146570202692502e+00
      -1.2978163514876828e+00 -6.0146174906020287e+00
      6.9999598806849903e+00 -1.5002834089072652e+00
      -1.1814327161339213e+00 6.2947269511903894e+00
      -7.4310895117490727e-02 -1.7204404997474696e+00
      5.0370516598324073e+00 3.8117824056655749e+00
      -8.9635719002821757e-01 4.6078382812848040e-01
      4.7233487151726985e+00 -1.3486376605107573e+00
      -5.0353406498496369e+00 5.5345040653269919e+00
      5.2388321116807535e-01 -3.7742186518652163e+00
      2.3231414484790212e+00 3.2293370906060361e+00
      -4.0692893152960581e+00 5.1447728597176372e+00
      5.6115263553044548e+00 -6.4827628150817951e+00
      -3.5842855549948038e-01 -1.3394787899548495e+01
      2.3566169565654622e+00 -3.4141767723559826e+00
      -8.9819053707384295e+00 2.3099492996749240e+00
      -2.4203603352064280e+00 -3.1040634993412359e+00
      3.5395450946869298e+00 4.6648129875398787e+00
      2.6196961573621489e+00 -1.1996896255061118e-01
      5.4744659506823083e+00 -7.9051920669363163e-01
      3.4664874165794917e+00 -5.2621645358163054e+00
      -3.4858832346870683e+00 -9.2870853773106621e+00
      1.6535561282117910e+00 -5.4171844532981552e+00
      6.2398417930877703e-01 1.8066307156447332e+00
      -8.4401196324655137e-01 -3.1167304619507132e+00
      1.0513880599789383e+01 -1.4203133461297790e+00
      4.0224101881902090e+00 4.4264470762077321e+00
      1.4636513155422186e+00 -2.8858429196031327e-01
      5.3960786509872998e+00 -1.1568220098850834e+00
      4.1491902675413588e+00 5.2950646960473569e-01
      -1.7872461574207072e+00 -5.6196367716196549e-01
      1.3883983727382045e+00 -3.8801225127499306e+00
      3.1836383108587136e+00 1.2453895564054767e+00
      6.3769999984348358e+00 -4.4206311106367302e+00
      1.8816726191782520e+00 -7.8192572183850184e-01
      -1.2646762354059047e+00 4.4363600056935155e+00
      -4.1579150783730405e+00 -2.4568357578716093e-01
      3.5769948214470935e+00 6.6300478957844327e+00
      -1.9616105206739207e+00 7.7612040732528753e-01
      -3.1654709806163300e-01 -1.6627796202154606e+00
      4.9036368972635893e+00 -4.6143904709585126e-01
      -3.0638834730816673e+00 -6.0914365055375050e+00
      -4.4170561793898448e+00 -1.2329983806769053e-01
      -5.9601211909511886e-01 2.9895000572030073e+00
      3.7364283445187857e-01 1.0709840890280151e+00
      4.9650620386656117e+00 -4.6694019348834215e-01
      2.2464405505876637e+00 1.8899503062583811e+00
      4.5681230997855913e+00 4.2330564401080464e+00
      2.8261699373097700e+00 4.0064521174682879e+00
      3.7335245557445198e+00 3.3757685420030299e+00
      -1.3993347165119077e+00 -2.9164892560746587e+00
      -3.0924763172948717e+00 3.2338363675871178e+00
      4.5512623258142559e+00 -1.3096317429665958e+00
      -1.3720766965905042e+00 -1.9488567912210655e+00
      -3.6317820680440640e+00 -3.1807661795639519e+00
      -3.1172178966195134e+00 -4.1605224550644895e+00
      4.9786026758731483e-01 7.0273841500648979e+00
      2.7490306514998855e+00 -3.6962618513201209e+00
      -5.7227092254776679e-01 2.8780994403997324e+00
      3.4280324440630987e+00 -4.0485293093602417e+00
      -1.3694734492683788e-01 2.0599264583663341e+00
      -3.6168423656109869e+00 -4.2683951518894814e-02
      -8.6230444259476113e-01 1.9319860500768706e+00
      2.7580364863918145e+00 1.7646015120183471e+00
      1.3017671753139279e-01 2.2146377940920963e+00
      3.1025428866925915e+00 -2.1191302499936833e+00
      3.6464218254009811e-01 -1.7026133618998145e+00
      -4.3933691433205562e+00 -3.4449864748533425e+00
      3.7739238803087041e+00 -1.6784439003768137e+00
      -6.2551663313988315e-01 4.6983630978441271e-01
      -8.9747743527731705e-01 1.5693454323890745e+00
      -2.2603343998768302e+00 -8.1646797887119471e-01
      5.5074942019198480e-03 -1.0966921904636888e-01
      -1.6716653526286496e+00 -3.4948547277144311e+00
      3.9532646287966067e+00 -5.2262095438201213e+00
      3.3292510741585200e+00 1.0122560337741606e+00
      1.7500057197144010e+00 3.7939329061234273e+00
      -1.5947251448990793e+00 1.9849173180768163e+00
      -7.6605327831543502e-02 -4.8204775919398796e-01
      2.4381466427718470e+00 1.0537852424091916e+00
      7.6370873542142279e+00 1.6262619461782766e+00
      -6.6197829085285020e+00 4.7247635933978529e+00
      -2.1538516462457288e-01 -3.1038731271848321e+00
      -2.3079744856018869e+00 8.9069768506624214e-01
      3.2355902657714375e+00 1.1889324350826107e+00
      2.2515330813648986e+00 4.5189460644117725e+00
      6.6159386371232110e-01 4.7576515281603839e+00
      1.0794237583016906e+00 -4.9839394355814743e+00
      2.7117375744607659e+00 2.1679162687558713e+00
      1.8698710524719742e+00 1.0158390846691576e+00
      -1.8308523614468237e+00 1.8816010110691019e+00
      6.8404745856942273e-01 -2.5608202784965783e+00
      8.5735662200943317e+00 1.3793929942575158e+00
      -5.5076526297999377e+00 -4.3069504447413101e+00
      -2.2140642612552230e-02 -4.0622076662952553e+00
      -3.6220720235920106e-01 1.9207170100349757e+00
      -3.3060466597711611e+00 1.5780928176477169e+00
      -3.8339513136597252e+00 -1.4931881853468934e-01
      -4.9261429291330066e+00 3.6707687478681128e-01
      1.8437235323230101e+00 -2.0823247425626921e+00
      -8.5573043524053161e-01 2.4086710809077867e+00
      2.3890174067618927e-01 -3.8858780824017645e+00
      -4.0638059474261325e+00 4.3608249024657297e+00
      -2.7235333451212651e+00 -2.5434322640224116e+00
      1.7558014383174697e-01 -5.5825537823279312e+00
      3.0920487017400671e+00 -2.5724323956408193e+00
      -2.7692313311116461e+00 3.8982504061445944e+00
      1.0332563889322245e+01 -6.8494555826765380e-01
      9.1954571223445314e-01 -7.2426711649209063e-01
      1.1689150694226241e+01 2.6032259698889244e+00
      4.1932561076848718e-01 7.3834955218670464e+00
      2.4499603205479237e+00 5.9528590185346453e-01
      -1.8575923086991786e-01 -3.5930299961555967e+00
      -2.0609700777564623e+00 6.0392876678743573e-02
      -1.7750613234101291e+00 -7.6776776687599986e+00
      1.1187245040687444e+00 -2.5949354460566210e+00
      1.4908396963233137e+00 -1.3241761958976285e+01
      -6.9080449479689321e+00 -6.8385990578469513e-01
      -3.3141327852908997e+00 1.3155796258136663e+00
      1.8269146760995734e+00 -4.3054675978913934e+00
      -5.7832668909190383e+00 8.0038234369930139e-01
      -3.4969514686404990e+00 -5.2927774781630221e+00
      3.0987814727751002e+00 -2.6722964732149554e+00
      -2.9428790378193526e+00 -4.4675356211431776e+00
      3.7779725379468720e-01 3.4354674925898294e+00
      -1.5378036080305169e+00 1.9529974349386074e+00
      -9.7012165915030781e+00 4.4595914882874625e+00
      3.6879100987949975e+00 -3.1939753782142870e+00
      -2.0523922794290406e+00 -6.5792597333758476e+00
      -2.5323784484472958e+00 5.1506440382039562e+00
      -5.3030198300522968e-01 2.5030673152916587e+00
      2.2768173227835979e+00 2.4288611003658960e+00
      -6.9205255132105696e+00 -1.9520405730690780e+00
      5.6913109695161779e-01 -4.5327278432251488e+00
      5.1416720653853665e-01 -3.9686867107132078e+00
      3.5512613219900748e+00 -1.7819123955895726e+00
      -3.6802047819453416e+00 -8.6698219898699254e+00
      -1.2354768687295410e+01 -1.5792830332653616e+00
      6.7423311327527347e-01 -9.4332482058233069e-01
      1.2839448140669356e+00 -7.5065492297262386e+00
      1.9772376515472494e+00 -3.1616324976954138e+00
      3.8242249306946809e+00 -6.8803238884870757e+00
      7.4351619650407819e-01 -3.7020664083523808e-01
      -1.0815840930883949e+00 -3.2955847180615470e+00
      -1.3645043001060594e-01 1.8605848278496895e+00
      1.4580434362601156e+00 2.8521673963586580e+00
      -5.2542275206777154e+00 -4.7077464182979840e+00
      5.6423115167831535e+00 -5.3073088205092045e+00
      -8.5584705527019569e+00 1.3793299390126377e+00
      5.6900585513643138e+00 -8.3710970319100948e+00
      2.1018229335154905e+00 8.2694422615701786e+00
      -1.0732411667088890e+01 7.5696994709863743e+00
      -8.9231653549240502e+00 8.8393392299295748e+00
      -9.3644284348156166e+00 1.7110123399014616e+00
      -2.3750575590916174e+00 4.1898157450756557e+00
      -4.8093426183065260e+00 -5.3504719732586690e+00
      1.1196152919141239e+01 6.5726055519058901e+00
      -3.2641547057481688e+00 -2.8046813633988990e+00
      4.5019935811223784e+00 -1.7873799633048956e-01
      1.3203887169403808e+01 -1.4693634634732591e+01
      1.7060212809627140e+00 -8.6823502469960303e+00
      -7.9563676982314269e-01 -7.9008656666536190e+00
      -1.1940515533028957e+00 -8.7390594429632245e+00
      1.2689603074174283e+01 -2.7548114234398651e+00
      -1.8434087970426383e-02 -3.2614993985096001e+00
      -1.6726743918347118e+00 -7.4072576386591582e-01
      -5.0849224864341522e+00 -3.4860525466688226e+00
      9.7983922133076131e+00 -4.6646755488837055e+00
      2.0074261264957500e+00 9.6448291292771815e-01
      5.9912043582377636e+00 -7.8061393936395254e+00
      1.7819519773970640e+00 4.6382901792612454e+00
      -8.0824128106805073e+00 5.2850672194143522e+00
      2.8557681555510070e+00 8.2856815644456294e-01
      4.1819188841223962e+00 6.8666312361906794e+00
      -9.3506082577264884e+00 1.2244882814719888e+01
      5.2160839269319075e+00 -4.1979825119393697e+00
      1.9393281828932307e+00 1.7577972552371406e+00
      7.9061545429233526e-01 2.8618953746609916e+00
      8.5251014754916650e+00 2.7954605154781942e-01
      7.5146930142795307e+00 4.3303562507431801e+00
      3.4933386907394115e+00 3.4321547583284420e+00
      -2.7791991541655561e+00 6.7108278097959300e+00
      -1.3946314606795993e+00 -2.7342237993062208e+00
      3.5262857604736766e+00 1.0174308405861609e+01
      5.3556713439634551e-01 -1.1329974944382466e+01
      4.4706230309291044e+00 5.8690848790010541e+00
      -7.0170891835849725e+00 -8.5791028119150265e+00
      2.7874105279058820e-01 -9.6462603111302458e-01
      -1.2339316607398503e+00 -7.9730170367980415e+00
      2.0561129121822722e-01 3.2762982810624006e+00
      1.4290865798854786e+00 -3.6708626250212792e+00
      -1.6790098363456951e+00 3.1748096233442773e+00
      3.8634368241335491e+00 -6.5654348604280273e+00
      8.2283420795319433e+00 1.8681656232588917e+00
      -3.5865989931274389e+00 -2.1349885219344200e+00
      -2.8867040941929534e+00 -1.1273852044729960e+01
      -7.9988873430384020e+00 -3.2523967793225608e+00
      4.5397203801152397e+00 5.4838111983488258e-01
      -9.0593529518799816e+00 5.4749058709461351e-01
      2.6946232824309950e+00 -2.0220643964012353e+00
      4.7852031351887785e+00 1.2719219103765422e+01
      -3.5250287454027651e+00 8.1939826695172424e-01
      -1.6358080604060370e+00 -1.8826300769848305e+00
      -1.2723188527355334e+00 4.1075196965940259e+00
      2.8769973947262127e-02 -2.0373836231487430e+00
      9.0749856765505719e+00 3.1847602926759428e+00
      -1.3828333480678421e+00 3.7945873045811171e+00
      5.5579941005253959e+00 1.5173599691823623e+00
      -2.8452611088584212e-01 3.5426984040738883e+00
      -2.7123922634641122e+00 -1.9743073542219802e+00
      5.1403057550198483e-01 -2.7882278301660599e+00
      1.6711027254222519e+00 7.8174865519620278e+00
      2.6465429429216050e+00 3.7202159911721373e+00
      1.5566071564568176e+00 -3.4146783069211195e+00
      2.1846422739785725e+00 -1.5144670690664039e+01
      6.3352702873584210e+00 -9.8556965460021075e+00
      -1.7325750924905303e+00 -2.4882142798646232e+00
      -2.6376141688270488e-01 -7.0906238589185344e+00
      -6.5317581922015633e-01 -1.3482832613490273e-01
      -4.7116451601536378e+00 -8.8796668040625910e+00
      -7.2119913636557975e-01 3.0910430111822373e-01
      8.0748637220844521e-01 -2.1601416922099761e-01
      -3.7266588148925783e+00 -4.9880189179413712e+00
      -5.2305126047359032e+00 -1.1845479138333117e+00
      -3.9597290441247418e-01 -4.0305624961554659e-01
      6.3725786744266069e+00 8.1859268997432331e+00
      -3.2751610178244319e+00 1.5911168566385303e+00
      -6.5853049628643201e-01 -1.9350011962600129e+00
      1.1895281541358660e+00 2.5800908664292685e+00
      -5.1981129447839969e+00 3.8908136875392674e-01
      1.8216064834315615e+00 2.7120123592154814e+00
      2.5636026596578616e+00 3.7883178992263153e+00
      1.5813866235747456e+00 1.3126338726144304e+00
      1.0343205907896058e-01 -4.4415762218714931e+00
      3.7486737371758125e+00 -4.2101710821535345e+00
      4.6522191288704997e+00 -6.9427159672169836e+00
      -4.2993991347623810e+00 7.9018452298518260e-01
      -2.0722803647937358e+00 -5.9734232189608880e+00
      -2.6627785228739107e+00 5.4872116964457718e-01
      1.0348635805074995e+00 -3.7361420256358606e+00
      2.4217931582409258e+00 6.1180702698261280e+00
      2.4120270536213290e-01 3.4400886031961617e+00
      -1.1135111575968519e+00 1.4678332523334719e-01
      1.3920443312819303e-01 1.2191900746773452e+00
      3.9670717708275027e-01 -1.8513254587411738e+00
      -2.7109148667368116e-01 9.6442517258986638e-01
      -1.0524738060006928e+00 -2.3876229590074527e-01
      3.9935138907769354e+00 -1.6945053777298664e+00
      3.7740164744593714e+00 8.7915686448566777e-01
      5.1168584115766134e+00 2.3880884454503306e+00
      -3.2202709226647115e+00 -3.1020311911858247e+00
      2.2304500798186599e+00 2.3906885235729796e+00
      5.4918208070051930e+00 1.3250614301041508e+00
      3.9849314328787431e+00 -7.7523450635088109e-01
      -3.0399020373983294e+00 -1.9689590733710880e+00
      9.3328659323225049e-01 -4.1492063034799553e+00
      -4.9625965715151121e+00 5.6188288329038514e+00
      5.3570331693911177e-01 -3.3159049382548940e+00
      -1.3437668394262365e+00 4.3425267843912456e+00
      -3.9249232161039704e-01 3.8101697430609534e+00
      -1.3163559047079693e-01 -2.4512508212987170e+00
      -2.5233987682672127e-01 1.7711061719370622e+00
      2.9853389655759490e+00 -2.3116074630550569e+00
      -7.3263796169107254e-01 2.5437187699150865e-01
      1.7164705680887851e-01 3.0969945731856390e+00
      2.8525426581644595e+00 1.6434439564683445e+00
      2.0755609571532330e+00 -2.4965208312504528e+00
      3.0997394818828972e+00 7.0999581993462668e-01
      -3.3235723557123720e+00 3.7086166577297623e+00
      5.2091191456602159e-01 2.6262481430268863e+00
      -1.2977227591512002e+00 -8.1906191845165222e-01
      5.8501451880290043e+00 7.2009807519312774e-01
      5.2393478101013002e-01 -4.6951938163666734e-01
      6.4724871775965944e+00 -1.4157494832482423e-01
      -5.8295985160694990e+00 -6.8850293376556004e-01
      8.5306395271815365e+00 3.7645914876030057e-01
      3.4122533859384596e-01 5.6873627274644567e-01
      -3.0569037051676884e+00 -4.4011843823465266e+00
      -2.3891946649407090e+00 -2.0516919217771745e-01
      -4.2705306442168665e+00 -1.1294457713004542e+00
      3.5312753799073007e+00 3.2580734845715660e+00
      -4.0456106548854924e+00 3.1344851361528239e+00
      -8.3705789275592002e-01 -6.9553564965627923e-01
      4.4636001139032266e-01 -1.3126719680940662e+00
      2.8071716638512196e+00 2.0698638525017503e+00
      -2.8786589934490006e+00 -1.5744484252142182e-01
      2.0041231852641923e+00 -5.7505406797174585e-01
      4.9875834340557175e+00 -5.1032510824036077e+00
      -3.6327131823774894e-01 5.9342812081460750e+00
      1.5903483135754077e+00 2.8773087639377390e+00
      -1.2503148297612714e+00 2.5863038732738008e+00
      4.0544724161114409e+00 2.5883148704069829e+00
      -3.7744729752016175e+00 3.0704990645619645e+00
      -3.8371441093270366e+00 6.1789656368473378e-01
      7.6034784976530956e+00 2.4500986745816240e+00
      5.2178580668426013e+00 2.3290541196241299e+00
      1.1235568448403839e-01 -1.2017400545332422e+00
      -1.6214200391063767e+00 -3.0574332070449777e+00
      8.6857324826864446e-01 2.4576633984457827e-01
      -5.2041283454483631e+00 -1.2925931726819402e+00
      2.0197268433019588e+00 -1.2685764716017418e+00
      -4.8754689204536552e+00 2.9055109672448034e+00
      1.1106952168586959e-01 1.9692531655190929e-01
      -7.8194717214618359e-01 -3.6891038343576850e+00
      -2.6731908397007891e-02 -1.6432293834561594e-02
      -2.9177128132984507e+00 2.5010326952063089e+00
      -2.5256660775756150e+00 2.0014813248453875e+00
      2.2516358836815069e+00 -9.4170128239599755e+00
      2.4871202420169931e+00 8.6029210558263038e+00
      6.7152476228761948e+00 9.4967886550395475e-01
      -4.0387618678282475e+00 3.5962212455270972e+00
      3.8547766786506643e+00 -6.8663917311233931e+00
      -6.3775531473902998e+00 3.4893160204863252e+00
      4.2577018338102812e+00 -1.3252717817701465e+00
      -1.4131072517219617e-01 -2.7706184898632410e-02
      5.8410325495370659e+00 5.8206707905052095e+00
      -2.1326899958395145e+00 -5.8924696598940294e+00
      -2.3683855023373392e+00 4.2325809769552167e+00
      -2.5319778444512084e+00 8.9950824575851795e-01
      -4.2632055839541767e+00 -6.6215518376713218e+00
      2.7759016310984674e-01 -8.4036004067878622e-01
      -1.8714544914162723e+00 2.1194704363989905e+00
      4.1369967806126784e+00 7.6175391686941474e-01
      -5.2529793632642665e+00 -2.7036963898304611e+00
      2.3385809624286166e-01 4.1399189169997097e-01
      -8.8730067952237626e+00 2.9530617704793758e+00
      -4.0951862187403139e+00 -2.9290485980054974e+00
      -8.5662310997725177e-01 -5.5509381448874331e+00
      3.3437512160368428e+00 -6.3487433658394210e-01
      4.0245519371008882e+00 -3.5530831218872516e-01
      -3.4227785042236787e-02 -5.8759308516797670e+00
      -4.6537373402744313e+00 -6.0849219725014727e+00
      -1.7029404653481417e+00 -3.3601125177010207e+00
      -1.5158441901152662e+00 -5.3871562672082023e+00
      1.7360913743417756e+00 -3.2445232322503137e+00
      4.5571958874705247e+00 -1.4358487373315811e+00
      -2.5674836375015095e+00 -8.8894289019801302e+00
      -8.3650471993007365e+00 -1.4865901095226826e+00
      -7.2425955448105528e+00 -3.2538436053052777e-01
      -4.3034275613807020e+00 1.1959640772197977e+00
      8.6616618787229738e-01 2.4965759909764347e+00
      1.1713663213884922e+00 -2.5760808842074518e+00
      2.3839074129493518e+00 4.3185019143820735e+00
      -4.9577603713353637e+00 -7.6177751838345609e+00
      7.4920117619503596e-02 6.7929744992717005e+00
      -5.3673365595895850e-01 2.2059024678202461e+00
      -2.5737057468575029e+00 -1.0368308213194528e+01
      -1.2996338039334679e+01 -4.8101284048856527e+00
      -6.1421906833555742e+00 6.8007899538359839e-01
      -6.8028788138789453e-01 -5.2275828821063159e+00
      -2.5612344764836603e+00 1.1487636084411832e+00
      1.3483901707564683e+00 -2.4620249621048754e-01
      4.0379636292722371e-01 1.5788448765028334e-01
      -1.7394913476832528e+01 1.3801216704637120e+01
      -1.6333534237040848e+00 -1.0387153814881268e+01
      4.5045184340467843e+00 -4.8893747352947194e+00
      2.8531215192137092e+00 1.0119052533223408e+01
      -2.9789221122184077e+00 -2.6234609062152878e+00
      7.6254285826801436e+00 -5.3636357445198846e-01
      1.4596679328860981e+01 -1.5814790069641929e+00
      -7.3131836368091541e-01 -9.6407677482921947e+00
      -2.3891610886570498e+00 3.6520248303528460e+00
      7.7322614303805037e-01 4.7224829666273580e+00
      6.8061931679753647e+00 3.5506797952231430e+00
      6.7090216529863322e-01 -1.0515325633675001e+00
      -2.2928696274455636e+00 4.3648187405298540e+00
      1.2973028343715580e+00 -2.5155048937689894e-01
      -4.7135887714091336e+00 -3.9678526867551760e+00
      -9.3874675409363419e+00 6.9594440418211363e+00
      -1.0906295399468420e+00 -9.0566082382200133e+00
      -1.1104107942631216e+00 2.1386662446106404e+00
      2.3532341097221736e+00 1.1737658430684878e+01
      -7.5716306535976940e+00 -6.8578542387566328e+00
      -1.5293567646768029e+00 1.0009119543551709e+01
      -3.2047158133618567e+00 4.7566770797378490e+00
      3.3560093125825650e+00 -4.7887979641101559e+00
      -2.9580272299435841e+00 -7.8283305686695681e-01
      1.0896592288384232e+01 -4.4549811665869212e+00
      5.7822475157894191e+00 -9.9536817598300342e-01
      3.4911458218997597e+00 -7.3740465928683516e+00
      -2.0008888774809908e+00 -5.4323261430245813e+00
      -2.6494988891436586e+00 -5.6785610744051285e-01
      1.4321136827910985e+00 3.9882252747118252e+00
      3.4457958159511497e+00 5.4632368522616748e+00
      -6.9097470454007903e-01 -3.1461679106291238e+00
      6.0369055504409816e+00 1.1223711825516244e+01
      -2.6778601442700585e+00 -6.1913115373813490e+00
      -3.0350873213545242e+00 -2.8875715250327727e+00
      5.4908285789144387e+00 -3.1926542462601661e+00
      3.9728502872502114e+00 -5.6297481292317331e+00
      6.6914539868648548e+00 -1.0218368570250449e+01
      -1.0721604924140959e+01 -9.1605010875802080e+00
      -5.1482134743434997e+00 -1.2163890666561963e+01
      9.6189434157792189e+00 4.5125403548921046e+00
      -2.8234980282447713e+00 2.0279005457998038e+00
      -1.2516179830359722e-01 -1.2439364489934826e+01
      -1.6910770093658958e+00 3.7015140349004594e+00
      7.6644594626456488e+00 8.8578660459642922e-01
      -1.3665162733160345e+01 -8.4811345562038259e-02
      -2.9299318275642396e+00 -3.3393869251443218e+00
      7.6868086916216276e+00 1.0640251972009922e+01
      2.2748461794257673e+00 2.4825870675307313e+00
      -1.0293231281872544e+01 -5.7442002522930560e+00
      3.1663636376899928e+00 -8.2213698295297117e+00
      4.1979808195034901e-01 6.2691415555914093e-02
      -6.7516051616028712e+00 9.5447854249388069e+00
      -1.1113149655336379e+01 -1.0138075842772702e+01
      1.1206018867098613e+00 3.1465759754117917e+00
      8.7120968551003219e+00 -9.7645971736882888e+00
      -1.4199700706936702e+00 2.5702259380471513e+00
      6.0388550809523722e-01 -9.9092318431560944e-01
      1.6370227087866915e+00 -4.9440675847517046e-01
      -7.5121187265472003e+00 -4.5186151287047123e+00
      3.1430076190666241e+00 8.0494705031998457e+00
      -3.1384462230562300e+00 2.8479711372862524e+00
      4.3397351163060671e+00 -9.2706770416592015e+00
      2.3730113568435183e+00 2.2989850411864761e+00
      -4.8379332767678612e-01 -2.7431365418042049e+00
      -1.3415326322563113e+00 2.3934190512972359e-01
      -8.8726021674358488e+00 -2.0651271665635949e+00
      1.1461018320970284e+00 1.0729569515911519e+01
      6.4575250833488296e-01 3.3188208949016080e+00
      -3.2550550814886190e+00 2.8210619245313668e+00
      3.6053229989512774e+00 -2.4620848374376250e+00
      1.6921226507413623e-01 -3.7378164661883577e+00
      -7.6436516835739772e+00 1.0202342025732035e+01
      -6.6736713299137573e+00 6.6945883491735980e-01
      -3.2065361287072647e-01 -1.1719933013690527e+00
      3.5802766347664305e-01 1.6489578748403344e+00
      -2.2388585069087634e+00 3.2058361027820409e-01
      -2.4707936241105477e+00 1.1765958338762765e+00
      -3.0722596824578683e+00 6.9757260965715018e+00
      3.7070443536632327e+00 1.6539161316539730e-01
      -7.3713423234476594e-01 9.8094086221979531e+00
      -2.4052979351369816e+00 1.5247416152129105e+00
      -3.6420081025699340e+00 -7.1018774547931747e+00
      3.6454647275783914e+00 2.1945183766204601e+00
      2.0275731973801188e+00 2.3243504514368283e+00
      -2.5901123275305018e+00 3.0204858508391097e-01
      -4.1968625425629957e+00 -9.8112882572581683e-01
      -1.4154260927965450e+00 -4.2153213415227704e+00
      -2.6750821879151307e+00 2.0990782819049802e+00
      2.2882878488346079e+00 1.7907447422862734e+00
      -8.0207477537186431e+00 -2.3779640248527256e+00
      4.6874108047792162e-01 -6.6893720070854445e-01
      -7.8303404554665264e+00 2.9317731733063770e+00
      -4.9016518532377686e+00 -1.0522813786230616e+00
      3.2478358899348962e+00 2.8583424254379097e+00
      2.2304272934303473e+00 -1.8306834297092686e-01
      3.0827873618665924e+00 6.0489755971445136e-01
      -2.6296049778548620e+00 1.6208342912355622e+00
      -6.7441222753038819e+00 -4.6023738527340452e+00
      5.9286703509477912e+00 -3.3990562232073096e-01
      5.3056691875060089e+00 5.7324766184099021e+00
      -2.4336734879547679e+00 -6.8332358960366344e+00
      -2.3741345313692039e+00 -3.4481633648719665e+00
      -7.2075902961930982e+00 -6.4510143976476353e-01
      -3.5199780298663319e-01 -1.7261357083980641e-01
      1.9189914252884832e+00 5.9799149374506788e+00
      -2.6607085781740052e+00 -1.2297460968706051e+00
      -1.3935145448796263e-01 1.1523164138423987e+00
      -6.9279453143213230e+00 2.7018852589265996e+00
      -5.1434248526944548e-01 -3.3914421885324639e+00
      6.6085177736706582e+00 -8.8897257298997456e-01
      -2.1072667232111780e-01 2.7700677593101286e+00
      3.7186331911162265e+00 6.2664526700538357e+00
      1.0096054653030355e+00 -2.5905985024047831e+00
      5.2634829714831390e+00 9.1815506825198874e+00
      -4.4266326216338987e+00 9.1566531995838769e+00
      1.2238499134668779e+00 8.0629040702023713e-01
      -3.6930094633140018e+00 4.3581942860809884e+00
      -8.3736590953710832e-01 -3.7952768488462834e+00
      2.3818230147796782e+00 -3.1427968171588025e+00
      3.3377202986588048e+00 -4.8344983510568236e+00
      1.4659596567799176e+00 -4.9245552048837204e+00
      -8.5299929697259003e-01 4.3198891820405008e+00
      8.3087653176940055e+00 -1.2248889521293469e+00
      -9.5768612570452305e-01 -2.8219530360152829e+00
      -4.6078493607658340e+00 2.8949155985966157e-01
      -7.4842546354607009e+00 -2.5307411229281085e+00
      -1.8268780030210455e-01 4.0217424804075561e+00
      1.0033758591786295e+00 2.1000044078326643e+00
      -3.0508662572424989e+00 -1.7683877343605698e+00
      4.1000430239800263e+00 -1.8091404503526145e+00
      2.8369261817829643e+00 2.1202363994456030e+00
      1.7392771101758995e+00 2.0755070500963559e+00
      1.3727183780882701e+00 -1.6791243326943772e+00
      -1.9972594170470170e+00 1.7166010753704464e+00
      -1.2697147690366779e+00 -9.8010813895719917e-01
      1.0148823871266612e+00 -1.3264929413420721e+00
      2.4142548106084161e+00 4.5192110784277357e+00
      -1.5490014103063825e+00 5.1434314294567529e-01
      -3.3356534339749091e+00 4.8676756402530454e+00
      3.2801476558478955e+00 7.2180650337122843e-01
      3.5688255116451273e-01 -1.0487465314717961e+00
      -1.4883964232994393e+00 8.6444393439146994e-01
      -2.6452800483524439e+00 7.1160828138756038e-01
      1.4179409038502353e+00 5.3383158614112984e+00
      -7.0826968037782900e-01 5.2663815474478648e-01
      1.1395512010729754e+00 -2.1520680753258010e+00
      2.5101078691369589e+00 -3.3724968595667617e+00
      -2.1421226560312920e+00 7.2759429286383726e-01
      5.9143214478705175e-01 -2.8845387131695182e+00
      -3.4629614600867895e+00 -2.0970578123339543e+00
      -2.8816620529733293e-02 9.7554378296246345e+00
      -1.0517970753530086e+01 -1.0188186721784026e-01
      -2.6313939103196802e+00 3.3331479677244329e+00
      -4.6495952340511248e+00 -6.8451566136689193e-02
      -1.8544782722521287e+00 5.4645584239468636e+00
      -4.3160417882325817e+00 -2.2291964489870173e+00
      -8.5460542868908543e-02 6.9859365528218058e+00
      -1.9156156428177149e+00 -1.9683003475927645e+00
      -9.3949852138890915e+00 1.8181431488359814e+00
      2.5215212518358658e+00 -7.5805984110170321e+00
      8.1107953078106974e+00 -2.9455300605231660e-01
      7.4254647347418090e-01 8.0341212611805215e+00
      6.6750287172328786e+00 1.3531761633149204e+00
      8.1592792081842358e-01 1.8170605312247567e+00
      1.8777221036674030e+00 1.1479867495094089e+00
      6.1456541917225160e-01 1.4866946096654430e+00
      2.8195853884402489e+00 -4.3800237496581884e+00
      -4.5589924269462729e+00 -1.0435984266358993e+00
      4.5381518412000359e+00 4.2264850781347922e+00
      -6.8011836764306759e+00 -5.7265232884756845e-01
      -5.1574794330252816e-01 1.6925298341747194e+01
      -7.1604981872942828e+00 4.5117071211204358e+00
      4.9592083685247283e+00 -9.4225164094553886e+00
      -5.2281505125342846e+00 -3.6369033415925229e+00
      1.6097128370265135e-01 5.4201438245377700e+00
      -3.3746815291840154e-01 5.3888344169841096e+00
      8.4776716168624977e-01 -3.4965830592212992e+00
      -2.5444197003615319e+00 4.3280856865663946e+00
      -2.7132564489415461e+00 -1.0572370177060003e+01
      -5.2008888374222746e+00 -1.0702855452587057e+01
      4.1248247565071144e-01 -5.8949148426852043e+00
      -4.2652668697335638e+00 4.8402637057940305e+00
      7.8585650394080258e+00 -8.5706175123881412e+00
      -8.7688464003395712e+00 -7.6777930764908913e+00
      -8.0800375042736650e-01 3.2958889515927153e-01
      -7.5936538359748285e-01 4.4508692530741687e+00
      1.0316279718011530e+00 -4.3465980711586392e+00
      -7.6468688185493541e+00 -2.8396849450866775e+00
      4.9428477631965464e+00 -3.6823635735594293e+00
      -1.5112805218680130e+01 -9.5392419328348819e+00
      -3.6936434335956725e-01 1.5460093029994310e+01
      -7.4373300419705233e+00 7.8476871164194897e+00
      5.6702991264292750e+00 -6.5283544317636508e+00
      -3.2731104846001360e+00 1.0362953142037002e+01
      7.9707370209275243e+00 4.3275974633271597e+00
      1.5820792211580956e-01 -2.6927702723497884e+00
      -8.2585745262055763e+00 -3.7368916300803239e+00
      6.9633559545741086e+00 -7.1935502446444497e+00
      -1.2585166446891181e+00 -5.5456180312940138e+00
      -1.0234580927697984e+01 9.6402757297157322e+00
      -2.2544216607932182e+00 -5.9774244522447573e+00
      1.9091398645118469e+00 2.5373605823443390e-01
      -4.4154506194758909e+00 1.1636114740733701e+01
      4.7302872912851663e+00 -1.1493586138284996e+01
      5.9291530957331471e+00 8.5208513991560458e-02
      4.3127384333994900e+00 2.8073585156819933e+00
      -3.2317814186100946e-01 -2.9275377861346175e+00
      3.1944442910536939e+00 -4.0365173522397013e+00
      -1.1330294228029438e+00 4.1098597361912201e+00
      4.2656991508883246e+00 5.1484507315974621e+00
      -5.4613345160090698e-02 -8.6206712528899647e+00
      -3.0365971278712385e+00 7.3757073799724333e+00
      3.3306469562691632e+00 6.6288416989007217e+00
      -1.4071100947042789e+00 7.2045703057202788e+00
      7.2022183625725731e+00 1.1513899010803309e+01
      -3.7034166487901214e+00 -5.6869786464836842e+00
      1.1802676792330775e+00 -1.2260789595671286e+01
      -1.8323316483780598e+00 1.3253602585631576e+00
      -3.7481749124540040e+00 -3.9897453120279285e+00
      -9.7427774464751860e+00 2.4754610522849414e+00
      1.3420383110027074e+00 -1.4405107630682950e+00
      4.0844385023321141e+00 4.8404724041133180e+00
      -1.3275057577571921e+01 -1.0300018307546331e+01
      6.1275782824241332e-01 -4.0654945658857926e+00
      3.8571804765560320e+00 6.6705312565180724e-02
      -3.4162993993495245e+00 -4.1167941888161295e+00
      1.7003373401707802e+00 -8.2310652877244319e+00
      9.4276699440395877e+00 1.4840539620406441e+00
      -4.3313004783342688e+00 1.3372779009902536e+00
      7.0852203473192548e+00 5.2092807776999930e+00
      -8.3021191748044543e-01 -1.2234277746517630e+00
      -2.6533308546094023e+00 -1.3743547098303335e+00
      3.5126683890530508e+00 -1.9555464238193021e+00
      -4.9428514114059664e-02 5.2760931148618191e+00
      1.5881904835769600e+00 3.4340801543351644e+00
      9.2938234433068601e-01 1.4631861817802232e+00
      -2.7778100502135135e+00 -2.4915937004046618e+00
      -8.0939407519888373e+00 1.1818443795346913e+00
      2.1754168034794965e+00 -6.2328366671382138e+00
      9.9926307841279822e+00 8.1167255512712977e+00
      -2.0469839022534346e+00 1.4624806983230885e+00
      -5.3424453385534356e+00 4.4464623832912906e+00
      1.2342266371598134e+00 3.9510401169083549e+00
      4.9376360076200154e-01 2.0935860412899223e+00
      1.0294978294053503e+00 -1.6819530463883697e-01
      -2.4007756314087607e+00 -2.3092258844728382e+00
      -2.3837162420119933e+00 5.6209319512891538e+00
      1.2528345648127267e+01 -6.9490093324363134e-01
      -8.5761006010186094e+00 5.7970119626657404e+00
      -7.2410737367050686e+00 -1.9017006236738703e+00
      5.0231970094027634e-01 4.3090821030211810e+00
      -8.7743573358804419e+00 -7.2356643266201353e+00
      -3.1776110020841858e-01 -4.8929905205998478e+00
      -5.5083547054839768e+00 7.2097768703964746e+00
      4.6755029294593964e+00 -5.9424446515594518e+00
      4.5510762170312917e+00 4.3813460206891497e+00
      4.8492224232073369e+00 5.5641964225772371e+00
      -4.9323181978189662e-01 -6.9463630086615105e+00
      2.7013080542603647e+00 -4.8464010420876642e+00
      1.4569549924001441e+00 7.5743802350880207e+00
      -1.5506150044958149e+00 1.1942708179918261e+01
      -1.4244491078811434e+00 1.8813123305725296e-03
      -4.0502709672995192e-02 4.0253851125206666e+00
      3.1578544207794357e+00 5.1490576839960651e+00
      2.7544565487659184e-01 4.2915086002110159e-01
      -3.2141559178071200e+00 2.6283696483041880e-01
      4.1300119885652525e-01 1.1328822145260567e+01
      -5.0044768288333437e+00 3.2406063978856587e+00
      -8.0076857946409898e+00 4.8852550094949088e-01
      -6.6057114607660310e+00 -9.4440688248192839e-01
      2.5276663100962250e-02 1.1021911841368070e+01
      -1.0664841725454670e+01 5.1766617118108353e+00
      9.8573131505792966e-01 -4.1263270046244696e+00
      5.9217022251262941e-01 -2.4879120784631521e+00
      -5.4824920420060126e+00 -2.4837626207063184e+00
      2.9804113455443098e+00 -3.6425051087557581e+00
      2.7277077990784857e+00 -2.0077339044258378e+00
      -1.7850690566750433e+00 2.4565707047208569e+00
      1.2065211608417952e+00 -5.7498198773695073e+00
      5.6917002067136835e+00 -2.4146791028256360e+00
      2.0639238004411138e+00 6.7363572904970725e+00
      -1.2200929444267379e+00 4.4337380977814931e+00
      6.4358317358038573e+00 -2.0653268903281417e+00
      8.4061267701071574e-01 4.1593035555407463e+00
      1.3598643746792287e+00 3.2251570044572124e-02
      4.8845827332195857e-01 4.1738241551020533e-01
      -1.9587257306074677e+00 6.3378722786323856e+00
      -2.3934806584806334e+00 2.1262703083663355e+00
      -2.1688315181554607e+00 -3.5575123624763458e+00
      -1.1558581070319254e+00 -1.5705778787644636e-01
      -3.7399672468227735e-01 5.4359543360298606e+00
      -4.2230536876857547e+00 3.5674773756162592e+00
      1.3100047706832896e+00 -3.9844268022171470e+00
      -6.8086412719260334e+00 9.0288034367711423e-01
      1.8010327513857562e+00 2.0109126799284613e+00
      6.2999991541908007e-01 2.4839845289437257e+00
      -6.9339706298008084e+00 1.0331666745563088e-01
      -2.3615859123724567e-01 -4.9449557882309954e+00
      6.3679640448768451e+00 -1.9825727217757037e+00
      -2.6027050465962422e+00 -3.2248948906985642e+00
      -1.1383450778998285e+00 1.2752964844901082e+00
      -1.7260832894678807e-01 -2.7787960542424259e+00
      4.4264739892807654e+00 -3.8603469562769249e-01
      2.3740723855126036e+00 -1.7162623209070251e+00
      -1.5020179367638553e+00 5.8634431665034992e+00
      1.3369683041765708e+00 3.7121409632051403e+00
      -8.0333656652949600e-02 6.4785334705017161e-01
      1.1147244554001863e+00 2.6840535229973468e+00
      1.7118648709843495e-01 -1.2614093257133028e+00
      -1.1514214782114492e-01 -1.7740342715754001e+00
      -1.9612277648480234e-01 1.2647730516470366e+00
      3.6377063828861855e+00 3.7736186252658319e+00
      2.5290400820306758e+00 -4.3091185920926431e+00
      2.3432143963855004e-01 2.3883997925813243e+00
      4.1052576901203679e+00 4.4818861649934680e+00
      4.2450204216380027e-01 6.0789245847237339e-01
      6.0500972114357920e-01 -1.6965096977963634e-01
      -1.4214652001664982e+00 -2.2383801418965191e-01
      4.6728388973058016e-01 -3.8256101833326004e+00
      4.7475041290865827e-01 -2.0575007219681614e+00
      -7.3117797454475469e-02 -6.2196496674892510e+00
      -4.7806283970108705e+00 6.7628217252566820e+00
      2.1635441441765715e+00 3.4258006973446973e+00
      1.6598768994763091e+00 -9.4846432655289303e-01
      -4.4318273717246965e+00 6.6169509620177025e-01
      -8.6706909627011397e-01 -1.2837054520575837e+00
      -9.6347205079213585e-02 -3.4217441152184155e-02
      7.6021278407944184e+00 1.1399484151591572e+00
      -1.8663553784390607e+00 -4.1065556311176064e+00
      2.7306214020243078e+00 2.1806574755209791e+00
      3.6331765278614710e-02 -2.5235785090621805e+00
      2.2041981640280314e-01 -3.6093375014935276e+00
      8.0017126341237532e-01 -4.2888460270464925e+00
      -3.1838585761166693e+00 1.7823166642780253e+00
      -8.2363207679194428e-01 3.6448545071329468e+00
      -3.1267734385990780e+00 3.1482500947487750e+00
      8.6576682604681177e-01 -1.9766010325770269e+00
      1.9406692788788535e+00 1.7142573027301873e+00
      3.6371686384442512e+00 -3.6527423992370451e+00
      1.2151133370834930e+00 -1.2844713929227181e+00
      2.3831550916692006e+00 4.4580016932463984e+00
      -1.7552787426624081e+00 2.9633890179457096e+00
      8.5765455639373456e-01 -4.8058780204390211e-01
      -2.5572417001759704e+00 -4.8775788239132263e+00
      -1.3425514945213806e+00 6.3944278379612141e-01
      3.1746723887596437e+00 8.3357823189610614e-01
      3.1310289717237949e+00 -5.0621426398382119e-01
      4.9449152994286756e+00 -1.6496559931913666e+00
      -9.9405532715972800e-01 -5.7262122538914486e+00
      4.8713423077723678e-01 9.1645472423707253e-01
      -1.9157959980061401e-01 5.4267273902388871e+00
      -3.8268038491176098e-01 -2.7810052851172427e+00
      2.7111562572339181e+00 2.9406022059413419e+00
      -5.1603528975587061e+00 -4.4580966685974444e-01
      -2.0172814306747249e+00 -8.1530263068342830e+00
      -6.7240302407438621e+00 -7.7988343016228046e-01
      1.7512542453409117e+00 -5.9970064500875706e+00
      -2.2015290024033805e+00 1.3067834331429089e+00
      -7.2324009498598940e+00 -2.4536018753069135e+00
      7.8284578887700351e-01 -1.0637418482931453e+01
      1.5630604574553599e+00 -6.8159078965385489e-01
      -2.4994530194604550e+00 4.7713342164136208e-01
      1.1662307000249752e+00 3.4875892797424441e+00
      -6.9422504244149428e+00 -2.7504268976658910e+00
      -3.3598960918015361e+00 3.1009330941015306e-01
      4.3459714181548783e+00 8.3596686288339459e+00
      1.7941139327680238e+00 -6.1712314538233413e+00
      3.3911949415751517e+00 -2.9462827976486783e+00
      -1.2862390054294830e+01 -9.6662438060738420e+00
      -6.0649966702646489e+00 1.4675368812145164e+00
      4.0983315473203519e-01 5.2378155715495787e+00
      -3.4256843740038403e+00 1.1495742438024237e+01
      9.4608591484274864e+00 -4.4641590838423895e+00
      -8.6962050756982041e+00 -3.6466581867158463e+00
      -7.0760286993537775e+00 6.1967798372399576e+00
      -4.7497711488077767e+00 3.5182119249005517e+00
      1.2881800117444175e+00 -1.0294400730153736e+01
      -7.8123757045941655e-02 -7.0934477524807553e+00
      1.5553872411109748e+00 -4.4034515455102419e+00
      1.4268046095445726e+00 1.6690440065246905e+00
      4.1383324730554873e+00 4.2191820016736159e+00
      -8.8216508903045323e+00 1.9370948400119821e+00
      1.0007943062707017e+01 -4.0243482701451878e+00
      -4.7968746162109506e+00 1.6772378397109793e+00
      -1.0699041435543561e+00 6.8948098798987478e-01
      -4.0483362560070821e+00 3.0358769455578858e+00
      8.1732644650998676e-01 -3.7739504189893154e+00
      1.7473146789765859e+00 2.9735757505788113e-01
      -3.9875203540683746e+00 -4.6291793336761025e+00
      -1.1153837596849902e+01 5.5358655542631068e+00
      1.5230909580233845e-01 8.8128942082861716e-01
      -7.5042729367941199e+00 3.4878284646387958e+00
      2.1271264664469385e+00 -5.5758035279399545e+00
      3.4181464253495064e-01 1.3759350022959069e+01
      2.0414037751719083e+00 8.8694957151002338e+00
      2.2278058795891647e+00 -2.8602580614943820e+00
      -3.5022700718501318e+00 -9.5449940871051009e+00
      -5.3054878599889443e+00 -1.1734665180009451e+01
      1.0049942214104846e+01 -1.3708765651823285e+01
      1.4783590447581421e+00 -8.2639307735365808e+00
      -7.8912362929850479e+00 2.3994916787457248e+00
      6.0619547372246254e+00 -9.0503562353802725e-01
      7.7152522911586532e+00 3.8049789313012372e+00
      -2.6775618670768728e+00 -7.1579088376643298e+00
      6.1412375816040745e+00 -3.4274803201359783e-01
      5.5247189891663595e+00 2.8294793621994607e+00
      -1.3273747395039370e+00 -9.2452918247830407e-01
      2.5516255011088638e+00 -1.7789761473318141e-01
      -6.4224062899847278e-01 4.0448046821347630e+00
      -5.2076759971399493e+00 -5.3082920200337433e+00
      6.7298026363333130e-01 -6.4505791511688830e+00
      -1.3562670031826016e+00 -1.3034447371419029e+00
      -3.2448330247867525e+00 1.3852160135262908e+01
      1.6130380418660109e+00 8.5328993978635328e+00
      1.5475783698182253e+01 7.4205704896854616e+00
      7.5092248807396027e+00 1.7519939165759828e+00
      -2.4931845270434874e+00 -2.6777325605119131e+00
      -4.1884124995315863e+00 -1.2502292043636889e+01
      4.2046272923265740e+00 -3.2370136353239078e+00
      4.7160391583464696e+00 2.6675779895920768e+00
      -6.7401616676915488e+00 -4.5104876809955758e+00
      -7.7125436124336599e-01 1.2153578566275824e+00
      -6.0050956524851502e+00 -4.4465239508901799e+00
      9.7040952055406109e+00 -1.7698375135997340e+00
      -3.2788992600139748e+00 1.7841188547746351e-01
      2.4098198955963177e-01 -9.0493741675830304e+00
      2.8229581602184051e+00 -3.8853193916923406e-02
      7.5239475786013346e+00 1.0895458288701756e+00
      7.0727096150712434e+00 3.4056025416963336e+00
      1.4878653379610070e+00 -1.0183842452459237e-01
      1.3122187085995071e-01 -6.6219487249712261e-01
      -4.5594943641472137e+00 -7.8511297480694999e+00
      -4.3140059748682891e-01 -4.4178943268844972e-01
      5.0633101034821397e+00 2.8059712484821926e+00
      1.1906963718299948e+00 -1.1286087680591166e+00
      1.9618393781630812e+00 3.1386447802731809e+00
      -3.7637925556825008e-01 1.2627566589163102e+00
      -4.4828281940929600e+00 2.1226244440438728e+00
      -5.9112819973857427e+00 4.6530662241219884e+00
      2.1722000547020488e+00 7.0957018270779164e+00
      1.4422326188716066e+00 -7.1026747876327478e-01
      -7.3403110623547194e+00 1.2774694840785600e+01
      -8.8232144202592657e+00 -6.4149164868045618e+00
      -3.4876601485335237e+00 9.2804112582899290e-01
      -8.8108243914562656e-01 -2.9336427667884935e-01
      3.8855983909720964e+00 1.2519248036847321e+00
      3.3543648943277687e-01 -3.1201138258445194e+00
      -1.5303446326474472e+01 3.5842410598842057e-02
      1.0784284250893938e+00 -2.2988798259053689e+00
      -5.3595545847525088e+00 -2.8911437117055940e+00
      -3.3760888181224757e-01 5.3501029493983836e+00
      -9.2684420737880959e+00 -8.6489565755387225e+00
      -1.0322727114325314e+00 -4.3269808412839925e+00
      2.6805912668240288e+00 -5.7202457860830724e-01
      -2.4221067877354039e+00 1.3214352710337043e+00
      4.8736452521237856e+00 -2.1735012388925989e+00
      -1.7807357354386260e+00 -1.8614044431532308e+00
      -5.1846536447574101e+00 5.0969365519242622e+00
      -1.0436204297984488e+00 4.3584828116427543e+00
      -2.7861488782224084e+00 7.1826093632066215e+00
      -7.2589541227100440e+00 4.4281309749208493e+00
      -4.7196083506053821e+00 1.2715577761583765e+01
      -7.4606526782575866e-01 -1.0815373192025297e+00
      5.3887888491356584e-01 3.6057115253205234e+00
      -3.6032368488200786e+00 -5.0724541407854495e-01
      8.8022885740670098e+00 5.6548035339822722e-01
      -2.3808519704297253e+00 5.0935479285366436e-01
      -2.5719138865156643e+00 -9.1230552465050008e-01
      -7.4024703127784184e+00 5.7994312173085927e+00
      2.7862661114513250e+00 6.7972270284491696e+00
      1.6040083349715342e-01 4.4090331330560488e+00
      -4.3785239785192029e+00 -1.2292429325476546e+01
      -1.0141562497378594e-01 2.2200525037688772e+00
      -7.5770521546002579e-03 -3.5163725179261814e-02
      -7.7979275462072362e-01 2.0976523949634389e+00
      2.8123916577062387e+00 4.0610145896336194e+00
      -2.3652308827749944e+00 -4.2077836531272430e+00
      -1.0914950658606599e+00 -5.1442683662879736e+00
      4.7359742741785116e+00 -1.9784956351276850e+00
      -3.4001897293477668e+00 1.5436761197693321e+00
      -2.9226176950211467e+00 -1.8975986931761284e+00
      -1.4637379849846546e-01 2.6362546829206583e+00
      4.1570000162640834e+00 -8.7605455422273359e-01
      -3.2819787836225505e+00 -1.5022932113716239e+00
      -1.0355996451255942e+01 5.6640390783397769e-02
      3.6958715849320858e+00 3.4715966782337619e+00
      1.6084102510304470e+00 2.1447168198223339e+00
      -6.2174763537569815e+00 3.4883534180970392e+00
      -3.9204073837329623e+00 -1.1493676675263340e+00
      4.5091350039979190e+00 -1.5864812326415689e+00
      3.5571429766801782e-01 6.7671779796798761e+00
      4.1766682657445403e-01 -7.3653713655491853e+00
      2.4625311607879427e-01 -1.9747493030605761e+00
      -9.6588517805170735e+00 5.1213115176665429e+00
      1.8535567036721936e+00 2.4974613114361497e+00
      -4.7109570842272124e+00 6.4138558465052153e-01
      -4.4784476477618860e+00 -1.6862341312041815e+00
      -3.6857542729593340e+00 -4.8567079244467131e+00
      3.4669779577479237e-01 -5.3829274624901302e-01
      -6.9957482633602819e-01 -4.2829828131617296e+00
      -1.0389032548800283e+00 -2.3008886241826993e+00
      1.7792212455558141e+00 -1.7167831482065410e+00
      4.3577688585396199e+00 3.1466216103048933e-01
      3.6620893618989085e+00 -8.2939215019667678e-01
      -4.7293419330009732e+00 4.2591429938766479e-01
      -1.6354251229950245e+00 4.7612688522611197e+00
      -8.0499979207081560e-02 1.2522253389229439e+00
      1.1621993491385969e+00 1.7195965852238433e+00
      -2.9848602399049047e+00 -2.8601391754170633e+00
      -2.7401596626994786e+00 9.0448939845194298e-01
      1.4842527382044224e-01 1.5125650478691113e+00
      1.9093404685757096e+00 -1.2054962047911409e-01
      2.8919884393548800e+00 -2.4784592536171006e+00
      -3.6395189275646782e+00 -4.9470359169487865e-01
      -1.9491972750446292e-02 -6.1491855788275721e-02
      1.6742518177462646e+00 -4.5651534051935554e-02
      2.1752922928008598e+00 1.4101695078184888e+00
      -3.7864391070191994e+00 -2.0816467977427604e+00
      4.7648252246876971e-01 -1.2809723667719106e-01
      4.3284909000597489e+00 1.8952735318041702e+00
      -9.6922000074272485e-01 -2.5375405532428248e+00
      -7.7623023299116989e+00 3.2664368120861609e-01
      -2.0690939737033500e+00 6.0310981875780296e+00
      -1.2169958301320927e+00 -1.0022721982901226e+00
      -4.4920164757682812e-01 2.1768935305285395e-01
      -5.2025992400510948e+00 -1.3738519520568690e-01
      -1.8271983744049394e-01 2.3200334476931626e+00
      2.4137609760170999e+00 -3.4540220842151398e-01
      1.6809184088778248e+00 -4.5363188194428457e+00
      -5.6838953652247266e+00 2.8186844238140982e+00
      1.1681163792775120e+00 -1.7185028930230044e+00
      2.0013246951236612e+00 3.0696438230040966e+00
      8.4835507547874534e-01 -1.1027905611989584e+00
      -4.5041865927225562e+00 3.3255616650506230e+00
      -1.2460110913335010e+00 -5.9996203740758505e+00
      2.1711511849506828e+00 -3.8917378467029934e-01
      5.8310478664446723e+00 -1.3344703953005774e+00
      -3.6229653887807145e-01 -4.9647274005174546e+00
      5.1432252151702968e+00 -1.4246432482073546e+00
      -1.6174990048706714e+00 6.0204341500212459e+00
      -8.1049565652752587e-01 9.8940365299780753e-01
      7.7247195932687411e+00 -4.3150503964437004e+00
      5.8599066075148860e+00 -1.5829191926940771e+00
      -3.4144984907097147e+00 -1.9229931974673475e-01
      -7.6831703878870083e-01 5.1425152033695620e-01
      -7.0912906270716625e-01 5.5224597237998569e+00
      3.7383321829750744e+00 -3.0899124048356308e+00
