<?xml version="1.0"?>
<opencv_storage>
<opencv_ml_ann_mlp>
  <format>3</format>
  <layer_sizes>
    120 40 65</layer_sizes>
  <activation_function>SIGMOID_SYM</activation_function>
  <f_param1>1.</f_param1>
  <f_param2>1.</f_param2>
  <min_val>-9.4999999999999996e-01</min_val>
  <max_val>9.4999999999999996e-01</max_val>
  <min_val1>-9.7999999999999998e-01</min_val1>
  <max_val1>9.7999999999999998e-01</max_val1>
  <training_params>
    <train_method>BACKPROP</train_method>
    <dw_scale>1.0000000000000001e-01</dw_scale>
    <moment_scale>1.0000000000000001e-01</moment_scale>
    <term_criteria>
      <iterations>30000</iterations></term_criteria></training_params>
  <input_scale>
    2.4876300902080281e+01 -9.3029227088559791e-02
    3.9810911746820010e+00 -5.2052323122290145e-01
    3.0302733805872575e+00 -2.0120885491317053e+00
    4.2409554425666576e+00 -3.6626699851684315e+00
    4.0897320968059905e+00 -3.1189757016950037e+00
    4.3933553064096618e+00 -3.6265726596212531e+00
    4.0785116518657034e+00 -3.4411128200020746e+00
    2.8877279956086905e+00 -1.4775017252512632e+00
    5.6392408244208854e+00 -3.7549793712736851e-01
    3.8978745510931944e+01 -5.3772185778577633e-02
    3.8847181363550378e+00 -2.7795400720481713e+00
    4.8823055558946207e+00 -4.0623488830377417e+00
    4.3885502764870603e+00 -3.2502929817235962e+00
    4.4908346178421787e+00 -3.4106337208458495e+00
    4.9291804659691802e+00 -3.9170314095907304e+00
    4.8443721801767756e+00 -3.7709857355905196e+00
    4.4449391495597856e+00 -3.2063439081538436e+00
    4.7059422284318204e+00 -3.5424011685108905e+00
    4.6051405150655551e+00 -3.7586073477686983e+00
    3.4809819940320130e+00 -2.1947313960009720e+00
    3.0812214874834509e-01 -5.1178879132309223e-02
    4.4632108714090714e-02 -2.9003869899542883e-01
    1.4048782375929205e-02 -8.2669845155394894e-01
    1.1450282586923632e-02 -1.3721373761737639e+00
    1.0242210742029051e-02 -1.3655176919798688e+00
    1.0881381644276740e-02 -1.5349466365674203e+00
    1.1733279583278468e-02 -1.3407296388434615e+00
    1.7098801742634527e-02 -6.2872106836162300e-01
    6.2764102829029195e-02 -1.8305777728398573e-01
    4.0069744639732696e-01 -3.5210131369782467e-02
    2.2315969264470314e-01 -7.1526688297948504e-02
    2.9417067281817120e-02 -3.6548870230756925e-01
    1.1846278275522712e-02 -1.1494408545487313e+00
    1.1700422935328775e-02 -1.8219991998350320e+00
    1.1676714020101574e-02 -1.4365097775480553e+00
    1.2208762643015446e-02 -1.7573606031162965e+00
    1.1444194042556879e-02 -1.8613704327984251e+00
    1.3375392053878773e-02 -8.6486613453391514e-01
    4.4482003456804226e-02 -2.4023013374028457e-01
    2.8014647205270460e-01 -3.9099337409037871e-02
    2.2254134232877049e-01 -7.2724763852733965e-02
    2.8059165852692577e-02 -3.7555307525332576e-01
    1.1174433435601094e-02 -1.1171099453658955e+00
    1.1680178928814892e-02 -1.5715368123453421e+00
    1.0303519730408495e-02 -1.0221855636803678e+00
    1.0542385365199906e-02 -1.1669928733879802e+00
    1.1056239393814317e-02 -1.6051793278270734e+00
    1.2459209727064029e-02 -8.7305654336048955e-01
    4.3100560593490711e-02 -2.6038987057793517e-01
    3.3849699794396310e-01 -3.8363896843468782e-02
    2.1560497423670666e-01 -6.8910987794184336e-02
    2.9124963892803054e-02 -3.6961313225341019e-01
    1.1177774962632961e-02 -1.1488950131596716e+00
    1.1523972939549444e-02 -1.6549065874703792e+00
    1.0272288986891134e-02 -1.1822100532758775e+00
    1.0865699059857382e-02 -1.3303225219698016e+00
    1.0799983172091378e-02 -1.5121115405913375e+00
    1.2477086158362065e-02 -8.2951552983824162e-01
    4.4296208494484526e-02 -2.5205849463167768e-01
    3.6204617010681750e-01 -4.7799180648196833e-02
    2.4393453856519373e-01 -5.9599678175002779e-02
    3.2129210353593757e-02 -3.2743401105514014e-01
    1.1200350249286553e-02 -1.0586655981522615e+00
    1.0880346777231372e-02 -1.7066668523164561e+00
    1.0894620699239426e-02 -1.6627942111489049e+00
    1.1609104310901421e-02 -1.9018555859769191e+00
    1.1627205017853472e-02 -1.7892434649465068e+00
    1.2996822087781787e-02 -7.8204486194560252e-01
    5.0002331200616611e-02 -2.2522575874895281e-01
    3.9495396559502011e-01 -3.7078010453170190e-02
    2.5426141145956799e-01 -5.4833708478565224e-02
    3.3082285734174606e-02 -3.0652232640431504e-01
    1.1204158030316685e-02 -1.0137721410747056e+00
    1.1113495707486060e-02 -1.6528361414388157e+00
    1.1083444691098428e-02 -1.4807754347839226e+00
    1.1437316232108648e-02 -1.7016072961652744e+00
    1.1200411281940555e-02 -1.7578014578747936e+00
    1.2754646780633226e-02 -8.1694866246854836e-01
    4.7394054712916293e-02 -2.1707565268021820e-01
    3.7030841418216870e-01 -3.4912604127106749e-02
    2.2158328758649654e-01 -6.1186094029190771e-02
    3.0949446886152605e-02 -3.3550671256666781e-01
    1.1055518411235541e-02 -1.0528861171368309e+00
    1.1170634752401603e-02 -1.5002612817114949e+00
    1.0731317435645428e-02 -1.0275411933401806e+00
    1.0836949934111665e-02 -1.2147969880168870e+00
    1.0869686930446765e-02 -1.5993701025547558e+00
    1.2108329718824216e-02 -8.5843709634518206e-01
    4.2845850865368094e-02 -2.5080065606668345e-01
    3.1610625574988482e-01 -3.5625778456393038e-02
    2.1784175758927432e-01 -6.9844004977978852e-02
    2.8599429808644120e-02 -3.6240547657364663e-01
    1.1253916185106702e-02 -1.1777070801731946e+00
    1.1818905193122611e-02 -1.6931899108162460e+00
    1.1009267620931042e-02 -1.0637603799190654e+00
    1.0506316283266192e-02 -1.1878084106944493e+00
    1.0770265725982034e-02 -1.5837772080026362e+00
    1.2009413030316928e-02 -8.9136024596149710e-01
    4.2225532513974137e-02 -2.6884321822473400e-01
    3.0234923986599849e-01 -3.7637253527572231e-02
    2.1427377877901940e-01 -7.2103941777761735e-02
    3.0624264256857998e-02 -3.5375808341645026e-01
    1.1729195587794809e-02 -1.1464654549542654e+00
    1.1446982610923265e-02 -1.7728875331835450e+00
    1.2189596962400726e-02 -1.4681707257676271e+00
    1.2766323023719330e-02 -1.6949620076292493e+00
    1.0574665497541394e-02 -1.5765917860458880e+00
    1.3374639890636928e-02 -8.6248171295024445e-01
    4.7393886777086405e-02 -2.5277688631001488e-01
    2.6805754962185663e-01 -3.7251089194547157e-02
    3.1488736744947377e-01 -5.5759991045484840e-02
    4.8878643678197206e-02 -2.5797660064663774e-01
    1.5081934129785302e-02 -7.3033626787857742e-01
    1.1625378307250068e-02 -1.1826913574961355e+00
    1.0094769485219802e-02 -1.1707628230165112e+00
    1.0527243999679076e-02 -1.1586014784283030e+00
    1.2050899349234685e-02 -1.0717196508728124e+00
    1.7996356077826646e-02 -5.8841669974449373e-01
    7.4461552441790702e-02 -1.8861406455519669e-01
    3.3682034975642938e-01 -2.7022964918383935e-02</input_scale>
  <output_scale>
    5.2631578947368418e-01 4.9999999999999994e-01 5.2631578947368418e-01
    4.9999999999999994e-01 5.2631578947368418e-01 4.9999999999999994e-01
    5.2631578947368418e-01 4.9999999999999994e-01 5.2631578947368418e-01
    4.9999999999999994e-01 5.2631578947368418e-01 4.9999999999999994e-01
    5.2631578947368418e-01 4.9999999999999994e-01 5.2631578947368418e-01
    4.9999999999999994e-01 5.2631578947368418e-01 4.9999999999999994e-01
    5.2631578947368418e-01 4.9999999999999994e-01 5.2631578947368418e-01
    4.9999999999999994e-01 5.2631578947368418e-01 4.9999999999999994e-01
    5.2631578947368418e-01 4.9999999999999994e-01 5.2631578947368418e-01
    4.9999999999999994e-01 5.2631578947368418e-01 4.9999999999999994e-01
    5.2631578947368418e-01 4.9999999999999994e-01 5.2631578947368418e-01
    4.9999999999999994e-01 5.2631578947368418e-01 4.9999999999999994e-01
    5.2631578947368418e-01 4.9999999999999994e-01 5.2631578947368418e-01
    4.9999999999999994e-01 5.2631578947368418e-01 4.9999999999999994e-01
    5.2631578947368418e-01 4.9999999999999994e-01 5.2631578947368418e-01
    4.9999999999999994e-01 5.2631578947368418e-01 4.9999999999999994e-01
    5.2631578947368418e-01 4.9999999999999994e-01 5.2631578947368418e-01
    4.9999999999999994e-01 5.2631578947368418e-01 4.9999999999999994e-01
    5.2631578947368418e-01 4.9999999999999994e-01 5.2631578947368418e-01
    4.9999999999999994e-01 5.2631578947368418e-01 4.9999999999999994e-01
    5.2631578947368418e-01 4.9999999999999994e-01 5.2631578947368418e-01
    4.9999999999999994e-01 5.2631578947368418e-01 4.9999999999999994e-01
    5.2631578947368418e-01 4.9999999999999994e-01 5.2631578947368418e-01
    4.9999999999999994e-01 5.2631578947368418e-01 4.9999999999999994e-01
    5.2631578947368418e-01 4.9999999999999994e-01 5.2631578947368418e-01
    4.9999999999999994e-01 5.2631578947368418e-01 4.9999999999999994e-01
    5.2631578947368418e-01 4.9999999999999994e-01 5.2631578947368418e-01
    4.9999999999999994e-01 5.2631578947368418e-01 4.9999999999999994e-01
    5.2631578947368418e-01 4.9999999999999994e-01 5.2631578947368418e-01
    4.9999999999999994e-01 5.2631578947368418e-01 4.9999999999999994e-01
    5.2631578947368418e-01 4.9999999999999994e-01 5.2631578947368418e-01
    4.9999999999999994e-01 5.2631578947368418e-01 4.9999999999999994e-01
    5.2631578947368418e-01 4.9999999999999994e-01 5.2631578947368418e-01
    4.9999999999999994e-01 5.2631578947368418e-01 4.9999999999999994e-01
    5.2631578947368418e-01 4.9999999999999994e-01 5.2631578947368418e-01
    4.9999999999999994e-01 5.2631578947368418e-01 4.9999999999999994e-01
    5.2631578947368418e-01 4.9999999999999994e-01 5.2631578947368418e-01
    4.9999999999999994e-01 5.2631578947368418e-01 4.9999999999999994e-01
    5.2631578947368418e-01 4.9999999999999994e-01 5.2631578947368418e-01
    4.9999999999999994e-01 5.2631578947368418e-01 4.9999999999999994e-01
    5.2631578947368418e-01 4.9999999999999994e-01 5.2631578947368418e-01
    4.9999999999999994e-01 5.2631578947368418e-01 4.9999999999999994e-01
    5.2631578947368418e-01 4.9999999999999994e-01 5.2631578947368418e-01
    4.9999999999999994e-01</output_scale>
  <inv_output_scale>
    1.8999999999999999e+00 -9.4999999999999996e-01
    1.8999999999999999e+00 -9.4999999999999996e-01
    1.8999999999999999e+00 -9.4999999999999996e-01
    1.8999999999999999e+00 -9.4999999999999996e-01
    1.8999999999999999e+00 -9.4999999999999996e-01
    1.8999999999999999e+00 -9.4999999999999996e-01
    1.8999999999999999e+00 -9.4999999999999996e-01
    1.8999999999999999e+00 -9.4999999999999996e-01
    1.8999999999999999e+00 -9.4999999999999996e-01
    1.8999999999999999e+00 -9.4999999999999996e-01
    1.8999999999999999e+00 -9.4999999999999996e-01
    1.8999999999999999e+00 -9.4999999999999996e-01
    1.8999999999999999e+00 -9.4999999999999996e-01
    1.8999999999999999e+00 -9.4999999999999996e-01
    1.8999999999999999e+00 -9.4999999999999996e-01
    1.8999999999999999e+00 -9.4999999999999996e-01
    1.8999999999999999e+00 -9.4999999999999996e-01
    1.8999999999999999e+00 -9.4999999999999996e-01
    1.8999999999999999e+00 -9.4999999999999996e-01
    1.8999999999999999e+00 -9.4999999999999996e-01
    1.8999999999999999e+00 -9.4999999999999996e-01
    1.8999999999999999e+00 -9.4999999999999996e-01
    1.8999999999999999e+00 -9.4999999999999996e-01
    1.8999999999999999e+00 -9.4999999999999996e-01
    1.8999999999999999e+00 -9.4999999999999996e-01
    1.8999999999999999e+00 -9.4999999999999996e-01
    1.8999999999999999e+00 -9.4999999999999996e-01
    1.8999999999999999e+00 -9.4999999999999996e-01
    1.8999999999999999e+00 -9.4999999999999996e-01
    1.8999999999999999e+00 -9.4999999999999996e-01
    1.8999999999999999e+00 -9.4999999999999996e-01
    1.8999999999999999e+00 -9.4999999999999996e-01
    1.8999999999999999e+00 -9.4999999999999996e-01
    1.8999999999999999e+00 -9.4999999999999996e-01
    1.8999999999999999e+00 -9.4999999999999996e-01
    1.8999999999999999e+00 -9.4999999999999996e-01
    1.8999999999999999e+00 -9.4999999999999996e-01
    1.8999999999999999e+00 -9.4999999999999996e-01
    1.8999999999999999e+00 -9.4999999999999996e-01
    1.8999999999999999e+00 -9.4999999999999996e-01
    1.8999999999999999e+00 -9.4999999999999996e-01
    1.8999999999999999e+00 -9.4999999999999996e-01
    1.8999999999999999e+00 -9.4999999999999996e-01
    1.8999999999999999e+00 -9.4999999999999996e-01
    1.8999999999999999e+00 -9.4999999999999996e-01
    1.8999999999999999e+00 -9.4999999999999996e-01
    1.8999999999999999e+00 -9.4999999999999996e-01
    1.8999999999999999e+00 -9.4999999999999996e-01
    1.8999999999999999e+00 -9.4999999999999996e-01
    1.8999999999999999e+00 -9.4999999999999996e-01
    1.8999999999999999e+00 -9.4999999999999996e-01
    1.8999999999999999e+00 -9.4999999999999996e-01
    1.8999999999999999e+00 -9.4999999999999996e-01
    1.8999999999999999e+00 -9.4999999999999996e-01
    1.8999999999999999e+00 -9.4999999999999996e-01
    1.8999999999999999e+00 -9.4999999999999996e-01
    1.8999999999999999e+00 -9.4999999999999996e-01
    1.8999999999999999e+00 -9.4999999999999996e-01
    1.8999999999999999e+00 -9.4999999999999996e-01
    1.8999999999999999e+00 -9.4999999999999996e-01
    1.8999999999999999e+00 -9.4999999999999996e-01
    1.8999999999999999e+00 -9.4999999999999996e-01
    1.8999999999999999e+00 -9.4999999999999996e-01
    1.8999999999999999e+00 -9.4999999999999996e-01
    1.8999999999999999e+00 -9.4999999999999996e-01</inv_output_scale>
  <weights>
    <_>
      8.2930033278312587e-01 1.4422942564165677e+00
      -3.8931255635718696e+00 -2.0422437159785919e-01
      -3.4912891810176370e+00 5.6417584509057850e+00
      2.4881712373960978e+00 3.0147850762238462e+00
      -5.0218073113855306e+00 8.5906653663086274e-01
      -1.1499375780081278e+00 -2.5081739338510656e+00
      7.2486764453065136e-02 -3.2609894293271813e+00
      3.2397876651675933e-01 -2.2030093204096091e-01
      -4.6090815961783695e+00 -1.8504195456786581e+00
      5.4837602363081235e+00 5.4115466817201279e+00
      -3.4570822850308875e+00 -3.8152001540990739e+00
      -3.7202647513907672e+00 -3.3101399025808500e+00
      -2.7077114497574306e+00 -3.2386758136488503e+00
      -1.5863088775944609e+00 -3.8139743815617635e+00
      2.3605285332977224e+00 -2.8743416892646780e+00
      2.9187801924624877e+00 -3.7433601550542717e-01
      4.3099385483758229e-01 6.7896451218173326e-01
      7.8513634434849677e-01 -3.5354379916120351e+00
      1.3053628657674106e+00 -2.4010708439049187e+00
      3.8189983462879173e-01 1.6551194876099242e+00
      -3.9710387530668720e+00 2.4124252887523034e-01
      -1.4782608015390739e+00 -4.2641076171144068e+00
      -2.4690210138097197e+00 -7.8295912994569361e-01
      1.2860067218805593e+00 -3.9218854274827386e+00
      -5.8880671899776189e+00 -5.4341571238847353e-01
      -2.4983356598362566e-01 -3.1333211955878637e-01
      -3.5400390218176070e+00 3.7033154106974511e+00
      2.4253027597516597e+00 -2.9879884968700603e+00
      -6.8737586690298047e-01 -4.9867869650702881e+00
      6.9838590511283503e+00 4.2757918005623257e+00
      2.9813416220126481e+00 8.1274817713589531e-01
      1.3658599104491000e+00 3.7976754187985646e+00
      2.7831321742894293e+00 -2.8238257637593818e+00
      2.3278171396249809e+00 -9.8661491349301578e-01
      -4.6601630558861675e+00 -1.3140688806718610e+00
      2.3500326691401403e+00 3.4005686062759610e-01
      -8.8948116823231815e-01 2.4810431737035867e+00
      -6.1366802068952597e-01 -8.6166946019352941e-01
      2.3638707872149816e+00 2.2703659554950203e-01
      -2.6784503292155831e-01 1.2589934076137295e+00
      -1.4913446852047543e+00 -1.2020645220305890e+00
      -1.6056876530422406e+00 1.1119172100933755e-01
      -5.0598670380729596e+00 4.7940833323683091e-01
      5.6067236445642248e+00 -6.2845738893523162e+00
      3.5242333708774272e+00 -1.0532046514055946e+00
      1.7368638923690796e+00 3.5438873166148627e-01
      6.6176844783576607e+00 -8.6829544212337186e+00
      -8.1882212598802262e-01 2.9370235743214561e-02
      6.8035050366640357e+00 -3.2499683513804483e+00
      6.5126049559069612e+00 3.2767194939422741e+00
      4.7263947435509857e-01 -3.5285206291228177e+00
      8.2488079599256885e+00 2.5375026720076423e+00
      -2.0632917428497444e+00 -1.1194130719947395e+00
      3.7207433433852044e+00 -4.7952197734104489e+00
      -3.5677669140556914e+00 -2.9102253573626622e+00
      2.0222685096414899e+00 1.0153914387125181e-01
      -3.9692993565912222e+00 -3.4519726551057759e+00
      -6.9655519443701963e-01 2.4908657473876539e+00
      -1.6663360452732012e+00 3.9197717548250699e-01
      5.1173156106391753e+00 9.7945380177109653e-01
      5.4426308468609195e+00 -1.8812404661326141e+00
      6.6350735661337934e+00 -8.8438903648851177e+00
      -6.1512756830244273e+00 3.9278777688539357e+00
      5.2206792592657125e+00 -5.4930746008602389e+00
      4.7953299546792094e-01 -3.4730767831874099e-01
      -1.6012315933755092e+00 -5.1075332761999848e+00
      -4.0158738980590982e+00 9.9343713435868235e+00
      6.2432678703177427e+00 3.4893732006772278e+00
      4.0714221920920035e-01 -2.7945469636454421e+00
      -9.7109430934067931e-01 -5.6866399342947256e+00
      3.1703114380478956e+00 1.4182227283793389e+00
      -1.2616264892280815e+00 -6.2053811530749137e-01
      -6.2616726435081151e+00 8.0869892335623401e+00
      2.0033195637984833e+00 -2.2703809245683155e+00
      1.9408144524459319e+00 1.7668851328293289e+00
      8.8205480465289625e+00 -1.9021977016582153e-01
      3.0192895741358314e+00 -3.5051359341908497e+00
      -9.9732228408377893e-02 -2.4031999247839686e-01
      1.3167630204880020e+01 -1.1266362202845805e+00
      6.2199372780069895e-01 4.8715848375473474e+00
      6.0785435750278412e+00 5.3347232351191582e+00
      7.9032261540881716e+00 -8.7213123095039569e-01
      5.6753817883482878e+00 4.9341548793913637e+00
      6.0416015597902941e+00 2.8176181399075357e+00
      -3.4538584691977183e+00 -6.9446319048074789e-01
      7.2571398129582594e+00 -1.9495725588357173e+00
      -5.7260103000906604e-01 1.3575307348496135e+00
      4.5853181527302169e+00 -5.0596272538332139e+00
      8.5870179438458616e-01 -2.2390247929964975e+00
      -1.8405323453591365e+00 -6.0960251049472234e+00
      5.0911104121709618e+00 2.1622750301835505e+00
      3.5460572600720295e+00 -1.0212511380002072e+01
      2.8044701748333090e+00 5.9293931630047361e+00
      -8.6972653493300300e-01 -7.1518837519196081e+00
      -4.8896987862453738e+00 -2.5985449454176313e+00
      9.6747988561697174e+00 -8.6554867452188891e-02
      -3.8329930926684885e+00 3.5304282052815501e+00
      -7.0656109212082829e-01 8.4095469450273210e+00
      5.4575148556437947e+00 -1.6642431603394645e+00
      4.7213119196859742e-02 -2.1106575120750717e-01
      2.5786524785752771e+00 -4.1467422370874667e+00
      2.2566579547158914e+00 -3.5970935820503129e+00
      5.7635525064359054e+00 4.1382334931105547e+00
      3.0307530266423184e+00 1.0077664762214065e+00
      6.1558184724530750e-02 -7.1875325818314983e-01
      5.8340919652761221e+00 1.2399677877019886e-01
      -3.3147475347525703e+00 1.3366200432195136e-01
      2.5189407665217791e+00 7.6834293574694748e-02
      2.3706570745789075e+00 -8.4425981582253407e+00
      5.7859978220399819e+00 -7.6358362209578368e-01
      1.0513665039760272e+00 5.1988636544704070e+00
      2.1438177641276486e+00 6.2003061225075895e-01
      6.7231890263033476e+00 3.6758520292472210e+00
      3.8776621411832091e+00 -7.8198562423002542e+00
      -5.2223684519146421e+00 1.4904975203375961e+00
      1.6240711444219503e+01 -1.2234151543566198e+00
      -2.2430323748280673e-01 9.0306161607500579e-01
      -7.6261649755815142e-01 -1.8934645210446119e+00
      -2.9821707971296605e+00 3.3190820716604402e-01
      -5.4474883725123782e+00 1.9746852690585863e+00
      -1.9363350404927950e+00 1.0953904605933915e+00
      1.0387556860932083e+00 -3.5980990211360542e+00
      -4.8237629372410895e+00 1.3581876026884097e+00
      -5.8563876191310689e+00 1.6596149033082896e+00
      2.5894884477045133e+00 -5.4691427109631907e-01
      6.8352298456135303e+00 1.0011462011935231e-01
      -8.0558800884028745e+00 -2.5011804435282268e+00
      4.2243428590550529e+00 1.1866586435930541e+01
      -3.5894402744697240e-01 -2.8343381024784842e+00
      3.3852559383750811e+00 -6.9262751176315680e+00
      2.9299144082298021e+00 7.9408420674101663e+00
      -8.4995995093013086e+00 9.7332464110121304e+00
      -9.3918690995988674e-01 3.6838475461652580e+00
      -2.0448601034852461e+00 -9.9317099763892660e+00
      7.8033364158116827e+00 -3.6902855014327289e+00
      -6.2299179042137292e+00 -4.7930297210179373e-01
      -6.4450907137823810e-01 1.0241698291070991e+00
      -1.7964676284222717e-02 -2.7886793492079121e+00
      -1.5201728501206266e+00 -1.8015182129429939e+00
      -3.1415795979426480e+00 -6.5862999126495389e-02
      -6.9168497987952042e+00 2.3098254948452404e+00
      -4.8623741911491329e+00 2.9274479510606262e+00
      1.4476222334469120e+00 -2.2435479014637125e+00
      1.7614142808137828e-01 -5.9951750155398713e+00
      -1.7598133927813266e+00 -9.4697417052953170e-01
      7.0156213478764178e+00 -6.1572122440130439e-01
      -3.6950727889903021e+00 6.7728161284929034e-01
      -3.2884474697784603e+00 2.1961481633118631e+00
      4.8462641177196470e+00 -1.1417936951832786e+00
      4.7978821818286397e+00 3.5524970505017279e+00
      2.0496337512108007e+00 3.3343828679583992e-01
      -3.7017926206952412e+00 6.0563236920404961e-01
      7.8858525375873001e-01 7.9976326138316738e+00
      1.2855847231519406e+00 3.8818972268560720e-01
      -1.5047893220810484e+00 2.5129842958857469e+00
      1.0200944086029597e-01 -3.1431389755842720e-01
      5.4540975402424141e-01 -2.6326986023755379e+00
      -3.9231542812459930e-01 1.6652085959470260e+00
      -2.7093186461963753e-01 1.0191781853322055e+00
      -2.2421270073001634e-01 -2.1953160623637142e+00
      3.6384460622496602e+00 5.9920359020682854e+00
      -6.6003876039980778e+00 -1.1881284075945722e+00
      1.0992825003016558e+00 -1.2594055187871891e+00
      2.7104399543964020e-01 -5.5512710099484697e-01
      1.2743232378099585e+00 -3.3401308968061988e-01
      3.1208105384224143e+00 2.6596578269702755e+00
      -1.3490932165905686e-01 -1.9738176713368458e-01
      3.3020760265188465e-01 2.4567508809953527e+00
      7.3195284944048111e-01 -2.3509766762914843e+00
      -1.4491399834053245e-01 -3.7064564133022965e-01
      -5.2363685611436424e+00 -3.7919785547806959e+00
      -1.4358466132849321e+00 2.9662347374683797e+00
      2.9226668491732122e+00 1.5172083296147307e+00
      1.7965412907548655e+00 -4.3393763082254804e+00
      -2.7885518988062041e+00 -2.6746252267958153e+00
      3.0054493479628790e+00 -1.3119770894383473e-02
      9.7427865534608382e-01 -1.4309412150225536e+00
      -3.2059076804081199e-01 -1.1763829418984924e+00
      3.0116472045496083e+00 5.3615148226343279e-01
      1.4108281615692424e+00 1.9551194244477355e+00
      6.2406383341107530e-01 -4.2640471392781087e+00
      5.7649478758976136e-01 -3.4120903826118876e+00
      1.4283009984757855e+00 5.2435309326745001e+00
      2.9281089480025111e+00 3.2445138268529767e+00
      2.9401396361765793e+00 2.9415581380277506e-01
      -4.5889958853584085e+00 -9.3408862112977242e-01
      -1.8051159807010145e-01 3.5941868738160947e+00
      4.1684974445865839e+00 8.4242636898074530e-01
      -3.6794463619452005e+00 -2.5022576998810311e+00
      -2.8162077222588815e+00 9.1790043904054563e-01
      4.5882671028407787e+00 -5.0675710798745186e+00
      -2.6656697398893514e+00 3.7997111542049145e+00
      -4.6516688523058027e+00 2.4362254194306399e-01
      6.3659854680248387e+00 -2.5953294852385217e-01
      -5.2507878071070402e-01 3.4575135416114317e-01
      -2.7291583103235961e+00 2.2307655018825739e-01
      3.4270692605854487e+00 -1.3402773532009156e+00
      5.7549068295187789e-01 -2.0623487705206114e-01
      -1.7345191687956465e+00 -3.4429094951101358e+00
      2.6457530704916854e-01 1.8323606667009404e+00
      3.9275921095360418e+00 4.4911401592655675e+00
      -1.2163387870794713e+00 -1.0668558148427143e+00
      6.9296793944563706e-01 4.3602272391514347e+00
      -1.1140835450299258e+00 2.7791214484420244e+00
      -1.2084512405520840e+00 -9.6778564648637699e-01
      -4.7508227234899563e+00 -1.3442033355902347e+00
      2.1830275822513712e+00 1.0777922757618135e+00
      2.4821010811075563e+00 -6.2973229434495626e-01
      3.4179984676150355e+00 4.2300838805202394e+00
      -5.3626003980217818e-01 4.0581197032013723e+00
      -4.9582867695673443e+00 -2.1589484620386514e+00
      -3.9106620877585900e+00 -1.5951160244689735e+00
      6.0192152559694168e-01 9.7922621185802894e-01
      -2.5584626194747733e+00 1.3590162924330147e+00
      6.1392030380615810e-02 4.2580096445881574e+00
      -2.7203049870474194e+00 -7.8387800939778551e-01
      -3.4178144693007253e+00 1.7197259494939359e+00
      1.6296633281966780e-01 -2.1577223770460860e+00
      1.4021177912081695e+00 1.6105021583968211e+00
      -1.8545048908872680e-01 1.5668004611478574e+00
      4.5172616889041250e-01 -4.1090993336845227e-01
      -1.5025341509696524e+00 2.7720191970595227e+00
      2.1594238787732443e+00 -2.7282157929281808e-01
      -1.1636791347580152e+01 -3.8881506688885707e+00
      1.5262131947675306e+00 -7.1660376770106404e-01
      -3.1657039818408608e+00 -1.3007137431765112e+00
      8.4537922587970527e-01 1.9008823864493241e+00
      6.2367435481366507e-01 -2.5643235968898206e+00
      1.1063276181418953e+00 5.9729204881158970e-01
      -4.1523270243764570e+00 1.9461974909751198e+00
      2.8417903237888131e+00 -1.5500674830919317e+00
      -8.9318480051859090e+00 -1.1774447776011858e+00
      -6.1391413816131530e+00 4.3661156980701561e+00
      -1.0810038473867494e+00 1.0120683211998267e+00
      3.3628860852118674e+00 1.8138667765570240e+00
      -3.1166831976283422e+00 4.5830629393775357e-02
      -2.0317643345770986e-01 2.6285257819130914e+00
      -5.4986221462399720e-01 -3.4573469952867084e+00
      -3.4378922019501061e+00 -7.2918474233033761e+00
      9.5898709220980771e-01 1.2418627115411296e+00
      -1.1155975891023057e-01 4.6473059232616423e-02
      1.1231855139513318e+00 3.3674750650200438e+00
      4.3489795331566308e+00 -1.4518796434876822e+00
      -1.1531049606220054e+00 -1.7358047414564048e+00
      2.1022873043008858e+00 -3.5139032463969982e-01
      -9.8712171882617572e-01 -7.3344164699270220e-01
      -6.5064945000006191e-01 4.0639999900272468e+00
      -3.2826243122744629e+00 5.6525661385368287e-01
      -3.7613023069146982e+00 3.2102908603564670e+00
      -3.6499537452705080e+00 4.6296924622473936e+00
      -3.8548968093028737e+00 -1.8541150825638830e+00
      -2.3366943673783678e+00 3.4528296607659059e+00
      -1.9845743361681525e+00 -6.1192972595827371e+00
      2.0543433048576918e+00 2.6939345885947659e+00
      -3.0803662228522488e+00 -4.2026923292754997e-01
      4.8356108668549025e-01 -1.8671262732697694e-01
      1.8815125122461835e+00 -3.7038735924229886e+00
      -1.8566347126129767e-01 -5.8603093055994258e+00
      2.9921784581969200e+00 -5.0390494947536446e+00
      -5.9559746270234393e-01 2.0371814160812886e-02
      -2.2729707328758234e-01 -1.6894707252990127e+00
      -3.3614418560562016e+00 -5.6751923081462845e+00
      4.7464125658355538e-01 4.0040107156871745e+00
      -2.6380850827248006e+00 -2.2241760373950199e+00
      3.0993636606243009e+00 -5.5003116888010059e-02
      -7.9770516156375770e-01 -4.0421112101461310e+00
      -6.8583440292796976e+00 1.9478742512509735e+00
      -2.4407399498311029e+00 4.1951907935589157e+00
      -1.6126016975585409e+00 -1.5676465346506541e+00
      -5.3795856988518711e+00 1.1635755085525199e+00
      2.8028719012580345e+00 -4.4037820348014938e+00
      -3.0686990319640541e+00 6.6486045119093751e+00
      4.4055606960269618e+00 -3.1991221032254724e-01
      -3.6566131417356256e+00 -4.7564705961991285e+00
      3.9750943754098605e-01 1.8097672984084558e+00
      9.6444113905194295e-01 2.0780305305508320e-01
      5.0015330374620093e-01 -4.5856301914875441e+00
      2.0270794290330604e-01 -2.7927016088713956e+00
      4.7051684117341246e+00 -2.7120225582004842e+00
      -4.4744023693327412e-01 1.9369979236728674e+00
      -7.9120813094731215e+00 -2.0422775193432452e+00
      -2.2342636685384250e+00 -3.3180142664664114e+00
      -2.7645998272742482e+00 4.1249621652608770e-01
      -8.5781027125451415e-01 -3.2641147381598841e+00
      5.0603267985532998e+00 -2.4153535260979139e-01
      -1.1148128537905588e+00 -1.1856697861618619e+00
      -3.6377558589153063e+00 3.9951881922250045e+00
      -3.5496091213938037e+00 4.1133299297487538e+00
      2.8110415594548921e+00 -1.5092441241591272e+00
      -1.6454564054282421e+00 -6.8484684456370931e-03
      -3.3698011946163877e+00 5.2235429888234530e-01
      -1.9662744171665321e+00 5.5954283656821771e+00
      -6.1114954922699749e-01 -1.8993934389352651e+00
      -2.2838735266541454e+00 -1.7738822105728143e+00
      -7.6132871270209768e-01 -3.4352238328935183e+00
      2.4466002432759844e+00 -2.2172731698800532e-01
      -2.5900897779189838e+00 -4.9667995719983384e+00
      -2.0350189566622429e-01 3.6656381421060051e+00
      1.3427073813207469e+00 -4.1181119922287859e-02
      -4.3006922098885632e+00 -1.7828498574444904e+00
      -8.3600069703724884e+00 2.3863958245974884e-02
      -2.2034535222671723e+00 1.3443867566984198e+00
      -4.2483281665096406e-01 2.2339939572387775e+00
      -1.4843423691619155e+00 2.6627441252642270e+00
      3.5158727404366669e-01 -4.5401674943038423e-01
      6.0428975382530681e-01 2.7144874279086966e+00
      -1.0699353458825439e-01 5.0508244004845437e+00
      6.8633801146194451e-01 3.1408928768600952e+00
      7.5893748406201411e-01 -2.1529815785309522e-01
      -1.7246619105885965e+00 5.6091192660523359e-01
      -1.0663359051004229e-01 1.1359915246497316e+00
      -3.5977707157101824e-01 -1.6459348076581291e+00
      -3.5287785932517628e+00 -1.2561677751625626e+00
      -2.5190229784014146e+00 -3.0832695305018860e+00
      -2.1455026166148999e-01 -6.6176825678946338e+00
      1.3675418436292548e+00 8.0065950240749653e-02
      -2.6683677806374173e-01 -1.1799825005783937e+00
      3.6597816169883590e-01 2.1427544996392345e+00
      2.9936981678369654e+00 -1.8880086801015483e+00
      3.4744183973907644e-01 -4.3726271865394919e+00
      1.3278112854731319e+00 -1.4960920170124277e+00
      -1.2308006664071669e+00 2.4194054643992877e+00
      4.8188404730813683e-01 1.2082168187219871e+00
      2.0974473546440144e+00 4.3829905582160347e+00
      -4.8381997538594597e+00 3.4433480418023216e-01
      1.2224679360221999e+00 -4.1268663313149005e+00
      3.5595905811734130e-01 -1.8676990547250421e+00
      2.6695229114092909e+00 -3.2810879127689363e+00
      4.8755756954734242e+00 -4.8134796536889217e+00
      3.0935778835083441e+00 -7.9868744281423976e-01
      -1.7643537014028818e+00 1.9324349692019078e+00
      2.1288574965835187e+00 4.8958426220862722e-01
      -4.0323561331659423e+00 3.1637437344577508e+00
      -1.3745566978858610e+00 -2.8351971478257640e+00
      -8.4373638712468924e-01 6.2752121093347379e-01
      1.3189527070281091e+00 4.4885195452484833e-01
      4.3192557534106024e+00 -4.2814865636049637e+00
      5.5638572516456952e-01 -3.4786626189242226e-01
      1.8518836061949360e+00 2.3086908098373020e+00
      2.6271691642908088e+00 1.3334988031001642e+00
      -2.4851743669188848e+00 3.2456340288529688e+00
      -1.3223183188325163e+00 -6.0370532575999718e+00
      -5.9930414902747309e+00 4.0407544981797239e+00
      -6.3049089748128906e-01 -1.2602144253435765e+00
      -2.3084152600101633e+00 8.8875863344827111e-01
      -3.6936587430277501e+00 1.1031477203328577e+00
      3.9185546501390460e+00 -4.2174511708219367e+00
      6.1801718498899341e+00 -3.9591331016890823e-02
      8.2422878661858046e-01 -5.8105943775797204e+00
      1.4447568231260624e+00 -2.6221262399443415e+00
      -8.0550291168876740e+00 6.2922825938588511e+00
      -3.1364132360245836e+00 -2.9872650469671425e+00
      -4.6709066279410010e+00 -6.8326212700531768e+00
      -5.6588293155858356e+00 -2.4749566416291651e-02
      2.6231491230832695e+00 5.6284543618428202e+00
      1.5720543340081079e+00 1.4836100027321475e-01
      -1.5843552325920789e+00 2.3098809965129896e+00
      7.2987837814727241e-01 8.6036560918356186e-01
      -4.5586670964498595e+00 4.1676412167068783e-01
      2.9289773334548386e+00 2.2185342243493129e+00
      -1.7401860498738025e-01 1.7005239952263524e+00
      3.8226795398551725e+00 9.1152352193434416e-01
      -4.1956412882612932e+00 6.1327238699060684e+00
      4.5339382282888394e+00 -5.7748250536074126e+00
      -3.2073688509472400e+00 -8.6054840881916150e-01
      1.0604979680223605e+00 1.8761566105552112e+00
      4.9408219544066778e+00 -1.0058038624395541e-01
      3.1364406064707611e+00 1.8518892935219797e-01
      1.9487276469792586e-01 -4.6087949745615591e+00
      -1.4933384695382033e+00 -2.9517312053018334e+00
      7.7579102467782401e-01 1.3323795935604972e+00
      2.3114296214481898e+00 -2.7630144951686636e-01
      -2.1971278724520547e+00 5.4451316928001026e+00
      -6.1971346381292688e-02 1.9731570755310461e+00
      -1.3586648193088622e+00 3.3968001866000295e+00
      3.5076857567115360e+00 -3.0718126721272521e-01
      3.2353453366599028e+00 -1.6745562778506853e-01
      -1.8790947577294345e-01 -1.4492980397081925e+00
      2.2595024897131051e+00 -4.7393548820210469e+00
      2.4697729705388074e+00 -1.0820509445606239e+00
      2.5006051992318565e+00 4.2234049924076942e+00
      8.5390407891078490e-01 2.2268167731574966e+00
      1.2983041148627283e-01 4.4273561588807420e+00
      1.8281326612586513e+00 3.5395032970923817e+00
      3.7456316336470827e+00 2.9361136833229806e-01
      -5.2428384870248157e-01 1.9028264852710941e+00
      5.8536512880164926e+00 1.2628504777400342e+00
      -6.8603053801114533e-02 1.9875871312699478e+00
      -1.9010446373691511e-01 -8.6417755355123282e-01
      -2.3209299284244672e-01 -3.3100358297010595e+00
      -3.9428149181391441e+00 1.2126981122959133e+00
      -2.0822846363837022e-01 2.1499534263475545e-01
      6.8589190129274726e+00 8.3565317258407446e-01
      3.4911068027018899e-01 -1.0955070960804179e+00
      -1.1077035238663318e+00 4.5566282199685400e-03
      -1.5053890242375867e+00 1.5836917028081032e-01
      1.6098370704352969e+00 8.7021621187617959e-01
      2.6904588959103409e-01 4.6260367922090728e-01
      -3.7306566740495093e+00 -1.0904182631488912e+00
      2.2404256942531667e-01 1.0268814918702378e+00
      5.4786908108062873e+00 -1.1216822804626649e+00
      -4.0831625559344999e+00 -1.0054366103345951e+00
      2.3963784940178821e+00 5.4389325791848089e+00
      7.8785924845472910e-01 3.7029459974205819e-01
      3.2842795972939753e+00 5.7471769377007087e-01
      -6.0752651682438508e+00 -1.9535901323119791e+00
      6.1981008729986824e+00 6.2326265222286237e+00
      3.4792703692101656e+00 8.6656531134409065e-01
      -7.6006567451035933e-01 -4.3214023499004046e+00
      1.5786621492749486e+00 3.1790482448143291e+00
      -1.6429154927518899e+00 5.3451713258269404e-02
      -2.0410659813504144e+00 -6.2407598472977865e-01
      8.2534562288174840e+00 -9.3754849104821092e-01
      1.5463647886654708e-01 -3.4426904252169801e+00
      2.6615436158694354e+00 -1.9925458978907447e+00
      1.6880527061340391e+00 2.9892012099652659e-01
      -3.1512778525107810e+00 1.7444305470120234e+00
      -1.0857024424721837e-01 -2.2490384832059722e+00
      1.3822418094281530e-01 5.5253893826969476e+00
      1.1730508180595328e-01 3.4427763698242111e+00
      -1.0415099101721743e+00 3.9983143625310180e-01
      2.5338380411620212e+00 -1.2588424522947590e+00
      -8.1593434355730610e-01 1.8467055147375422e+00
      2.3980970446973635e+00 -1.1319709350821025e+01
      2.4866540806311828e+00 1.6757374937298639e+00
      -1.0168223385554238e+00 1.2948805854601371e+00
      -5.9843769930307300e-01 3.8353557649283959e-01
      -1.4417120395700691e+00 5.9954947327947195e-01
      -4.7757170933923909e+00 1.6040584046465389e+00
      -1.6429086752192272e+00 3.8331272445991976e-01
      1.8076374994938695e+00 -1.0570829900794272e+00
      -3.4942504221278896e+00 -8.5145988835273112e-01
      6.0168635865891240e-01 -1.7966123441574550e-01
      3.0687776761680619e+00 2.4669616533619945e-01
      2.3986474960864888e+00 3.9200062248592857e+00
      7.1280551490754884e-03 1.2533441065202702e+00
      -2.0207801389073943e+00 1.0780277268709004e+00
      8.5505032212022292e-01 1.9423682203804895e+00
      -7.9840500051680974e-01 -1.3562465027317354e+00
      -2.4551092705818749e+00 -5.4394799152084339e-01
      1.5982376438272978e+00 -3.1424336488585305e+00
      -7.5830027527936161e-01 -5.8357925068801642e+00
      3.7381271724475540e+00 3.8590133284296040e+00
      -8.9784455890395765e-01 -1.5719919389073043e+01
      1.2757312544162325e+00 7.5851830135172521e-02
      -1.8706919224716498e+00 5.4250844240465756e+00
      2.0611836145545626e+00 1.2845216460332420e+00
      3.7767229027672813e+00 -5.8726861342926873e-01
      -1.8661606958464250e+00 2.2935589619726153e+00
      -6.3500881129569917e+00 3.7120539828531127e+00
      3.3330108151530957e-01 1.4900312454719622e+00
      -1.8810837043233632e+00 4.4613456966791940e+00
      3.5797502220203308e+00 2.8863752421462432e+00
      6.8634102865276114e+00 1.3903575897774194e+00
      2.2321444811737750e+00 1.6682977255647260e+00
      9.8206453259864523e-01 9.7208976412066550e-01
      -1.6372162649279534e+00 -3.0814970059510345e+00
      1.0724368013522979e-01 3.9056283453518552e+00
      8.5003721601144413e+00 -1.2111677864788239e+00
      9.0979086060491665e-01 1.3620702429321760e+00
      4.9725586778550754e+00 -9.6368706449408092e-01
      -3.2437580911010095e+00 -2.5942016119601989e+00
      -3.9354942516464191e+00 2.9029374109114996e+00
      2.6390996389445698e-01 -3.8233105185534244e+00
      -4.3543887057792157e+00 4.3531396059093030e-01
      -2.0675258845068103e+00 1.7218150734884645e+00
      -1.1517354282694856e+00 -3.7441603535216408e+00
      2.7385680216703068e+00 1.9178685835961111e+00
      -1.6122576125865489e+00 2.2137081074380665e+00
      7.2848437912993012e+00 -5.3901872667388568e+00
      4.9072455215302897e+00 -1.2015225902370972e+00
      2.2893381966384418e+00 -2.3964688200671653e+00
      3.1881250579164964e+00 2.7438615761917626e+00
      -1.1759889630470442e-01 1.7520298755898955e+00
      -6.4950699107452670e-01 5.2429680751485852e-01
      4.6820228403877590e-01 5.3132599753948857e-02
      3.5841216405488576e+00 -4.5770730018877961e+00
      2.1090037997573496e-01 -5.1357680210827497e-02
      -1.8844831953858202e-01 -2.2889604864300490e+00
      4.0660941180435533e+00 1.6742079871543458e+00
      -5.3993483736964032e-01 -5.6991299336162466e+00
      -3.5256158023000581e+00 -2.5451078200220980e+00
      -1.2577981567817501e+01 -9.8597275488508576e+00
      3.0511944436692460e+00 9.4848388944131816e+00
      1.4624662789005836e+00 -4.8016059214731160e-01
      -3.3376100531611184e+00 7.5990722081558735e+00
      -4.4514039720373049e+00 3.0793947548569021e+00
      -3.8932942235077173e+00 -2.1877623730912603e+00
      8.6465330041567778e+00 -2.7158590175533379e+00
      1.2158882388649758e+01 2.9711170188568179e+00
      3.3950369654602319e+00 1.4870100491724618e+00
      -4.1310223193819811e+00 -1.8180969664699280e+00
      -3.9632856635307747e+00 -2.8583049575026229e+00
      2.8773308425575076e-02 2.9661870372362262e+00
      4.3215391178487268e+00 -9.4389329775089659e-01
      -3.5035683770091426e+00 -2.8455819867618903e-01
      -5.0242129363835399e+00 -2.0684081116515558e+00
      1.6289722427310568e-01 9.7885036995017849e-01
      -3.0353916047755738e+00 6.5833136150954665e+00
      -6.0642686862750506e-01 2.5016839489895948e+00
      -8.7351728570129383e-01 -4.3754832025417425e+00
      8.6812980399536888e-01 1.9045966183295728e+00
      -1.4430571463733595e+00 -2.9411420714388417e+00
      1.3972690008392799e+00 5.2687070456055567e+00
      6.4675350079043383e+00 -8.7213006213348338e-03
      -4.1693307331048512e-01 1.8006750238256766e+00
      -3.9721154026934267e+00 -3.7454786976188990e+00
      -2.7848229712324364e+00 1.4856650169375336e+00
      7.6229591390022930e+00 -1.3822297897588829e+00
      2.8787174749599074e+00 1.4776351136128094e-01
      5.6858464337018280e+00 1.1058939626496509e+00
      4.5425366713080262e+00 2.7350487312532281e+00
      -3.8145938564004012e+00 -1.5122618851222944e+00
      -8.7327640575627719e+00 4.2303452026188788e+00
      2.9907421428653734e-02 1.4715546073724242e+00
      -6.3701107798958512e-01 -2.0612783322940134e-01
      -2.9418932396143451e+00 -2.2302815389153570e+00
      2.9684731415688570e-01 2.2577783966906790e+00
      -1.5056447787508342e+00 3.2736162731343237e+00
      -4.1754868267401104e+00 -1.5950979045684095e+00
      2.4396065719584907e+00 4.0163058263141647e+00
      -6.7412094913478784e+00 1.6301600688519349e+00
      6.6454526474570068e+00 2.6489745831096694e+00
      1.0844458125620360e+00 3.4888202473980412e+00
      -1.3253264093797203e+00 4.9001889151878181e-01
      4.3977443143073591e+00 -4.8786633581166425e+00
      1.3700924682134108e+00 1.0726436889815509e+00
      -2.3143989538029222e+00 1.4311935936382782e+00
      -5.5945673164292720e-01 4.6778941825565710e+00
      -5.3690510006420959e+00 2.5535166162556164e-03
      -3.5586014411766786e+00 2.0660099995025045e+00
      4.4935030833166554e+00 6.0026950822786385e-01
      -2.3825519110974520e+00 1.3642176103989165e+00
      9.7875958678628034e+00 3.6891912018972892e+00
      -2.1734555552978563e+00 -4.1571907462637849e+00
      2.5178047289444425e+00 4.6452272724576926e-01
      -7.4571003508266580e+00 2.9032869942548667e-01
      -2.0967004288942900e-01 3.0045964099455369e+00
      1.4326520613449883e-01 1.4492935109699649e+00
      1.9429305606467102e+00 -3.0055741608807884e+00
      2.3757265315435663e+00 7.9800809527796290e-01
      -7.0978174787566513e+00 -3.4169387568186980e+00
      9.0390426303924247e+00 -4.8273239944517238e-01
      6.6896758338707840e-01 1.1597340039198500e+00
      -3.4278514478142168e+00 -1.9548461190757438e-01
      -1.6953766626675160e+00 -4.4349260309725054e+00
      2.7747792324021714e+00 -4.9688193613717468e-01
      1.4657092549773347e+00 -1.7892337571942915e-01
      -1.3514926736676014e+00 2.7141592723665914e-01
      -4.2400618712042393e+00 4.0263626907200853e+00
      -5.9754476836317858e+00 -4.2537784086076931e+00
      -2.7885613024503919e+00 -1.4597321406133743e+00
      3.1749274820568041e+00 3.7627756241468541e-01
      5.1135820526513056e+00 1.6395291594866985e+00
      2.4595660988412898e-01 -2.0322445118575438e+00
      4.2351383975672308e-01 -9.7149737341046716e-01
      -5.5196364017383255e+00 1.4263623107335810e-01
      -1.6251605336024866e-01 8.7522508441220257e+00
      7.2287170231625653e-01 1.9220203201970754e+00
      3.5389559208363313e+00 2.0073208407305985e+00
      3.8472250866015489e+00 3.1741462737594683e+00
      -3.7029263086877497e+00 -1.1790092697323824e+00
      1.0227114359278036e+00 -5.2670701391252583e-01
      1.4172556348479290e+00 -4.3939452690664932e-01
      -3.0107566885755390e+00 7.2294265562878179e-01
      -5.0601486225430685e+00 -7.4686769616560333e-01
      3.2447898506102653e+00 2.5364391092051068e+00
      1.4063704210737451e+00 -2.6421664143645565e+00
      -2.5716279772273207e+00 -3.2543832463697413e+00
      -1.4590888267975339e+00 -1.8681882534130598e+00
      -2.5713300314649778e+00 -3.1054586262418424e+00
      5.0281754499257110e+00 4.4704135048635985e-01
      2.4568725707280201e+00 3.7196593225232140e+00
      8.8914191328983760e-01 -4.3831113204862149e-01
      -1.6610402121269776e+00 1.8128079646636726e+00
      2.8247034843377281e+00 6.2724035478345685e-01
      -3.2261700142658225e+00 8.0985634361653058e-01
      4.1686928791035438e-01 2.2081169701662628e+00
      -8.1486287231141379e+00 -1.8945669917791401e+00
      4.1226667987653567e+00 9.0294370519125566e-01
      4.2268375352456466e+00 -1.5302610513298824e+00
      1.2026413796205943e-01 -6.4948775422092977e+00
      -3.7363385849222448e+00 5.0061489783292856e+00
      5.1212654083872877e+00 -1.9858577719474602e+00
      3.8208484618394394e+00 6.6671676506761854e-02
      -2.4801874279574019e+00 -3.3266252959341145e+00
      -3.7474021968925659e+00 4.0948625452498808e+00
      3.4286680436605335e+00 1.5968420198749231e-01
      -4.9047465341185790e+00 -6.5887356863710556e-01
      -6.8287432380312039e+00 1.7004601695685337e+00
      1.7281605667168169e+00 -1.9182360272144339e-01
      -2.7602412745026977e-01 3.0798538203416546e+00
      2.2286391415028097e+00 3.5524655270927106e+00
      -3.4156927374442003e+00 -6.5908042487828644e-01
      -8.9193154972457354e+00 -4.1038664072233324e+00
      -3.9176494055187927e-01 -1.3797481395200345e-01
      -1.5348632330928731e+00 1.8368054757527426e+00
      -1.7236315907738042e-01 -1.2061927989955255e+00
      -2.6210751649583819e+00 -1.2653955733738698e+00
      -1.2934937976974631e-01 4.6945022573072137e+00
      -1.1525193703213368e+00 -7.1252397604851545e+00
      1.0884241368070651e+00 -1.0476260188508286e+00
      5.5162527732677609e-02 6.5450362830432098e+00
      -1.2175177356381111e+00 4.2012369877232730e-01
      -2.8897936013497429e+00 6.3264747479046302e-01
      3.6721108485617600e+00 -1.2398225111456656e+00
      6.0543959829708758e+00 -2.6735662578625616e+00
      -3.7858008802761951e+00 5.3582000814839437e-01
      -1.2404737343295498e+00 -3.1310322846827092e+00
      -3.1790847712665959e+00 6.9090263252449953e+00
      2.5977856592212598e+00 -1.0685207057706335e-01
      -6.5217965287048658e+00 1.1550029592996074e+00
      3.8012364192782404e+00 1.0843466602168492e+00
      -1.8282272865718612e+00 3.8667248416195559e+00
      2.7451106532329456e-01 1.2054522497183322e+00
      -1.4695002290150860e+00 -3.1019168673954128e-01
      -3.8169167661841202e-01 9.6845796090604903e+00
      2.2977950632192552e-02 -2.5793780234405776e+00
      3.8580929751151380e+00 1.7343642288623404e+00
      7.3594938819360384e-02 2.5736198087973672e+00
      -3.1612473763608646e+00 -8.2385381406672309e+00
      -1.2185114116288580e+00 1.9693566282196799e+00
      5.0072699333749293e+00 3.6801543118259459e+00
      2.0820815703165518e+00 -9.2127048143625920e+00
      1.8996249716695446e+00 3.5177159196403907e-01
      -2.4903335656919148e+00 3.3241341319681430e+00
      7.7301830834932528e-01 1.6392282753179421e+00
      3.3525842612840560e+00 -2.5312436302284400e+00
      3.3052572781288756e+00 1.0191360208819065e+00
      -5.4837922261182319e+00 -4.9923162572144852e-01
      4.8945258207610054e-01 -4.1113319307589027e+00
      -3.4609677348639099e+00 -2.0301964713830265e+00
      1.3837467719219008e+00 1.8808053725745586e+00
      1.6659537555650230e+00 4.2350016011758536e+00
      1.0027499551124284e+00 -1.1506955386442771e-01
      5.2805073483278141e-02 1.3971544231542132e+00
      2.2691417448295654e+00 -5.3238910543133260e+00
      1.3596641990953065e-01 -1.2158011780446432e+00
      6.3443157827322816e+00 -3.9296207268499195e-01
      3.6427907494482425e-01 -4.0635552131703019e+00
      2.1576570362421719e+00 -2.5279131873012850e+00
      -1.8031461457131026e+00 4.8745759005007194e+00
      4.8834423412085650e+00 -2.0596941186688729e+00
      4.7335424996628195e+00 -5.2972573451249998e+00
      2.0581887911834769e+00 4.0038537970387189e-01
      -3.4237969358194551e+00 3.1932057791867798e+00
      4.2841253791212432e+00 1.5547591108371963e+00
      3.2294193341186914e+00 -3.7236627843695164e-01
      -7.7311055137605669e+00 6.4692319583887814e+00
      2.2185519839271861e+00 1.9583405647607288e-01
      -1.4554714074145789e+00 5.5097313299471953e+00
      -2.9716953436090567e+00 -1.7738428710587339e+00
      7.6168522334375748e+00 4.1364490165890571e+00
      -3.8925231869307848e+00 6.5453983626821888e+00
      8.6166700702176091e-01 7.5191092891626212e+00
      2.1281169700675830e+00 -1.0386528522123530e+00
      3.2120768654838638e+00 -1.5693250306133899e-01
      -7.7129295885250276e-02 -2.3860541310763350e-01
      6.7298187969292806e+00 2.1086299629739775e+00
      4.9825335544137479e+00 3.3103876727026833e+00
      1.2276523290100511e-01 -1.0768029619157085e+00
      2.0144948330789885e+00 -4.4881097984108742e-01
      -1.3168494656404672e+00 -2.5809314605169447e+00
      5.5700605815760014e+00 7.4390416561964301e+00
      -3.3668236535446221e+00 -5.9248123531326591e-01
      9.3187901806526113e-02 2.4454056999170293e+00
      -4.7288213098066407e+00 1.1936534361674196e+00
      -4.6655558976969874e-01 -3.1397484543489975e+00
      -1.6576193151448475e+00 4.9476286995266552e+00
      -1.2399509457143421e+00 4.5314879558334925e-01
      5.8159874588195697e+00 1.1579705964757592e+00
      -3.8900950404566954e+00 -1.8237026460612809e+00
      2.2570553600956292e-01 -1.1998541319972311e+00
      -1.2906796015604491e+00 -1.0091254708928834e+00
      -1.0051005272615661e+00 4.0498188611192846e-03
      -3.1829135731480540e+00 -8.8385440979342078e-01
      2.1715886475073201e+00 -4.1099873060472154e+00
      -2.6069672282428036e-01 4.4393699098532204e+00
      2.1965069015424219e+00 -5.4946102948204461e+00
      3.8606649108375515e+00 3.8803016608781227e+00
      -3.9253951562052207e+00 -3.1782858584159661e+00
      -6.4967086640472109e+00 -8.4598857166186949e+00
      3.4715339934548308e+00 -2.9486167637223120e+00
      7.6153699258936731e+00 4.8602716129547945e+00
      -8.3663530059431253e+00 -4.3918623965793796e-01
      7.4092739490517454e+00 7.8648767117889073e-01
      -4.5409310721940654e+00 3.8343156855240186e+00
      -2.6453847852225203e+00 3.2549475083447915e-01
      6.6173208368045477e+00 -1.0912096172179337e+00
      7.6438620247237701e+00 -1.8899898108430941e+00
      5.9320091510596322e+00 -2.4897720532638679e+00
      -4.4801934263779710e+00 1.9608294953792496e+00
      2.1205551999060455e+00 -1.1237555890905369e+00
      1.8800740843875350e+00 -5.1592236671164491e+00
      1.1792126704275998e+00 3.1354238358399225e+00
      -2.5516194032681094e-01 -2.7531063039413856e-01
      -3.0197327672649141e+00 5.8497289051008261e+00
      -6.3096434596161721e-01 -4.5978797552341355e-02
      -2.5834030341965852e+00 4.6016998712346382e+00
      -3.2986587208744518e+00 4.3325879862665762e+00
      1.1548714432252611e+00 4.3293883380800263e-01
      4.7604736801586700e-01 -5.6870765224590403e-01
      -4.7727841579639438e+00 -1.7137105675212807e+00
      1.0038949175670635e+00 -5.8500847813559300e+00
      -4.8937975210839402e-01 1.0245492298842951e+00
      5.8633573636078395e-01 1.8867272015609844e+00
      -2.4599835675520856e+00 -1.1412499418570021e+00
      -3.8063522224697635e+00 2.2309489827890010e+00
      6.3418177343659368e+00 -6.2519135021554229e-01
      1.9197351778583722e+00 -2.7765584147202036e+00
      5.6038664960220457e+00 -6.2449586984477534e-01
      7.3292334815388849e-01 1.2716131064875071e+00
      5.8316283061497050e+00 1.4685749130561876e+00
      -2.7276660878738270e+00 4.0550141547569218e+00
      -3.9064572749639606e+00 5.3870060417673269e+00
      4.4117865658839932e+00 3.7159307588692771e-02
      -1.5096508874775743e+00 3.1313379274483064e+00
      -5.4544473675096204e-02 5.3529552520463000e+00
      7.5288312022634685e-01 7.1950690305264331e+00
      -2.8784011839040735e+00 -6.1330555616729718e+00
      1.1805255773362310e-01 3.6141692327606645e+00
      2.5694280631185782e+00 1.9919636132754417e+00
      8.7057281351454936e+00 3.6718884135646984e-01
      3.7236109157971282e+00 4.2895169425414013e+00
      1.4005498524611024e+01 1.4498244780331138e-01
      1.8488008231204003e+00 -1.2074100210227623e+00
      -2.0725502008445015e-01 -4.3456849236448516e+00
      5.6693447018743344e+00 -5.7109210003950728e-01
      -4.5567312391792498e+00 1.4681839157361436e+00
      3.6910262307135380e+00 4.1288687076301827e+00
      1.3539472518477172e+01 7.5703507128142489e+00
      3.0114877764392838e+00 2.5287539514327801e+00
      -1.3044450037302788e+00 3.0255849105710335e+00
      1.4244020240611130e+00 2.3692719244906608e+00
      -7.7608186276972102e+00 8.2141398691805829e+00
      3.7844940891810106e+00 -2.2834541658631394e-01
      7.1018406725367111e-01 -5.8119357343116311e+00
      -4.2758501500673646e-01 -6.0943810463122561e-01
      -9.0113375730603931e+00 5.2888287915914827e+00
      -1.3814136930519491e-01 -2.6963956099005340e+00
      6.8556159587999099e+00 -4.3830861039197551e+00
      4.2814064633684185e-01 3.3645506136342584e+00
      1.0935955504708078e+01 2.9671575139568178e+00
      4.9438601357852265e+00 -1.0702972577232091e+00
      3.1386095161561118e+00 1.0461842062131940e-01
      5.9359499740115593e+00 2.9146604094515915e-01
      1.7388495090791416e+00 -2.4961578899525199e+00
      1.9286969789921229e+00 1.9836298231926326e+00
      -6.8668160136657459e+00 1.0445855514254951e+00
      -8.9155225023432116e-01 4.1325907941218478e+00
      1.2500131887397162e+01 5.6862415885173134e-01
      2.2233726568119967e+00 6.4890168112969460e-01
      -9.7567837913444899e-01 -9.1387373306894648e-01
      -2.2934472382924634e-01 -5.2429325166837391e+00
      -4.8955134518594967e+00 1.3768566533884158e+01
      4.7857507726717324e-01 1.0736573827613112e+00
      -2.2559725717899557e+00 3.9592153196391475e+00
      1.8438322741149028e-02 -2.5456029122119626e+00
      -1.0716896202734322e+01 8.6279929713666252e+00
      1.5216967114708742e+00 -4.9996360416274594e+00
      1.2959855888363931e+00 -6.6275280499790359e+00
      3.1308586585494576e+00 1.3581267867023437e+00
      8.5390512576743376e+00 9.0862165542751261e-01
      2.2939907549146734e+00 -1.6050385143054009e+00
      5.0878079789001163e+00 7.7806007906817565e-01
      4.9662291652155108e+00 -3.5298877751275222e+00
      1.4872853323404714e-01 9.1861822866660969e-01
      5.8428655419009268e-01 3.7433180167168465e+00
      -8.8084832630095999e-01 4.1208289571447088e+00
      -6.1359468175474896e-01 4.7775602134403492e+00
      6.9302787166229161e+00 -1.6847211562559181e+00
      -4.3011329565229195e-01 -2.4953439290244712e+00
      2.5884267234204046e+00 -3.2832665101752587e+00
      -2.4548562022329206e+00 -4.4635892000242192e+00
      -7.8990496735462279e-01 2.5713268207993725e+00
      -3.3744936036655044e+00 1.4141217836757285e+00
      2.4702407373638895e+00 4.6144403253320263e+00
      6.3233394459961645e-01 -4.3538886642731995e+00
      -6.1914875619257028e+00 5.6662850124158206e+00
      4.2085590550391574e+00 2.4171471818527637e-01
      -4.1826248357128820e-01 2.3990757871842501e+00
      -1.4267425224465760e+00 -1.4883300569301823e+00
      -1.3819267260591056e-01 -2.4993958548149555e+00
      3.5967125759937559e+00 -3.5115315703617349e+00
      1.1613908195056848e+00 6.5787267933656179e-01
      2.5182195141017627e+00 -1.2463456645171509e+00
      -3.7084201277219182e+00 3.5675994946339520e+00
      3.4811023494147357e+00 1.9419607549610937e-01
      1.1632329840112141e-01 4.1846534119784992e-02
      -7.0120852411781431e-01 2.3046406167744782e+00
      1.6780571495154299e+00 -2.1971039412981794e-01
      -3.4883731633123976e+00 2.3335566019768921e+00
      6.9345544954788298e+00 2.2122905750638382e+00
      8.1985331435820619e-01 -1.1347897583709194e+00
      -4.1900699897247852e-02 1.1461762578225783e+00
      -7.9013368185473016e+00 1.4805979572535662e-02
      1.1973444047364589e-02 3.2935755417139339e+00
      8.4499415203146866e-01 -1.9599055031338570e+00
      -6.6595707777524566e+00 1.0419658390757855e+00
      -1.1193211622068623e-01 1.3732448321458812e+00
      5.7557501028941693e-02 2.6583023127266099e+00
      -9.7536948182061323e-01 5.3586553239410355e+00
      -1.5750539956884748e+00 7.0742897171974939e-01
      -4.7315286413575008e-01 4.3979240645423747e+00
      2.4854870046508357e+00 1.6363423523991230e-01
      8.0779932041403923e-01 -7.0701729167063798e-01
      4.3111791681111935e+00 3.0731011279539017e-01
      1.9638643856798386e+00 2.9420486093581868e+00
      -4.8036926790067214e-01 -2.9491689135641233e+00
      1.3442165673872353e+00 4.9657134255388211e+00
      3.7612713190163625e+00 4.6044075719926847e-01
      -3.5003553920774815e+00 -6.4642250672830759e-01
      5.7577939589854532e-01 9.5038038031694660e-01
      -5.4835765486140913e+00 2.4011096209353759e+00
      -1.2967676696371186e+00 4.6543329159484950e+00
      2.1137756540073456e+00 -5.7101255202699230e-01
      -2.2514510267873780e+00 3.8625563292540512e+00
      8.4163674206306271e-02 -5.7592279750144577e+00
      2.7269751938088782e+00 -1.5149313043402619e+00
      -1.0373939567206673e-01 -4.9515747191227183e-01
      3.0891885678996944e+00 6.2905072046468105e+00
      6.2363836914125903e-01 7.9280230504976545e+00
      1.7061517014289198e+00 -4.5599689156015897e+00
      2.8100466189705480e+00 -1.6151930172895599e+00
      6.8079113457881124e-01 -6.0353466140648981e-01
      2.2979891414317630e+00 -3.3190510438780535e-01
      4.7587047881925999e+00 -4.1177982069223598e+00
      9.7574121691255289e-01 8.9811604795627487e-01
      -4.4640081357524393e+00 1.7886306705193082e+00
      -8.8652225792481498e-01 3.5049452791312091e-01
      2.8524385108666657e+00 1.5442090321276641e-01
      3.0273829578841439e-02 -4.2527876140057588e+00
      -1.7128229941637243e+00 4.4955085632978617e+00
      -4.2825973898617526e+00 -3.0813935774840324e+00
      8.6353142843991801e-02 5.4771314523519363e+00
      -4.8339819113918585e+00 1.3833666377648921e+00
      7.7558883915945884e+00 -1.6230940952663280e+00
      7.5033726158396008e-01 -1.4018991002480234e+00
      -2.1198495593230824e+00 1.7755330942255937e-01
      2.3889533760609249e+00 -6.7306540459932243e-02
      4.6179597706683906e-01 7.7562461276446584e+00
      -3.5271576023566342e+00 1.1052100648929489e+01
      1.5155990200980414e+00 -7.3233560813174492e+00
      1.0453116542184915e+01 1.2216405016385941e+01
      -1.3359638027189069e+00 8.9883551676043083e-01
      -6.0928755741842378e-01 -2.6131122625894458e+00
      -2.0142148426977244e+00 1.4894027886926058e+00
      3.4161364899854365e+00 7.3699841144841294e-01
      -6.5707675343616661e+00 1.8510473199558797e+00
      -3.6429083940036664e+00 -1.4611461184454608e+00
      3.7866286546733101e+00 5.8562610478871502e+00
      -4.4717716652616595e+00 -2.2177720447393083e+00
      -2.9717055201634106e+00 1.9306576707624317e+00
      -1.2674741059209675e+00 -6.0934611259947848e+00
      -3.0081405640628289e+00 -1.2152534261083639e-01
      3.5685641537267974e+00 4.1144235870988843e-01
      -1.4126910428415997e-02 -3.1840934916714843e+00
      -3.4215768142796110e-01 -3.3150363393633260e+00
      6.5993180795725603e-01 -2.8062594481539427e+00
      5.2959053049820728e+00 -1.3220731589848551e+00
      -3.7457265252608578e+00 6.6976764363956400e+00
      -6.2371440624000405e+00 -6.1308824441987841e-01
      1.2593726600402309e+00 -3.0462568351201726e+00
      -7.7724633675681132e-01 -4.1801132854327543e+00
      -1.1175488337602806e+00 5.2827809306771867e-01
      -8.1818380744768167e+00 4.8548861270521675e+00
      1.9296845956356379e-01 3.9592253027800499e+00
      1.4982470063071471e+00 -1.3965124495371652e+00
      -3.8510123462304788e+00 3.0220104043177867e+00
      -5.2067948768798393e+00 -2.9182839009630857e+00
      7.9938413815557592e+00 5.7406439846509292e+00
      -2.1122569258060047e+00 -1.7293320820084890e+00
      -9.5858974136953510e+00 2.2736693431504800e+00
      -4.3368667032826060e+00 2.5620860266107832e+00
      3.0496581344006297e+00 -8.4865371428806791e-01
      2.2951631572616202e+00 2.0360212799052346e-01
      -9.8595122474533692e-01 1.8540833129506379e-01
      -8.2149437805445791e-01 -1.6305815334437308e+00
      3.2319176236838221e+00 -5.6785204743480282e+00
      4.2797009991081971e+00 -5.2640198793694957e+00
      6.6153168151871711e+00 7.4471012408384709e+00
      -1.1365077078454628e+00 -6.0807059066486016e+00
      9.4186634083595937e+00 1.2961704419198765e+00
      6.4084860764485150e+00 -6.1702049090114013e+00
      -6.8121914844251297e+00 -4.2190518541961396e-02
      -4.3490353538558368e+00 -6.7836762677932603e+00
      -9.2691777602284908e+00 7.6308938377612758e+00
      -2.1608991565206313e+01 2.0777870692531938e-01
      6.8459699851179581e+00 -6.8808694418118694e+00
      8.4255606104160634e+00 -1.0996130661627936e+00
      2.3347381797670685e+00 -2.8469293436436911e+00
      -1.6718784360884500e+00 -3.5781864429702441e+00
      5.8731988724016251e+00 -8.3158524313189304e+00
      -2.3163194379332959e+00 -4.2925914496771904e+00
      8.1282894187568011e-01 -2.5762064886400631e+00
      -6.1711647219151944e+00 3.2969450897991331e-01
      3.7409394285729740e+00 9.4003314000783362e+00
      6.4211004084319989e-01 -7.3086530259649507e-01
      -8.1710773863569592e+00 -1.1642768291149585e+01
      8.6272821284172896e-01 -5.3081739091545961e+00
      -3.2756333029558657e+00 7.3118051770863368e-01
      -3.3976834963278963e+00 -3.5413471483703081e+00
      1.5394798458459820e+00 2.1342182173940532e+00
      1.2007128776249058e+01 3.5983614699083155e-01
      1.2189254695065671e+01 -7.3637109266304968e-01
      7.6313860977082744e+00 -1.3445040186320551e+01
      -4.9643389195608467e+00 -9.1946444093998536e-01
      -1.3141246913344089e+01 -2.6882477696063716e+00
      8.1628214294777268e-01 -4.6651815891247237e+00
      1.2713830147122811e+00 5.0561480883932719e-01
      9.1032266168562188e+00 1.3026686302042338e+00
      3.8310910666275064e+00 -5.1585508247289527e+00
      9.0996802761532916e+00 2.0418096563913739e+00
      4.4370868349264656e+00 7.4054453302190781e+00
      -4.5860528055957088e+00 3.0185385212318452e+00
      -5.8676627835332376e+00 -3.6687121573475168e-01
      6.1372191290218892e+00 6.0647940365963589e+00
      3.4548214702179919e-01 -4.6706640478195878e+00
      1.0855423069322836e+01 -4.3145078768064860e+00
      -1.3718833039704441e+00 5.7133151474668749e+00
      5.1490265031930331e+00 8.7437058462639472e-01
      1.8365033893073599e+00 3.8025139709898705e+00
      2.1348920471322015e+00 1.9089558151475079e+00
      4.0865764806523712e+00 -6.9366853742189116e+00
      1.4069375101998331e+01 -2.8254597857283692e-01
      -5.2858291347840822e+00 2.7707337151727027e+00
      -2.6722702308050073e-01 -4.0653646898798774e+00
      8.7913900924357922e+00 -2.8587401592449644e+00
      -6.2515491536941310e+00 -5.5885966653938404e+00
      1.6005066927367326e+00 4.0203495466966315e+00
      3.4065956314868351e+00 3.7344725056510653e+00
      -1.4913101830292157e+00 2.5605912078368687e+00
      6.7820411623681478e+00 -1.5217158047301311e+00
      -3.2768820985929152e+00 5.3813319208950972e-01
      -7.2685294573454975e+00 7.8074629958135580e+00
      2.1463176802089250e+00 -2.1156719971938029e-01
      3.3357064935865526e+00 2.1002594499081879e+00
      -4.2952527849021249e-01 -9.1615529275905097e+00
      8.6882663187129960e+00 -1.5859743152451649e+00
      9.9521113859620136e-01 6.4854360265302491e-01
      3.6419158690430811e+00 8.9501428389536530e-01
      2.0596593401579835e+00 1.0107618066536155e+01
      -2.5753644335201535e+00 -3.9453590764032365e+00
      5.0047673873691441e+00 -6.1514423359863333e+00
      1.9381897048082271e+00 2.1530733582714973e-01
      -2.0157274092950792e+00 9.1505103079945478e+00
      -6.6138207773981728e-01 -3.6725653798548543e+00
      2.2975103716876322e+00 -5.3032270942973909e+00
      -8.0233415348342465e+00 -8.3823448791293238e+00
      3.3936975727147214e+00 -2.9277412077933779e-01
      7.0896292527264047e+00 1.9482356145535240e+00
      -6.2026191695647048e+00 -3.3247867436136489e+00
      1.0528740960430090e+00 -1.5235181085851817e+00
      -2.1311532386974905e+00 2.0839906574592790e+00
      -1.7669426958799517e+00 5.1576998228901036e+00
      -6.3857152303838447e+00 -1.3883626436311164e-01
      3.6306673654185428e+00 -8.4264107154538266e+00
      -5.8371153553238697e-01 -7.0635097601899401e+00
      2.4651633496247722e+00 -6.2959762417465654e+00
      8.8406153675391685e-01 -4.5560771711979369e+00
      4.1205491880561995e+00 6.2588796367192243e+00
      -1.9415973354390967e+00 2.3098225040529079e+00
      1.3129123395737785e+00 -6.3545284638942223e-01
      -5.9632867362156705e-01 -3.7602754333591198e-02
      -1.7132875745305860e+00 4.9714326903104672e-01
      -2.2745777262374234e+00 1.5725770817688869e+00
      8.6926659998725753e-01 -9.1104046292240231e+00
      3.4058292006497628e+00 2.2302586136384250e+00
      -6.9072393654945774e+00 -2.3116989645400072e+00
      2.0895722334462599e-01 2.4167046291149830e+00
      1.6209996042795960e+00 -5.5012476137250950e+00
      -5.4267814469623650e+00 -3.6603704107549095e-01
      3.6319273629100040e+00 5.3623817075727027e+00
      6.8739861649286755e+00 6.8926249304669023e+00
      6.9760120126699325e+00 9.0356243139049552e-01
      -1.1190192198373006e+00 -6.4556630846243399e-02
      1.2671534635390063e+00 -3.0520638389953239e+00
      -2.3936637719828002e-01 -3.0437649195327419e+00
      1.6703354252587204e+00 -1.7990160107046920e+00
      1.3828970911710368e+00 -4.4799112826251886e+00
      4.0007491167080049e+00 3.8828198300811150e+00
      -1.8196525233695593e+00 -6.0787186336139809e-01
      -5.4250027830098579e+00 3.0476473672453195e+00
      4.7945995295883046e+00 3.0531571472460937e+00
      2.9091176554418103e+00 -1.6723284674582325e-01
      -1.1696668800020376e+00 -3.3227834395817613e-01
      -2.8301705385364264e+00 -1.1437353770764400e+00
      3.3314695422425076e+00 5.9189817749249107e-01
      -1.7917711089241029e-01 4.8212936859813155e-01
      4.2473775297188998e-01 7.4317988547803038e-01
      4.4649889852850105e-01 -1.8861378368355589e-01
      -4.8587286477453118e+00 2.6964555912934500e+00
      5.2891857342476447e+00 -7.7676633580071630e-01
      6.3486198171986281e+00 -3.0863904140229623e+00
      5.6990192826201791e-01 8.3911450648462027e-01
      -6.0139887431119190e+00 3.4936279073071008e-01
      2.9965267430257865e+00 2.5692457500002339e+00
      1.4964606630376927e+00 -2.4618856006154268e+00
      -1.7858177617147484e+00 -2.1646522688878784e+00
      -1.1110159304311233e-01 -5.0238464185942022e-01
      3.5448975513910757e+00 5.9449588281719068e+00
      -9.3761268897494221e-01 -1.8299214233038533e-01
      -2.2422934411676114e+00 -7.7582275108972043e+00
      -2.2051856119807315e-02 8.4075176696809562e-01
      4.9632370045292912e-01 5.0149969551396867e-01
      -3.3932365484455791e+00 -3.1664718845390299e-01
      -8.8342718199792292e-01 6.2016784079021408e+00
      -5.1823000401701891e-01 2.4941899969893688e+00
      2.0870512653869842e+00 -1.8610981855185629e+00
      -1.1381015267230132e+00 -8.4219503174056565e-01
      3.2663397581384674e+00 -1.8733552293647440e+00
      4.7718108247713333e+00 4.8716876378375158e+00
      -3.4195489143998303e+00 3.6304490922409176e+00
      -4.2016910194085053e+00 1.3750829320185300e+00
      -4.5378368646839379e-01 -6.3051559400225647e+00
      -4.1554346541515512e+00 -2.9451947271727989e-03
      -5.0169170510196599e+00 3.5152026506460956e+00
      5.6109763030481408e-01 -4.7393418679760541e-01
      -3.5585036803069503e-01 3.1632105586990384e+00
      -5.0104712416237529e-01 2.5226098939271862e+00
      1.1134249180336286e+00 9.2395347443137048e+00
      -3.7482226222058284e+00 -1.6998545419679305e+00
      -1.8397073993865585e+00 6.8871814017418792e-02
      3.2030771773173661e+00 3.8056188683803542e+00
      -2.8640720411827196e+00 3.5756970226310675e-01
      -7.5331317034910406e+00 -7.3461243423945692e+00
      -3.1045203823053842e+00 -3.3252279442943258e+00
      -1.5696481714903476e+00 4.4884672008303426e+00
      6.9835848195974148e-01 -5.9492715503995930e-01
      -3.0526612368618493e+00 -6.7070471002371446e-01
      -2.4863652738039524e-01 -2.0332447613523863e+00
      1.6666309850471639e+00 -2.1118751797455548e+00
      -3.8254085704189476e+00 2.3866298849588055e+00
      1.5706678696967071e+00 -1.1807351497314857e+00
      -2.0407460069523733e+00 -2.8036707879614680e+00
      2.5917980745669049e+00 2.3578619405098391e+00
      -1.1257950818039943e-01 -7.1854036526065548e-02
      5.9957820488321245e-01 -1.2633090884623357e+00
      -1.6256486872249727e+00 3.5237237853449077e-01
      -5.1150336324739321e-01 2.0971373965856688e+00
      -1.8104391480732931e-01 7.5556646709998283e+00
      4.9753705859721781e-01 -5.8944598396467311e+00
      2.8314348206765154e+00 -1.1686596924757302e+00
      -1.8435812801271825e+00 9.3480910025365578e+00
      3.2900877329729319e+00 -2.3576026679576750e-01
      -5.4516289633679449e+00 -6.1488518345866430e+00
      -1.1256399883786288e+00 -3.7388656530401607e+00
      1.9426028235282882e+00 4.8248901039791825e+00
      -1.0513747357002889e+00 -1.3122668767438510e+00
      -7.1930822023259422e+00 -7.0874909705706202e+00
      3.3820852160830848e+00 2.8909380387243022e+00
      5.0627415891152499e+00 -8.5244807115559165e-02
      -5.5799366144908173e+00 3.4227008982803921e+00
      -1.8987124944255118e+00 2.5802609736439721e+00
      -5.3626533814477427e-02 -4.3528555173760077e+00
      2.3438043627387559e+00 -2.8849460258136898e-02
      -3.0282873205991989e+00 -4.0318212953807873e+00
      -6.4389680741902411e-01 -2.8186152681285326e+00
      -3.6930786519097164e-01 -3.0482139816975100e+00
      1.5430860730516638e+00 -1.5871518789997148e+00
      -4.7600955055818970e+00 6.9705027497336740e+00
      -5.2502096045439028e+00 5.2461662399173496e+00
      8.6509737299325753e+00 -2.0669892207396843e+00
      8.9509994186793342e+00 1.7175260421874206e+00
      -3.6002901940623429e+00 3.1645294723116191e-01
      -5.6533518032234431e+00 -4.5718639891012893e+00
      -5.9432519636943324e+00 2.7788075794357390e+00
      2.0781287212623223e+00 -1.3583681236743450e+00
      2.8591978996936205e+00 -9.1230670634145383e-01
      -6.1296010542728618e+00 -6.6548583330190141e+00
      -6.0282819635232547e+00 2.4492747846125051e+00
      3.6559839624887500e+00 4.3076230343933890e+00
      -1.5225988459903686e+01 3.2132520510158971e+00
      -6.5987922399115497e+00 -2.1528993618840779e+00
      5.6152233486429965e+00 2.0907463432325883e+00
      4.0942217814708286e+00 3.9496530472636471e-01
      -1.9079433017594261e+00 -1.1325943923426918e+01
      -1.3832877271362608e-02 -2.8280476194372275e+00
      -9.1776664327259250e-01 7.3989630283860039e+00
      3.6438382542594043e+00 -1.5641909298228891e+00
      -1.5239773758923887e+00 1.4134835729928819e+01
      1.1067579773089053e+00 5.4915034242157459e+00
      7.8935979463825028e+00 6.5396376923882373e+00
      1.2925414346719777e+00 -9.4547183120698297e-01
      -9.7763054465219774e+00 4.1133038891284501e-01
      -1.0350340892131758e+01 -2.3701046923302678e+00
      -7.4169770589167872e+00 4.0583456577907073e+00
      -1.0688324281727414e+01 -3.4418918618113405e+00
      1.4202916902050728e+00 -4.3690671745244414e+00
      -1.2618128700189335e-01 7.5187472620759275e+00
      -3.0061417120625444e+00 -9.6811025189551021e+00
      1.8326616270305409e+00 -9.3739009403875251e+00
      1.1633908536636604e+01 -4.7084066055143738e+00
      8.8604594216260164e+00 3.6156911010547490e+00
      3.2898524748118096e+00 -1.0801694784880128e+01
      -7.7413211506506148e+00 -3.7886837627348829e-01
      -1.7977780569530879e+00 -1.1969120716891872e+01
      1.9327847231575584e-02 -2.0688373558018016e+00
      -3.9758806326695648e+00 7.8332075502535918e+00
      4.6407387069700983e+00 -4.6430139891484350e+00
      3.5792802695554360e+00 4.7963322956471988e+00
      -2.1539525676221261e+00 -3.0536370678793996e+00
      -1.6043983387473851e-01 -5.4437719528185535e-01
      4.7394653499323258e+00 -2.8494935241433823e+00
      7.9444664993667544e+00 5.4334910333300379e-01
      -4.9701860401289633e+00 -6.9916288827401400e+00
      4.0689864101021422e-01 1.3512823267618583e+00
      4.5083272250782630e-01 -2.5185159285111687e+00
      -6.8949461670702927e-01 -5.1287407935735576e+00
      5.5017765619178673e+00 1.5521086239544615e+00
      -4.9360817621866548e-01 -3.1770106113773950e+00
      4.2800270876087625e+00 -3.0279942866827323e+00
      6.9366407835403301e+00 4.6689596712969206e-01
      8.2781225896856263e+00 -5.5390047666739441e+00
      -1.4062499974554821e+00 -7.7420067869474574e+00
      -5.0734219020663307e+00 4.3369254518292666e-01
      -3.7399391240833673e+00 -2.3581588411814018e+00
      3.1219355467596710e-01 -2.9433999324759310e+00
      -4.3912033053109125e+00 1.8539913214968673e+00
      -2.3285769023630478e+00 -7.6893108770572827e-01
      2.9109940871247426e+00 -8.9036935204065926e-01
      -1.6138496217092302e+00 5.3041076889984726e+00
      -1.1977363644408594e+01 3.3512768281658278e+00
      5.5285429812869218e+00 -9.5156896732608516e+00
      1.1132426865700639e+01 1.0974107461219755e+00
      -9.1815625433217658e+00 -1.0480733846556415e+01
      3.1812267216618939e+00 2.1649567650929091e+00
      9.2652111393450021e+00 -2.2504485320107848e+00
      -4.2952067553267730e+00 -1.0811143105953964e+00
      4.9295032476225940e+00 -9.1101704443149103e+00
      -3.7862551108168137e+00 9.8313475202051048e+00
      -3.3968792097985809e+00 -2.1212169242836265e+00
      3.6109944327089551e+00 -4.6028656095923826e-01
      -6.3934076242267261e+00 -3.5034585451488658e+00
      1.5503303093833233e+01 -3.0122654850068380e+00
      -1.9625523996585494e+00 2.3920170047150899e-01
      3.3741785961358088e+00 -3.1610065082400136e+00
      -1.5934010445330210e-01 -4.5271398479624807e+00
      8.7340655301045693e+00 -5.8688383341279620e+00
      -1.6919326236248577e+00 1.3970140171545573e-01
      5.3248622372947814e-02 1.8333394850560680e+00
      -3.5858120187827311e+00 -2.3770880238855940e+00
      -8.5404436948655285e+00 -2.7760285944841914e+00
      1.4818410622116691e+00 -1.0171497951011628e+00
      6.0076843521374732e+00 8.2403210011292849e-01
      -8.3221757857717140e+00 -7.5257507212262764e+00
      -3.9986042898188314e+00 -6.7219756135906445e+00
      8.8832353860803237e-01 3.6962532530638961e+00
      1.7571131058914005e+00 1.0924047133151118e+00
      4.7588175864858036e+00 -2.1402486835840882e+00
      -5.4986284476805505e+00 1.5153552256290301e+00
      -5.1272041590426758e+00 8.9146791906417194e-02
      9.3506183889405268e+00 4.2932814969243349e+00
      -4.6217276043826097e+00 2.0531334010426248e+00
      5.9362135575277239e+00 -2.6230276857283044e+00
      -2.9573215781683793e+00 -7.7021994336897404e-01
      1.1782103187412112e+00 -9.2405964101368543e-01
      1.3054535192961833e-01 -7.6973150892426379e+00
      6.6086943802921594e+00 -8.3788115266759782e+00
      5.7367862879596139e+00 5.2810153816381975e+00
      -6.9250212283921045e-02 3.7146078620973246e+00
      -4.4611028213004573e+00 -2.2095634702443206e-01
      -2.0278130428460908e+00 -6.0140439465134552e+00
      3.6529784122049058e+00 -5.8670958088263339e+00
      3.1985909631539772e-01 1.7003803304433809e-02
      -5.4464769925089449e+00 -1.9421423625880847e+00
      -4.9387836260790747e+00 5.2767637179541342e+00
      -4.6736520876875094e+00 3.2269116782472600e+00
      9.2876969702771839e-01 -1.5214828112522893e+00
      9.4943289384038154e-01 -3.4411096100442116e+00
      1.6583615765312574e+00 2.7071508727262406e+00
      -1.7302477518373349e+00 3.8037168491017672e+00
      2.0888080451748272e+00 1.1184443657789855e+00
      -9.6703777605995300e-01 2.5931123333848944e+00
      3.5862773414794114e+00 -8.4667188405470224e-03
      1.9351896484303059e+00 -4.1045664262630860e-01
      4.3114173063249561e+00 9.4088990168822828e-01
      -2.1101487540877090e-01 8.8262097744649504e-01
      2.5578300607633597e+00 -2.8246182985063188e+00
      -1.6597122604967776e+00 7.1048270994139273e-01
      1.0663852499280717e+00 3.8693681636723798e-01
      5.7292990915986115e+00 -4.7264001501159623e+00
      -2.1132451775729715e+00 -3.3208019242368683e+00
      1.0974020479599284e+01 2.2023185995459240e+00
      6.3490021379086850e+00 -7.3136416970571472e-01
      -5.8958204813663446e+00 -3.4916969262168712e-01
      -5.0043333231828768e+00 2.4944819859262033e+00
      -5.9399700751626638e-01 1.7145188324434448e+00
      -9.1666380405941883e-01 -7.6610637195690057e-01
      2.6857811727881167e+00 -3.2412149286934144e+00
      -3.3587650431884314e-01 -3.0767267645591776e+00
      7.0176577403706268e+00 2.9339208027932320e+00
      -3.3076891310038579e+00 4.3072866962996734e+00
      2.4488143295444735e+00 2.0744791837590826e-01
      5.6201545589465729e-01 -1.0621400352649331e+00
      -3.1347982489463844e+00 7.9051330013399201e-02
      8.4127644016038261e-01 -1.3176137453362932e-01
      2.6832974500649615e-01 -2.0232487327194035e+00
      -3.7163601817790920e-01 -2.9330148791324020e+00
      -1.2485436107476683e-01 2.3690095682663768e+00
      7.8776848927133845e+00 3.3485351285505520e+00
      2.9427414947959307e+00 1.1872223179283194e+00
      3.6885242724201635e+00 -1.9178448240687698e-01
      7.0861156052799545e+00 -2.4915407923499684e+00
      -3.2734198272686146e+00 1.9316690529466813e+00
      1.8237584479760161e+00 -2.0409986289217179e+00
      -5.4139078976100503e+00 -5.6057553360803682e+00
      2.0190514881386359e+00 2.7243904163176826e+00
      -3.2552015587642051e+00 -1.2116730490351948e+00
      -4.2653118736616129e+00 1.3802144599692772e+00
      -6.1431417568683067e+00 -2.0857189391221445e+00
      6.6542820842197770e-01 4.4599194725981475e+00
      -2.9365825370932637e+00 8.9166253517992089e-01
      -3.5725533440794606e+00 -1.8635264716777900e+00
      5.6194887995931808e-01 -1.4245495858556589e+00
      3.0876329911529661e+00 1.4662872456704504e-01
      -7.3221643749718368e-01 -2.1796968392760001e+00
      6.6597553546358312e-01 -2.1606712625694633e+00
      -2.4503337167698094e+00 -2.9393038151382709e+00
      -2.5377729381868092e-01 2.9835457841975668e+00
      4.4569060625885450e+00 -2.0132392634831570e-01
      1.7216930437404623e+00 -2.8586788095636830e+00
      -2.2717279964321984e+00 -1.9384220446899327e+00
      -3.9272873892430509e+00 4.7641114788366670e+00
      1.9710985573598818e+00 8.3314905816040774e-01
      3.9742973245560278e+00 2.6634957551006555e+00
      -9.8251678976225465e-01 -1.9180235188308394e+00
      5.7989456414701168e-01 5.3940690259045865e-01
      -3.1783683982283031e+00 2.6348631488759775e+00
      -1.2898527228454597e+00 -2.6385605371300844e+00
      2.2119579020530384e+00 2.3572610591635898e-01
      6.2938877108386606e+00 1.1421168672426811e+00
      -1.3339764876583307e-01 3.5278709325224056e+00
      -7.0831994101967555e-01 -1.0004779198246756e+00
      4.1644839469038430e+00 -1.1709086273975282e+00
      3.8184271445292999e+00 1.0940487088257134e+00
      3.9214160439820872e-01 -1.3117942087155112e+00
      -3.4982966351298628e-01 5.6713200580751320e+00
      -4.0861802509920979e+00 -1.1381782995947061e+00
      -7.5394266501986185e-01 1.6351201634428532e+00
      -4.6725911401000231e-01 -6.1687389542115598e+00
      -1.4088896043697632e+00 -1.0805350200495489e+01
      7.6913034705995846e+00 1.9619044390498317e+00
      -1.0224324509214622e+01 -8.5398009406565549e+00
      -4.9310307890454030e+00 9.8326917349488951e-01
      6.3677070854753444e+00 -1.9425745574947473e-01
      -1.2311566436740620e+01 -1.6248126034445485e+00
      -1.6346767821827828e+00 -2.2346265874300126e+00
      5.2438479481510036e+00 3.3950285745888001e-02
      -6.4970217033032380e+00 -4.8718010610686813e-01
      -1.4299615473870118e+00 -1.4864648513049801e+00
      9.5131150460263902e-01 1.2093711084330641e+01
      -6.3066323838693039e+00 5.5852790374739643e+00
      -9.7419781095272153e+00 -1.8654280341294927e+00
      3.5021311722906567e+00 -4.7996304745244371e+00
      2.5049224396101919e+00 -1.2359798020622031e-01
      -3.8360545242935067e+00 -5.7974324844914262e+00
      -1.0222165429698750e-01 3.9715013683920555e+00
      -7.4397771728453739e+00 -1.9721415808147464e+00
      3.4758304198052454e+00 5.7270663654842136e-01
      -6.1904917181107217e+00 7.9358696001396789e-01
      -8.1009317741878686e+00 -1.6460280393744189e-01
      4.6488344512608064e+00 4.3251210668452417e-01
      1.0627344296941910e+00 -1.0257002696574439e+01
      -2.6430234073425858e+00 -8.7856240976240374e-01
      6.6561704807825404e+00 -8.4901962817822763e-01
      -9.1958021941302750e+00 -3.4244503914729680e+00
      6.4478011271007019e-01 1.9035144986622050e+00
      -3.6229091542284446e+00 -4.0231928164059845e+00
      -4.2030718231368800e+00 -1.7238958035133225e+00
      -1.7818728656771836e+00 5.2092200295417506e+00
      3.7807295426206884e+00 1.2256051689360788e+01
      -9.8510908596378499e+00 8.5336168850067882e+00
      -7.1573618972690403e+00 -1.1686021791365832e+01
      5.2383645756335202e+00 -2.8474070116009780e+00
      7.5707293415487049e+00 -7.2880706787828775e-01
      -6.8946235525691275e+00 -9.1071285805632964e+00
      -2.7551516402034815e-01 -3.7271682619755016e+00
      2.6941487062076890e+00 6.3664413587983750e+00
      1.4930346868357798e+00 2.9795576886027364e+00
      2.0630588598801172e+00 3.7412936711213662e+00
      1.1540435290837530e+00 2.0684743567033386e+00
      -1.6934548781679948e-01 7.4719946835990891e-01
      -6.4057311403548640e+00 8.2732606431307232e-01
      -3.1206847717265442e+00 -9.7573186412219226e-01
      6.2064424658534350e+00 3.0727479517612544e+00
      3.0680246138658651e+00 1.2796562864352310e+00
      2.3659892621325627e+00 3.0251300474967535e+00
      -1.0010431851029971e+01 -4.2108675523998373e+00
      1.0330815503198467e+01 3.6365787364032567e+00
      2.9851418685912741e+00 -5.1335098226094464e+00
      2.5231936898170311e+00 -9.5399037098597983e+00
      2.4156154466318367e+00 5.4056254351094548e+00
      1.0787581543578025e+01 6.0085810272089999e+00
      2.7419763566768958e+00 -9.5708627471437637e+00
      2.2364498058071853e+00 -6.4523828193951316e-01
      -5.7428516444249000e+00 -6.5162727456423655e+00
      2.7408280601399954e-01 -1.2718829227550310e+00
      6.1078753772531869e+00 2.8490980615324979e+00
      4.3128272789177435e+00 -2.2178859214378068e+00
      5.6173591735374950e-01 2.0733748339203473e+00
      -2.3015472846680507e+00 4.7551243709624593e+00
      -3.5726409142877840e+00 1.3202584939579550e+01
      2.0687478347540686e-01 -3.1837067153284067e+00
      7.4440141923564163e+00 3.3814918326537063e-01
      5.7840840248615751e-02 2.5486314041121183e-01
      6.2490095513896504e+00 -1.7692365974362978e+00
      -1.7832947813256832e+00 3.8751442864900293e-01
      -3.9441897863505853e+00 7.1458336357685930e+00
      -9.6711510948357997e+00 2.8557764051663197e+00
      2.7121967708860950e+00 -1.7979059421000432e+00
      7.8648836115020526e-01 -5.0069370601012571e+00
      -3.9842940817880406e+00 7.7554605570213531e-01
      5.6174936551175971e+00 -5.1718230807776404e+00
      5.1270673597703089e+00 -1.6665772303903086e+01
      -4.8468678686973599e+00 5.9629913941697199e-01
      -6.5540606628168234e+00 4.7277758906622175e-01
      2.2756299150082585e-01 7.7130259452538237e+00
      -1.7047946608046996e-01 5.1429573536190132e+00
      -2.1781394333207404e+00 -1.2704898237202343e+01
      -1.7407634117795701e+00 -7.7435964741379042e+00
      -3.4330443775984607e+00 -3.8353480698176994e+00
      -6.8463985408403065e+00 -3.6544663952633543e+00
      -1.3102548468008008e+00 -6.1381675460074412e+00
      3.6658337391431886e+00 -9.7216131896344726e-01
      -5.0674281978009867e+00 -2.0816757985215530e+00
      5.6755679474903511e+00 6.6864678285247798e+00
      5.1392377071595152e-01 -2.1783514547991084e-01
      3.1515740501414942e+00 2.7953916982861973e+00
      -1.2502457644509581e+00 4.0662878245020302e+00
      -4.7806049997698166e+00 1.1111907558482706e+01
      3.1897590478092317e+00 8.2451919001910523e-01
      2.7952923129916520e+00 3.5742292243713161e+00
      -4.6549313470470750e+00 3.7731431036375986e+00
      1.1720614645921017e+01 -1.3459968928622063e+01
      -2.9014552334789436e+00 3.3940109603136709e-01
      1.1732564720245693e+00 6.5447927686745757e+00
      -3.2717087593262506e-01 4.5088921925360657e+00
      -1.0622122774500029e+00 -4.6918344092302189e-01
      1.0809495277825998e+00 -3.1219605708643887e+00
      5.4718075323682036e-01 -9.3032451493651802e-01
      -5.1461746064518554e-01 -7.7692181877042463e+00
      -1.1179013693768962e+01 -1.6407990654171831e+00
      -4.2148209226388129e+00 -3.4805352113837995e+00
      3.1992554370505175e-02 -3.5988702382306892e-01
      2.8483274146128418e-01 -5.4888792190783455e+00
      -8.9017443837063837e-01 -2.9367035130048813e+00
      -9.3345034468329868e-02 6.9249468869476116e+00
      -1.6306824346671711e+00 1.1350976534684387e+01
      -1.6813444184549813e+00 -1.6487975773810692e+00
      -8.7604519018976532e+00 -5.0363463601486318e+00
      -2.3342068116076367e+00 -1.4681504474721041e+00
      6.5682494506922380e+00 6.1671166143099381e+00
      -9.6133542810552548e+00 5.7763311979679333e-01
      5.2656648405696416e+00 -9.7290316684538798e+00
      2.4609985837967070e+00 -2.3930681226657680e-01
      3.7998299098109887e+00 -1.6532679878526854e-01
      -5.4760472070360744e-01 7.6069990236798581e+00
      7.5256224282597783e-01 -6.2738216103595574e+00
      3.8536318346308245e+00 4.2106007581888045e+00
      4.6472028306015138e+00 -6.9229519957549535e+00
      5.4559080057929847e+00 -2.4728189296377128e+00
      -1.1102191792421811e+01 2.5498355537407416e+00
      -1.7191111768786127e+00 1.6827073182241430e+00
      -1.1736066901809881e+00 6.0108301500358607e-01
      1.1126833896262662e+00 -1.2038781879522000e+00
      4.2467145682317113e+00 1.5643427098354197e+00
      2.4824075050249759e+00 6.8913005677188133e-01
      1.7296355005400039e+00 2.1739178955150322e+00
      6.2207233238176229e-01 -6.2314947118144248e-01
      -1.2829047910126754e+00 -1.1368394422173937e+00
      3.5499188808727959e+00 5.1359203686395425e+00
      -2.7085366391916397e+00 1.1025292245620280e+00
      -5.5611069257782164e+00 4.4628695326602580e-01
      2.7404585021097558e+00 -1.9273429630429810e+00
      2.1097503796423274e+00 5.7207476062833751e-01
      2.4685626343768239e+00 4.7784274045357245e-01
      3.0994373207084708e-01 2.3913465851081357e+00
      -6.1954097149911047e-01 -2.6774741539448086e+00
      2.5248334043171607e+00 5.8380750229648974e+00
      1.0183616415388279e+00 -7.2112154873440271e-01
      -1.6166704784023802e+00 5.6084725941852827e-02
      -3.8668237650677972e+00 1.2022839712144626e+00
      4.3080484581061818e+00 2.8159434004264554e+00
      3.8848017104817640e+00 -2.5722865053197680e-01
      -4.1189956781354269e+00 6.8758982327604601e+00
      -2.0490821193641082e+00 -5.0517596924292929e-01
      5.0701661366689228e+00 4.2833164186669670e-01
      -3.7332356234465947e-01 -7.3378893589790672e-01
      5.1938071940634014e+00 -8.1733003586989916e-01
      -4.1897984327044036e-01 -6.5722834247667885e+00
      -5.1513698040868708e-02 -3.0210513611215417e-01
      -4.1070338171416001e+00 2.3054199784832661e+00
      4.1926955879070343e-01 6.2907573264672556e-01
      7.6754994535619459e-01 -6.2414992900482069e+00
      -9.1955538474504084e-01 -2.5701808474181587e-01
      2.5927872899450648e+00 -5.1072468494353487e+00
      -2.4857895777673342e-01 -1.5112334958532744e-01
      -3.1209978457616505e+00 -2.0499182275956103e+00
      -8.1164223006027353e-02 8.3996723881821367e-01
      2.5525064943003768e+00 -4.7042764561101631e+00
      5.2402009740441242e+00 7.5735975629685329e-02
      9.2949407128443273e-01 4.6581825660167988e+00
      -2.7324937561758122e-01 4.2234267210905935e-01
      -3.1683879683562360e-01 2.9799845608866442e+00
      2.0594032293163873e+00 -7.8195581070944931e-02
      -6.2173529024312180e-01 -6.0405754361260859e+00
      -4.8860981550695276e-01 3.5082584567478352e+00
      -3.3532179213090147e+00 -1.0669807370064250e+00
      5.4086786759766647e-01 2.5399472776217888e+00
      2.8092775987360143e+00 -2.9124804044065762e+00
      -3.2697014962837883e+00 -4.0451674665821447e+00
      -6.7943640757040056e+00 -3.1395910055513045e+00
      -6.2740688896267971e-01 2.6734667660452680e+00
      -2.7089358188087765e-02 -5.2036653414220773e+00
      1.4467576032181615e+00 5.1650721836504332e-01
      -3.6011096001076606e+00 6.6700097808840086e-01
      1.1055474746419387e+00 -3.3505586762090909e+00
      -1.1145664315813233e+00 -4.8258830734104716e+00
      5.7748173286036297e-01 3.4429166283448489e+00
      3.6204973706507815e+00 -3.7089943325558372e+00
      4.2595662167435372e-01 -4.1758263162444870e-01
      3.5698134318643091e+00 5.3128948429921408e-01
      -8.8369532166837816e-01 3.4382666182363915e+00
      4.6058048497429400e+00 1.3937624228770022e+00
      6.1187251592973437e+00 1.8239838960666654e+00
      1.3633743092251380e+00 -9.9169770414514069e-01
      -4.7287318887989223e+00 -4.8871274941888707e+00
      1.3502977814875574e+00 -5.1859807116892767e-02
      -2.3519203805158932e+00 1.3094277775350089e+00
      2.3589868570442665e+00 6.9016895112185550e-01
      -2.1726072274330357e+00 -1.0608710486259727e+00
      5.5614984865826778e-02 -1.0845924192177085e+00
      -5.1614234193025696e+00 4.5944101811019094e+00
      4.9896100628613347e+00 3.3421658662432261e+00
      4.5390830684847661e+00 1.6103961595443277e+00
      2.8087904138082487e+00 -2.2945282941617831e+00
      5.7834208597421544e-01 1.8336370498769194e+00
      9.8400046585937417e-01 -2.1403721360708775e-01
      3.3744691174642156e+00 -3.3747076597798706e+00
      -8.4969186998010460e-01 -4.1884605898776153e+00
      1.3613621645265008e+00 -4.8319021178035486e+00
      -4.5359884461680516e-01 8.7233147742515502e+00
      -4.4655754851978058e+00 -3.9762251063658089e+00
      2.1370828954488092e+00 1.0488962935538158e+00
      1.2095005850727954e+01 1.6623981232994223e+00
      -1.2629382303369946e+01 -3.2367169623691376e+00
      -3.0276325843113328e+00 -4.4094507655737392e+00
      1.4643110022008026e+00 1.6628826842879492e+00
      6.5401947268015936e-01 2.8614870000983830e+00
      3.4453130026741254e+00 2.2853032030152747e+00
      7.5227675832750984e-01 -5.0466689370277551e-01
      -6.1513859790195493e+00 -2.7009711063611199e+00
      -1.2644241242651686e+01 -1.7819971382199755e+00
      1.0888509367784854e+01 -7.3348186349703040e-02
      4.8899694008946151e+00 1.1246544580396204e-02
      7.8915767446313334e-01 -2.1875462379653010e+00
      -4.1617779580121345e-01 2.3750591972845121e+00
      -2.9335140758369955e+00 2.9794011193597153e-01
      3.8136689687545524e+00 6.0212857750827968e+00
      -2.4429698297681206e+00 -1.1508838776261671e+01
      -7.3067316773216824e+00 -4.4444272751568805e+00
      -1.9619008957387030e+00 4.1057629482423357e+00
      -4.5729051679645245e+00 -7.0671914204952824e+00
      -9.4339862224796289e-01 9.0433823918437384e-01
      7.5327886100714148e+00 -2.0925713607996559e+00
      -4.9572810602523432e-01 1.2195316067825244e+00
      1.3496842308528548e-01 9.4145367126141966e-01
      -7.4999610915142991e+00 -2.7637512036438623e+00
      7.4502708449579460e+00 5.1556245198928430e+00
      -8.6657465698167790e+00 1.5057346054474913e-01
      1.0934867045655547e+00 5.1659623968173474e+00
      -8.6236789805784557e+00 5.8665126001635359e+00
      -1.1046363346586401e+00 -4.2836402802953728e+00
      2.5794327523722371e+00 -4.6185853296797124e+00
      3.6528166607990951e+00 1.2237960685326954e-01
      1.0015173332730885e+01 2.9271063194880953e-01
      -3.7672059513192185e-01 1.3911401705853883e+00
      -5.7097742129208866e+00 -4.1975962655352346e+00
      -1.4013209992936659e+00 2.4915379460245815e-01
      -3.2764797873318625e+00 -1.8236794444127868e+00
      9.9888545577787050e-02 6.5118756702739997e+00
      -1.1806888907304677e-01 -2.0353162005443276e-01
      8.2029149229584297e-01 3.6943296923696556e+00
      -5.5938128780831065e+00 -1.1590132711638389e-01
      1.2810309252601179e+01 8.4065947536637953e-01
      1.2054478166173293e+01 1.7682834125499500e+00
      2.8920779423812100e+00 3.7809863455244614e+00
      -1.1031976961428409e+01 -7.9226716038495715e+00
      8.3794236065164416e+00 5.7107669747184051e+00
      -4.0984139236173869e+00 -3.0302969597559859e-01
      3.5806232879695479e+00 1.4008793389113114e+00
      1.7188971620632976e+00 6.0390177211791265e+00
      4.0480830753100037e+00 -8.0832512971020680e+00
      2.1695428332700395e+00 -6.9095152211217998e+00
      -7.7740799177619424e+00 -2.9192599340760128e-01
      -3.2845131366801223e+00 8.7224396596596943e-01
      -2.6471667767897850e-01 -5.6630132045671973e+00
      4.8326003231611940e+00 4.4972028665743133e+00
      -4.9527464500698254e-01 -1.1496851245103233e+01
      -2.3179852425008893e+00 -1.6036301705213976e-01
      2.1095380195619056e+00 1.2151768415515456e+01
      -3.1114363807227412e+00 3.9192372960884350e+00
      -7.7724435178027351e-02 3.2859105935494344e+00
      4.2819540659815924e+00 -1.2996251747077803e-01
      4.4879025465215747e+00 -5.6165422038671933e+00
      5.4433589380097400e+00 5.2493950591659742e+00
      2.9742845516174832e+00 -3.3164794484698499e+00
      -4.6983853576519614e+00 5.8837991936149221e+00
      -1.0382166192663901e+01 -2.4057579611314046e+00
      -2.1144637295534846e-01 -3.1692109779468352e+00
      9.8637812170566317e+00 -1.7014624335570612e+00
      2.5025773938778180e+00 -7.6915958880093527e-01
      4.1070654821785499e+00 7.0180522060144899e+00
      3.3234302651846468e+00 -5.3282045970988365e+00
      -1.8983441932473695e+00 -6.7666226770976323e-01
      -2.5575013877770836e-01 -1.0803085392905494e+00
      -3.6895244671355232e-01 1.7644641551865516e+00
      2.0408984583237113e+00 1.6015781681851043e-01
      1.9699442618757972e+00 -8.3290248721459079e+00
      -3.2992026480809336e+00 2.8286435368008087e+00
      4.8076233974675597e+00 -4.8755647018531849e-02
      -1.9840971398628782e+00 3.0156345846494923e+00
      9.4748847640270462e-01 1.1410591405934627e+01
      5.9122862880243021e+00 -2.1315523190238198e-01
      -6.7063285318283814e+00 -2.8090722245484528e-01
      -1.1844509535987410e-01 2.3261455673375058e+00
      -3.7452887637332442e+00 5.6636274720193285e+00
      3.6088777146659594e+00 5.9051661544723331e+00
      -1.7448527428264708e+01 -3.3772790142496589e+00
      2.5145035209422626e+00 2.6947854514285461e+00
      3.7661214406743828e+00 6.1198949390759125e+00
      -5.0968698399343211e+00 -3.4449803551959222e+00
      3.7076707210124743e-01 -5.1169490036849874e+00
      -6.0163790046282415e+00 -9.3551530129780147e+00
      7.5021746675113947e+00 -2.3115239777105442e-01
      4.1671323269012923e+00 7.2134321236441323e+00
      -3.1918959033832417e-01 5.4142145529624575e+00
      -7.8766409225392375e-01 2.8849920547075203e+00
      -2.8167137385003160e+00 -4.3947465575525069e+00
      -4.0358225145221294e+00 -9.9594214273780377e+00
      9.9260339729634204e+00 6.7798189244381268e-01
      -6.9476245723150329e+00 6.8981188108349567e+00
      -3.9094955688029565e+00 8.9052983457193680e-01
      1.0887873732636702e-01 8.6638746384150211e-01
      -8.5695486040540092e-01 6.3598091773883292e+00
      4.2313438153714307e+00 4.1643228564566153e+00
      -7.8226840290873225e+00 -1.0431721311793694e+00
      7.7547168352153770e+00 8.5796658265273642e+00
      -4.7593070756658413e+00 -4.9860444238897100e-01
      -4.2278735194484289e+00 3.0582849441935660e+00
      1.7262892359783080e+00 -6.9784666995498457e-01
      1.5386621303172457e-01 -7.3678675960890527e-01
      -1.7375582217754824e+00 -6.7491847493270942e+00
      5.1237685987103532e-01 -4.5121885026074526e+00
      4.2953821629576314e+00 -5.5046201789595517e-01
      5.8412085071148638e+00 1.3477843763456721e+00
      3.5761377663010624e-01 9.5545160746932218e+00
      1.0378275262579709e+01 -4.9788620405537873e+00
      -1.0618779068197011e+00 -4.1474361759274343e+00
      -2.8106072128191499e+00 1.7951382122997406e+00
      3.9603632971906189e+00 6.7421790394591170e+00
      -2.6601123842764234e+00 -2.9209044528432071e-01
      -2.2508086593440533e+00 4.5916132232263198e+00
      5.2328334836343418e+00 1.3469372026541099e-01
      3.8242189873718950e+00 2.2318535564938369e+00
      5.5566835230197464e-01 2.8838750873678438e+00
      -6.4950527131881153e-01 -4.8273049716296565e+00
      4.8213822680976204e+00 1.7610191560498818e+00
      -1.8215423354510463e+00 3.4795500843115943e+00
      3.5118031282873247e-01 2.6813715161763341e-01
      1.7800601933295530e+00 -1.9040156693528454e+00
      -4.4306493516878946e+00 -1.7381329530762626e+00
      -8.2376333648659035e+00 -2.7601815550700444e+00
      -6.8257595769178514e-01 -4.2532741733525024e+00
      4.3412477778505792e-01 4.5475079617975867e-01
      3.8848588867354921e+00 -5.7554325131448381e-01
      -2.8091885065207118e-02 -2.1090824638787149e+00
      6.1266507991057872e-01 1.0477415240643233e+00
      -2.8682301252408031e+00 -1.5133256140373157e+00
      -1.1816304810932508e+00 -3.3253588323251071e+00
      -2.3836856763605310e+00 3.4733337179051662e+00
      1.1991142444929730e+00 -9.7837172583917192e-02
      4.8152724074663729e+00 2.4626301685426029e+00
      3.8357672077501532e+00 -9.0662900511339906e-03
      -1.9932787034484667e+00 4.2971474768206432e+00
      -1.3880010631628623e+00 -2.3682197825389087e-01
      3.5083549960915783e+00 9.5544972245744908e-01
      -3.1609646338005750e+00 -1.2221036359288939e+00
      -3.0466807516214717e-01 1.0735749342382952e+00
      1.0560703232406996e+00 -8.4037462659163946e+00
      -2.6595343055071203e+00 1.1156228640275949e+00
      -4.0504115160447638e+00 1.9090808635937759e-01
      1.6708987737047403e+00 6.4009218915970694e+00
      1.5918989293170109e+00 -6.7209115938498734e+00
      5.3396874145587576e+00 -7.4160436853895895e-02
      -2.5350551725330683e-01 -4.0610762965759566e+00
      -2.3583989074830553e-01 1.4107830124755998e+00
      2.7396846498009775e+00 -3.5793349134151392e-01
      2.0437244964062094e-02 2.7327149631576906e+00
      1.7823242285637821e+00 -3.6767751907866173e+00
      5.4033813805362163e+00 2.4115219840018929e+00
      1.1022665362501560e+00 7.1323121267214367e+00
      -8.2121674906161974e+00 -1.3175500984153696e+00
      -3.2910131735580399e+00 9.4176342125141310e-01
      -1.6242450176157068e+00 -4.9814380486639687e+00
      -5.4618026256345864e+00 -1.3912849791930977e+00
      1.4385312837241653e+00 6.1164002647985538e-01
      -3.1808899266686064e+00 2.8004045447844517e-01
      6.0404442987957214e+00 -1.2565967355550109e+00
      -1.6170925807039007e+00 -5.7775833992943326e+00
      -6.0931776002356024e+00 -3.7585627120462290e+00
      5.5970833184252351e+00 -1.7897837925149136e+00
      -3.0786326684801812e+00 2.3441760572793080e+00
      2.5606447186722296e+00 -2.1248174568685194e-01
      3.4248696051362901e+00 1.6834020696631330e-01
      -1.3257558752144540e+00 -1.1748942041109429e-01
      8.3355182600469824e-01 -2.5503769410061872e-02
      -1.0383315080077702e+00 -6.5813024691852393e-02
      2.3088278361661643e+00 3.7280838210196108e+00
      -1.9636798624882827e+00 1.6524813001859595e+00
      5.0269854304076034e-01 7.0985266752476086e+00
      2.5038559937437217e+00 4.5479101553398076e+00
      -4.8154303455751117e+00 2.5785813527496836e-02
      -2.5111666201242566e+00 1.2098686529598521e+00
      7.7281699462938824e-01 -5.0085510058530369e+00
      3.2896530307679090e+00 2.4888934220698138e+00
      7.6771547208658175e-01 -3.0054428783018623e+00
      8.8802091055491550e-01 -2.5645967116113457e+00
      5.4303378677134981e+00 -1.8032363330388494e+00
      -3.9122046922122582e+00 -6.0767916912435114e+00
      8.8294967465662386e-02 -2.8662704493713234e+00
      -6.6391720267004288e+00 -7.1483927685341406e+00
      2.9583566875295810e+00 3.5122346716464894e+00
