<?xml version="1.0"?>
<opencv_storage>
<opencv_ml_svm>
  <format>3</format>
  <svmType>C_SVC</svmType>
  <kernel>
    <type>RBF</type>
    <gamma>3.3750000000000002e-02</gamma></kernel>
  <C>1.2500000000000000e+01</C>
  <term_criteria><iterations>20000</iterations></term_criteria>
  <var_count>352</var_count>
  <class_count>2</class_count>
  <class_labels type_id="opencv-matrix">
    <rows>2</rows>
    <cols>1</cols>
    <dt>i</dt>
    <data>
      0 1</data></class_labels>
  <sv_total>683</sv_total>
  <support_vectors>
    <_>
      0. 0. 1.87500000e-01 5.93750000e-01 6.25000000e-01 6.25000000e-01
      7.81250000e-01 6.25000000e-01 4.68750000e-01 4.68750000e-01
      5.31250000e-01 6.25000000e-01 6.87500000e-01 6.25000000e-01
      5.62500000e-01 2.18750000e-01 9.37500000e-02 0. 0. 0.
      9.68750000e-01 1. 8.12500000e-01 3.12500000e-01 2.50000000e-01
      2.18750000e-01 1.87500000e-01 1.87500000e-01 1.87500000e-01
      1.87500000e-01 2.81250000e-01 9.68750000e-01 8.43750000e-01
      7.50000000e-01 3.43750000e-01 0. 0. 0. 9.37500000e-02
      1.25000000e-01 6.25000000e-02 0. 0. 0. 6.25000000e-02 1. 1.
      8.12500000e-01 3.12500000e-01 1.25000000e-01 1.25000000e-01
      1.25000000e-01 1.25000000e-01 1.25000000e-01 1.25000000e-01
      1.25000000e-01 1.25000000e-01 1.25000000e-01 1.25000000e-01
      1.25000000e-01 0. 0. 0. 1.56250000e-01 2.18750000e-01
      2.81250000e-01 2.18750000e-01 2.81250000e-01 3.12500000e-01
      4.06250000e-01 4.37500000e-01 4.37500000e-01 3.43750000e-01
      4.37500000e-01 7.50000000e-01 5.62500000e-01 4.37500000e-01
      9.37500000e-02 0. 0. 0. 3.12500000e-02 3.12500000e-02
      3.12500000e-02 0. 0. 0. 4.06250000e-01 5.62500000e-01
      7.50000000e-01 4.68750000e-01 2.50000000e-01 1.87500000e-01 0. 0.
      0. 0. 0. 0. 1.56250000e-01 2.18750000e-01 2.18750000e-01
      2.50000000e-01 2.50000000e-01 4.06250000e-01 4.37500000e-01
      4.37500000e-01 4.06250000e-01 4.06250000e-01 4.68750000e-01
      7.50000000e-01 5.93750000e-01 4.37500000e-01 9.37500000e-02 0. 0.
      0. 1.87500000e-01 3.12500000e-01 1.87500000e-01 1.25000000e-01
      2.18750000e-01 2.81250000e-01 3.12500000e-01 2.81250000e-01
      3.75000000e-01 4.37500000e-01 5.00000000e-01 5.93750000e-01
      4.06250000e-01 3.12500000e-02 0. 0. 0. 0. 0. 0. 3.17460336e-02
      3.17460328e-01 3.80952418e-01 4.28571463e-01 3.17460328e-01
      3.33333343e-01 3.80952418e-01 5.23809552e-01 4.12698448e-01
      3.33333343e-01 3.96825433e-01 6.34920657e-01 6.34920657e-01
      6.82539701e-01 7.46031761e-01 7.14285731e-01 6.19047642e-01
      5.07936537e-01 5.55555582e-01 5.55555582e-01 4.76190507e-01
      4.44444478e-01 4.60317492e-01 6.34920657e-01 6.66666687e-01
      5.71428597e-01 5.87301612e-01 7.77777851e-01 8.41269910e-01
      9.52381015e-01 1. 9.20634985e-01 7.77777851e-01 5.55555582e-01
      9.52381045e-02 0. 0. 0. 0. 0. 0. 0. 0. 0. 0. 0. 0. 0. 0. 0. 0. 0.
      0. 0. 0. 0. 0. 0. 0. 0. 0. 0. 0. 0. 0. 0. 0. 0. 0. 0. 0. 0. 0. 0.
      0. 0. 0. 0. 0. 0. 0. 0. 0. 0. 0. 0. 0. 0. 0. 0. 0. 0. 0. 0. 0. 0.
      0. 0. 0. 0. 0. 0. 0. 0. 0. 0. 0. 0. 0. 0. 0. 0. 0. 0. 0. 0. 0. 0.
      0. 0. 0. 0. 0. 0. 9.12646670e-03 1.56453717e-02 1.82529334e-02
      1.30378092e-02 3.52020860e-02 2.08604950e-02 1.39504567e-01
      3.91134284e-02 9.12646651e-02 3.20730120e-01 2.00782269e-01
      2.79009134e-01 6.50586665e-01 5.73663592e-01 1. 3.93741846e-01
      9.07431543e-01 5.43676674e-01 6.96219027e-01 1.98174700e-01
      1.42112121e-01 7.30117336e-02 1.82529334e-02 3.91134294e-03 0. 0.
      0. 0. 0. 0. 0. 0. 0. 0. 0. 0. 0. 0. 0. 0. 0. 0. 0. 0. 0. 0. 0. 0.
      0. 0. 0. 0. 0. 0. 0. 0. 0. 0. 0. 0. 0. 0. 0. 0. 0. 0. 0. 0. 0. 0.
      0. 0. 0. 0. 0. 0. 0. 0. 0. 0. 0. 0. 0. 0. 0. 0. 0. 0. 0. 0. 0.</_>
    <_>
      3.61111104e-01 4.72222239e-01 6.38888896e-01 6.11111104e-01
      6.94444478e-01 5.83333313e-01 3.61111104e-01 3.88888896e-01
      6.66666687e-01 8.61111104e-01 8.61111104e-01 5.27777791e-01
      3.88888896e-01 1.38888896e-01 0. 0. 0. 0. 1. 1. 1. 1.
      6.94444478e-01 2.50000000e-01 1.94444448e-01 1.94444448e-01
      1.66666672e-01 1.11111112e-01 1.66666672e-01 1.38888896e-01
      1.38888896e-01 5.55555560e-02 0. 0. 0. 0. 0. 5.55555560e-02
      3.88888896e-01 4.72222239e-01 5.27777791e-01 5.27777791e-01
      2.50000000e-01 1.11111112e-01 0. 6.38888896e-01 1. 1. 1. 1.
      3.61111104e-01 2.50000000e-01 2.50000000e-01 3.61111104e-01
      5.27777791e-01 6.11111104e-01 8.33333313e-01 9.72222209e-01
      8.61111104e-01 7.22222209e-01 5.00000000e-01 2.50000000e-01 0. 0.
      1.38888896e-01 2.77777791e-01 6.94444478e-01 8.33333313e-01
      9.72222209e-01 9.72222209e-01 5.83333313e-01 3.88888896e-01
      2.22222224e-01 2.22222224e-01 3.61111104e-01 4.72222239e-01
      8.05555582e-01 1. 1. 7.50000000e-01 5.55555582e-01 8.33333358e-02
      0. 8.33333358e-02 1.38888896e-01 5.83333313e-01 8.05555582e-01
      7.77777791e-01 8.05555582e-01 6.66666687e-01 5.00000000e-01
      4.72222239e-01 4.72222239e-01 5.00000000e-01 5.55555582e-01
      6.38888896e-01 7.22222209e-01 7.50000000e-01 6.66666687e-01
      5.27777791e-01 3.61111104e-01 5.55555560e-02 0. 0. 0.
      1.38888896e-01 1.94444448e-01 2.22222224e-01 2.50000000e-01
      3.33333343e-01 3.33333343e-01 3.33333343e-01 3.33333343e-01
      5.27777791e-01 5.83333313e-01 6.38888896e-01 8.05555582e-01
      7.50000000e-01 6.38888896e-01 4.72222239e-01 1.66666672e-01 0. 0.
      0. 0. 0. 0. 0. 0. 0. 1. 1. 1. 1. 9.72222209e-01 1.11111112e-01
      8.41463387e-01 8.90243888e-01 9.14634109e-01 8.53658497e-01
      7.92682886e-01 7.31707275e-01 7.07317054e-01 6.34146333e-01
      5.73170722e-01 5.73170722e-01 5.73170722e-01 5.85365832e-01
      6.58536553e-01 7.19512165e-01 8.53658497e-01 9.39024329e-01
      9.99999940e-01 9.14634109e-01 9.02438998e-01 8.90243888e-01
      7.19512165e-01 6.58536553e-01 6.34146333e-01 6.21951222e-01
      6.58536553e-01 6.58536553e-01 6.82926774e-01 6.70731664e-01
      6.46341443e-01 6.21951222e-01 6.21951222e-01 6.70731664e-01
      6.82926774e-01 6.95121944e-01 6.82926774e-01 5.85365832e-01
      1.40625006e-02 0. 0. 0. 0. 0. 0. 0. 0. 0. 0. 0. 0. 0. 0. 0. 0. 0.
      0. 0. 0. 0. 0. 0. 0. 0. 0. 0. 0. 0. 0. 0. 0. 0. 0. 0. 0. 0. 0. 0.
      0. 0. 0. 0. 0. 0. 0. 0. 0. 0. 1.56250002e-03 0. 0. 0. 0. 0. 0. 0.
      0. 0. 0. 0. 0. 0. 0. 0. 0. 0. 0. 0. 0. 0. 0. 0. 0. 9.37500037e-03
      0. 0. 0. 0. 0. 0. 0. 4.68750019e-03 1.56250002e-03 4.68750019e-03
      0. 6.25000009e-03 0. 0. 2.34375000e-02 0. 3.12500005e-03
      6.25000009e-03 4.68750019e-03 4.37499993e-02 4.37499993e-02
      1.56250000e-02 1.03124999e-01 6.56250045e-02 1.14062503e-01
      2.98437506e-01 2.56249994e-01 5.21875024e-01 3.96874994e-01
      8.87499988e-01 8.12500000e-01 1. 7.12500036e-01 6.43750012e-01
      4.57812518e-01 3.31250012e-01 2.93750018e-01 9.37500000e-02
      1.51562497e-01 3.90625000e-02 8.74999985e-02 2.65625007e-02
      1.25000002e-02 1.09374998e-02 4.84375022e-02 0. 1.09374998e-02
      3.12500005e-03 7.81250000e-03 1.56250000e-02 3.12500005e-03
      1.56250002e-03 9.37500037e-03 6.25000009e-03 6.25000009e-03 0.
      6.25000009e-03 4.68750019e-03 3.12500005e-03 6.25000009e-03
      3.12500005e-03 0. 9.37500037e-03 1.56250002e-03 1.56250002e-03 0.
      0. 0. 0. 0. 0. 0. 0. 0. 0. 0. 0. 0. 0. 0. 0. 0. 0. 0. 0. 0. 0. 0.
      0. 1.56250002e-03 0. 0. 0. 0. 0. 0. 0. 0. 0. 0. 0. 0. 0. 0.</_>
    <_>
      4.68750000e-01 6.87500000e-01 7.50000000e-01 8.12500000e-01
      7.81250000e-01 4.06250000e-01 1.87500000e-01 3.12500000e-01
      5.31250000e-01 5.93750000e-01 7.18750000e-01 8.75000000e-01
      8.43750000e-01 5.31250000e-01 2.50000000e-01 9.37500000e-02
      9.37500000e-02 9.37500000e-02 9.37500000e-02 6.87500000e-01
      7.81250000e-01 8.43750000e-01 9.06250000e-01 4.06250000e-01
      4.06250000e-01 3.75000000e-01 4.06250000e-01 4.06250000e-01
      4.06250000e-01 4.37500000e-01 6.25000000e-01 5.93750000e-01
      5.62500000e-01 4.37500000e-01 1.25000000e-01 1.25000000e-01
      1.25000000e-01 1.87500000e-01 2.50000000e-01 2.50000000e-01
      2.81250000e-01 1.25000000e-01 1.25000000e-01 1.25000000e-01
      6.87500000e-01 9.37500000e-01 1. 1. 9.06250000e-01 2.50000000e-01
      2.50000000e-01 2.50000000e-01 2.50000000e-01 2.81250000e-01
      2.81250000e-01 2.81250000e-01 2.81250000e-01 2.81250000e-01
      2.81250000e-01 1.25000000e-01 1.25000000e-01 1.25000000e-01
      1.25000000e-01 3.75000000e-01 4.68750000e-01 5.31250000e-01
      5.00000000e-01 5.62500000e-01 5.93750000e-01 5.62500000e-01
      5.93750000e-01 6.56250000e-01 7.18750000e-01 7.18750000e-01
      8.12500000e-01 7.18750000e-01 5.93750000e-01 3.75000000e-01
      1.56250000e-01 1.25000000e-01 1.25000000e-01 2.18750000e-01
      4.37500000e-01 5.31250000e-01 5.31250000e-01 5.93750000e-01
      5.62500000e-01 5.31250000e-01 5.62500000e-01 5.93750000e-01
      7.18750000e-01 8.12500000e-01 9.06250000e-01 8.12500000e-01
      6.56250000e-01 4.68750000e-01 1.25000000e-01 1.25000000e-01
      1.25000000e-01 1.87500000e-01 4.06250000e-01 4.68750000e-01
      4.37500000e-01 5.62500000e-01 5.00000000e-01 5.00000000e-01
      5.93750000e-01 6.56250000e-01 6.56250000e-01 6.87500000e-01
      8.43750000e-01 8.12500000e-01 7.50000000e-01 5.62500000e-01
      1.56250000e-01 1.56250000e-01 1.56250000e-01 1.87500000e-01
      1.87500000e-01 2.18750000e-01 2.18750000e-01 1.87500000e-01
      2.18750000e-01 9.68750000e-01 1. 1. 9.68750000e-01 3.43750000e-01
      1.56250000e-01 1.25000000e-01 1.25000000e-01 1.25000000e-01
      1.25000000e-01 1.25000000e-01 2.18750000e-01 8.75000000e-01 1. 1.
      1. 9.11764681e-01 1.98529407e-01 5.88235296e-02 1.47058824e-02 0.
      1.54411763e-01 3.89705896e-01 5.14705896e-01 5.44117630e-01
      5.14705896e-01 3.97058815e-01 3.45588237e-01 3.30882341e-01
      3.08823526e-01 3.01470578e-01 3.08823526e-01 3.16176474e-01
      3.75000000e-01 4.11764711e-01 3.38235289e-01 3.01470578e-01
      2.50000000e-01 2.72058815e-01 2.79411763e-01 3.52941185e-01
      3.75000000e-01 3.97058815e-01 3.89705896e-01 4.63235289e-01
      5.58823526e-01 4.92647052e-01 3.97058815e-01 2.79411763e-01
      4.00696881e-02 0. 0. 0. 0. 0. 5.22648077e-03 0. 0. 0. 0. 0. 0.
      5.22648077e-03 0. 0. 1.74216030e-03 0. 0. 5.22648077e-03
      5.22648077e-03 3.48432059e-03 0. 1.74216030e-03 5.22648077e-03
      1.04529615e-02 1.74216030e-03 0. 1.74216030e-03 0. 3.48432064e-02
      0. 0. 0. 1.74216030e-03 2.43902449e-02 6.96864119e-03 0.
      5.22648077e-03 0. 0. 0. 2.26480830e-02 8.71080160e-03 0.
      6.96864119e-03 0. 0. 3.48432059e-03 0. 2.78745648e-02
      1.56794433e-02 0. 0. 0. 6.96864119e-03 0. 0. 0. 0. 5.22648077e-03
      0. 0. 0. 0. 1.74216030e-03 1.74216032e-02 0. 0. 0. 5.22648077e-03
      0. 0. 1.74216030e-03 0. 3.13588865e-02 0. 0. 0. 0. 1.91637632e-02
      0. 0. 2.43902449e-02 3.48432059e-03 0. 0. 1.04529615e-02 0. 0.
      5.05226478e-02 0. 8.71080160e-03 6.96864119e-03 3.48432059e-03
      3.83275263e-02 6.96864128e-02 0. 5.74912913e-02 2.61324048e-02
      3.48432064e-02 2.22996518e-01 1.65505230e-01 3.15331012e-01
      2.92682916e-01 6.51567936e-01 6.39372826e-01 8.97212565e-01
      8.29268277e-01 1. 7.07317054e-01 5.64459920e-01 3.60627174e-01
      1.49825782e-01 2.40418121e-01 1.35888502e-01 1.96864113e-01
      2.61324048e-02 2.78745648e-02 2.43902449e-02 1.49825782e-01 0.
      5.05226478e-02 1.74216032e-02 1.39372824e-02 5.92334494e-02
      3.65853645e-02 0. 5.22648077e-03 5.22648077e-03 1.21951224e-02 0.
      8.71080160e-03 1.21951224e-02 0. 1.74216030e-03 0. 0.
      1.74216030e-03 0. 1.39372824e-02 0. 0. 0. 0. 1.74216030e-03 0. 0.
      0. 0. 0. 0. 0. 0. 0. 0. 3.48432059e-03 0. 0. 0. 0. 0. 0. 0. 0.
      1.39372824e-02 0. 0. 0. 0. 0. 0. 0. 5.22648077e-03 0. 0. 0. 0. 0.
      0.</_>
    <_>
      0. 0. 3.61111104e-01 8.88888896e-01 9.72222209e-01 1. 1. 1. 1. 1.
      1. 1. 1. 1. 1. 1. 0. 0. 0. 0. 0. 0. 0. 0. 0. 0. 0. 7.77777791e-01
      9.72222209e-01 7.50000000e-01 2.22222224e-01 6.38888896e-01
      6.38888896e-01 4.44444448e-01 6.66666687e-01 6.38888896e-01
      4.16666657e-01 6.11111104e-01 2.77777791e-01 1.11111112e-01
      1.11111112e-01 2.50000000e-01 6.11111104e-01 7.77777791e-01
      6.94444478e-01 5.55555582e-01 7.50000000e-01 6.38888896e-01
      5.27777791e-01 2.50000000e-01 1.66666672e-01 1.66666672e-01
      1.66666672e-01 1.66666672e-01 1.66666672e-01 6.66666687e-01
      7.50000000e-01 5.83333313e-01 3.61111104e-01 3.88888896e-01
      3.88888896e-01 6.66666687e-01 7.77777791e-01 6.94444478e-01
      1.94444448e-01 4.72222239e-01 7.50000000e-01 8.61111104e-01
      4.44444448e-01 3.88888896e-01 4.16666657e-01 5.27777791e-01
      8.05555582e-01 7.50000000e-01 1.94444448e-01 2.50000000e-01
      7.50000000e-01 8.33333313e-01 4.16666657e-01 3.61111104e-01
      3.88888896e-01 4.44444448e-01 8.05555582e-01 7.50000000e-01
      3.88888896e-01 2.22222224e-01 6.66666687e-01 8.61111104e-01
      5.83333313e-01 4.72222239e-01 3.88888896e-01 4.16666657e-01
      8.33333313e-01 7.50000000e-01 4.16666657e-01 1.38888896e-01
      1.66666672e-01 1.66666672e-01 1.38888896e-01 7.22222209e-01
      8.88888896e-01 4.72222239e-01 1.38888896e-01 1.66666672e-01
      2.22222224e-01 7.77777791e-01 1. 6.11111104e-01 1.11111112e-01 0.
      0. 0. 0. 0. 0. 0. 0. 0. 8.33333313e-01 8.88888896e-01
      8.88888896e-01 8.88888896e-01 8.88888896e-01 8.88888896e-01
      8.88888896e-01 8.88888896e-01 8.88888896e-01 8.61111104e-01
      8.61111104e-01 8.33333313e-01 7.77777791e-01 5.83333313e-01 0. 0.
      0. 0. 9.15887833e-01 9.99999940e-01 9.53270972e-01 8.78504634e-01
      7.47663498e-01 3.83177549e-01 3.73831749e-01 4.48598117e-01
      5.23364484e-01 5.14018655e-01 6.26168191e-01 6.26168191e-01
      6.26168191e-01 5.51401854e-01 5.32710254e-01 5.98130822e-01
      5.98130822e-01 6.07476592e-01 6.07476592e-01 5.98130822e-01
      5.98130822e-01 5.88785052e-01 6.16822422e-01 5.98130822e-01
      5.70093453e-01 5.79439223e-01 6.16822422e-01 5.98130822e-01
      6.35514021e-01 7.00934529e-01 6.44859791e-01 5.70093453e-01
      3.73831749e-01 4.76635486e-01 6.07476592e-01 7.38317728e-01
      9.09090936e-02 0. 0. 0. 0. 0. 0. 0. 0. 0. 0. 0. 0. 0. 0. 0. 0. 0.
      0. 0. 0. 0. 0. 0. 0. 0. 0. 0. 0. 0. 1.05401846e-02 0. 0. 0. 0. 0.
      0. 0. 0. 0. 0. 0. 0. 0. 0. 0. 0. 0. 0. 0. 3.95256933e-03 0. 0. 0.
      0. 0. 0. 0. 0. 0. 0. 0. 0. 0. 0. 0. 0. 0. 0. 0. 0. 0. 0. 0. 0.
      2.63504609e-02 0. 0. 0. 0. 0. 0. 0. 9.22266115e-03 0. 0. 0. 0. 0.
      0. 1.71278007e-02 0. 0. 0. 0. 1.31752307e-03 2.23978925e-02
      2.63504614e-03 7.90513866e-03 0. 0. 1.97628457e-02 2.63504614e-03
      9.22266170e-02 1.18577080e-02 4.34782617e-02 8.43214765e-02
      8.56389999e-02 5.53359687e-02 3.35968375e-01 2.88537562e-01
      4.78260875e-01 6.06060624e-01 4.55862969e-01 1. 6.46903813e-01
      6.50856376e-01 1.72595516e-01 9.48616639e-02 6.85112029e-02
      5.84980249e-01 1.18577080e-02 6.06060624e-02 3.42556015e-02
      7.50988126e-02 1.42292485e-01 1.43610016e-01 0. 7.90513866e-03
      1.31752307e-03 2.63504614e-03 0. 0. 0. 0. 0. 0. 0. 0. 0. 0. 0. 0.
      0. 0. 0. 0. 0. 0. 0. 0. 0. 0. 0. 0. 0. 0. 0. 0. 0. 0. 0. 0. 0. 0.
      0. 0. 0. 0. 0. 0. 0. 0. 0. 0. 0. 0. 0. 0. 0.</_>
    <_>
      2.77777791e-01 6.66666687e-01 7.50000000e-01 4.72222239e-01
      1.66666672e-01 8.33333358e-02 0. 8.33333358e-02 1.11111112e-01
      1.38888896e-01 1.11111112e-01 5.55555560e-02 8.33333358e-02
      1.66666672e-01 3.05555552e-01 5.00000000e-01 7.50000000e-01
      8.33333313e-01 9.16666687e-01 9.16666687e-01 9.16666687e-01
      8.05555582e-01 4.72222239e-01 2.22222224e-01 0. 0. 0.
      1.66666672e-01 1.66666672e-01 8.33333358e-02 1.66666672e-01
      2.77777791e-01 3.33333343e-01 5.00000000e-01 6.11111104e-01
      7.22222209e-01 8.61111104e-01 9.44444478e-01 9.16666687e-01
      8.05555582e-01 8.05555582e-01 8.05555582e-01 8.88888896e-01
      9.44444478e-01 6.94444478e-01 4.16666657e-01 1.11111112e-01
      8.33333358e-02 8.33333358e-02 8.33333358e-02 2.50000000e-01
      4.44444448e-01 5.83333313e-01 5.83333313e-01 6.11111104e-01
      6.11111104e-01 6.38888896e-01 6.38888896e-01 6.94444478e-01
      7.50000000e-01 9.16666687e-01 9.16666687e-01 9.44444478e-01
      8.61111104e-01 8.33333313e-01 8.33333313e-01 8.05555582e-01
      8.05555582e-01 8.33333313e-01 8.33333313e-01 4.72222239e-01
      2.77777791e-01 1.11111112e-01 1.11111112e-01 1.38888896e-01
      2.77777791e-01 6.11111104e-01 7.50000000e-01 1. 1. 1. 1. 1. 1. 1.
      1. 8.33333313e-01 3.61111104e-01 1.11111112e-01 8.33333358e-02
      1.38888896e-01 2.50000000e-01 5.55555582e-01 1. 9.72222209e-01
      9.72222209e-01 1. 1. 1. 7.77777791e-01 5.55555582e-01
      3.05555552e-01 2.22222224e-01 1.38888896e-01 1.38888896e-01
      2.50000000e-01 3.33333343e-01 3.61111104e-01 3.88888896e-01
      4.16666657e-01 4.16666657e-01 3.05555552e-01 3.88888896e-01
      4.16666657e-01 5.27777791e-01 8.05555582e-01 9.72222209e-01
      9.72222209e-01 6.11111104e-01 3.05555552e-01 1.94444448e-01
      1.66666672e-01 1.66666672e-01 3.88888896e-01 4.44444448e-01
      5.00000000e-01 5.00000000e-01 3.61111104e-01 1.94444448e-01
      1.38888896e-01 1.94444448e-01 2.50000000e-01 6.66666687e-01
      7.77777791e-01 6.38888896e-01 3.05555552e-01 5.26881695e-01
      5.91397822e-01 5.37634432e-01 5.16129017e-01 5.59139788e-01
      6.88172042e-01 7.84946263e-01 7.95698941e-01 7.84946263e-01
      8.27956975e-01 8.49462390e-01 7.84946263e-01 7.74193525e-01
      7.31182814e-01 7.63440847e-01 7.41935492e-01 7.09677398e-01
      7.84946263e-01 7.74193525e-01 7.52688169e-01 7.09677398e-01
      7.31182814e-01 7.20430136e-01 7.84946263e-01 8.06451619e-01
      7.41935492e-01 7.41935492e-01 7.09677398e-01 7.41935492e-01
      7.52688169e-01 8.17204297e-01 9.13978517e-01 9.46236551e-01 1.
      9.56989229e-01 8.17204297e-01 6.41482556e-03 0. 7.12758396e-04
      4.27655037e-03 4.27655037e-03 7.12758396e-03 4.27655037e-03
      5.70206717e-03 5.70206717e-03 1.06913764e-02 1.28296511e-02
      1.92444772e-02 2.13827528e-02 2.85103358e-02 3.49251628e-02
      4.56165373e-02 5.70206717e-02 1.29722029e-01 1.43977195e-01
      3.65645051e-01 6.87099099e-01 1. 6.17248774e-01 1.62508920e-01
      4.77548130e-02 1.14041343e-02 1.78189594e-02 5.70206717e-03
      1.42551679e-03 4.98930877e-03 1.14041343e-02 1.42551679e-03
      1.42551679e-03 7.12758396e-04 1.42551679e-03 3.56379198e-03
      7.12758396e-04 0. 7.12758396e-04 7.12758396e-04 7.12758396e-04 0.
      7.12758396e-04 0. 0. 7.12758396e-04 0. 0. 0. 0. 0. 0. 0. 0. 0. 0.
      0. 0. 0. 0. 1.42551679e-03 0. 0. 0. 0. 0. 0. 0. 0. 0. 0. 0. 0. 0.
      0. 0. 0. 0. 0. 0. 0. 0. 0. 0. 0. 0. 0. 0. 0. 0. 0. 0. 0. 0. 0. 0.
      0. 0. 0. 0. 0. 0. 0. 0. 0. 0. 0. 0. 0. 0. 0. 0. 0. 0. 0. 0. 0. 0.
      0. 0. 0. 0. 0. 0. 0. 0. 0. 0. 0. 0. 0. 0. 0. 0. 0. 0. 0. 0. 0. 0.
      0. 0. 0. 0. 0. 0. 0. 0. 0. 0. 0. 0. 0. 0. 0. 0. 0. 0. 0. 0. 0. 0.
      0. 0. 0. 0. 0. 0. 0. 0. 0. 0. 0. 0. 0. 0. 0. 0. 0. 0.</_>
    <_>
      1. 1. 1. 3.05555552e-01 3.33333343e-01 9.16666687e-01
      9.16666687e-01 9.44444478e-01 9.16666687e-01 4.72222239e-01
      3.61111104e-01 3.33333343e-01 4.16666657e-01 5.00000000e-01
      4.16666657e-01 3.61111104e-01 3.61111104e-01 4.72222239e-01
      3.88888896e-01 5.00000000e-01 6.66666687e-01 8.33333313e-01
      8.33333313e-01 8.33333313e-01 8.05555582e-01 2.50000000e-01
      2.50000000e-01 2.77777791e-01 5.55555582e-01 5.00000000e-01
      5.27777791e-01 5.00000000e-01 5.00000000e-01 3.05555552e-01
      1.11111112e-01 5.55555560e-02 5.55555560e-02 5.55555560e-02
      5.55555582e-01 6.94444478e-01 8.33333313e-01 8.61111104e-01
      8.33333313e-01 8.33333313e-01 8.05555582e-01 8.05555582e-01
      8.05555582e-01 7.77777791e-01 2.77777791e-01 1.94444448e-01
      3.05555552e-01 7.22222209e-01 7.50000000e-01 7.50000000e-01
      7.50000000e-01 7.77777791e-01 7.77777791e-01 7.50000000e-01
      3.33333343e-01 2.22222224e-01 3.33333343e-01 8.88888896e-01
      8.61111104e-01 8.33333313e-01 7.22222209e-01 3.88888896e-01
      3.61111104e-01 5.27777791e-01 6.11111104e-01 6.38888896e-01
      6.38888896e-01 6.66666687e-01 6.38888896e-01 5.83333313e-01
      4.72222239e-01 3.88888896e-01 4.16666657e-01 7.77777791e-01
      8.33333313e-01 8.05555582e-01 8.61111104e-01 7.22222209e-01
      5.55555582e-01 4.72222239e-01 5.55555582e-01 5.00000000e-01
      5.00000000e-01 5.27777791e-01 5.27777791e-01 5.55555582e-01
      5.27777791e-01 5.27777791e-01 6.11111104e-01 7.22222209e-01
      8.33333313e-01 8.33333313e-01 8.05555582e-01 6.94444478e-01
      3.88888896e-01 1.11111112e-01 8.33333358e-02 1.94444448e-01
      3.05555552e-01 3.61111104e-01 3.61111104e-01 4.44444448e-01
      4.16666657e-01 3.05555552e-01 3.05555552e-01 3.88888896e-01
      7.50000000e-01 8.33333313e-01 8.33333313e-01 8.33333313e-01
      6.66666687e-01 4.44444448e-01 3.61111104e-01 3.05555552e-01
      4.44444448e-01 5.27777791e-01 6.11111104e-01 5.55555582e-01
      5.27777791e-01 3.05555552e-01 2.50000000e-01 3.33333343e-01
      6.11111104e-01 9.16666687e-01 9.16666687e-01 8.88888896e-01
      1.38888896e-01 1.66666672e-01 2.22222224e-01 1. 1. 1.
      9.52381045e-02 7.93650821e-02 1.58730164e-01 8.57142925e-01
      8.80952418e-01 8.88888955e-01 7.38095284e-01 6.50793672e-01
      5.39682567e-01 5.95238149e-01 5.95238149e-01 6.34920657e-01
      6.98412716e-01 6.58730209e-01 6.19047642e-01 5.63492119e-01
      4.68254000e-01 4.60317492e-01 6.42857194e-01 6.66666687e-01
      6.90476239e-01 6.74603224e-01 6.58730209e-01 6.19047642e-01
      5.55555582e-01 6.34920657e-01 7.38095284e-01 9.36508000e-01
      9.28571463e-01 9.12698448e-01 4.28571463e-01 1.11111119e-01
      1.26984134e-01 5.79365134e-01 1. 9.36508000e-01 0. 0. 0. 0. 0. 0.
      0. 0. 0. 0. 0. 0. 0. 0. 0. 0. 6.93374453e-03 2.15716492e-02
      2.08012331e-02 1.41756549e-01 3.38983059e-01 7.08012342e-01 1.
      6.80277348e-01 2.82742679e-01 8.47457647e-02 1.97996929e-01
      7.16486946e-02 6.00924529e-02 4.31432985e-02 3.38983051e-02
      1.61787365e-02 2.08012331e-02 1.54083213e-02 9.24499240e-03
      1.15562407e-02 0. 0. 0. 3.85208032e-03 0. 0. 0. 0. 0.
      1.54083211e-03 0. 0. 7.70416053e-04 0. 0. 0. 0. 0. 0. 0. 0. 0. 0.
      0. 0. 0. 0. 0. 0. 0. 0. 0. 0. 0. 0. 0. 0. 0. 0. 0. 0. 0. 0. 0. 0.
      0. 0. 0. 0. 0. 0. 0. 0. 0. 0. 0. 0. 0. 0. 0. 0. 0. 0. 0. 0. 0. 0.
      0. 0. 0. 0. 0. 0. 0. 0. 0. 0. 0. 0. 0. 0. 0. 0. 0. 0. 0. 0. 0. 0.
      0. 0. 0. 0. 0. 0. 0. 0. 0. 0. 0. 0. 0. 0. 0. 0. 0. 0. 0. 0. 0. 0.
      0. 0. 0. 0. 0. 0. 0. 0. 0. 0. 0. 0. 0. 0. 0. 0. 0. 0. 0. 0. 0. 0.
      0. 0. 0. 0. 0. 0. 0. 0. 0. 0. 0.</_>
    <_>
      0. 0. 0. 0. 6.66666701e-02 2.66666681e-01 2.66666681e-01
      2.66666681e-01 4.66666698e-01 7.00000048e-01 7.33333349e-01
      8.33333373e-01 8.33333373e-01 7.66666710e-01 7.66666710e-01
      7.66666710e-01 8.00000072e-01 8.00000072e-01 7.66666710e-01
      7.33333349e-01 5.00000000e-01 2.33333349e-01 1.66666672e-01
      4.66666698e-01 8.33333373e-01 8.00000072e-01 8.00000072e-01
      8.00000072e-01 8.33333373e-01 5.33333361e-01 3.33333343e-01
      3.33333343e-01 4.00000036e-01 4.33333367e-01 4.66666698e-01
      6.66666687e-01 8.00000072e-01 7.33333349e-01 7.33333349e-01
      4.66666698e-01 4.66666698e-01 5.00000000e-01 6.00000024e-01
      6.33333385e-01 6.00000024e-01 5.33333361e-01 5.66666722e-01
      7.00000048e-01 8.33333373e-01 8.00000072e-01 9.00000036e-01
      9.00000036e-01 9.00000036e-01 8.33333373e-01 7.00000048e-01
      7.33333349e-01 6.66666687e-01 6.66666687e-01 7.00000048e-01
      7.00000048e-01 7.33333349e-01 7.66666710e-01 6.33333385e-01
      6.33333385e-01 8.33333373e-01 8.66666734e-01 9.00000036e-01
      9.66666698e-01 9.33333397e-01 9.00000036e-01 9.33333397e-01
      9.33333397e-01 1. 8.33333373e-01 8.00000072e-01 9.00000036e-01
      8.33333373e-01 6.33333385e-01 4.00000036e-01 8.00000072e-01
      9.33333397e-01 9.00000036e-01 9.66666698e-01 9.33333397e-01
      9.66666698e-01 9.66666698e-01 6.66666687e-01 7.00000048e-01
      8.00000072e-01 9.66666698e-01 9.33333397e-01 9.33333397e-01
      8.33333373e-01 9.00000036e-01 6.33333385e-01 4.66666698e-01
      5.33333361e-01 7.00000048e-01 7.66666710e-01 8.66666734e-01
      9.33333397e-01 1. 9.33333397e-01 9.00000036e-01 9.33333397e-01 1.
      9.66666698e-01 9.33333397e-01 8.00000072e-01 7.33333349e-01
      6.33333385e-01 6.00000024e-01 6.00000024e-01 6.66666687e-01
      8.33333373e-01 6.33333385e-01 7.00000048e-01 9.33333397e-01
      9.33333397e-01 9.33333397e-01 9.00000036e-01 8.00000072e-01
      7.66666710e-01 4.33333367e-01 3.33333351e-02 6.66666701e-02
      1.00000009e-01 1.66666672e-01 2.00000018e-01 2.33333349e-01 0. 0.
      0. 0. 0. 0. 8.15533996e-01 1. 9.61165071e-01 7.76699066e-01
      6.21359229e-01 7.47572839e-01 9.12621379e-01 9.80582535e-01
      9.80582535e-01 9.61165071e-01 9.51456308e-01 8.54368925e-01
      8.93203914e-01 9.51456308e-01 9.12621379e-01 9.41747606e-01
      9.80582535e-01 9.61165071e-01 9.12621379e-01 8.54368925e-01
      8.44660223e-01 8.73786390e-01 9.61165071e-01 9.41747606e-01
      8.93203914e-01 7.47572839e-01 5.82524300e-01 3.98058265e-01
      2.71844655e-01 4.17475730e-01 4.46601957e-01 2.13592231e-01
      6.79611638e-02 0. 0. 0. 1. 1.44781142e-01 1.91919193e-01
      1.91919193e-01 2.49158248e-01 5.35353541e-01 7.30639696e-01
      1.07744105e-01 3.63636345e-01 1.98653191e-01 1.17845118e-01
      4.27609414e-01 1.04377098e-01 5.45454562e-01 9.76430923e-02
      1.24579124e-01 1.24579124e-01 5.72390556e-02 1.68350171e-02
      1.07744105e-01 7.20538676e-01 9.42760929e-02 3.03030293e-02
      3.36700343e-02 1.54882148e-01 6.06060587e-02 1.34680131e-02 0. 0.
      0. 4.14141417e-01 0. 3.36700329e-03 0. 1.68350171e-02
      8.41750801e-02 1.21212117e-01 0. 6.73400657e-03 3.36700329e-03
      1.01010101e-02 0. 6.39730617e-02 3.36700343e-02 0. 0. 0. 0. 0. 0.
      1.61616161e-01 2.69360263e-02 1.01010101e-02 0. 0. 1.68350171e-02
      1.01010101e-02 3.36700329e-03 0. 0. 3.70370373e-02 0. 0. 0. 0.
      6.73400657e-03 1.21212117e-01 0. 3.36700329e-03 3.36700329e-03
      2.69360263e-02 1.01010101e-02 0. 3.03030293e-02 3.70370373e-02
      3.40067327e-01 2.02020202e-02 6.73400657e-03 0. 2.02020202e-02
      2.49158248e-01 3.36700329e-03 1.01010101e-02 1.17845118e-01
      6.06060587e-02 6.06060587e-02 0. 1.41414136e-01 3.03030293e-02
      1.34680131e-02 2.76094258e-01 5.72390556e-02 7.07070678e-02
      1.04377098e-01 5.38720526e-02 2.92929292e-01 3.83838385e-01
      5.72390556e-02 3.40067327e-01 1.64983168e-01 1.44781142e-01
      4.88215476e-01 1.38047129e-01 4.68013465e-01 1.58249155e-01
      1.81818172e-01 1.51515141e-01 5.05050495e-02 3.70370373e-02
      9.76430923e-02 3.13131303e-01 1.21212117e-01 3.36700343e-02
      3.70370373e-02 1.48148149e-01 1.21212117e-01 2.35690232e-02 0. 0.
      3.36700329e-03 3.50168347e-01 0. 0. 0. 3.36700343e-02
      8.08080807e-02 1.95286185e-01 0. 6.73400657e-03 0. 3.03030293e-02
      0. 8.08080807e-02 5.05050495e-02 0. 0. 0. 0. 1.01010101e-02 0.
      1.44781142e-01 2.02020202e-02 6.73400657e-03 0. 0. 4.71380465e-02
      1.01010101e-02 0. 0. 0. 4.04040404e-02 0. 3.36700329e-03
      1.34680131e-02 0. 1.01010101e-02 1.54882148e-01 0. 2.35690232e-02
      6.73400657e-03 7.40740746e-02 0. 6.73400657e-03 3.03030293e-02
      2.69360263e-02 3.26599330e-01 3.36700343e-02 6.73400657e-03
      6.73400657e-03 4.71380465e-02 2.25589216e-01 6.73400657e-03
      1.34680131e-02 2.52525240e-01 5.05050495e-02 9.42760929e-02
      6.06060587e-02 2.96296299e-01 1.04377098e-01 1.01010099e-01</_>
    <_>
      1. 5.99999964e-01 3.59999985e-01 1.59999996e-01 2.80000001e-01
      3.99999976e-01 5.60000002e-01 5.99999964e-01 5.60000002e-01
      6.80000007e-01 6.80000007e-01 3.99999976e-01 4.79999989e-01
      5.60000002e-01 6.80000007e-01 7.19999969e-01 2.80000001e-01
      1.59999996e-01 1.59999996e-01 7.99999982e-02 3.59999985e-01
      6.80000007e-01 9.19999957e-01 7.99999952e-01 4.79999989e-01
      4.39999998e-01 5.19999981e-01 5.99999964e-01 6.39999986e-01
      6.80000007e-01 5.19999981e-01 4.79999989e-01 7.99999952e-01
      7.19999969e-01 5.60000002e-01 2.39999995e-01 3.99999991e-02
      7.99999982e-02 7.99999982e-02 1.19999997e-01 1.19999997e-01 0. 0.
      0. 0. 2.39999995e-01 3.19999993e-01 3.59999985e-01 3.19999993e-01
      3.99999976e-01 4.39999998e-01 4.79999989e-01 5.19999981e-01
      6.39999986e-01 6.80000007e-01 8.39999974e-01 7.19999969e-01
      5.60000002e-01 1.99999988e-01 0. 0. 0. 3.99999976e-01
      7.59999990e-01 9.19999957e-01 6.80000007e-01 3.19999993e-01
      3.59999985e-01 3.99999976e-01 4.39999998e-01 3.99999976e-01
      3.59999985e-01 4.39999998e-01 7.99999952e-01 8.39999974e-01
      7.19999969e-01 3.19999993e-01 0. 0. 2.80000001e-01 5.99999964e-01
      8.79999995e-01 7.99999952e-01 6.39999986e-01 3.59999985e-01
      2.39999995e-01 2.80000001e-01 2.39999995e-01 2.39999995e-01
      2.80000001e-01 2.39999995e-01 3.19999993e-01 4.79999989e-01
      3.99999976e-01 3.19999993e-01 0. 0. 3.99999991e-02 3.59999985e-01
      5.19999981e-01 7.99999952e-01 7.19999969e-01 7.99999952e-01
      5.60000002e-01 3.99999976e-01 3.19999993e-01 3.59999985e-01
      4.79999989e-01 5.99999964e-01 7.99999952e-01 8.39999974e-01
      6.39999986e-01 2.39999995e-01 0. 0. 0. 0. 0. 3.19999993e-01
      4.79999989e-01 5.99999964e-01 4.79999989e-01 4.79999989e-01
      4.79999989e-01 3.99999976e-01 3.99999976e-01 4.79999989e-01
      4.79999989e-01 5.19999981e-01 6.39999986e-01 5.19999981e-01
      3.59999985e-01 3.99999991e-02 3.99999991e-02 2.80000001e-01
      2.80000001e-01 2.90909082e-01 2.54545450e-01 2.90909082e-01
      6.36363626e-01 5.27272701e-01 5.99999964e-01 6.54545426e-01
      8.54545414e-01 9.27272677e-01 8.90909076e-01 8.90909076e-01
      8.18181813e-01 8.36363614e-01 9.27272677e-01 9.45454538e-01
      7.99999952e-01 7.45454550e-01 8.54545414e-01 9.81818140e-01
      9.99999940e-01 9.99999940e-01 9.81818140e-01 8.90909076e-01
      8.72727275e-01 7.45454550e-01 7.45454550e-01 7.09090889e-01
      5.99999964e-01 6.18181825e-01 5.63636363e-01 4.90909070e-01
      5.99999964e-01 4.18181807e-01 2.90909082e-01 5.45454502e-01
      8.90909076e-01 2.11864407e-03 0. 0. 0. 0. 0. 7.06214691e-04 0. 0.
      0. 0. 0. 0. 0. 0. 0. 0. 0. 0. 0. 7.06214691e-04 0. 7.06214691e-04
      1.41242938e-03 4.23728814e-03 1.41242938e-03 0. 0. 0. 0.
      9.18079074e-03 0. 0. 0. 0. 2.11864407e-03 2.82485876e-03 0. 0. 0.
      0. 0. 6.35593198e-03 2.11864407e-03 0. 0. 0. 0. 0. 0.
      2.11864407e-03 1.41242938e-03 0. 0. 0. 2.11864407e-03 0. 0. 0. 0.
      1.41242938e-03 0. 0. 0. 0. 0. 2.11864407e-03 0. 0. 0.
      7.06214691e-04 0. 0. 0. 0. 3.53107345e-03 0. 0. 0. 0.
      1.41242938e-03 0. 0. 3.53107345e-03 0. 0. 0. 1.41242938e-03 0. 0.
      5.64971752e-03 0. 7.06214691e-04 1.41242938e-03 0. 4.23728814e-03
      9.18079074e-03 7.06214691e-04 1.20056495e-02 2.11864407e-03
      4.94350307e-03 1.69491526e-02 3.10734473e-02 4.94350269e-02
      1.60310730e-01 7.19632745e-01 1. 6.31355941e-01 3.20621461e-01
      1.59604520e-01 8.33333358e-02 5.57909608e-02 3.95480245e-02
      1.05932206e-02 1.97740123e-02 9.88700613e-03 1.20056495e-02 0.
      1.41242938e-03 7.06214691e-04 1.55367237e-02 0. 7.06214691e-04 0.
      2.11864407e-03 4.94350307e-03 4.23728814e-03 0. 7.06214691e-04 0.
      0. 0. 5.64971752e-03 2.11864407e-03 0. 0. 0. 0. 0. 0.
      1.41242938e-03 0. 0. 0. 0. 1.41242938e-03 0. 0. 0. 0. 0. 0. 0. 0.
      0. 0. 7.06214691e-04 0. 0. 0. 0. 0. 0. 0. 0. 1.41242938e-03 0. 0.
      0. 0. 0. 0. 0. 0. 0. 0. 0. 0. 0. 0.</_>
    <_>
      0. 0. 0. 2.66666681e-01 6.00000024e-01 6.66666701e-02 0.
      5.00000000e-01 6.33333385e-01 6.33333385e-01 6.66666687e-01
      7.00000048e-01 5.66666722e-01 3.33333343e-01 4.33333367e-01
      7.66666710e-01 7.33333349e-01 5.66666722e-01 5.00000000e-01
      5.66666722e-01 5.66666722e-01 7.33333349e-01 7.33333349e-01
      7.33333349e-01 7.00000048e-01 7.33333349e-01 7.66666710e-01
      7.66666710e-01 7.33333349e-01 6.00000024e-01 5.66666722e-01
      7.00000048e-01 6.66666687e-01 5.33333361e-01 4.33333367e-01
      2.33333349e-01 6.66666701e-02 3.66666675e-01 5.33333361e-01
      6.00000024e-01 6.33333385e-01 6.66666687e-01 6.66666687e-01
      6.00000024e-01 4.33333367e-01 2.66666681e-01 6.33333385e-01
      7.66666710e-01 7.66666710e-01 7.33333349e-01 5.33333361e-01
      4.00000036e-01 6.33333385e-01 6.33333385e-01 6.66666687e-01
      7.00000048e-01 7.33333349e-01 7.66666710e-01 8.00000072e-01
      6.66666687e-01 7.33333349e-01 4.66666698e-01 6.33333385e-01
      6.66666687e-01 7.66666710e-01 7.33333349e-01 9.66666698e-01 1.
      9.00000036e-01 8.33333373e-01 8.00000072e-01 8.33333373e-01
      9.00000036e-01 8.66666734e-01 7.33333349e-01 8.00000072e-01
      6.00000024e-01 4.33333367e-01 5.33333361e-01 7.00000048e-01
      8.66666734e-01 9.33333397e-01 9.00000036e-01 9.00000036e-01
      6.33333385e-01 6.66666687e-01 7.33333349e-01 7.00000048e-01
      8.33333373e-01 7.66666710e-01 7.66666710e-01 6.33333385e-01
      5.00000000e-01 1.33333340e-01 2.66666681e-01 5.33333361e-01
      6.33333385e-01 8.00000072e-01 6.00000024e-01 6.00000024e-01
      7.33333349e-01 7.00000048e-01 5.00000000e-01 3.33333343e-01
      5.66666722e-01 7.66666710e-01 8.66666734e-01 8.66666734e-01
      6.00000024e-01 3.66666675e-01 2.00000018e-01 2.00000018e-01
      4.00000036e-01 8.66666734e-01 9.00000036e-01 9.33333397e-01
      5.33333361e-01 1.66666672e-01 6.66666701e-02 5.00000000e-01
      5.66666722e-01 5.66666722e-01 5.33333361e-01 4.00000036e-01
      3.00000012e-01 2.33333349e-01 1.66666672e-01 0. 3.33333351e-02
      5.33333361e-01 4.00000036e-01 0. 0. 0. 0. 0. 9.99999978e-03 0. 0.
      0. 1.99999996e-02 1.40000001e-01 2.09999993e-01 4.49999988e-01
      7.40000010e-01 8.39999974e-01 9.19999957e-01 9.89999950e-01 1.
      9.79999959e-01 9.79999959e-01 9.79999959e-01 9.30000007e-01
      9.79999959e-01 9.79999959e-01 9.79999959e-01 9.69999969e-01
      9.89999950e-01 9.39999998e-01 9.09999967e-01 8.39999974e-01
      8.10000002e-01 7.99999952e-01 7.69999981e-01 7.09999979e-01
      6.20000005e-01 4.59999979e-01 3.59999985e-01 3.79999995e-01
      3.79999995e-01 3.79999995e-01 3.79999995e-01 4.75884229e-01 0. 0.
      0. 0. 0. 8.03858507e-03 0. 0. 0. 0. 0. 0. 8.03858507e-03 0.
      3.21543403e-03 0. 0. 0. 3.21543403e-03 4.01929244e-02 0. 0. 0.
      1.92926042e-02 3.21543403e-03 0. 0. 0. 0. 9.00321528e-02 0. 0. 0.
      3.21543403e-03 8.03858507e-03 2.25080382e-02 0. 3.21543403e-03 0.
      3.21543403e-03 0. 1.28617361e-02 3.21543403e-03 0. 1.60771701e-03
      0. 0. 0. 0. 5.78778125e-02 4.82315104e-03 0. 0. 0. 4.82315104e-03
      1.60771701e-03 0. 0. 0. 2.41157562e-02 0. 0. 0. 0. 0.
      1.92926042e-02 0. 0. 0. 0. 0. 0. 0. 0. 1.28617361e-01 0. 0. 0. 0.
      1.60771701e-02 0. 0. 5.62700965e-02 0. 0. 0. 3.21543403e-03 0. 0.
      4.18006405e-02 0. 0. 1.60771701e-03 1.60771701e-03 6.43086806e-03
      5.94855286e-02 1.60771701e-03 2.89389063e-02 8.03858507e-03
      8.03858507e-03 6.27009645e-02 3.21543403e-02 2.33118966e-01
      9.64630246e-02 1.75241157e-01 3.61736327e-01 5.78778148e-01
      6.28617346e-01 1. 8.10289383e-01 5.94855309e-01 4.66237932e-01
      2.10610926e-01 2.74919599e-01 1.46302253e-01 1.72025725e-01
      9.64630209e-03 1.60771701e-02 1.60771701e-03 3.69774908e-01 0.
      1.28617361e-02 0. 3.85852084e-02 4.01929244e-02 1.07717037e-01 0.
      3.21543403e-03 0. 1.12540191e-02 0. 2.25080382e-02 1.60771701e-02
      0. 1.60771701e-02 0. 0. 0. 0. 6.75241128e-02 6.43086806e-03 0. 0.
      1.60771701e-03 8.03858507e-03 0. 0. 0. 0. 3.21543403e-03 0. 0. 0.
      0. 0. 2.25080382e-02 0. 1.60771701e-03 0. 4.82315104e-03 0. 0. 0.
      0. 5.30546606e-02 0. 0. 0. 0. 0. 0. 0. 9.64630209e-03 0. 0. 0. 0.
      0. 0.</_>
    <_>
      0. 1.99999988e-01 0. 0. 0. 1.19999997e-01 6.80000007e-01
      7.19999969e-01 5.60000002e-01 4.79999989e-01 4.79999989e-01
      5.60000002e-01 6.80000007e-01 6.39999986e-01 7.19999969e-01
      3.59999985e-01 0. 0. 0. 0. 5.99999964e-01 7.59999990e-01
      8.39999974e-01 3.59999985e-01 2.39999995e-01 1.99999988e-01
      3.59999985e-01 4.39999998e-01 3.59999985e-01 4.39999998e-01 1.
      8.39999974e-01 5.99999964e-01 0. 0. 0. 0. 1.19999997e-01
      3.99999991e-02 0. 0. 0. 0. 3.59999985e-01 6.80000007e-01
      8.79999995e-01 5.99999964e-01 4.39999998e-01 4.39999998e-01
      3.59999985e-01 4.39999998e-01 5.60000002e-01 8.79999995e-01
      7.99999952e-01 5.19999981e-01 3.99999991e-02 3.99999991e-02
      3.99999991e-02 3.99999991e-02 3.99999991e-02 3.99999991e-02
      3.99999991e-02 3.99999991e-02 5.60000002e-01 1. 1. 5.99999964e-01
      3.99999991e-02 3.99999991e-02 3.99999991e-02 3.99999991e-02
      3.99999991e-02 3.99999991e-02 3.99999991e-02 3.99999991e-02
      3.99999991e-02 3.99999991e-02 3.99999991e-02 0. 7.19999969e-01 1.
      1. 3.19999993e-01 3.99999991e-02 3.99999991e-02 0. 0. 0. 0. 0. 0.
      7.19999969e-01 7.99999952e-01 7.59999990e-01 2.39999995e-01
      2.39999995e-01 2.39999995e-01 2.39999995e-01 2.39999995e-01
      2.39999995e-01 4.39999998e-01 4.39999998e-01 2.80000001e-01 0. 0.
      0. 0. 1.59999996e-01 3.59999985e-01 4.39999998e-01 4.79999989e-01
      4.79999989e-01 4.79999989e-01 4.79999989e-01 4.79999989e-01
      5.60000002e-01 4.39999998e-01 3.99999976e-01 2.80000001e-01 0. 0.
      3.99999991e-02 2.80000001e-01 0. 0. 0. 0. 0. 0. 0. 0. 0. 0. 0. 0.
      0. 1.78571437e-02 0. 0. 0. 5.35714328e-01 8.75000060e-01
      9.82142925e-01 6.96428597e-01 7.14285731e-01 6.42857194e-01
      6.42857194e-01 6.25000000e-01 6.25000000e-01 5.71428597e-01
      6.42857194e-01 5.17857194e-01 5.53571463e-01 6.07142866e-01
      4.64285731e-01 6.07142866e-01 6.78571463e-01 6.78571463e-01
      6.78571463e-01 6.78571463e-01 7.14285731e-01 1. 8.21428597e-01
      3.75000030e-01 3.57142873e-02 3.57142873e-02 1.78571437e-02
      3.57142873e-02 1.78571437e-02 7.14285731e-01 0. 0. 2.37154160e-02
      0. 0. 0. 0. 0. 0. 0. 0. 0. 0. 0. 0. 0. 0. 0. 0. 0. 0. 0. 0. 0. 0.
      0. 0. 0. 0. 0. 0. 0. 4.21607383e-02 0. 0. 0. 0. 0. 3.03030312e-02
      0. 0. 0. 0. 0. 8.43214765e-02 0. 0. 0. 0. 0. 0. 0. 6.06060624e-02
      0. 0. 0. 0. 0. 0. 0. 0. 0. 0. 0. 0. 0. 0. 0. 7.90513866e-03 0. 0.
      0. 0. 0. 0. 0. 0. 5.92885390e-02 0. 0. 0. 0. 0. 0. 0.
      1.97628457e-02 0. 0. 0. 0. 0. 0. 5.27009228e-03 0. 0. 0. 0.
      2.63504614e-03 1.05401846e-02 0. 5.27009228e-03 0. 0.
      2.50329375e-02 2.63504614e-03 2.89855078e-02 6.58761524e-03
      2.23978925e-02 2.50329375e-02 4.47957851e-02 7.37812892e-02
      1.76548094e-01 3.13570499e-01 2.27931485e-01 5.67852437e-01
      6.20553374e-01 6.90382063e-01 5.49407125e-01 1. 4.84848499e-01
      4.13702250e-01 2.81949937e-01 1.64690390e-01 1.27799734e-01
      6.58761561e-02 6.71936795e-02 3.55731212e-02 4.34782617e-02
      1.58102773e-02 1.31752305e-02 3.95256933e-03 0. 5.27009228e-03 0.
      0. 0. 0. 0. 0. 0. 0. 0. 0. 0. 0. 0. 0. 0. 0. 0. 0. 0. 0. 0. 0. 0.
      0. 0. 0. 0. 0. 0. 0. 0. 0. 0. 0. 0. 0. 0. 0. 0. 0. 0. 0. 0. 0. 0.
      0. 0. 0. 0.</_>
    <_>
      7.22222209e-01 9.44444478e-01 1. 1. 9.16666687e-01 5.00000000e-01
      3.05555552e-01 7.77777791e-01 8.05555582e-01 8.05555582e-01
      8.33333313e-01 8.33333313e-01 8.33333313e-01 8.88888896e-01
      8.88888896e-01 8.88888896e-01 8.61111104e-01 7.77777791e-01
      5.83333313e-01 4.44444448e-01 3.05555552e-01 0. 5.55555560e-02
      2.22222224e-01 4.44444448e-01 5.00000000e-01 6.11111104e-01
      7.50000000e-01 7.77777791e-01 8.05555582e-01 8.61111104e-01
      8.88888896e-01 9.16666687e-01 8.33333313e-01 6.66666687e-01
      5.83333313e-01 4.16666657e-01 1.66666672e-01 0. 0. 0. 0. 0.
      2.77777780e-02 0. 0. 8.33333313e-01 9.16666687e-01 8.88888896e-01
      8.61111104e-01 8.33333313e-01 8.05555582e-01 4.16666657e-01
      4.16666657e-01 5.00000000e-01 4.44444448e-01 5.55555582e-01
      5.00000000e-01 4.72222239e-01 4.16666657e-01 3.61111104e-01
      2.22222224e-01 5.55555560e-02 2.77777780e-02 1.94444448e-01
      2.50000000e-01 2.77777791e-01 2.77777791e-01 3.05555552e-01
      2.22222224e-01 1.94444448e-01 1.94444448e-01 2.50000000e-01
      4.72222239e-01 7.77777791e-01 8.05555582e-01 8.33333313e-01
      7.77777791e-01 7.22222209e-01 1.66666672e-01 0. 0. 0. 0. 0.
      5.83333313e-01 8.05555582e-01 8.61111104e-01 8.33333313e-01
      8.61111104e-01 8.05555582e-01 1.38888896e-01 0. 0. 0. 0. 0.
      8.33333358e-02 2.77777791e-01 4.16666657e-01 6.11111104e-01
      7.22222209e-01 8.05555582e-01 8.33333313e-01 7.50000000e-01
      7.50000000e-01 6.94444478e-01 7.50000000e-01 6.66666687e-01
      6.38888896e-01 5.55555582e-01 5.27777791e-01 3.61111104e-01
      1.38888896e-01 0. 1.66666672e-01 1.94444448e-01 2.50000000e-01
      2.22222224e-01 5.27777791e-01 6.66666687e-01 7.50000000e-01
      8.88888896e-01 8.61111104e-01 8.88888896e-01 6.11111104e-01
      4.72222239e-01 3.88888896e-01 3.05555552e-01 2.22222224e-01
      5.00000000e-01 1. 1. 9.44444478e-01 7.50000000e-01 3.88888896e-01
      4.88888890e-01 3.44444454e-01 6.11111104e-01 8.11111152e-01
      8.77777815e-01 9.44444478e-01 9.55555558e-01 9.88888919e-01 1.
      9.22222257e-01 8.33333373e-01 8.44444454e-01 8.33333373e-01
      8.11111152e-01 8.88888896e-01 9.00000036e-01 9.00000036e-01
      9.11111116e-01 9.00000036e-01 9.00000036e-01 9.11111116e-01
      8.55555594e-01 8.22222233e-01 8.00000012e-01 8.11111152e-01
      8.22222233e-01 8.33333373e-01 8.44444454e-01 8.44444454e-01
      8.11111152e-01 6.99999988e-01 5.77777803e-01 4.22222227e-01
      1.88888893e-01 1.33333340e-01 2.22222224e-01 1. 0. 4.02515717e-02
      1.09433964e-01 0. 3.00628930e-01 5.20754695e-01 0. 2.37735853e-01
      1.13207549e-02 7.54716992e-03 4.60377365e-01 0. 3.71069163e-01
      7.54716992e-02 1.25786162e-03 3.27044018e-02 0. 0. 4.27672938e-02
      2.77987421e-01 1.00628929e-02 0. 0. 9.68553424e-02 1.50943398e-02
      0. 0. 0. 0. 1.49685532e-01 0. 0. 0. 0. 0. 5.91194965e-02 0. 0. 0.
      0. 0. 2.51572318e-02 0. 0. 0. 0. 0. 0. 0. 5.91194965e-02 0. 0. 0.
      0. 0. 0. 0. 0. 0. 2.51572323e-03 0. 0. 0. 0. 0. 8.80503096e-03 0.
      0. 0. 0. 0. 0. 0. 0. 2.66666651e-01 0. 0. 0. 0. 1.13207549e-02 0.
      0. 2.26415098e-02 0. 0. 0. 0. 0. 0. 0. 0. 0. 0. 0. 0.
      3.14465389e-02 0. 0. 0. 0. 0. 0. 2.51572323e-03 0. 0. 0. 0. 0. 0.
      7.67295584e-02 0. 0. 0. 2.51572323e-03 0. 0. 0. 0. 0.
      1.72327042e-01 0. 0. 0. 0. 0. 7.54716992e-03 0. 0. 0. 0. 0. 0. 0.
      0. 1.25786162e-03 0. 0. 0. 0. 1.08176097e-01 0. 0. 0. 0. 0. 0. 0.
      0. 0. 0. 0. 0. 0. 0. 0. 5.91194965e-02 0. 0. 0. 4.15094346e-02 0.
      0. 3.14465389e-02 0. 4.99371052e-01 0. 0. 0. 5.66037744e-02
      2.65408814e-01 0. 0. 2.61635214e-01 3.14465389e-02 4.52830195e-02
      0. 2.27672949e-01 2.01257858e-02 0.</_>
    <_>
      0. 0. 0. 6.25000000e-02 1. 5.31250000e-01 1.25000000e-01
      5.62500000e-01 8.12500000e-01 8.12500000e-01 7.81250000e-01
      6.56250000e-01 5.62500000e-01 7.18750000e-01 6.87500000e-01
      5.31250000e-01 2.81250000e-01 0. 3.12500000e-02 8.12500000e-01
      8.43750000e-01 8.43750000e-01 7.50000000e-01 2.50000000e-01
      2.81250000e-01 2.18750000e-01 3.12500000e-01 7.81250000e-01
      7.81250000e-01 7.50000000e-01 6.56250000e-01 0. 6.25000000e-02
      3.75000000e-01 5.62500000e-01 3.43750000e-01 1.56250000e-01
      3.43750000e-01 5.00000000e-01 6.56250000e-01 7.50000000e-01
      6.56250000e-01 6.25000000e-01 5.62500000e-01 7.50000000e-01
      7.18750000e-01 5.93750000e-01 4.68750000e-01 9.37500000e-02
      9.37500000e-02 8.75000000e-01 8.75000000e-01 8.75000000e-01
      7.81250000e-01 3.43750000e-01 3.43750000e-01 3.75000000e-01
      4.68750000e-01 5.00000000e-01 5.00000000e-01 6.87500000e-01
      3.12500000e-01 1.25000000e-01 5.00000000e-01 5.93750000e-01
      5.93750000e-01 6.56250000e-01 5.93750000e-01 7.18750000e-01
      6.56250000e-01 7.81250000e-01 6.56250000e-01 4.68750000e-01
      3.12500000e-01 1.25000000e-01 6.25000000e-02 3.43750000e-01
      5.31250000e-01 4.68750000e-01 5.62500000e-01 5.62500000e-01
      5.62500000e-01 5.31250000e-01 6.87500000e-01 6.87500000e-01
      7.18750000e-01 5.93750000e-01 1.25000000e-01 2.81250000e-01
      5.93750000e-01 8.12500000e-01 7.81250000e-01 7.81250000e-01
      6.56250000e-01 5.62500000e-01 6.87500000e-01 8.43750000e-01
      8.12500000e-01 7.18750000e-01 3.43750000e-01 2.50000000e-01
      7.18750000e-01 2.50000000e-01 0. 6.25000000e-02 1.56250000e-01
      1.87500000e-01 1.87500000e-01 1.56250000e-01 1.56250000e-01
      1.56250000e-01 1.56250000e-01 1.56250000e-01 1.56250000e-01
      1.56250000e-01 1.56250000e-01 1.56250000e-01 1.56250000e-01
      1.56250000e-01 1.56250000e-01 1.56250000e-01 1.56250000e-01
      1.56250000e-01 1.56250000e-01 1.56250000e-01 2.18750000e-01
      1.87500000e-01 2.50000000e-01 2.50000000e-01 2.50000000e-01
      2.81250000e-01 2.81250000e-01 2.81250000e-01 2.81250000e-01
      2.50000000e-01 2.81250000e-01 2.34042540e-01 4.89361674e-01
      1.59574464e-01 2.12765951e-02 2.12765951e-02 1.70212761e-01
      4.46808487e-01 6.17021263e-01 7.65957415e-01 8.93616974e-01
      9.99999940e-01 9.46808457e-01 9.04255271e-01 8.82978678e-01
      8.51063788e-01 8.08510602e-01 7.97872305e-01 7.55319118e-01
      7.87234008e-01 7.55319118e-01 7.44680822e-01 6.38297856e-01
      6.06382966e-01 6.17021263e-01 5.95744669e-01 6.27659559e-01
      6.59574449e-01 6.80851042e-01 6.80851042e-01 6.06382966e-01
      4.99999970e-01 8.51063803e-02 3.19148935e-02 1.17021270e-01
      3.29787225e-01 2.76595742e-01 1.33903131e-01 0. 0. 0. 0. 0. 0. 0.
      0. 0. 0. 0. 0. 0. 0. 0. 0. 0. 0. 0. 4.27350402e-03 0. 0. 0. 0. 0.
      0. 0. 0. 0. 0. 0. 0. 0. 0. 0. 0. 0. 0. 0. 0. 0. 1.42450142e-03 0.
      0. 0. 0. 0. 0. 0. 2.84900283e-03 0. 0. 0. 0. 0. 0. 0. 0. 0.
      2.84900283e-03 0. 0. 0. 0. 0. 1.42450142e-03 0. 0. 0.
      2.84900283e-03 0. 0. 0. 0. 1.46723643e-01 0. 0. 0. 7.12250732e-03
      2.84900293e-02 0. 0. 1.99430194e-02 1.56695154e-02 1.42450146e-02
      8.54700804e-03 5.69800586e-02 5.69800567e-03 0. 1.48148149e-01
      2.84900283e-03 7.12250732e-03 2.70655267e-02 8.54700804e-03
      8.97435918e-02 2.03703701e-01 3.84615399e-02 2.07977206e-01
      1.42450139e-01 2.05128208e-01 4.75783467e-01 4.07407403e-01 1.
      5.71225047e-01 7.76353300e-01 5.02848983e-01 4.25925910e-01
      1.23931624e-01 2.20797718e-01 2.87749290e-01 8.26210827e-02
      7.83475786e-02 1.99430194e-02 1.21082619e-01 5.41310534e-02
      4.70085479e-02 4.27350402e-03 8.54700804e-03 9.97150969e-03
      1.05413102e-01 0. 5.69800567e-03 2.84900283e-03 4.27350402e-03
      1.85185187e-02 3.56125347e-02 0. 2.84900283e-03 0. 2.84900283e-03
      0. 2.13675220e-02 4.27350402e-03 0. 0. 0. 0. 1.42450142e-03 0.
      1.42450142e-03 0. 0. 0. 0. 8.54700804e-03 0. 0. 0. 0.
      2.84900283e-03 0. 0. 0. 0. 0. 0. 0. 0. 0. 0. 0. 0. 0. 0.
      4.27350402e-03 0. 0. 0. 0. 0. 0. 0. 0. 0. 0. 0. 0. 0. 0.</_>
    <_>
      8.61111104e-01 1. 1. 9.16666687e-01 7.22222209e-01 5.27777791e-01
      4.44444448e-01 4.44444448e-01 4.16666657e-01 6.11111104e-01
      6.66666687e-01 6.94444478e-01 3.88888896e-01 3.88888896e-01
      6.11111104e-01 7.22222209e-01 7.77777791e-01 1. 1. 1. 1.
      9.16666687e-01 8.05555582e-01 6.94444478e-01 5.55555582e-01
      5.00000000e-01 4.16666657e-01 5.55555582e-01 5.83333313e-01
      4.44444448e-01 2.50000000e-01 3.61111104e-01 4.16666657e-01
      5.55555582e-01 7.22222209e-01 9.44444478e-01 1. 1. 1. 1.
      9.16666687e-01 9.16666687e-01 9.44444478e-01 1. 1. 1. 1.
      9.44444478e-01 8.88888896e-01 8.61111104e-01 8.05555582e-01
      7.50000000e-01 4.72222239e-01 3.88888896e-01 3.88888896e-01
      3.61111104e-01 7.50000000e-01 7.77777791e-01 8.33333313e-01
      8.88888896e-01 9.44444478e-01 1. 1. 1. 1. 6.94444478e-01
      5.83333313e-01 5.00000000e-01 5.00000000e-01 5.55555582e-01
      5.83333313e-01 6.66666687e-01 6.66666687e-01 6.66666687e-01
      6.38888896e-01 5.27777791e-01 6.38888896e-01 7.22222209e-01
      8.05555582e-01 1. 1. 1. 1. 7.22222209e-01 6.11111104e-01
      5.27777791e-01 5.83333313e-01 5.83333313e-01 6.11111104e-01
      6.66666687e-01 6.66666687e-01 6.66666687e-01 6.38888896e-01
      6.38888896e-01 6.38888896e-01 7.22222209e-01 8.33333313e-01 1. 1.
      1. 8.88888896e-01 8.61111104e-01 8.61111104e-01 8.33333313e-01
      8.61111104e-01 8.88888896e-01 2.22222224e-01 2.22222224e-01
      2.22222224e-01 2.50000000e-01 1. 1. 1. 1. 1. 1. 1. 1. 1.
      7.22222209e-01 4.44444448e-01 3.88888896e-01 3.88888896e-01
      6.11111104e-01 6.66666687e-01 6.66666687e-01 6.94444478e-01
      6.66666687e-01 6.38888896e-01 5.83333313e-01 4.44444448e-01
      5.00000000e-01 6.11111104e-01 9.16666687e-01 1. 1. 9.11764681e-01
      9.04411793e-01 9.48529422e-01 8.89705896e-01 6.91176474e-01
      6.39705896e-01 6.10294104e-01 6.69117630e-01 6.83823526e-01
      7.27941155e-01 7.57352948e-01 7.79411793e-01 8.01470578e-01
      7.27941155e-01 7.13235319e-01 6.69117630e-01 5.58823526e-01
      6.10294104e-01 6.17647052e-01 6.83823526e-01 6.76470578e-01
      6.69117630e-01 6.83823526e-01 6.61764681e-01 6.39705896e-01
      6.47058845e-01 5.88235319e-01 5.80882370e-01 5.88235319e-01
      6.32352948e-01 7.13235319e-01 9.48529422e-01 1. 9.63235319e-01
      8.97058845e-01 8.97058845e-01 0. 0. 0. 0. 0. 0. 0. 0. 0. 0. 0. 0.
      0. 0. 0. 0. 0. 0. 1.39705883e-02 4.63235304e-02 2.67647058e-01
      6.28676474e-01 1. 7.42647052e-01 3.15441191e-01 1.83823526e-01
      1.78676471e-01 1.08823530e-01 4.92647067e-02 4.41176482e-02
      1.32352943e-02 5.88235306e-03 1.47058826e-03 0. 0. 0. 0. 0. 0. 0.
      0. 0. 0. 0. 0. 0. 0. 0. 0. 0. 0. 0. 0. 0. 0. 0. 0. 0. 0. 0. 0. 0.
      0. 0. 0. 0. 0. 0. 0. 0. 0. 0. 0. 0. 0. 0. 0. 0. 0. 0. 0. 0. 0. 0.
      0. 0. 0. 0. 0. 0. 0. 0. 0. 0. 0. 0. 0. 0. 0. 0. 0. 0. 0. 0. 0. 0.
      0. 0. 0. 0. 0. 0. 0. 0. 0. 0. 0. 0. 0. 0. 0. 0. 0. 0. 0. 0. 0. 0.
      0. 0. 0. 0. 0. 0. 0. 0. 0. 0. 0. 0. 0. 0. 0. 0. 0. 0. 0. 0. 0. 0.
      0. 0. 0. 0. 0. 0. 0. 0. 0. 0. 0. 0. 0. 0. 0. 0. 0. 0. 0. 0. 0. 0.
      0. 0. 0. 0. 0. 0. 0. 0.</_>
    <_>
      1.78571433e-01 1.42857149e-01 1.78571433e-01 2.14285731e-01
      2.50000000e-01 5.71428597e-01 2.14285731e-01 2.14285731e-01
      2.14285731e-01 4.28571463e-01 6.07142866e-01 6.42857194e-01
      7.50000060e-01 7.14285731e-01 4.64285731e-01 5.00000000e-01
      8.57142925e-01 8.92857194e-01 6.07142866e-01 4.28571463e-01
      2.14285731e-01 2.14285731e-01 2.14285731e-01 2.14285731e-01
      5.71428597e-01 1. 1. 1. 5.00000000e-01 4.64285731e-01
      4.64285731e-01 5.00000000e-01 5.00000000e-01 4.64285731e-01
      4.28571463e-01 4.28571463e-01 1.78571433e-01 1.07142866e-01 0. 0.
      0. 1.07142866e-01 1.42857149e-01 1.07142866e-01 3.57142873e-02 0.
      0. 0. 0. 0. 0. 0. 5.00000000e-01 8.21428597e-01 8.21428597e-01
      7.85714328e-01 0. 0. 0. 0. 0. 0. 0. 2.14285731e-01 7.50000060e-01
      8.21428597e-01 8.21428597e-01 6.07142866e-01 7.14285746e-02
      7.14285746e-02 1.42857149e-01 1.42857149e-01 1.07142866e-01
      1.07142866e-01 1.42857149e-01 1.42857149e-01 1.07142866e-01 0. 0.
      0. 4.28571463e-01 6.42857194e-01 7.14285731e-01 7.50000060e-01
      3.21428597e-01 2.50000000e-01 2.50000000e-01 2.50000000e-01
      2.50000000e-01 4.64285731e-01 5.00000000e-01 5.00000000e-01
      4.28571463e-01 3.57142866e-01 3.57142873e-02 3.57142873e-02
      1.07142866e-01 1.07142866e-01 7.14285746e-02 7.14285746e-02
      1.07142866e-01 2.14285731e-01 8.92857194e-01 9.28571463e-01
      9.28571463e-01 6.42857194e-01 1.78571433e-01 1.78571433e-01
      1.78571433e-01 1.78571433e-01 1.78571433e-01 1.78571433e-01
      1.78571433e-01 3.57142866e-01 5.00000000e-01 5.35714328e-01
      7.14285731e-01 7.14285731e-01 6.42857194e-01 6.78571463e-01
      6.42857194e-01 7.14285731e-01 7.14285731e-01 7.85714328e-01
      6.78571463e-01 5.35714328e-01 3.57142866e-01 1.78571433e-01
      1.78571433e-01 6.07142866e-01 2.14285731e-01 1.07142866e-01
      7.14285746e-02 3.57142873e-02 1.42857149e-01 1.42857149e-01 1.
      8.71794879e-01 8.33333373e-01 7.82051265e-01 6.79487169e-01
      2.69230783e-01 0. 6.41025677e-02 3.84615399e-02 1.28205130e-02
      8.97435918e-02 3.71794879e-01 6.41025662e-01 7.43589759e-01
      7.56410241e-01 5.89743614e-01 5.38461566e-01 5.12820542e-01
      3.97435904e-01 4.23076928e-01 6.15384638e-01 6.66666687e-01
      6.92307711e-01 6.28205121e-01 3.71794879e-01 4.10256416e-01
      4.10256416e-01 3.97435904e-01 3.71794879e-01 4.10256416e-01
      6.53846145e-01 7.05128193e-01 6.15384638e-01 2.17948720e-01
      3.84615399e-02 0. 4.38729189e-02 0. 0. 0. 0. 0. 7.56429601e-03 0.
      0. 0. 0. 3.02571850e-03 0. 3.02571850e-03 0. 1.51285925e-03 0. 0.
      0. 0. 2.26928890e-02 0. 0. 0. 1.21028740e-02 1.51285925e-03 0. 0.
      0. 0. 3.78214829e-02 0. 0. 0. 3.02571850e-03 9.07715596e-03
      1.36157330e-02 0. 4.53857798e-03 0. 7.56429601e-03 0.
      1.96671709e-02 1.21028740e-02 0. 9.07715596e-03 3.02571850e-03 0.
      1.81543119e-02 0. 2.87443250e-02 1.51285920e-02 3.02571850e-03 0.
      3.02571850e-03 1.21028740e-02 1.66414510e-02 4.53857798e-03 0. 0.
      1.81543119e-02 0. 0. 1.05900150e-02 0. 1.05900150e-02
      4.38729189e-02 7.56429601e-03 4.53857798e-03 9.07715596e-03
      2.42057480e-02 0. 0. 2.42057480e-02 3.17700431e-02 6.95915222e-02
      4.53857798e-03 0. 0. 2.26928890e-02 7.56429657e-02 0. 0.
      3.63086239e-02 4.53857798e-03 1.21028740e-02 0. 3.47957611e-02
      3.02571850e-03 0. 5.44629321e-02 0. 6.05143700e-03 1.36157330e-02
      0. 1.21028740e-02 6.50529489e-02 0. 2.57186070e-02 1.36157330e-02
      1.21028740e-02 5.90015091e-02 2.11800300e-02 1.46747351e-01
      5.74886501e-02 1.27080172e-01 3.19213301e-01 6.26323700e-01
      8.13918293e-01 9.99999940e-01 9.63691354e-01 5.09833574e-01
      5.85476518e-01 2.05748856e-01 3.11648995e-01 9.37972739e-02
      1.66414514e-01 3.32829021e-02 1.66414510e-02 2.72314660e-02
      1.21028736e-01 3.02571850e-03 1.96671709e-02 7.56429601e-03
      2.42057480e-02 4.08472009e-02 2.11800300e-02 0. 4.53857798e-03
      4.53857798e-03 1.21028740e-02 0. 1.21028740e-02 1.66414510e-02 0.
      1.51285925e-03 0. 0. 0. 0. 1.96671709e-02 1.51285925e-03 0. 0. 0.
      4.53857798e-03 0. 0. 0. 0. 0. 0. 0. 0. 0. 0. 1.05900150e-02 0. 0.
      0. 0. 0. 0. 0. 0. 2.57186070e-02 0. 0. 0. 0. 1.51285925e-03 0. 0.
      3.02571850e-03 0. 0. 0. 0. 0. 0.</_>
    <_>
      0. 0. 0. 1.17647059e-01 8.23529422e-01 9.70588267e-01
      6.76470578e-01 5.00000000e-01 3.52941185e-01 2.64705896e-01
      3.23529422e-01 4.41176474e-01 5.29411793e-01 4.70588237e-01
      3.23529422e-01 2.94117659e-01 2.64705896e-01 6.76470578e-01
      6.76470578e-01 6.17647052e-01 8.52941155e-01 1. 6.76470578e-01
      4.41176474e-01 2.64705896e-01 2.05882356e-01 2.64705896e-01
      7.35294104e-01 7.35294104e-01 7.35294104e-01 6.47058845e-01
      4.11764711e-01 3.82352948e-01 2.35294119e-01 2.64705896e-01
      2.94117659e-01 5.29411793e-01 8.52941155e-01 9.41176474e-01
      9.41176474e-01 7.94117630e-01 7.35294104e-01 6.17647052e-01
      5.29411793e-01 4.70588237e-01 7.05882370e-01 6.47058845e-01
      5.88235319e-01 8.23529422e-01 9.11764681e-01 9.70588267e-01
      9.70588267e-01 2.35294119e-01 1.76470593e-01 1.76470593e-01
      2.05882356e-01 2.35294119e-01 9.41176474e-01 9.41176474e-01
      8.23529422e-01 8.23529422e-01 7.64705896e-01 8.82352948e-01
      9.11764681e-01 4.70588237e-01 3.82352948e-01 3.52941185e-01
      2.94117659e-01 4.41176474e-01 6.76470578e-01 5.88235319e-01
      4.41176474e-01 5.29411793e-01 5.58823526e-01 4.11764711e-01
      2.64705896e-01 2.94117659e-01 3.23529422e-01 4.70588237e-01
      9.41176474e-01 9.41176474e-01 9.70588267e-01 4.41176474e-01
      3.82352948e-01 3.23529422e-01 2.94117659e-01 4.70588237e-01
      5.29411793e-01 5.00000000e-01 5.29411793e-01 5.88235319e-01
      5.29411793e-01 3.52941185e-01 4.11764711e-01 4.41176474e-01
      5.88235319e-01 8.52941155e-01 8.82352948e-01 8.52941155e-01
      3.52941185e-01 2.94117659e-01 2.35294119e-01 1.76470593e-01
      2.35294119e-01 5.00000000e-01 5.29411793e-01 5.29411793e-01
      6.17647052e-01 5.58823526e-01 3.82352948e-01 3.82352948e-01
      3.82352948e-01 5.00000000e-01 8.23529422e-01 9.41176474e-01
      8.82352948e-01 8.23529422e-01 6.76470578e-01 7.05882370e-01
      8.82352948e-01 9.70588267e-01 2.94117659e-01 1.76470593e-01
      2.05882356e-01 2.64705896e-01 2.94117659e-01 9.70588267e-01
      9.41176474e-01 5.88235319e-01 3.82352948e-01 6.76470578e-01
      9.41176474e-01 8.82352948e-01 0. 0. 0. 1.33333340e-01
      8.28571439e-01 9.90476251e-01 1. 7.33333349e-01 6.38095260e-01
      5.80952406e-01 5.33333361e-01 4.76190507e-01 6.38095260e-01
      6.76190495e-01 7.23809540e-01 7.52380967e-01 7.61904776e-01
      6.95238113e-01 6.19047642e-01 5.90476215e-01 6.28571451e-01
      7.04761922e-01 7.33333349e-01 7.14285731e-01 6.57142878e-01
      5.71428597e-01 5.71428597e-01 6.28571451e-01 5.90476215e-01
      4.95238125e-01 5.42857170e-01 6.28571451e-01 7.33333349e-01
      9.71428633e-01 9.71428633e-01 9.61904824e-01 7.90476203e-01
      3.52380961e-01 0. 5.51075265e-02 6.72043022e-03 2.28494629e-02
      3.49462368e-02 4.43548374e-02 4.30107526e-02 4.56989259e-02
      3.49462368e-02 5.51075265e-02 7.93010741e-02 7.93010741e-02
      9.40860212e-02 1.06182799e-01 1.18279569e-01 1.85483873e-01
      2.02956989e-01 2.39247307e-01 2.74193555e-01 3.18548381e-01
      4.51612890e-01 6.04838729e-01 7.72849441e-01 1. 9.56989229e-01
      5.17473102e-01 1.97580650e-01 2.82258056e-02 5.37634408e-03
      1.34408602e-03 0. 4.03225794e-03 0. 0. 0. 0. 0. 0. 0. 0. 0. 0. 0.
      0. 0. 0. 0. 0. 0. 0. 0. 0. 0. 0. 0. 0. 0. 0. 0. 0. 0. 0. 0. 0. 0.
      0. 0. 0. 0. 0. 0. 0. 0. 0. 0. 0. 0. 0. 0. 0. 0. 0. 0. 0. 0. 0. 0.
      0. 0. 0. 0. 0. 0. 0. 0. 0. 0. 0. 0. 0. 0. 0. 0. 0. 0. 0. 0. 0. 0.
      0. 0. 0. 0. 0. 0. 0. 0. 0. 0. 0. 0. 0. 0. 0. 0. 0. 0. 0. 0. 0. 0.
      0. 0. 0. 0. 0. 0. 0. 0. 0. 0. 0. 0. 0. 0. 0. 0. 0. 0. 0. 0. 0. 0.
      0. 0. 0. 0. 0. 0. 0. 0. 0. 0. 0. 0. 0. 0. 0. 0. 0. 0. 0. 0. 0. 0.
      0. 0. 0. 0. 0. 0.</_>
    <_>
      0. 0. 0. 0. 0. 0. 0. 0. 0. 0. 0. 0. 0. 3.33333343e-01 0. 0.
      3.03030312e-01 4.54545468e-01 5.45454562e-01 6.96969748e-01
      5.75757623e-01 3.63636374e-01 3.93939406e-01 7.57575750e-01
      6.96969748e-01 4.54545468e-01 5.15151501e-01 3.93939406e-01
      2.42424250e-01 1.21212125e-01 8.18181872e-01 8.78787875e-01
      8.18181872e-01 6.66666687e-01 2.12121218e-01 3.03030312e-01
      3.03030312e-01 4.84848499e-01 4.84848499e-01 6.66666687e-01
      6.36363626e-01 4.24242437e-01 3.63636374e-01 5.15151501e-01
      6.66666687e-01 6.96969748e-01 8.18181872e-01 7.27272749e-01
      6.36363626e-01 2.42424250e-01 3.03030312e-01 8.78787875e-01 1.
      9.69696999e-01 7.57575750e-01 8.18181872e-01 7.57575750e-01
      8.18181872e-01 8.18181872e-01 9.09090936e-01 6.96969748e-01
      5.45454562e-01 4.54545468e-01 6.36363626e-01 7.57575750e-01
      6.96969748e-01 5.75757623e-01 5.75757623e-01 8.78787875e-01
      7.57575750e-01 5.15151501e-01 5.15151501e-01 6.66666687e-01
      7.27272749e-01 6.36363626e-01 5.15151501e-01 4.24242437e-01
      4.84848499e-01 6.66666687e-01 7.57575750e-01 8.18181872e-01
      9.39393997e-01 8.48484874e-01 6.36363626e-01 1. 8.78787875e-01
      7.87878811e-01 6.06060624e-01 3.93939406e-01 5.45454562e-01
      7.57575750e-01 7.27272749e-01 6.06060624e-01 3.93939406e-01
      6.66666687e-01 7.27272749e-01 7.57575750e-01 7.27272749e-01
      5.45454562e-01 4.54545468e-01 6.66666687e-01 6.06060624e-01
      5.45454562e-01 7.57575750e-01 8.18181872e-01 8.18181872e-01
      5.75757623e-01 3.93939406e-01 4.54545468e-01 8.78787875e-01
      8.78787875e-01 7.87878811e-01 3.63636374e-01 5.45454562e-01
      7.87878811e-01 6.06060624e-01 3.33333343e-01 7.57575750e-01
      7.57575750e-01 6.96969748e-01 3.63636374e-01 0. 3.63636374e-01
      6.06060624e-01 0. 0. 0. 0. 0. 0. 0. 0. 0. 0. 3.03030312e-02
      2.42424250e-01 8.31325293e-01 3.37349385e-01 1.44578308e-01
      6.02409616e-02 1.80722892e-01 6.26505971e-01 7.71084309e-01
      7.95180678e-01 8.67469847e-01 9.03614402e-01 9.03614402e-01
      9.27710831e-01 9.15662646e-01 8.55421662e-01 8.07228863e-01
      9.03614402e-01 9.63855386e-01 9.99999940e-01 9.99999940e-01
      9.75903571e-01 9.63855386e-01 9.27710831e-01 9.27710831e-01
      8.19277048e-01 7.95180678e-01 8.19277048e-01 8.19277048e-01
      8.67469847e-01 8.43373477e-01 8.07228863e-01 7.71084309e-01
      6.50602400e-01 5.30120492e-01 6.02409601e-01 4.69879508e-01
      3.25301200e-01 3.48930478e-01 0. 0. 0. 0. 0. 5.34759369e-03 0. 0.
      0. 0. 1.33689842e-03 0. 5.34759369e-03 0. 0. 0. 0. 0.
      1.33689842e-03 3.20855603e-02 0. 0. 0. 8.02139007e-03
      2.67379684e-03 0. 0. 0. 0. 1.64438501e-01 0. 0. 0. 0.
      9.35828872e-03 2.13903747e-02 0. 0. 0. 0. 0. 6.68449234e-03
      5.34759369e-03 0. 0. 0. 0. 0. 0. 6.28342256e-02 0. 0. 0. 0. 0. 0.
      0. 0. 0. 4.01069503e-03 0. 0. 0. 0. 0. 6.68449234e-03 0. 0. 0.
      2.67379684e-03 0. 0. 0. 0. 8.42246041e-02 0. 0. 0. 0.
      2.67379684e-03 0. 0. 1.60427801e-02 0. 0. 0. 0. 0. 0.
      9.35828872e-03 0. 0. 0. 0. 1.33689842e-03 3.34224589e-02
      1.33689842e-03 1.06951874e-02 2.67379684e-03 1.33689842e-03
      4.27807495e-02 2.40641721e-02 1.35026738e-01 1.00267380e-01
      3.32887709e-01 6.21657789e-01 1. 7.83422470e-01 6.21657789e-01
      5.65508008e-01 3.28877002e-01 2.28609636e-01 1.22994654e-01
      1.68449208e-01 6.55080229e-02 9.09090936e-02 1.33689847e-02
      9.35828872e-03 5.34759369e-03 1.73796788e-01 0. 1.87165774e-02
      2.67379684e-03 1.87165774e-02 5.08021414e-02 3.20855603e-02 0.
      4.01069503e-03 4.01069503e-03 5.34759369e-03 0. 1.33689847e-02
      8.02139007e-03 0. 0. 0. 0. 1.33689842e-03 0. 2.54010707e-02
      2.67379684e-03 0. 0. 0. 6.68449234e-03 2.67379684e-03 0. 0. 0.
      4.01069503e-03 0. 0. 0. 0. 0. 5.34759369e-03 0. 0. 0.
      2.67379684e-03 0. 0. 0. 0. 4.27807495e-02 0. 0. 0. 1.33689842e-03
      2.67379684e-03 0. 0. 2.67379684e-03 0. 0. 0. 1.33689842e-03 0. 0.</_>
    <_>
      0. 0. 3.79310340e-01 1.72413796e-01 6.89655170e-02 1.37931034e-01
      5.17241359e-01 6.20689631e-01 6.20689631e-01 6.89655185e-01
      7.58620679e-01 6.55172408e-01 4.82758611e-01 4.82758611e-01
      7.93103456e-01 8.62068951e-01 7.24137902e-01 4.48275864e-01
      3.44827592e-01 3.10344815e-01 2.06896544e-01 2.41379306e-01
      2.75862068e-01 9.65517223e-01 1. 8.62068951e-01 7.24137902e-01
      1.03448272e-01 1.37931034e-01 1.72413796e-01 3.10344815e-01
      2.75862068e-01 2.06896544e-01 2.06896544e-01 2.06896544e-01
      2.41379306e-01 3.10344815e-01 2.41379306e-01 1.03448272e-01
      2.06896544e-01 5.17241359e-01 5.51724136e-01 4.48275864e-01
      4.82758611e-01 6.89655170e-02 1.03448272e-01 1.03448272e-01
      9.31034505e-01 9.31034505e-01 9.31034505e-01 8.27586174e-01
      3.44827592e-01 3.44827592e-01 3.10344815e-01 3.44827592e-01
      3.44827592e-01 4.13793087e-01 8.27586174e-01 8.62068951e-01
      8.62068951e-01 7.24137902e-01 1.37931034e-01 2.06896544e-01
      1.37931034e-01 9.31034505e-01 9.65517223e-01 9.31034505e-01
      8.96551728e-01 3.44827592e-01 3.10344815e-01 3.10344815e-01
      3.79310340e-01 3.79310340e-01 3.79310340e-01 6.20689631e-01
      8.96551728e-01 7.93103456e-01 7.58620679e-01 2.06896544e-01
      1.37931034e-01 2.06896544e-01 3.10344815e-01 6.89655185e-01
      7.58620679e-01 7.93103456e-01 7.58620679e-01 5.51724136e-01
      5.17241359e-01 4.48275864e-01 4.13793087e-01 4.48275864e-01
      4.82758611e-01 7.24137902e-01 6.89655185e-01 5.51724136e-01
      3.44827592e-01 1.72413796e-01 1.37931034e-01 2.06896544e-01
      1.03448272e-01 1.37931034e-01 1.37931034e-01 6.89655170e-02
      6.89655170e-02 3.44827592e-01 5.51724136e-01 6.55172408e-01
      6.89655185e-01 4.82758611e-01 4.82758611e-01 4.82758611e-01
      3.79310340e-01 4.82758611e-01 3.79310340e-01 2.41379306e-01
      2.41379306e-01 4.13793087e-01 5.17241359e-01 5.17241359e-01
      6.55172408e-01 6.89655185e-01 6.20689631e-01 5.86206913e-01
      4.82758611e-01 5.51724136e-01 5.86206913e-01 6.89655185e-01
      6.55172408e-01 5.86206913e-01 3.44827592e-01 1.03448272e-01
      1.37931034e-01 9.65517223e-01 1. 0. 0. 0. 9.99999940e-01
      5.60747623e-01 6.54205605e-02 5.60747646e-02 1.12149529e-01
      6.44859791e-01 7.28971958e-01 7.94392526e-01 6.35514021e-01
      4.85981286e-01 4.11214948e-01 4.39252317e-01 4.11214948e-01
      5.70093453e-01 6.07476592e-01 5.79439223e-01 5.51401854e-01
      4.48598117e-01 4.01869148e-01 3.92523348e-01 4.48598117e-01
      5.51401854e-01 5.14018655e-01 4.85981286e-01 4.76635486e-01
      6.26168191e-01 7.75700927e-01 7.28971958e-01 5.60747623e-01
      1.02803737e-01 3.73831764e-02 7.47663528e-02 3.27102780e-01
      8.50467265e-01 4.29906517e-01 0. 0. 0. 0. 0. 0. 0. 0. 0. 0. 0. 0.
      0. 0. 0. 0. 0. 0. 0. 0. 0. 0. 0. 0. 0. 0. 0. 0. 0. 0.
      1.80831831e-03 0. 0. 0. 0. 0. 9.04159155e-04 0. 0. 0.
      9.04159155e-04 0. 0. 0. 0. 0. 0. 0. 0. 0. 1.80831831e-03 0. 0. 0.
      0. 0. 0. 0. 0. 0. 1.80831831e-03 0. 0. 0. 0. 0. 0. 0. 0. 0. 0. 0.
      0. 0. 0. 1.08499099e-02 0. 0. 0. 0. 2.71247746e-03 0. 0.
      1.80831831e-03 0. 0. 0. 2.71247746e-03 1.80831831e-03
      2.71247746e-03 9.04159155e-03 0. 5.42495493e-03 6.32911408e-03
      9.04159155e-03 3.52622084e-02 2.44122967e-02 1.35623869e-02
      6.23869821e-02 4.61121164e-02 6.32911399e-02 1.78119346e-01
      2.49547929e-01 6.42857134e-01 6.68173611e-01 1. 5.53345382e-01
      4.17721540e-01 1.42857149e-01 9.40325558e-02 5.87703437e-02
      3.43580469e-02 1.89873427e-02 1.98915005e-02 9.94575024e-03
      1.17540695e-02 5.42495493e-03 9.04159155e-04 9.04159155e-04 0.
      1.35623869e-02 0. 0. 0. 0. 0. 9.04159155e-04 0. 0. 0. 0. 0. 0. 0.
      0. 0. 0. 0. 0. 0. 0. 0. 0. 0. 0. 0. 0. 0. 0. 0. 0. 0. 0. 0. 0. 0.
      0. 0. 0. 0. 0. 0. 0. 0. 0. 0. 0. 0. 0. 0. 0. 0. 0. 0. 0. 0. 0. 0.
      0. 0.</_>
    <_>
      2.77777780e-02 3.05555552e-01 4.44444448e-01 2.50000000e-01
      8.33333358e-02 2.22222224e-01 7.22222209e-01 5.83333313e-01
      2.22222224e-01 2.50000000e-01 2.77777791e-01 1.66666672e-01
      3.61111104e-01 4.16666657e-01 2.77777791e-01 0. 0. 0.
      8.33333358e-02 2.22222224e-01 4.16666657e-01 5.27777791e-01
      5.55555582e-01 6.11111104e-01 5.27777791e-01 4.72222239e-01
      4.72222239e-01 8.05555582e-01 6.94444478e-01 5.55555582e-01
      3.33333343e-01 8.33333358e-02 0. 0. 0. 0. 0. 8.33333358e-02
      8.33333358e-02 5.55555560e-02 0. 0. 0. 0. 2.77777791e-01
      6.11111104e-01 8.33333313e-01 7.77777791e-01 5.27777791e-01
      3.61111104e-01 3.33333343e-01 3.05555552e-01 3.61111104e-01
      4.72222239e-01 6.94444478e-01 9.16666687e-01 6.94444478e-01
      3.88888896e-01 0. 0. 0. 0. 6.66666687e-01 1. 1. 5.27777791e-01
      2.50000000e-01 2.50000000e-01 2.77777791e-01 3.05555552e-01
      3.05555552e-01 3.05555552e-01 3.33333343e-01 3.61111104e-01
      2.22222224e-01 1.38888896e-01 0. 0. 0. 0. 1.11111112e-01
      3.05555552e-01 3.88888896e-01 2.77777791e-01 3.33333343e-01
      3.61111104e-01 4.16666657e-01 3.88888896e-01 4.44444448e-01
      5.55555582e-01 6.11111104e-01 7.50000000e-01 6.11111104e-01
      3.61111104e-01 0. 0. 0. 0. 1.11111112e-01 2.22222224e-01
      3.33333343e-01 4.72222239e-01 3.88888896e-01 3.88888896e-01
      3.61111104e-01 3.88888896e-01 3.88888896e-01 3.88888896e-01
      3.88888896e-01 4.44444448e-01 5.00000000e-01 2.77777791e-01
      8.33333358e-02 0. 0. 0. 1.11111112e-01 2.22222224e-01
      3.61111104e-01 5.00000000e-01 4.16666657e-01 3.61111104e-01
      3.33333343e-01 3.33333343e-01 3.33333343e-01 3.33333343e-01
      3.88888896e-01 5.55555582e-01 3.88888896e-01 2.50000000e-01 0. 0.
      0. 8.33333358e-02 0. 0. 8.88888955e-01 9.68254030e-01
      9.52381015e-01 8.09523880e-01 5.55555582e-01 6.66666687e-01
      6.34920657e-01 6.34920657e-01 5.55555582e-01 4.92063522e-01
      4.92063522e-01 4.76190507e-01 5.07936537e-01 5.23809552e-01
      6.03174627e-01 7.77777851e-01 8.09523880e-01 7.93650866e-01
      8.09523880e-01 6.50793672e-01 4.92063522e-01 4.92063522e-01
      4.76190507e-01 4.60317492e-01 4.60317492e-01 4.92063522e-01
      5.23809552e-01 5.71428597e-01 5.87301612e-01 5.87301612e-01
      5.55555582e-01 4.92063522e-01 5.87301612e-01 9.20634985e-01 1.
      9.68254030e-01 0. 0. 0. 0. 0. 0. 0. 0. 0. 0. 0. 0. 0. 0. 0. 0. 0.
      0. 0. 0. 0. 0. 0. 0. 0. 0. 0. 0. 0. 0. 0. 0. 0. 0. 0. 0. 0. 0. 0.
      0. 0. 0. 0. 0. 0. 0. 0. 0. 0. 0. 0. 0. 0. 0. 0. 0. 0. 0. 0. 0. 0.
      0. 0. 0. 0. 0. 0. 0. 0. 0. 0. 0. 0. 0. 0. 0. 0. 0. 0. 0. 0. 0. 0.
      0. 0. 0. 0. 0. 0. 0. 0. 0. 0. 0. 0. 0. 4.35729837e-03 0. 0. 0. 0.
      0. 0. 1.81554109e-02 1.45243283e-03 0. 5.80973132e-03
      1.37981120e-02 6.53594779e-03 4.57516350e-02 6.46332577e-02
      1.48874372e-01 3.60203356e-01 8.06100219e-02 1. 1.35076255e-01
      7.30573714e-01 2.67973870e-01 2.02614382e-01 1.90268695e-01
      1.39433548e-01 1.37981120e-02 3.55846025e-02 5.59186637e-02
      1.08932462e-02 1.74291935e-02 2.90486566e-03 7.26216414e-04
      2.17864919e-03 0. 0. 0. 0. 0. 0. 0. 0. 0. 0. 0. 0. 0. 0. 0. 0. 0.
      0. 0. 0. 0. 0. 0. 0. 0. 0. 0. 0. 0. 0. 0. 0. 0. 0. 0. 0. 0. 0. 0.
      0. 0. 0. 0. 0. 0. 0. 0. 0. 0. 0. 0.</_>
    <_>
      5.29411793e-01 9.41176474e-01 4.70588237e-01 8.82352963e-02
      1.17647059e-01 4.41176474e-01 5.58823526e-01 5.58823526e-01
      5.00000000e-01 6.17647052e-01 5.88235319e-01 4.41176474e-01
      3.82352948e-01 6.17647052e-01 7.05882370e-01 5.29411793e-01
      4.70588237e-01 3.52941185e-01 3.82352948e-01 3.23529422e-01
      8.82352963e-02 3.52941185e-01 8.23529422e-01 8.52941155e-01
      8.23529422e-01 2.94117659e-01 2.35294119e-01 2.64705896e-01
      4.11764711e-01 6.17647052e-01 3.52941185e-01 3.52941185e-01
      8.82352948e-01 7.94117630e-01 7.64705896e-01 2.94117659e-01
      2.94117648e-02 5.88235296e-02 1.76470593e-01 3.23529422e-01
      5.29411793e-01 5.58823526e-01 3.23529422e-01 3.52941185e-01
      1.76470593e-01 1.47058830e-01 6.47058845e-01 7.05882370e-01
      7.64705896e-01 4.70588237e-01 2.64705896e-01 2.64705896e-01
      4.70588237e-01 5.29411793e-01 3.52941185e-01 3.52941185e-01
      8.23529422e-01 7.94117630e-01 6.47058845e-01 2.35294119e-01
      1.47058830e-01 1.17647059e-01 3.82352948e-01 7.05882370e-01
      7.64705896e-01 7.94117630e-01 3.82352948e-01 3.23529422e-01
      4.11764711e-01 5.88235319e-01 3.52941185e-01 2.94117659e-01
      3.52941185e-01 7.35294104e-01 6.76470578e-01 6.47058845e-01
      2.64705896e-01 1.17647059e-01 1.47058830e-01 4.70588237e-01
      5.58823526e-01 5.88235319e-01 5.58823526e-01 5.58823526e-01
      4.41176474e-01 3.82352948e-01 3.52941185e-01 4.11764711e-01
      4.70588237e-01 5.58823526e-01 6.47058845e-01 5.29411793e-01
      4.70588237e-01 1.17647059e-01 1.17647059e-01 4.41176474e-01
      6.76470578e-01 7.94117630e-01 8.52941155e-01 3.52941185e-01
      2.94117659e-01 6.47058845e-01 6.47058845e-01 3.23529422e-01
      2.64705896e-01 3.52941185e-01 7.35294104e-01 7.05882370e-01
      6.47058845e-01 5.88235296e-02 5.88235296e-02 3.52941185e-01
      4.41176474e-01 3.23529422e-01 3.23529422e-01 4.11764711e-01
      2.35294119e-01 4.11764711e-01 6.47058845e-01 7.05882370e-01
      5.88235319e-01 5.29411793e-01 4.70588237e-01 5.29411793e-01
      4.70588237e-01 4.41176474e-01 2.05882356e-01 1.17647059e-01
      6.47058845e-01 1. 6.17647052e-01 5.88235296e-02 2.64705896e-01
      2.94117659e-01 6.76470578e-01 8.23529422e-01 1. 7.52212405e-01
      4.51327443e-01 3.80530983e-01 2.83185840e-01 3.18584085e-01
      3.09734523e-01 4.42477882e-01 7.16814160e-01 8.23008835e-01
      7.43362844e-01 6.37168169e-01 5.48672557e-01 5.39822996e-01
      5.75221241e-01 6.10619485e-01 5.92920363e-01 5.66371679e-01
      5.30973434e-01 5.75221241e-01 6.10619485e-01 6.54867232e-01
      6.28318608e-01 5.84070802e-01 5.30973434e-01 5.13274312e-01
      5.22123873e-01 5.39822996e-01 5.84070802e-01 6.19469047e-01
      6.19469047e-01 4.86725658e-01 2.65486717e-01 1.32743359e-01
      8.84955749e-02 8.84955749e-02 0. 0. 0. 0. 0. 0. 0. 0. 0. 0. 0. 0.
      0. 0. 0. 0. 0. 0. 0. 0. 3.38983047e-03 0. 0. 0. 0. 0. 0. 0. 0. 0.
      3.38983047e-03 0. 0. 0. 0. 0. 0. 0. 0. 0. 0. 0. 0. 0. 0. 0. 0. 0.
      0. 0. 2.03389823e-02 0. 0. 0. 0. 0. 0. 0. 0. 0. 6.77966094e-03 0.
      0. 1.01694912e-02 0. 1.01694912e-02 3.05084735e-02 6.77966094e-03
      1.01694912e-02 2.03389823e-02 3.38983047e-03 1.01694912e-02
      1.69491526e-02 2.71186437e-02 5.42372875e-02 7.79661015e-02
      2.37288140e-02 7.79661015e-02 3.38983051e-02 2.37288140e-02
      1.32203385e-01 1.01694912e-02 3.72881368e-02 3.38983051e-02
      5.42372875e-02 5.42372875e-02 2.71186437e-02 1.45762712e-01
      1.01694912e-02 1.35593219e-02 1.35593221e-01 2.37288140e-02
      2.37288140e-02 5.76271191e-02 6.77966094e-03 2.77966112e-01
      1.28813565e-01 1.01694912e-02 2.67796606e-01 8.47457647e-02
      6.10169470e-02 3.86440665e-01 1.45762712e-01 5.22033870e-01
      2.94915259e-01 3.93220335e-01 7.15254247e-01 3.86440665e-01
      3.28813553e-01 7.35593200e-01 6.64406776e-01 1. 8.30508471e-01
      4.81355935e-01 7.45762706e-01 4.23728794e-01 9.45762694e-01
      1.62711859e-01 2.13559315e-01 1.96610168e-01 8.50847423e-01
      2.03389823e-02 3.05084735e-01 8.81355926e-02 2.77966112e-01
      6.10169470e-01 1.18644066e-01 1.01694912e-01 2.61016935e-01
      9.83050838e-02 1.55932203e-01 4.40677963e-02 1.38983056e-01
      3.01694900e-01 7.79661015e-02 8.47457647e-02 1.86440676e-01
      1.69491526e-02 1.93220332e-01 5.42372875e-02 4.06779647e-02
      1.38983056e-01 6.77966103e-02 2.37288140e-02 7.45762736e-02
      5.42372875e-02 7.45762736e-02 6.44067824e-02 3.38983051e-02
      3.38983047e-03 1.05084747e-01 3.38983047e-03 2.03389823e-02
      4.40677963e-02 0. 2.03389823e-02 8.13559294e-02 3.38983047e-03
      2.03389823e-02 1.69491526e-02 1.35593219e-02 3.38983047e-03 0.
      1.35593219e-02 1.35593219e-02 1.01694912e-02 0. 0. 0. 0.
      1.35593219e-02 0. 0. 1.01694912e-02 0. 0. 0. 0. 0. 0.</_>
    <_>
      0. 0. 0. 0. 0. 0. 0. 0. 2.96296299e-01 6.66666687e-01
      5.55555582e-01 5.92592597e-01 5.18518507e-01 7.40740746e-02
      1.85185194e-01 4.07407403e-01 7.40740776e-01 6.66666687e-01
      6.29629612e-01 6.66666687e-01 6.29629612e-01 2.22222224e-01
      7.40740746e-02 0. 0. 7.40740746e-02 6.66666687e-01 9.62962985e-01
      9.62962985e-01 5.92592597e-01 3.33333343e-01 2.22222224e-01
      2.59259254e-01 3.33333343e-01 4.44444448e-01 6.29629612e-01
      5.55555582e-01 4.07407403e-01 3.33333343e-01 2.22222224e-01
      1.11111112e-01 0. 0. 0. 0. 1.11111112e-01 1.48148149e-01
      1.11111112e-01 0. 0. 0. 1.85185194e-01 7.77777791e-01 1. 1.
      7.03703701e-01 2.59259254e-01 2.59259254e-01 2.59259254e-01
      2.59259254e-01 2.59259254e-01 2.22222224e-01 2.59259254e-01
      3.70370388e-01 3.33333343e-01 1.48148149e-01 1.11111112e-01 0. 0.
      0. 1.11111112e-01 1.11111112e-01 1.11111112e-01 1.11111112e-01
      1.11111112e-01 7.40740746e-02 1.85185194e-01 7.40740776e-01
      8.14814806e-01 9.25925910e-01 5.92592597e-01 4.07407403e-01
      2.22222224e-01 0. 0. 0. 0. 0. 7.40740746e-02 2.59259254e-01
      4.07407403e-01 4.81481493e-01 4.81481493e-01 4.81481493e-01
      4.81481493e-01 4.81481493e-01 5.18518507e-01 5.18518507e-01
      5.18518507e-01 5.92592597e-01 4.81481493e-01 3.33333343e-01
      1.11111112e-01 0. 0. 0. 0. 1.48148149e-01 1.48148149e-01
      1.85185194e-01 2.59259254e-01 2.96296299e-01 3.33333343e-01
      3.70370388e-01 4.44444448e-01 4.81481493e-01 5.18518507e-01
      5.55555582e-01 6.66666687e-01 4.44444448e-01 2.96296299e-01
      7.40740746e-02 0. 0. 0. 0. 0. 0. 0. 1.11111112e-01 7.03703701e-01
      9.25925910e-01 9.25925910e-01 5.92592597e-01 0. 0. 2.17391308e-02
      1.30434781e-01 2.17391312e-01 3.91304344e-01 5.00000000e-01
      6.95652187e-01 8.69565248e-01 7.60869563e-01 6.73913062e-01
      5.65217376e-01 5.43478251e-01 6.52173936e-01 8.04347813e-01
      8.26086998e-01 8.04347813e-01 7.17391312e-01 6.52173936e-01
      8.47826123e-01 9.56521749e-01 9.78260875e-01 9.56521749e-01
      9.56521749e-01 1. 9.56521749e-01 9.13043499e-01 8.69565248e-01
      8.04347813e-01 9.78260875e-01 8.26086998e-01 8.26086998e-01
      5.00000000e-01 4.56521749e-01 3.47826093e-01 2.82608688e-01
      1.73913047e-01 4.34782617e-02 5.97938150e-02 2.06185575e-03
      8.24742299e-03 6.18556701e-03 1.44329900e-02 7.21649528e-02
      5.15463948e-02 1.23711340e-02 7.62886629e-02 9.07216519e-02
      6.18556738e-02 9.07216519e-02 2.68041249e-02 6.80412427e-02
      1.23711340e-02 1.03092790e-02 6.18556701e-03 4.12371149e-03
      2.06185575e-03 2.26804130e-02 9.69072208e-02 1.03092790e-02
      2.06185575e-03 8.24742299e-03 6.18556738e-02 3.29896919e-02
      4.12371149e-03 0. 0. 0. 8.45360830e-02 0. 0. 0. 6.18556701e-03
      1.44329900e-02 4.74226810e-02 0. 0. 0. 2.06185575e-03 0.
      3.29896919e-02 1.23711340e-02 0. 0. 0. 0. 0. 0. 3.29896919e-02
      6.18556701e-03 0. 0. 0. 1.03092790e-02 0. 0. 0. 0. 6.18556701e-03
      0. 0. 0. 0. 0. 1.64948460e-02 0. 0. 0. 1.85567010e-02 0. 0.
      4.12371149e-03 0. 3.50515470e-02 0. 0. 0. 0. 6.18556701e-03 0. 0.
      2.26804130e-02 0. 0. 0. 4.12371149e-03 0. 0. 6.18556701e-03 0. 0.
      2.06185575e-03 0. 6.18556701e-03 2.47422680e-02 0. 1.03092790e-02
      2.06185575e-03 2.06185575e-03 3.50515470e-02 1.03092790e-02
      5.36082499e-02 1.85567010e-02 2.47422680e-02 7.21649528e-02
      6.80412427e-02 7.62886629e-02 1.36082485e-01 1.83505163e-01
      2.59793818e-01 3.95876288e-01 4.32989717e-01 6.90721691e-01
      4.32989717e-01 1. 4.65979397e-01 4.70103115e-01 4.22680438e-01
      4.74226832e-01 6.80412427e-02 2.61855692e-01 2.84536093e-01
      2.35051557e-01 4.32989717e-01 7.62886629e-02 1.46391764e-01
      1.36082485e-01 7.01030940e-02 1.11340210e-01 4.12371159e-02
      7.83505216e-02 1.46391764e-01 1.23711340e-02 5.15463948e-02
      4.12371159e-02 0. 6.80412427e-02 1.23711340e-02 3.50515470e-02
      4.74226810e-02 3.50515470e-02 6.18556701e-03 1.03092790e-02
      3.50515470e-02 2.68041249e-02 2.26804130e-02 8.24742299e-03 0.
      4.32989709e-02 0. 0. 2.06185579e-02 0. 8.24742299e-03
      5.36082499e-02 2.06185575e-03 2.47422680e-02 1.85567010e-02
      2.88659800e-02 0. 0. 3.50515470e-02 2.68041249e-02 1.07216500e-01
      2.06185575e-03 0. 0. 2.06185579e-02 6.18556738e-02 0. 0.
      4.12371159e-02 8.24742299e-03 1.03092790e-02 0. 2.47422680e-02 0.
      0.</_>
    <_>
      0. 0. 0. 0. 0. 0. 0. 0. 5.55555560e-02 6.94444478e-01 1.
      2.50000000e-01 1.38888896e-01 3.61111104e-01 6.38888896e-01
      7.22222209e-01 7.77777791e-01 6.66666687e-01 6.94444478e-01
      6.11111104e-01 6.94444478e-01 6.66666687e-01 6.11111104e-01
      5.83333313e-01 8.33333358e-02 2.77777780e-02 8.33333358e-02
      2.50000000e-01 4.72222239e-01 6.38888896e-01 8.05555582e-01
      7.22222209e-01 6.11111104e-01 6.38888896e-01 7.50000000e-01
      7.77777791e-01 5.83333313e-01 3.33333343e-01 1.94444448e-01 0. 0.
      0. 0. 0. 0. 0. 0. 1.66666672e-01 3.61111104e-01 4.72222239e-01
      6.11111104e-01 6.94444478e-01 6.66666687e-01 6.38888896e-01
      7.22222209e-01 7.77777791e-01 7.22222209e-01 5.55555582e-01
      3.61111104e-01 1.11111112e-01 0. 2.77777780e-02 2.22222224e-01
      3.33333343e-01 4.16666657e-01 5.00000000e-01 5.00000000e-01
      5.00000000e-01 4.72222239e-01 5.00000000e-01 5.27777791e-01
      5.83333313e-01 5.27777791e-01 5.00000000e-01 3.88888896e-01
      2.50000000e-01 0. 0. 0. 0. 0. 0. 3.33333343e-01 8.05555582e-01
      8.33333313e-01 8.33333313e-01 8.05555582e-01 4.44444448e-01 0. 0.
      0. 0. 0. 0. 1.94444448e-01 5.27777791e-01 7.22222209e-01
      8.05555582e-01 8.33333313e-01 6.94444478e-01 4.72222239e-01
      4.16666657e-01 3.61111104e-01 4.44444448e-01 6.11111104e-01
      7.77777791e-01 7.50000000e-01 6.94444478e-01 5.27777791e-01
      8.33333358e-02 0. 1.11111112e-01 5.00000000e-01 7.22222209e-01
      7.77777791e-01 8.05555582e-01 6.94444478e-01 5.00000000e-01
      3.88888896e-01 3.88888896e-01 3.88888896e-01 5.55555582e-01
      8.05555582e-01 7.77777791e-01 7.50000000e-01 6.11111104e-01
      3.05555552e-01 0. 5.55555582e-01 6.11111104e-01 3.61111104e-01 0.
      0. 0. 0. 0. 2.73972601e-02 4.10958901e-02 5.20547926e-01
      7.39726007e-01 9.04109597e-01 1. 9.58904088e-01 7.39726007e-01
      7.39726007e-01 7.80821919e-01 7.67123282e-01 7.94520557e-01
      7.80821919e-01 8.21917772e-01 8.49315047e-01 8.90410960e-01
      9.45205450e-01 9.45205450e-01 9.31506872e-01 8.21917772e-01
      8.21917772e-01 8.08219194e-01 8.63013685e-01 8.63013685e-01
      8.63013685e-01 8.90410960e-01 9.17808235e-01 9.86301363e-01
      9.72602725e-01 8.76712322e-01 6.98630154e-01 4.79452044e-01
      1.50684923e-01 1.23287670e-01 2.32876718e-01 5.06849289e-01
      4.70219413e-03 0. 0. 0. 0. 0. 0. 0. 0. 0. 0. 0. 0. 0. 0. 0. 0. 0.
      0. 0. 1.56739808e-03 0. 0. 0. 0. 0. 0. 0. 0. 0. 4.70219413e-03 0.
      0. 0. 0. 0. 0. 0. 0. 0. 0. 0. 0. 0. 0. 0. 0. 0. 0. 0. 0. 0. 0. 0.
      0. 0. 0. 0. 0. 0. 1.56739808e-03 0. 0. 0. 0. 0. 0. 0. 0. 0. 0. 0.
      0. 0. 0. 3.13479616e-03 0. 0. 0. 0. 0. 0. 0. 3.13479616e-03
      1.56739808e-03 0. 0. 1.56739808e-03 0. 0. 2.82131657e-02
      1.56739808e-03 7.83699006e-03 1.88087765e-02 4.70219413e-03
      3.44827585e-02 2.35109720e-02 2.66457666e-02 5.64263314e-02
      4.70219441e-02 6.42633215e-02 9.71786827e-02 1.08150467e-01
      1.39498428e-01 1.69278994e-01 2.03761756e-01 1.66144192e-01
      2.38244504e-01 2.83699065e-01 3.90282124e-01 4.13793087e-01
      4.95297790e-01 7.44514108e-01 1. 9.84326005e-01 5.32915354e-01
      3.76175553e-01 2.36677110e-01 1.28526643e-01 8.62068981e-02
      1.17554858e-01 6.73981160e-02 4.23197486e-02 5.32915331e-02
      4.23197486e-02 5.79937287e-02 2.82131657e-02 7.83699006e-03
      2.03761756e-02 2.66457666e-02 1.72413792e-02 1.25391847e-02
      1.56739801e-02 1.25391847e-02 0. 4.70219413e-03 1.56739808e-03
      1.56739808e-03 3.13479616e-03 0. 3.13479616e-03 0. 0. 0. 0.
      1.56739808e-03 1.56739808e-03 0. 0. 0. 0. 0. 0. 0. 0. 0.
      3.13479616e-03 0. 0. 0. 1.56739808e-03 0. 0. 0. 0. 0. 0. 0. 0. 0.
      0. 0. 0. 0. 0. 0. 0. 0. 0. 0.</_>
    <_>
      2.08333343e-01 1.66666672e-01 1.66666672e-01 1.66666672e-01
      1.66666672e-01 1.66666672e-01 1.66666672e-01 2.08333343e-01
      1.66666672e-01 8.33333358e-02 4.16666679e-02 4.16666679e-02
      2.50000000e-01 8.33333358e-02 1.25000000e-01 8.33333358e-02
      3.33333343e-01 4.58333343e-01 5.41666687e-01 6.25000000e-01
      5.83333373e-01 4.16666687e-01 3.33333343e-01 7.91666687e-01
      7.91666687e-01 3.75000000e-01 2.91666687e-01 1.66666672e-01
      8.33333358e-02 8.33333358e-02 8.33333358e-02 7.08333373e-01 1.
      9.58333373e-01 4.58333343e-01 4.58333343e-01 3.75000000e-01
      4.16666687e-01 4.58333343e-01 5.83333373e-01 5.83333373e-01
      5.83333373e-01 4.58333343e-01 2.91666687e-01 1.25000000e-01
      4.16666679e-02 4.16666679e-02 8.33333358e-02 1.66666672e-01
      8.33333358e-02 4.16666679e-02 4.16666679e-02 4.16666679e-02
      2.08333343e-01 5.41666687e-01 7.08333373e-01 6.66666687e-01
      5.00000000e-01 3.75000000e-01 4.16666687e-01 5.00000000e-01
      4.16666687e-01 5.83333373e-01 7.91666687e-01 6.25000000e-01
      1.66666672e-01 8.33333358e-02 8.33333358e-02 1.25000000e-01
      3.33333343e-01 6.25000000e-01 8.33333373e-01 6.66666687e-01
      4.58333343e-01 3.75000000e-01 4.16666687e-01 4.58333343e-01
      4.58333343e-01 7.50000000e-01 7.91666687e-01 4.58333343e-01
      1.25000000e-01 1.25000000e-01 8.33333358e-02 1.25000000e-01
      8.75000000e-01 9.58333373e-01 4.58333343e-01 2.91666687e-01
      2.91666687e-01 3.33333343e-01 2.91666687e-01 2.91666687e-01
      2.91666687e-01 3.33333343e-01 2.08333343e-01 2.08333343e-01
      8.33333358e-02 8.33333358e-02 4.16666679e-02 2.08333343e-01
      5.83333373e-01 7.91666687e-01 7.91666687e-01 5.00000000e-01
      3.33333343e-01 3.33333343e-01 4.16666687e-01 5.00000000e-01
      7.08333373e-01 7.50000000e-01 5.41666687e-01 8.33333358e-02
      8.33333358e-02 8.33333358e-02 1.25000000e-01 2.08333343e-01
      3.33333343e-01 5.00000000e-01 4.16666687e-01 4.16666687e-01
      4.16666687e-01 3.75000000e-01 3.75000000e-01 4.16666687e-01
      4.58333343e-01 5.41666687e-01 3.75000000e-01 8.33333358e-02
      8.33333358e-02 1.25000000e-01 3.33333343e-01 4.16666679e-02
      8.33333358e-02 1.25000000e-01 1.66666672e-01 1. 3.53846163e-01
      8.46153870e-02 6.15384616e-02 7.69230798e-02 3.92307699e-01
      4.61538464e-01 4.61538471e-02 4.61538471e-02 1.53846154e-02
      6.15384616e-02 2.46153846e-01 4.69230771e-01 4.53846157e-01
      2.46153846e-01 2.15384617e-01 1.76923081e-01 2.00000003e-01
      2.61538476e-01 3.15384626e-01 4.23076928e-01 4.07692313e-01
      3.23076934e-01 2.61538476e-01 2.46153846e-01 2.30769232e-01
      2.00000003e-01 2.15384617e-01 2.15384617e-01 3.53846163e-01
      4.23076928e-01 2.92307705e-01 0. 0. 0. 6.15384616e-02
      1.20336944e-02 0. 0. 0. 0. 0. 0. 0. 0. 0. 0. 0. 0. 0. 0. 0. 0. 0.
      0. 0. 0. 0. 0. 0. 0. 0. 0. 0. 0. 0. 0. 0. 0. 0. 0. 0. 0. 0. 0. 0.
      0. 0. 0. 0. 0. 0. 0. 0. 0. 0. 1.08303251e-02 0. 0. 0. 0. 0. 0. 0.
      0. 0. 0. 0. 0. 0. 0. 0. 0. 0. 0. 0. 0. 0. 0. 1.20336947e-03 0.
      3.61010851e-03 0. 0. 0. 1.20336947e-03 3.61010851e-03 0. 0. 0. 0.
      0. 0. 1.20336944e-02 0. 0. 1.20336944e-02 0. 2.40673893e-03
      3.61010851e-03 0. 2.16606501e-02 1.08303251e-02 0. 2.64741275e-02
      1.68471728e-02 3.24909762e-02 8.06257576e-02 5.53549938e-02
      8.18291232e-02 4.33213003e-02 1.02286406e-01 6.73886910e-02
      9.98796672e-02 8.42358619e-02 1.17930211e-01 1.19133577e-01
      1.51624545e-01 2.94825524e-01 1.85318902e-01 6.26955509e-01
      3.10469329e-01 1. 7.49699175e-01 3.51383895e-01 5.17448843e-01
      3.42960298e-01 8.18291232e-02 3.73044536e-02 7.94223845e-02
      1.08303251e-02 6.73886910e-02 3.85078229e-02 1.20336947e-03 0. 0.
      2.40673893e-03 0. 4.81347786e-03 1.44404341e-02 0. 0. 0. 0. 0. 0.
      0. 0. 0. 0. 0. 0. 0. 0. 0. 0. 0. 0. 0. 0. 0. 0. 0. 0. 0. 0. 0. 0.
      0. 0. 0. 0. 0. 0. 0. 0. 0. 0. 0. 0. 0. 0. 0. 0. 0. 0.</_>
    <_>
      1. 1. 9.25925910e-01 9.25925910e-01 9.62962985e-01 1. 1. 1.
      5.92592597e-01 1.11111112e-01 3.70370373e-02 3.70370373e-02
      9.62962985e-01 8.88888896e-01 7.40740746e-02 7.40740746e-02
      1.85185194e-01 4.44444448e-01 5.18518507e-01 5.18518507e-01
      5.55555582e-01 4.81481493e-01 3.70370388e-01 7.03703701e-01
      8.14814806e-01 4.81481493e-01 4.07407403e-01 3.33333343e-01
      1.85185194e-01 1.85185194e-01 1.48148149e-01 8.88888896e-01
      9.25925910e-01 9.25925910e-01 4.07407403e-01 2.96296299e-01
      2.59259254e-01 2.22222224e-01 2.96296299e-01 2.96296299e-01
      7.03703701e-01 7.03703701e-01 6.29629612e-01 3.33333343e-01
      1.11111112e-01 1.11111112e-01 1.11111112e-01 1.11111112e-01
      1.11111112e-01 1.11111112e-01 1.11111112e-01 1.11111112e-01
      1.11111112e-01 1.11111112e-01 1.11111112e-01 1.11111112e-01
      1.11111112e-01 5.18518507e-01 8.88888896e-01 8.88888896e-01
      7.77777791e-01 1.48148149e-01 1.11111112e-01 1.11111112e-01
      1.48148149e-01 1.48148149e-01 1.11111112e-01 1.11111112e-01
      3.70370388e-01 4.44444448e-01 5.92592597e-01 5.55555582e-01
      4.44444448e-01 4.44444448e-01 4.81481493e-01 5.18518507e-01
      5.92592597e-01 7.40740776e-01 5.92592597e-01 4.81481493e-01
      1.11111112e-01 1.11111112e-01 1.11111112e-01 2.96296299e-01
      5.18518507e-01 6.66666687e-01 7.03703701e-01 5.18518507e-01
      4.44444448e-01 4.44444448e-01 4.44444448e-01 4.44444448e-01
      5.55555582e-01 4.81481493e-01 4.44444448e-01 2.96296299e-01
      1.11111112e-01 1.11111112e-01 1.11111112e-01 4.44444448e-01
      5.18518507e-01 6.29629612e-01 4.44444448e-01 4.81481493e-01
      4.07407403e-01 3.70370388e-01 4.44444448e-01 4.44444448e-01
      4.81481493e-01 4.44444448e-01 3.33333343e-01 1.11111112e-01
      1.48148149e-01 1.48148149e-01 4.07407403e-01 5.55555582e-01
      6.66666687e-01 5.92592597e-01 5.55555582e-01 4.81481493e-01
      4.44444448e-01 5.18518507e-01 4.81481493e-01 5.55555582e-01
      5.18518507e-01 4.44444448e-01 1.48148149e-01 1.11111112e-01
      7.77777791e-01 9.62962985e-01 0. 3.70370373e-02 3.70370373e-02
      4.07407403e-01 9.62962985e-01 9.62962985e-01 1. 4.43609029e-01
      6.76691756e-02 9.02255625e-02 2.78195500e-01 1.65413544e-01
      1.05263159e-01 1.05263159e-01 1.05263159e-01 2.03007519e-01
      3.45864683e-01 4.28571433e-01 4.36090231e-01 4.13533837e-01
      3.68421048e-01 3.23308289e-01 3.23308289e-01 4.58646625e-01
      5.33834577e-01 5.26315808e-01 4.73684222e-01 4.51127827e-01
      4.13533837e-01 4.13533837e-01 4.21052635e-01 3.83458644e-01
      3.98496240e-01 3.98496240e-01 3.68421048e-01 2.33082712e-01
      4.51127812e-02 2.25563906e-02 7.51879718e-03 3.38345885e-01
      6.99248135e-01 1.65413544e-01 3.36099595e-01 0. 0. 0. 0. 0.
      2.15767652e-01 0. 4.14937781e-03 0. 0. 4.14937781e-03 0.
      3.31950225e-02 4.14937781e-03 0. 2.07468886e-02 4.14937781e-03 0.
      3.73443998e-02 1.82572618e-01 4.14937772e-02 7.05394223e-02
      2.48962678e-02 1.41078845e-01 7.88381770e-02 1.99170142e-01
      2.90456451e-02 4.14937772e-02 9.95850712e-02 3.31950217e-01 0.
      6.63900450e-02 7.46887997e-02 1.41078845e-01 2.86307067e-01
      1.36929467e-01 4.56431545e-02 1.20331958e-01 7.05394223e-02
      1.16182581e-01 2.90456451e-02 2.69709557e-01 3.56846482e-01
      2.90456451e-02 7.88381770e-02 1.65975109e-01 4.14937781e-03
      2.57261425e-01 2.48962678e-02 4.19087172e-01 3.40248972e-01
      1.86721995e-01 7.88381770e-02 1.12033203e-01 4.31535304e-01
      3.94190878e-01 1.53526977e-01 1.53526977e-01 0. 6.43153548e-01 0.
      2.07468897e-01 3.40248972e-01 2.48962678e-02 2.86307067e-01 1.
      3.02904576e-01 2.90456444e-01 3.94190878e-01 5.22821605e-01
      1.61825731e-01 1.86721995e-01 2.86307067e-01 4.85477209e-01
      2.98755199e-01 1.53526977e-01 4.97925356e-02 0. 2.73858935e-01
      8.17427456e-01 8.29875562e-03 0. 3.65145236e-01 7.46887997e-02
      1.41078845e-01 0. 5.14522851e-01 4.14937781e-03 0. 5.22821605e-01
      0. 4.14937781e-03 1.61825731e-01 0. 1.41078845e-01 5.02074718e-01
      0. 1.78423241e-01 0. 0. 3.36099595e-01 0. 3.90041500e-01
      1.28630713e-01 1.65975112e-02 1.78423241e-01 4.14937781e-03
      3.73443998e-02 1.90871373e-01 2.78008312e-01 2.94605821e-01
      9.54356864e-02 1.07883826e-01 2.28215784e-01 1.78423241e-01
      9.54356864e-02 0. 0. 0. 4.56431568e-01 0. 0. 0. 2.48962678e-02
      1.07883826e-01 1.70124486e-01 0. 0. 0. 0. 0. 1.41078845e-01
      2.48962678e-02 0. 0. 0. 0. 4.14937781e-03 0. 1.65975109e-01
      1.65975112e-02 4.14937781e-03 0. 0. 6.22406676e-02 4.14937781e-03
      0. 0. 0. 5.80912903e-02 0. 0. 4.14937781e-03 0. 0. 7.46887997e-02
      0. 8.29875562e-03 0. 4.97925356e-02 0. 0. 2.48962678e-02
      4.14937772e-02 1.61825731e-01 0. 0. 0. 8.29875562e-03
      6.63900450e-02 0. 0. 2.40663916e-01 0. 0. 4.14937781e-03
      4.14937772e-02 0. 0.</_>
    <_>
      1. 1. 9.72222209e-01 7.50000000e-01 3.05555552e-01 5.55555582e-01
      9.16666687e-01 8.61111104e-01 7.50000000e-01 5.00000000e-01
      4.44444448e-01 6.38888896e-01 7.50000000e-01 5.27777791e-01
      4.44444448e-01 3.88888896e-01 3.61111104e-01 4.72222239e-01
      5.00000000e-01 5.55555582e-01 6.94444478e-01 9.16666687e-01
      9.44444478e-01 8.05555582e-01 7.50000000e-01 6.66666687e-01
      5.83333313e-01 5.27777791e-01 5.00000000e-01 5.00000000e-01
      5.27777791e-01 4.72222239e-01 2.77777791e-01 2.77777791e-01
      3.88888896e-01 4.72222239e-01 6.66666687e-01 8.61111104e-01
      8.88888896e-01 9.16666687e-01 9.44444478e-01 8.88888896e-01
      8.61111104e-01 8.33333313e-01 8.88888896e-01 9.44444478e-01
      9.44444478e-01 7.77777791e-01 3.61111104e-01 3.61111104e-01
      3.61111104e-01 5.00000000e-01 7.22222209e-01 7.22222209e-01
      7.50000000e-01 7.22222209e-01 7.22222209e-01 6.66666687e-01
      3.61111104e-01 3.88888896e-01 4.44444448e-01 7.22222209e-01
      9.16666687e-01 8.88888896e-01 8.88888896e-01 8.33333313e-01
      7.22222209e-01 6.94444478e-01 6.38888896e-01 6.11111104e-01
      6.38888896e-01 6.66666687e-01 6.11111104e-01 5.55555582e-01
      4.72222239e-01 4.72222239e-01 5.55555582e-01 6.94444478e-01
      8.88888896e-01 8.88888896e-01 8.88888896e-01 8.61111104e-01
      7.22222209e-01 6.38888896e-01 6.38888896e-01 6.11111104e-01
      6.38888896e-01 6.11111104e-01 6.11111104e-01 5.00000000e-01
      5.00000000e-01 4.16666657e-01 4.44444448e-01 5.55555582e-01
      6.66666687e-01 9.16666687e-01 9.16666687e-01 8.88888896e-01
      7.50000000e-01 5.55555582e-01 3.88888896e-01 3.33333343e-01
      4.16666657e-01 5.27777791e-01 6.38888896e-01 5.83333313e-01
      5.83333313e-01 5.27777791e-01 4.16666657e-01 3.88888896e-01
      5.00000000e-01 7.50000000e-01 9.16666687e-01 8.88888896e-01
      9.16666687e-01 9.16666687e-01 9.44444478e-01 9.44444478e-01
      9.44444478e-01 8.61111104e-01 5.55555582e-01 3.33333343e-01
      3.88888896e-01 5.27777791e-01 8.05555582e-01 9.16666687e-01
      9.16666687e-01 9.44444478e-01 9.16666687e-01 8.61111104e-01
      7.22222209e-01 5.27777791e-01 3.88888896e-01 7.22222209e-01 1. 1.
      1. 7.57352948e-01 6.39705896e-01 6.25000000e-01 6.39705896e-01
      7.05882370e-01 8.45588267e-01 7.64705896e-01 6.25000000e-01
      5.14705896e-01 5.36764681e-01 6.17647052e-01 6.17647052e-01
      6.02941155e-01 6.25000000e-01 6.61764681e-01 5.73529422e-01
      5.73529422e-01 6.54411793e-01 6.47058845e-01 6.39705896e-01
      6.32352948e-01 5.51470578e-01 5.51470578e-01 5.58823526e-01
      5.51470578e-01 5.73529422e-01 7.42647052e-01 8.16176474e-01
      8.60294104e-01 6.98529422e-01 5.95588267e-01 6.25000000e-01
      7.42647052e-01 8.08823526e-01 9.41176474e-01 1.13314446e-02 0. 0.
      0. 0. 4.24929149e-03 2.26628892e-02 0. 1.41643062e-02 0. 0.
      1.69971660e-02 1.41643058e-03 2.83286124e-02 2.83286115e-03
      3.54107656e-02 3.82436253e-02 3.82436253e-02 5.38243614e-02
      1.92634553e-01 2.93201119e-01 5.59490085e-01 8.89518380e-01 1.
      7.40793169e-01 4.68838513e-01 6.81303084e-01 3.81019831e-01
      3.07365447e-01 2.71954656e-01 2.18130305e-01 1.16147310e-01
      8.21529701e-02 8.21529701e-02 6.65722340e-02 9.49008465e-02
      2.26628892e-02 1.98300276e-02 8.49858299e-03 9.91501380e-03
      9.91501380e-03 1.41643058e-03 1.41643062e-02 1.69971660e-02
      1.41643058e-03 1.41643058e-03 2.83286115e-03 0. 4.24929149e-03
      1.41643058e-03 1.13314446e-02 0. 0. 2.83286115e-03 1.41643058e-03
      7.08215311e-03 2.83286115e-03 1.41643058e-03 0. 0. 0. 0. 0. 0. 0.
      0. 5.66572230e-03 0. 0. 0. 0. 0. 0. 0. 0. 2.83286115e-03 0. 0. 0.
      0. 0. 0. 0. 2.83286115e-03 0. 0. 0. 0. 0. 0. 0. 0. 0. 0. 0. 0. 0.
      0. 0. 0. 0. 0. 0. 1.41643058e-03 0. 0. 0. 0. 0. 0. 4.24929149e-03
      0. 0. 0. 2.83286115e-03 0. 0. 0. 0. 0. 7.08215311e-03 0. 0. 0.
      1.41643058e-03 1.41643058e-03 1.41643058e-03 0. 0. 0. 0. 0. 0. 0.
      0. 0. 0. 0. 1.41643058e-03 0. 4.24929149e-03 1.41643058e-03 0. 0.
      0. 0. 0. 0. 0. 0. 1.41643058e-03 0. 0. 0. 0. 0. 1.41643058e-03 0.
      0. 0. 1.41643058e-03 0. 0. 0. 0. 5.66572230e-03 0. 0. 0. 0.
      7.08215311e-03 0. 0. 8.49858299e-03 0. 0. 0. 1.55807361e-02 0. 0.</_>
    <_>
      0. 1.66666672e-01 1. 1. 0. 0. 2.77777791e-01 4.72222239e-01
      5.55555582e-01 6.66666687e-01 6.66666687e-01 5.55555582e-01
      4.72222239e-01 3.88888896e-01 6.94444478e-01 7.50000000e-01
      6.94444478e-01 2.77777791e-01 2.22222224e-01 3.61111104e-01
      1.66666672e-01 2.77777780e-02 0. 8.05555582e-01 8.05555582e-01
      8.05555582e-01 8.05555582e-01 1.11111112e-01 1.11111112e-01
      1.11111112e-01 6.11111104e-01 5.83333313e-01 6.11111104e-01
      6.11111104e-01 6.11111104e-01 5.55555582e-01 5.83333313e-01
      5.55555582e-01 4.72222239e-01 4.72222239e-01 4.72222239e-01
      5.00000000e-01 5.83333313e-01 5.83333313e-01 6.66666687e-01
      5.27777791e-01 5.00000000e-01 6.38888896e-01 5.27777791e-01
      3.88888896e-01 4.72222239e-01 4.16666657e-01 4.16666657e-01
      4.44444448e-01 4.72222239e-01 5.00000000e-01 5.27777791e-01
      6.94444478e-01 5.83333313e-01 4.72222239e-01 3.61111104e-01 0.
      5.55555560e-02 2.22222224e-01 4.72222239e-01 5.55555582e-01
      6.38888896e-01 3.88888896e-01 1.94444448e-01 3.61111104e-01
      5.00000000e-01 6.11111104e-01 6.94444478e-01 5.27777791e-01
      4.16666657e-01 3.33333343e-01 4.16666657e-01 3.33333343e-01
      3.61111104e-01 2.50000000e-01 3.61111104e-01 6.11111104e-01
      6.94444478e-01 6.38888896e-01 3.88888896e-01 1.94444448e-01
      2.77777791e-01 4.72222239e-01 5.55555582e-01 6.66666687e-01
      6.66666687e-01 4.72222239e-01 3.61111104e-01 2.77777791e-01
      3.05555552e-01 3.05555552e-01 1.94444448e-01 1.11111112e-01
      2.50000000e-01 4.72222239e-01 4.72222239e-01 5.00000000e-01
      5.27777791e-01 5.55555582e-01 4.44444448e-01 4.44444448e-01
      4.44444448e-01 4.44444448e-01 4.72222239e-01 5.55555582e-01
      5.55555582e-01 5.83333313e-01 3.61111104e-01 1.94444448e-01
      8.33333358e-02 1.11111112e-01 4.72222239e-01 5.55555582e-01
      5.55555582e-01 6.38888896e-01 5.00000000e-01 5.00000000e-01
      4.16666657e-01 3.88888896e-01 4.16666657e-01 3.88888896e-01
      4.72222239e-01 5.00000000e-01 3.88888896e-01 2.50000000e-01 0.
      8.33333358e-02 6.94444478e-01 1. 9.16666687e-01 0. 9.09090936e-02
      7.95454532e-02 1.25000000e-01 6.25000000e-01 9.20454562e-01
      8.97727311e-01 9.43181872e-01 8.40909123e-01 6.47727311e-01
      6.47727311e-01 6.47727311e-01 6.36363626e-01 8.06818187e-01
      7.84090936e-01 7.95454562e-01 9.31818187e-01 9.43181872e-01 1.
      9.09090936e-01 8.75000000e-01 8.06818187e-01 8.52272749e-01
      9.09090936e-01 8.97727311e-01 8.75000000e-01 8.40909123e-01
      7.72727311e-01 8.18181872e-01 9.43181872e-01 9.54545498e-01
      8.52272749e-01 6.93181813e-01 3.63636374e-01 7.95454532e-02
      4.54545468e-02 5.68181835e-02 1.34615391e-01 3.84615385e-03 0.
      7.69230770e-03 0. 1.15384618e-02 3.46153863e-02 0. 3.84615385e-03
      7.69230770e-03 0. 7.69230770e-03 0. 2.30769236e-02 7.69230770e-03
      3.84615385e-03 3.84615385e-03 0. 0. 0. 3.07692308e-02
      7.69230770e-03 0. 7.69230770e-03 1.15384618e-02 7.69230770e-03 0.
      0. 0. 0. 4.61538471e-02 0. 0. 0. 0. 3.07692308e-02 3.84615385e-03
      0. 7.69230770e-03 0. 3.84615385e-03 0. 2.30769236e-02
      3.84615385e-03 0. 3.84615385e-03 0. 0. 0. 0. 2.69230772e-02
      3.84615385e-03 0. 0. 0. 2.69230772e-02 7.69230770e-03 0. 0. 0.
      3.84615399e-02 0. 0. 0. 0. 0. 7.69230770e-03 0. 0. 0.
      7.69230770e-03 0. 3.84615385e-03 0. 0. 8.07692334e-02
      7.69230770e-03 0. 7.69230770e-03 3.84615399e-02 1.23076923e-01
      1.53846154e-02 0. 3.84615399e-02 2.30769236e-02 1.53846154e-02 0.
      1.30769238e-01 3.84615385e-03 7.69230770e-03 1.65384620e-01
      3.84615385e-03 4.23076935e-02 8.84615406e-02 3.84615385e-03
      3.23076934e-01 3.92307699e-01 7.69230770e-03 2.61538476e-01
      6.15384616e-02 5.76923080e-02 4.38461542e-01 1.46153852e-01
      5.80769241e-01 2.19230771e-01 3.15384626e-01 4.57692295e-01
      3.00000012e-01 1.96153849e-01 5.23076952e-01 5.00000000e-01
      8.46153855e-01 7.15384603e-01 5.57692289e-01 7.84615397e-01
      5.26923060e-01 1. 3.03846151e-01 2.65384614e-01 3.00000012e-01
      7.65384614e-01 8.07692334e-02 3.11538458e-01 1.34615391e-01
      3.00000012e-01 5.26923060e-01 1.61538467e-01 1.42307699e-01
      2.38461539e-01 9.23076943e-02 1.65384620e-01 4.23076935e-02
      1.96153849e-01 2.38461539e-01 5.00000007e-02 1.19230770e-01
      1.00000001e-01 7.69230770e-03 2.76923090e-01 2.30769236e-02
      1.42307699e-01 2.07692310e-01 1.30769238e-01 7.69230798e-02
      8.84615406e-02 1.80769235e-01 1.53846160e-01 8.46153870e-02
      6.15384616e-02 1.15384618e-02 2.34615386e-01 1.15384618e-02
      1.07692309e-01 1.69230774e-01 1.15384618e-02 1.26923084e-01
