<?xml version="1.0"?>
<opencv_storage>
<opencv_ml_ann_mlp>
  <format>3</format>
  <layer_sizes>
    120 40 65</layer_sizes>
  <activation_function>SIGMOID_SYM</activation_function>
  <f_param1>1.</f_param1>
  <f_param2>1.</f_param2>
  <min_val>-9.4999999999999996e-01</min_val>
  <max_val>9.4999999999999996e-01</max_val>
  <min_val1>-9.7999999999999998e-01</min_val1>
  <max_val1>9.7999999999999998e-01</max_val1>
  <training_params>
    <train_method>BACKPROP</train_method>
    <dw_scale>1.0000000000000001e-01</dw_scale>
    <moment_scale>1.0000000000000001e-01</moment_scale>
    <term_criteria>
      <iterations>30000</iterations></term_criteria></training_params>
  <input_scale>
    2.2614712088492713e+01 -9.3810210497234148e-02
    4.0728792887985543e+00 -5.0759354669814305e-01
    3.1190655273328542e+00 -2.0560312778333363e+00
    4.3092149083621303e+00 -3.7266686989380489e+00
    4.1882391005031918e+00 -3.2423570636023444e+00
    4.4840619140029441e+00 -3.7269131692210142e+00
    4.2996224025549523e+00 -3.6430059173960494e+00
    2.9362245666922506e+00 -1.4906194759557243e+00
    5.6631095647229452e+00 -3.5881020853240991e-01
    3.4211409847286419e+01 -5.3876128582348803e-02
    3.9792042513959500e+00 -2.8632503050620923e+00
    4.7371807746605690e+00 -3.9100173584742040e+00
    4.3297313505360764e+00 -3.1724640980909777e+00
    4.4403885558846330e+00 -3.3455110506094390e+00
    4.8465342764901100e+00 -3.8437666365961149e+00
    4.7567740092940394e+00 -3.6949112119754353e+00
    4.3678056939054883e+00 -3.1226034651460353e+00
    4.6459864328672786e+00 -3.4664881264742311e+00
    4.5630696380671534e+00 -3.6960763348989607e+00
    3.6053923533559380e+00 -2.2928112570683332e+00
    2.8297264389668253e-01 -4.8172516999933815e-02
    4.5331388112079533e-02 -2.7946795038958644e-01
    1.3947257707592626e-02 -8.2844564198402981e-01
    1.1430244520535673e-02 -1.3884251409085606e+00
    1.0222356963966846e-02 -1.3683063730886180e+00
    1.0902719754612072e-02 -1.5529409553322300e+00
    1.1735512898819805e-02 -1.3815033573689290e+00
    1.6628387698010491e-02 -6.4312372551299501e-01
    6.0209406046455111e-02 -1.8730413371278093e-01
    3.5238211170415107e-01 -3.9427992338876255e-02
    2.5263833380913686e-01 -6.4129373653058125e-02
    3.0643561614438139e-02 -3.5184020984109504e-01
    1.1828522624747911e-02 -1.1384992555867275e+00
    1.1640596525729357e-02 -1.8204473165891322e+00
    1.1642617051342622e-02 -1.4385040356062577e+00
    1.2155688396171191e-02 -1.7629327381082454e+00
    1.1469023618478713e-02 -1.8769449341779325e+00
    1.3462744299179376e-02 -8.6650772959313016e-01
    4.3131684713738745e-02 -2.3150615049303069e-01
    2.7524697011619736e-01 -4.6300440509448135e-02
    2.5767551467475686e-01 -6.4970461971716034e-02
    2.9221390114336866e-02 -3.6127832254189474e-01
    1.1119423029082469e-02 -1.0950588897920488e+00
    1.1683368401640078e-02 -1.5837280944514607e+00
    1.0242479424236051e-02 -1.0426332651489110e+00
    1.0405345780367779e-02 -1.1803186075750138e+00
    1.1007875242483183e-02 -1.5911404636103499e+00
    1.2526776929975125e-02 -8.5362433591932840e-01
    4.1839698957287411e-02 -2.4453375989086823e-01
    3.3477961276703855e-01 -4.7521554194938198e-02
    2.0407058618820514e-01 -5.7758191126789232e-02
    2.9602483394987902e-02 -3.6040935300265070e-01
    1.1141931478299822e-02 -1.1175551700022703e+00
    1.1513607882607944e-02 -1.6662747568005669e+00
    1.0278242782018882e-02 -1.2197280090289528e+00
    1.0815514236267029e-02 -1.3474085563291618e+00
    1.0737240869372756e-02 -1.4915485759271898e+00
    1.2524335185156540e-02 -8.1545010198874690e-01
    4.3443843865260436e-02 -2.4147205632930102e-01
    3.2030130974357157e-01 -4.8498240150847520e-02
    1.9487189159716367e-01 -5.6851422545868592e-02
    3.1888402343906601e-02 -3.2285639279062456e-01
    1.1245211559583607e-02 -1.0286189496110958e+00
    1.0884049655809493e-02 -1.7118350249728840e+00
    1.1111675836908067e-02 -1.7402861892848933e+00
    1.1811741393643575e-02 -1.9802254930799357e+00
    1.1592310875820957e-02 -1.7849017655098729e+00
    1.3131558488233139e-02 -7.6599128995196841e-01
    4.8000728871745883e-02 -2.1857942366861965e-01
    3.4783205809143086e-01 -3.8529321511193579e-02
    1.8752110610675782e-01 -5.7355890180274274e-02
    3.2737756173377992e-02 -2.9537075441387023e-01
    1.1287139598858038e-02 -9.8332684258524883e-01
    1.1076408674815560e-02 -1.6578761447745698e+00
    1.1262630257747390e-02 -1.5446498627053566e+00
    1.1585603830774603e-02 -1.7822136172732317e+00
    1.1224527254747461e-02 -1.7834723092445723e+00
    1.2832960156371228e-02 -7.9812629647262257e-01
    4.8816377419810597e-02 -2.0770637554576013e-01
    3.4720624183528553e-01 -3.2677201487803710e-02
    1.7088806143534480e-01 -6.4060642561260789e-02
    3.0918923152564996e-02 -3.1609709021908045e-01
    1.1110558615275129e-02 -1.0282507094241400e+00
    1.1002614128376081e-02 -1.4944216467622811e+00
    1.0711086683318147e-02 -1.0631013774018239e+00
    1.0747938363349635e-02 -1.2580764927601540e+00
    1.0836436437974066e-02 -1.6151215411638755e+00
    1.2256772603888843e-02 -8.3874867530771735e-01
    4.5102410587206265e-02 -2.2974870409852766e-01
    3.3860886797444206e-01 -3.4229112778369479e-02
    1.6193872131378587e-01 -7.5273802826083633e-02
    2.8074973137644062e-02 -3.4527581581317479e-01
    1.1189493191251775e-02 -1.1574740177286935e+00
    1.1715174127803424e-02 -1.7038660312631646e+00
    1.0979983938519431e-02 -1.0939545354658284e+00
    1.0403043414736088e-02 -1.2194788082463690e+00
    1.0700970869039574e-02 -1.5906195427638112e+00
    1.2121068613257957e-02 -8.7517934012611631e-01
    4.4645276424093404e-02 -2.4945481667128833e-01
    3.6539747336258832e-01 -3.6118627375267949e-02
    1.6147643842512258e-01 -8.0262756597161616e-02
    2.9958482610517704e-02 -3.4431527918675026e-01
    1.1696691660646678e-02 -1.1413176092813864e+00
    1.1361574793917226e-02 -1.7667328847428849e+00
    1.2192651229795733e-02 -1.4826244513349378e+00
    1.2713231111017315e-02 -1.7082069436831795e+00
    1.0479302834364863e-02 -1.5749053047577930e+00
    1.3462211410430934e-02 -8.6369383144014744e-01
    4.6056005011701248e-02 -2.4210892565564432e-01
    3.0651008987948247e-01 -4.1028212110389921e-02
    2.3927712616725580e-01 -6.4878602257496837e-02
    4.6250891749074083e-02 -2.5666997460589347e-01
    1.4884309385422243e-02 -7.3373907505720282e-01
    1.1583552128366464e-02 -1.1955724849320168e+00
    1.0074654277840392e-02 -1.1731325054916013e+00
    1.0489069883274615e-02 -1.1672691256254892e+00
    1.1990689820844894e-02 -1.0981590032020165e+00
    1.7567907042671600e-02 -5.9822852214547040e-01
    6.6808437593425876e-02 -1.9453350324360535e-01
    4.0850788422498596e-01 -3.3487640063098130e-02</input_scale>
  <output_scale>
    5.2631578947368418e-01 4.9999999999999994e-01 5.2631578947368418e-01
    4.9999999999999994e-01 5.2631578947368418e-01 4.9999999999999994e-01
    5.2631578947368418e-01 4.9999999999999994e-01 5.2631578947368418e-01
    4.9999999999999994e-01 5.2631578947368418e-01 4.9999999999999994e-01
    5.2631578947368418e-01 4.9999999999999994e-01 5.2631578947368418e-01
    4.9999999999999994e-01 5.2631578947368418e-01 4.9999999999999994e-01
    5.2631578947368418e-01 4.9999999999999994e-01 5.2631578947368418e-01
    4.9999999999999994e-01 5.2631578947368418e-01 4.9999999999999994e-01
    5.2631578947368418e-01 4.9999999999999994e-01 5.2631578947368418e-01
    4.9999999999999994e-01 5.2631578947368418e-01 4.9999999999999994e-01
    5.2631578947368418e-01 4.9999999999999994e-01 5.2631578947368418e-01
    4.9999999999999994e-01 5.2631578947368418e-01 4.9999999999999994e-01
    5.2631578947368418e-01 4.9999999999999994e-01 5.2631578947368418e-01
    4.9999999999999994e-01 5.2631578947368418e-01 4.9999999999999994e-01
    5.2631578947368418e-01 4.9999999999999994e-01 5.2631578947368418e-01
    4.9999999999999994e-01 5.2631578947368418e-01 4.9999999999999994e-01
    5.2631578947368418e-01 4.9999999999999994e-01 5.2631578947368418e-01
    4.9999999999999994e-01 5.2631578947368418e-01 4.9999999999999994e-01
    5.2631578947368418e-01 4.9999999999999994e-01 5.2631578947368418e-01
    4.9999999999999994e-01 5.2631578947368418e-01 4.9999999999999994e-01
    5.2631578947368418e-01 4.9999999999999994e-01 5.2631578947368418e-01
    4.9999999999999994e-01 5.2631578947368418e-01 4.9999999999999994e-01
    5.2631578947368418e-01 4.9999999999999994e-01 5.2631578947368418e-01
    4.9999999999999994e-01 5.2631578947368418e-01 4.9999999999999994e-01
    5.2631578947368418e-01 4.9999999999999994e-01 5.2631578947368418e-01
    4.9999999999999994e-01 5.2631578947368418e-01 4.9999999999999994e-01
    5.2631578947368418e-01 4.9999999999999994e-01 5.2631578947368418e-01
    4.9999999999999994e-01 5.2631578947368418e-01 4.9999999999999994e-01
    5.2631578947368418e-01 4.9999999999999994e-01 5.2631578947368418e-01
    4.9999999999999994e-01 5.2631578947368418e-01 4.9999999999999994e-01
    5.2631578947368418e-01 4.9999999999999994e-01 5.2631578947368418e-01
    4.9999999999999994e-01 5.2631578947368418e-01 4.9999999999999994e-01
    5.2631578947368418e-01 4.9999999999999994e-01 5.2631578947368418e-01
    4.9999999999999994e-01 5.2631578947368418e-01 4.9999999999999994e-01
    5.2631578947368418e-01 4.9999999999999994e-01 5.2631578947368418e-01
    4.9999999999999994e-01 5.2631578947368418e-01 4.9999999999999994e-01
    5.2631578947368418e-01 4.9999999999999994e-01 5.2631578947368418e-01
    4.9999999999999994e-01 5.2631578947368418e-01 4.9999999999999994e-01
    5.2631578947368418e-01 4.9999999999999994e-01 5.2631578947368418e-01
    4.9999999999999994e-01 5.2631578947368418e-01 4.9999999999999994e-01
    5.2631578947368418e-01 4.9999999999999994e-01 5.2631578947368418e-01
    4.9999999999999994e-01 5.2631578947368418e-01 4.9999999999999994e-01
    5.2631578947368418e-01 4.9999999999999994e-01 5.2631578947368418e-01
    4.9999999999999994e-01</output_scale>
  <inv_output_scale>
    1.8999999999999999e+00 -9.4999999999999996e-01
    1.8999999999999999e+00 -9.4999999999999996e-01
    1.8999999999999999e+00 -9.4999999999999996e-01
    1.8999999999999999e+00 -9.4999999999999996e-01
    1.8999999999999999e+00 -9.4999999999999996e-01
    1.8999999999999999e+00 -9.4999999999999996e-01
    1.8999999999999999e+00 -9.4999999999999996e-01
    1.8999999999999999e+00 -9.4999999999999996e-01
    1.8999999999999999e+00 -9.4999999999999996e-01
    1.8999999999999999e+00 -9.4999999999999996e-01
    1.8999999999999999e+00 -9.4999999999999996e-01
    1.8999999999999999e+00 -9.4999999999999996e-01
    1.8999999999999999e+00 -9.4999999999999996e-01
    1.8999999999999999e+00 -9.4999999999999996e-01
    1.8999999999999999e+00 -9.4999999999999996e-01
    1.8999999999999999e+00 -9.4999999999999996e-01
    1.8999999999999999e+00 -9.4999999999999996e-01
    1.8999999999999999e+00 -9.4999999999999996e-01
    1.8999999999999999e+00 -9.4999999999999996e-01
    1.8999999999999999e+00 -9.4999999999999996e-01
    1.8999999999999999e+00 -9.4999999999999996e-01
    1.8999999999999999e+00 -9.4999999999999996e-01
    1.8999999999999999e+00 -9.4999999999999996e-01
    1.8999999999999999e+00 -9.4999999999999996e-01
    1.8999999999999999e+00 -9.4999999999999996e-01
    1.8999999999999999e+00 -9.4999999999999996e-01
    1.8999999999999999e+00 -9.4999999999999996e-01
    1.8999999999999999e+00 -9.4999999999999996e-01
    1.8999999999999999e+00 -9.4999999999999996e-01
    1.8999999999999999e+00 -9.4999999999999996e-01
    1.8999999999999999e+00 -9.4999999999999996e-01
    1.8999999999999999e+00 -9.4999999999999996e-01
    1.8999999999999999e+00 -9.4999999999999996e-01
    1.8999999999999999e+00 -9.4999999999999996e-01
    1.8999999999999999e+00 -9.4999999999999996e-01
    1.8999999999999999e+00 -9.4999999999999996e-01
    1.8999999999999999e+00 -9.4999999999999996e-01
    1.8999999999999999e+00 -9.4999999999999996e-01
    1.8999999999999999e+00 -9.4999999999999996e-01
    1.8999999999999999e+00 -9.4999999999999996e-01
    1.8999999999999999e+00 -9.4999999999999996e-01
    1.8999999999999999e+00 -9.4999999999999996e-01
    1.8999999999999999e+00 -9.4999999999999996e-01
    1.8999999999999999e+00 -9.4999999999999996e-01
    1.8999999999999999e+00 -9.4999999999999996e-01
    1.8999999999999999e+00 -9.4999999999999996e-01
    1.8999999999999999e+00 -9.4999999999999996e-01
    1.8999999999999999e+00 -9.4999999999999996e-01
    1.8999999999999999e+00 -9.4999999999999996e-01
    1.8999999999999999e+00 -9.4999999999999996e-01
    1.8999999999999999e+00 -9.4999999999999996e-01
    1.8999999999999999e+00 -9.4999999999999996e-01
    1.8999999999999999e+00 -9.4999999999999996e-01
    1.8999999999999999e+00 -9.4999999999999996e-01
    1.8999999999999999e+00 -9.4999999999999996e-01
    1.8999999999999999e+00 -9.4999999999999996e-01
    1.8999999999999999e+00 -9.4999999999999996e-01
    1.8999999999999999e+00 -9.4999999999999996e-01
    1.8999999999999999e+00 -9.4999999999999996e-01
    1.8999999999999999e+00 -9.4999999999999996e-01
    1.8999999999999999e+00 -9.4999999999999996e-01
    1.8999999999999999e+00 -9.4999999999999996e-01
    1.8999999999999999e+00 -9.4999999999999996e-01
    1.8999999999999999e+00 -9.4999999999999996e-01
    1.8999999999999999e+00 -9.4999999999999996e-01</inv_output_scale>
  <weights>
    <_>
      -2.3336018105460936e+00 1.1313135513374706e+00
      1.1397135534096619e+00 -3.7013830296505943e+00
      -4.7192473298516351e+00 3.7350556924281371e+00
      -1.1155161800992160e-02 1.1060681125202674e+00
      2.5014792002939812e+00 -7.9736038713647150e-01
      -1.4776056927740613e+00 2.9602747501176205e+00
      7.1217412639745223e+00 8.2929936042010386e+00
      2.1969719346492256e+00 4.1745408783302951e+00
      -3.1582474519754471e+00 -7.7520419238308227e-02
      3.3814437185203396e+00 -1.2698798317523246e+00
      -3.9613043649903545e+00 -2.5035902822193052e+00
      -3.1303681890135691e+00 -5.7675203706462499e+00
      -1.4657908693987662e+00 -1.7341027557058002e+00
      -4.2393013341294017e+00 9.2104279356978114e-01
      -2.4556168790307598e+00 -7.1252637051477019e-01
      1.8617376259896083e+00 -1.4726096757399807e+00
      6.6577779860651409e-01 -5.4629148237502898e+00
      -5.9233503027453693e-01 7.3816450496614650e-01
      -5.1075621897517838e+00 4.9190820702926408e-01
      -9.7669114246455357e-01 7.1733204788219063e-01
      1.6279135091824877e+00 -4.6103952511191997e+00
      6.9535107212493656e+00 -2.0074515283152246e+00
      -1.5857890995607463e-01 6.6544790381332612e+00
      -4.0553589586753453e+00 1.4517225147230590e+00
      3.5933325729538323e-01 6.0684267858434708e+00
      -4.6413727143572823e+00 7.7599924857164435e+00
      -1.2290049164953640e+00 1.4417362295496248e+00
      5.3800571182978230e+00 3.2692304792121707e+00
      -7.4650521016943006e-01 4.3417962830473353e+00
      -4.1823629839388210e-01 3.3479403705833977e+00
      -5.9925603447832216e+00 -1.6558153587624480e+00
      4.7508825066419966e+00 -1.7118150423201177e+00
      3.4533405866993805e+00 2.7787293288186135e+00
      6.6420553343582149e+00 5.8505021214209512e+00
      5.8391531260208152e-01 8.7928009540899676e-01
      2.2157813354862403e+00 3.1652838301631130e+00
      1.0525170423069035e+00 9.0280240940214274e-01
      -6.0170269273355359e+00 6.3404304789722676e+00
      1.4939913207452429e+00 3.3286357555330590e+00
      7.9383493211083982e+00 5.7172125438340480e+00
      9.4885611991913010e-01 -5.1040641611562254e+00
      9.0853966090543548e+00 -1.7403767416661586e+00
      -2.9632616589586882e+00 -3.1591338160186417e+00
      3.2529926322344171e+00 9.9282824374361622e-01
      2.4641065415229302e+00 4.8430096647299994e+00
      -4.6605241772018333e+00 -5.1954405839855635e+00
      4.7979041645126594e+00 1.5717702841878216e+00
      4.8513924001032445e+00 4.3224220144597254e+00
      2.2468299798017846e+00 7.7469080684012530e+00
      1.3761499716314707e-01 6.4437676285880370e+00
      -8.8917930436794776e+00 -1.5604489917430714e-01
      -1.2090036177286390e+00 1.0227117793413361e+01
      9.7353312452394398e+00 -3.4519389610916829e+00
      -4.3870147471236214e+00 -7.5592824885380052e+00
      7.0341648227040909e-01 3.2024010525930513e+00
      -1.4486631331856883e+00 3.5934251523605298e-01
      -2.9917796292440371e+00 8.5638631016843347e-01
      5.8270170689192895e+00 -5.9698681103693230e-01
      2.8596120905959910e+00 6.8007225083474401e+00
      -8.7848952293045091e-01 2.3858676382072632e+00
      -1.1148405238646523e-01 4.0455763412596673e+00
      -2.9108804048052779e+00 -2.0431984112701738e+00
      9.6995959854012970e+00 -3.8410274586244118e+00
      -6.4980261688012453e+00 -3.0629199464649854e+00
      4.9867739653451819e+00 5.6412775157356432e+00
      3.5316209920314292e+00 -1.0015362881386960e+01
      -8.4751572813333975e-01 -3.5369165360733885e+00
      1.1908609501063621e+01 -4.5038347060804385e-01
      1.5591335863575084e+00 -3.2426840677900346e+00
      2.8855178851753567e+00 7.0154211769781960e-01
      7.6368767173146379e+00 -8.0673484514878924e-01
      3.7851593424515255e+00 -6.7720441693311519e+00
      -3.7592185669639608e+00 -8.3699953065611812e+00
      6.7192805239323752e+00 -8.2434166876371133e+00
      5.1981979570148207e-01 -8.2466635559978414e+00
      8.0615325449661785e+00 6.7730659923024188e+00
      -1.3816155127213128e+00 1.5652124632785447e+00
      -4.6879646429838031e+00 5.3492195366754460e+00
      -8.4891439648404921e-01 -3.7460655523289073e+00
      -9.4575757329113390e+00 -8.6737418268663335e-01
      8.4935797613169040e-01 6.2352650718721172e+00
      2.3663419085327173e+00 -3.9125895683267422e+00
      5.3496786135624488e+00 -4.2732553738026153e+00
      -6.0959689999844411e+00 8.6612314120042946e+00
      2.1877399102340842e+00 3.5555097784892484e+00
      3.4295866434009459e+00 8.2621228182950119e+00
      -1.1313484847194058e+01 -9.2143378742233022e+00
      5.7785227505856893e+00 2.3870157556185786e-01
      1.5158229717768348e+01 2.8881224589240420e+00
      -7.0246365234026689e+00 -7.4384744485990080e+00
      -4.0522603830092176e+00 -5.9215413645475143e+00
      4.7022881046528413e+00 8.2826058837417733e+00
      5.3308061096296528e+00 -1.0988484994927736e+00
      6.0059076042098669e-01 -9.3901130535498591e+00
      -3.9340003625495151e-01 -1.7097730574041896e+00
      3.4089944695664394e+00 2.4796217796312221e+00
      9.3482750351709285e+00 2.0824493752536230e-01
      1.8983954999362311e+00 9.3568534199867912e+00
      4.3182072166611620e+00 3.7602943314859405e+00
      1.0416419980330645e+01 5.2237325668330117e+00
      1.3278495286186176e-01 6.8795398063721178e+00
      -4.4002820578794930e+00 -5.8717185208941034e+00
      1.5245354624847076e+01 -8.8377890952845961e-01
      -4.2097092303071824e+00 4.1567587352354503e+00
      3.1645593028820076e+00 -1.3779226888452540e+00
      -9.6700665802662822e-01 -1.9650560081019444e-01
      -1.6660442331091918e+01 -1.5530059883492605e+01
      7.9150665333460726e+00 4.4205742726637460e+00
      2.3278135964089328e+00 7.6527869362872449e+00
      -4.2443932482513071e+00 -6.5560205496350510e-01
      2.6170666896644548e+00 -4.7589040671181531e+00
      1.3280958217456240e+00 3.7724042104616493e+00
      4.4383774345840585e+00 5.5599492092879543e-01
      -1.1903178574169695e+00 2.2024679589185450e+00
      9.2747870830707202e-01 1.6723030151146659e-01
      8.0650100621031289e+00 1.2515236460167989e+00
      1.0771211441437575e+01 -6.1489869697110877e-01
      -1.0439454591185284e+00 -2.7654141876476492e+00
      -1.7719769632113900e+00 5.6660307561317091e-01
      3.2886873402669496e+00 6.0091168676244742e+00
      5.6101838780325242e-01 3.1069252062361219e+00
      -6.8737023303593245e+00 -7.8023165343796945e+00
      4.6063010330782905e+00 -4.5041214123880042e+00
      -6.4492668277022913e+00 6.3816678779027907e+00
      7.7819421025461164e+00 -3.0166439567891969e+00
      1.0326534996188894e+01 -6.6501814110840360e+00
      -3.9642396948702281e+00 -7.3741303370332698e+00
      3.0354289120545173e+00 -6.2010229889420132e-01
      -3.4896205483881184e+00 -1.3976214113252998e+00
      -6.1670101265620580e-01 6.6513107697629561e+00
      1.6262163281346040e+00 6.3322346870802972e+00
      6.4728937968672939e+00 7.8860218649124700e+00
      -2.0472079255995932e+00 -4.4936775964588644e+00
      5.4104181420113839e+00 -7.3165315874860379e+00
      5.0422391034156955e-01 4.9541055942499734e-01
      2.7978143630093868e+00 1.0302016219344550e+01
      -5.6408773944771329e-01 2.6610158052365968e-01
      -6.6026790092027321e-01 1.3409996753112006e+00
      -3.5746167769612391e+00 6.9192009410467374e+00
      -5.1354091133101889e+00 -7.4335036963991996e+00
      6.6283851976762764e-01 4.1852410088150971e-01
      -4.6087126963776726e-01 -6.7149994136243656e+00
      1.0883270842039245e+00 4.8753062436681969e+00
      -5.1317730390637220e+00 -3.0295447620084999e+00
      -4.2822103548983090e+00 -5.1668008001008070e-01
      -1.8071826236387740e+00 7.4956067358783098e+00
      4.1610921178537543e+00 -6.8591768141704286e+00
      1.4760860455558242e+00 1.7253895952384790e+00
      6.1774865295262760e-01 1.5055223333710381e+00
      6.6585603722837741e+00 -2.2325234337541717e+00
      -1.3786098736782515e+01 -6.4096881701210515e+00
      3.4731954457952523e+00 -4.9526956908479578e+00
      7.3895933132145881e+00 -1.1460530783087499e+00
      -1.1539919291357954e+00 -1.2706313474098145e+01
      7.6626264280862821e-01 5.3638880335946899e+00
      3.1995974620530316e+00 -5.2819520654311320e+00
      1.1091410878199145e+01 -1.0926438989057666e-01
      -7.1284720764434262e+00 -1.4650018307822712e+00
      1.6634272031110242e-01 8.2784354186008624e+00
      1.0283124560818284e+00 -4.6696252800376206e+00
      2.9615973068572143e-01 -2.5139788090879116e+00
      -1.4784578796285264e+00 -5.2055817550943786e+00
      1.3104423910890486e+00 4.1547216558710112e+00
      7.5893247160667885e+00 -5.9051761371040279e-01
      -3.2242705497061825e+00 8.6014003543214723e-01
      -7.9047185741455681e-02 1.0883965668311493e+00
      -5.1743695051277228e-01 -9.6863677480156862e-01
      -1.6806630118311381e+00 -8.2748186890396302e-01
      -2.0764905938020761e+00 -1.0864098574092000e+00
      2.8284581920659098e+00 -5.2892211159771874e+00
      3.6598593032049496e+00 -5.4761213228489183e+00
      -5.1901619755652630e+00 -2.5473120862846863e+00
      -3.5166369010680079e+00 4.3622055945258467e+00
      2.2356066373551839e+00 3.3347766037327977e+00
      -5.8310130851293884e-01 -5.9713606997128794e+00
      7.7230044397511151e+00 -1.6483679384786227e+00
      1.4512031920871653e+00 -5.3324562126057007e-01
      -1.5926004420650866e+00 5.7494346137865548e-01
      1.5018220169996090e+00 6.6004870885987401e+00
      -1.8674004715008372e+00 -1.6875820940030113e+00
      -2.9861364475098134e-01 -2.2361596524023404e+00
      1.5425486585784094e+00 -2.3841972672138843e+00
      -1.1070889273636146e+00 1.3806632694656715e-01
      -6.0453574552982547e-01 1.0024490991817827e+00
      5.1621526938668421e+00 -4.8605460574643677e+00
      -4.7964247369787572e+00 1.3206716157422720e+00
      -6.1584127939962774e-01 -1.5393121472729741e+00
      -1.9489537309259928e+00 8.4570150167478655e+00
      -4.1435263779265075e+00 -5.5289595778489904e+00
      1.6384410190513019e+00 2.7137286137404053e+00
      5.9702676745923311e+00 3.5026414814679097e-01
      1.9003839731351835e+00 -4.0843758176283878e+00
      -2.0002312112009624e+00 3.9269664919954295e+00
      1.4004093722288915e+00 -1.4774909960626990e+00
      2.0416441454885687e-01 4.3994898461020009e+00
      -4.9124627045725316e-03 -7.4380684697046657e+00
      -4.7310922714278218e+00 -1.9776150071123630e+00
      -4.8576828503280906e-01 -9.6749981524265261e-01
      -1.4914459535271782e+00 1.3034601794253882e+00
      5.4466394300351419e+00 -2.6200016089742850e+00
      2.4899888626739572e-01 -3.7032930336197687e+00
      4.0391589757485118e+00 -5.0309709863657126e+00
      -1.0982869663114891e+00 1.1032065123497754e+00
      1.9834256632558127e+00 8.4918530664059988e-01
      -3.5344689187519642e+00 4.5545776151045532e+00
      -4.3908087907511426e+00 6.4319213872861383e+00
      9.4888032063227967e-01 2.6883554448778821e+00
      3.3454733126752747e+00 -1.5809002223245168e+00
      7.1350563061294769e-01 -2.1471191416952649e+00
      -4.1163630283740735e+00 2.5478003240223450e+00
      7.5136225352425532e+00 -6.6105475129620075e+00
      2.2692740326052689e+00 3.7329638659547220e+00
      -6.6388823943829156e-01 -3.0125952267437812e+00
      2.0763097361787590e+00 3.8286305414937343e+00
      8.2147999158496188e-01 1.9238905808235608e-02
      -3.1157337865136614e-01 -5.6456990338968760e+00
      -5.2353436941168674e-01 -6.1551565473191461e-01
      7.2765989070795523e-01 -7.0047127919525183e+00
      1.4246710470863957e+00 2.8185376950072699e-01
      -3.5509051384243073e+00 -3.2559226398190200e+00
      9.4797615610480979e-01 -4.8886781215829739e-01
      1.0841696835028427e+00 1.8581424780809843e+00
      -6.5373250318053566e-01 -2.5524612192806386e+00
      2.5559461199553644e+00 -2.5569998412268049e+00
      -2.2160414818480305e+00 7.2168094491313948e+00
      4.2836609288367571e+00 -1.3915946658314413e+00
      2.2944523338849518e+00 2.7174497400582815e+00
      4.7619434801346943e+00 -3.8979186909967972e-01
      4.3113300773137437e+00 -6.5469124879172975e+00
      3.2974485319330422e+00 -3.2191394891600655e+00
      1.1043453804429177e+01 3.7453533103553576e+00
      2.9566501963485553e-01 -4.5953378828871676e+00
      3.6461679500348754e+00 -1.1489485457590884e+00
      7.0131946545261592e-01 -3.3309950742947697e-01
      -3.3602494433486946e-01 5.2362244594715444e+00
      -1.6788674999023872e+00 -1.4409160079605193e-02
      5.2044667049611650e+00 4.3261741014908517e-01
      2.6088618562978754e+00 -2.2310952318988324e+00
      6.3335900159614367e+00 -5.1265001174274110e+00
      -4.1395225517149586e-01 4.6534358828037075e+00
      3.5443656718695016e-01 -2.8347555309758965e+00
      -8.0529677644364064e+00 -7.0880286875307155e+00
      -6.1157141100127834e+00 -2.8571760905484805e-01
      -2.7607249594532695e+00 -2.0010730131593331e+00
      1.9459727117662999e+00 8.7958992378773093e+00
      -2.7494192321417459e+00 2.3200386692305668e+00
      -9.3361502187570433e-01 3.5052801426246747e+00
      1.0816063710595469e+00 4.7208332592304059e+00
      9.6236140467498976e-01 -6.8071937611554736e+00
      6.0235674555082372e+00 -7.8810439661764500e+00
      5.7352628117025173e+00 4.4173889097163327e-01
      1.2282677797244372e+00 -3.0472788404570976e+00
      1.3312936397992852e+00 -1.5622363366663878e+00
      5.3286119363849549e+00 1.1266020360038151e+01
      7.0067985019731160e-01 -6.5509907401469807e+00
      -1.6195635269676394e+00 1.7401517433148066e+00
      -5.3349321018767233e+00 2.6043358267737182e+00
      1.7593515096288057e+00 -6.1624453522966132e+00
      3.0473922324983485e+00 -3.0899951979950160e+00
      2.3992701993701666e+00 5.7189233685853359e-02
      -5.5016329094934557e-01 -1.0614351817191809e+01
      1.4887937241019631e+00 -3.0811792575285524e+00
      -3.3296757725722150e+00 -5.1522329962432972e-02
      -1.3773911229533757e+00 6.1581773040567245e-01
      -1.5312990656374155e+00 1.9715260781849522e+00
      3.1591961364126444e+00 1.0174736213961651e+01
      -4.6105684202014574e+00 -8.2820094249874714e+00
      -2.5863745605604527e-01 -3.2712805699564216e+00
      -2.9555628709336044e+00 -3.6685783165187766e+00
      2.1519950717281908e+00 -3.4120943528320673e+00
      9.9955919279920458e-01 7.5074652778148643e+00
      -7.5445830811579340e+00 -5.2952688228911731e+00
      -4.1516117537724861e+00 -2.4866512276623376e+00
      5.9289390581296306e+00 3.7537648784839956e+00
      1.4964523322001377e-01 -2.5138134664807130e+00
      2.5744859623856762e+00 4.2787713727066512e+00
      -3.5708333629316042e+00 8.7260919565488149e-01
      -3.0422109064180112e+00 -2.2881618656604163e+00
      2.8448096373548428e+00 1.1062352600967122e+01
      -3.1337392879606205e+00 -4.6224614256566712e+00
      -2.7272098773765702e-01 2.2237427753287844e+00
      4.8981824372231539e+00 -5.7520014831420152e+00
      1.3592592867984521e+00 3.1764432127608351e+00
      -8.4191067249960856e+00 3.6977920347787694e+00
      3.8385071368331058e-01 -1.3367937772718037e+00
      1.9535251650817764e+00 -4.6985584760632781e-01
      3.9512907986395982e+00 3.5219679039497613e+00
      -1.1645597659156965e+00 -8.2611742214067352e+00
      -5.3596826369519572e+00 -1.5575432835603406e-01
      -1.3835613170475085e+00 -7.3554791940026931e-01
      1.1496288242280392e+00 3.7418638919316511e+00
      5.1656566020201309e+00 -5.1965934322272469e+00
      -2.0120567484154734e+00 5.2651388225212115e-01
      5.9384595168391741e+00 3.0642688401763979e-01
      -4.8113858511717705e-02 -2.7383807174104060e+00
      -2.1279979369900413e+00 -6.2377494303039016e-01
      -9.3038454528768522e-01 6.4009639406734120e-01
      -5.3203445812176628e+00 -3.8148238524310143e+00
      -4.1416820104682275e+00 -2.3239420352112128e+00
      -2.1778231192785991e+00 -4.7461036247525668e+00
      5.2441855839539538e-02 5.7329848003317352e+00
      -4.7164647878452621e+00 1.7660452124351738e+00
      8.0370452087149111e+00 -4.7246109587576940e-01
      -3.8604268399695933e+00 2.3694709005397092e+00
      -1.9542180498591721e+00 5.4024357651221795e+00
      5.2536090674715008e-01 -1.4261462693149221e+00
      3.6397540748696140e+00 3.2266783961704321e-01
      -2.4431380985465316e+00 -3.7462414359461502e-02
      1.9843268633547623e-01 5.1464539935948472e-01
      1.3950960406305701e+00 -3.0054286986719436e+00
      -1.3497458175504926e+01 1.0187096738121845e+01
      -5.3332483643087309e+00 -8.2641067626941744e+00
      2.3575065558745738e+00 1.5764777556487219e+00
      6.1688525827201595e+00 -5.6289703171463721e+00
      -3.9131376137345009e-01 3.6287683710806489e+00
      -2.2976670969727553e+00 -1.9465015152775507e+00
      7.5361056525062100e+00 5.9005910367670211e-01
      -3.2453468727414303e-01 2.1711286687219871e+00
      -2.4699586328647443e+00 1.7472714869631516e+00
      -9.1992285733609880e-01 -3.7150554134066942e+00
      -4.8840816031897849e-01 2.8748587910757060e+00
      -5.4650346577971334e+00 2.2727116746271299e+00
      -7.5462896720561057e-01 6.4133036711408886e+00
      9.2015104291685610e+00 -3.8946178548038608e+00
      5.2424092900631025e-01 -2.7488607429432493e-01
      9.6132054040539217e+00 1.9679771236097809e-01
      2.7344932751238558e+00 -7.8482824260100834e+00
      3.9249241802307178e+00 -1.0211056106575189e+00
      1.5148226552909911e+01 -7.5801833235687677e-01
      -6.2529382374133979e-01 1.0030549271740629e+01
      5.1061358075341161e+00 -1.7471210545025471e+00
      -4.8354519932952007e+00 4.0966173866692808e+00
      -3.1106749116155488e+00 3.4699542295809698e+00
      2.6609194467153849e+00 -1.5926386525658918e+00
      2.1120449578416012e-01 3.6818568241447949e+00
      -5.2273649364191055e+00 9.3672130994567446e+00
      -2.7822568473248519e+00 -3.6668402039030490e-01
      3.9330036047121948e+00 1.4776811867557433e+00
      -2.1655269170049656e+00 2.8983824580316409e-01
      -5.6237625659370838e-01 -3.3586285610775048e+00
      7.6053145027425023e-02 4.0912112780013343e+00
      -2.0287322965573718e+00 3.2317908934006829e+00
      6.7122455719023195e+00 -2.0949804995503611e+00
      1.0934932052050760e+01 -4.3310535248130213e+00
      3.6319103379379514e+00 3.1904239642479890e+00
      -4.4872979369581856e+00 -2.8649880516682500e+00
      9.7853292345269285e+00 2.8866325277968503e+00
      6.9031851130009825e-01 1.3576770155780891e+00
      5.2256418898419241e+00 1.6919150693620597e-01
      -4.8808423384823225e+00 9.8233008442577177e+00
      3.4266400226866374e+00 -1.7557528094338232e-01
      4.6195257662156131e+00 1.3403432902811479e+01
      1.8873258190188360e+00 -2.3963272276601635e+00
      -3.0942153614320471e+00 4.9930758287210386e+00
      1.8022011982314859e-01 -5.1460438444415182e+00
      -7.0370529903223629e+00 -1.6385577347885785e-01
      -1.9472769781940467e+00 -5.3598447390623763e-02
      -1.3881218138383531e+00 1.0483594986291103e+00
      2.9637861072083136e+00 -3.4987815846921975e+00
      -4.9741281654054310e+00 1.7980378324330994e+00
      -3.9739933815281081e-01 -1.7674915675552900e+00
      -4.3320097793209289e+00 -2.3340184784710774e+00
      2.2445389767279192e-01 -4.2269735080072479e+00
      -2.8279574086452586e+00 -5.5333665093086486e+00
      6.6282814150178515e+00 3.5143305723434715e+00
      6.4290195254827616e+00 -3.2471058522179899e+00
      9.5834309420133534e-01 1.1786205383760866e-01
      -7.3941414016591009e+00 -1.9931579283581593e+00
      4.6641706245554478e-02 -7.5159293234242170e+00
      -8.5188750345172193e-01 6.7209250770004507e+00
      -1.4812241712357541e+00 5.9354670850137667e+00
      6.6010869393623510e+00 2.8977817171765983e+00
      6.4107228420590656e-01 -2.2177647484936380e-01
      -5.2394193029184031e+00 -3.8150596118484219e+00
      6.3285784198701778e-01 3.2248860161251980e-01
      -4.4916918086040454e+00 -2.7757647278650621e+00
      2.7513855308384594e-01 -3.2290370743898045e-01
      7.5424157970568331e+00 -1.3672110084693827e+00
      7.0617053403469454e-01 -7.2751556527477836e+00
      -2.6206321821346084e+00 -4.8795254165962989e+00
      8.2495849744569771e-01 1.6156232776894466e+00
      3.4990360106023433e-01 2.6286827748628747e+00
      -3.8665997612216585e+00 3.8170387161736058e-01
      5.6084248272370862e-01 5.4893323051200060e-01
      2.9040042658023940e-01 7.2205915874480309e-01
      6.0266872369227018e+00 1.7007037154839980e-01
      -7.2108437160485295e-01 -8.3445333867202320e-01
      1.9823705025121616e+00 9.6753866294252711e-01
      7.8751042871388510e-02 -1.0754314929412847e+00
      -4.3552050384804346e+00 2.5246142554280420e+00
      -1.1867985018159892e+00 -2.3284749257378610e+00
      3.3039497403214595e+00 -2.5591027156088381e-01
      2.1957888299774222e+00 -4.3264236152844946e+00
      -7.6825813075473270e-01 -1.5223161911403478e+00
      4.6921796816415264e-02 4.7152309486276645e+00
      -4.0821267951359701e+00 -2.2731661611856642e+00
      -3.3948919310500849e+00 1.7621491809682284e+00
      3.3014737158692724e+00 -3.8687415684457847e+00
      4.8098917550149105e+00 4.7608581118085720e+00
      2.2585381804466005e+00 -1.8128091050943791e+00
      -2.8826737589217557e+00 1.4194745844653278e-01
      -4.3031542914643239e+00 -6.5228092785487202e-01
      -8.4566349091358575e+00 -9.5424785864827442e+00
      -8.5837010829412386e-01 3.9478478576781870e+00
      1.7343113213852407e-01 2.2726461024171738e+00
      -7.1184847454615041e-01 8.3547515142019502e-01
      1.2906027714908030e+00 4.8831846872480666e-01
      -4.3186280250219005e+00 -1.3622072652899986e+00
      -2.0927411079824316e+00 1.1095812152931903e+00
      1.4685492515657599e+00 -1.6362973545836741e+00
      -3.3043934698540661e-01 -1.6180390146669885e+00
      -5.0944435614539652e+00 -5.4026462446828543e+00
      -1.0242709783126719e+01 -8.5557632837281332e+00
      -4.1069861883109446e+00 1.5997117347546395e+00
      2.3083835355932689e-01 4.2560345102096706e+00
      3.3333497001130588e+00 1.9195346914537779e+00
      4.2950375872903077e+00 -1.0600635496067290e+00
      9.5340825887194800e+00 3.3140000120908151e+00
      2.7756511364505179e+00 2.3854803704978758e+00
      -3.2916794339031288e+00 -1.2193773185780155e+00
      3.8863454666914032e-01 -1.3085777554080267e+00
      -4.1491135690604448e+00 -5.6434622504095266e-01
      -3.1143847183291551e+00 -4.4316777815414504e-01
      3.6813822192173734e-01 5.2615774130597270e-01
      8.9943704857181214e-02 1.3291801068112158e-01
      -8.6932005785290800e-01 1.5285307935793040e+00
      -3.0095799135682344e-01 -1.9653286231998928e+00
      2.5684987542884889e+00 9.9636042342206591e-02
      2.3492810918722835e+00 2.2925314777074242e+00
      -6.5673014651020596e+00 2.2223595839947756e+00
      1.9403712137851279e+00 7.5795207581513346e-01
      -1.3333985491444369e+00 3.1342706844501653e+00
      -1.0899954648819228e+00 1.5177825548740581e-01
      -2.1677323256316416e+00 1.6137807362149501e+00
      -2.2791072014834040e+00 7.3280931873125565e-01
      -8.7175401124155094e-01 -5.0335249078263020e+00
      7.8707457253446100e-01 -1.4657654350650491e+00
      2.4908719809118837e-01 7.1250842145290139e-01
      6.3667206649162615e+00 -4.7188656094209291e-01
      -6.7350219830037750e-01 -4.1689150409637374e+00
      8.7669566720910197e-02 -7.5658093008248377e+00
      -5.4017289803872979e+00 6.6808826899686986e+00
      1.3434182233979206e-01 -3.0005720458200478e+00
      -3.0010504695690874e+00 -9.7719590604878857e+00
      2.5786818627936769e+00 -6.4380006364483000e-01
      1.9100575552689514e+00 -1.6096349839757833e+00
      -8.6778006841689930e+00 4.8505644378048380e+00
      6.8158566376006284e+00 -9.2177067598638684e-01
      -2.2531103293529067e+00 4.7449801221309889e+00
      -1.1244554376253473e+00 6.3554522116641108e+00
      9.4733784845315441e+00 7.0095806682982681e-02
      -7.2715339562063130e+00 2.5766949084806776e+00
      2.4388864657776191e-01 4.2015471434343832e+00
      -3.7626007158653620e+00 2.8984716062992186e+00
      -7.2814178023307308e-01 -1.9865298692101367e+00
      4.7487611133050525e+00 -7.9829105353462735e+00
      -2.9381120404395200e+00 1.4964397533734370e+00
      3.5057399587091020e+00 3.3376599748407010e+00
      1.0741403819251879e+01 -1.4766630519785144e+00
      9.0607530204510986e+00 8.2588196606037378e+00
      -2.7003578366474434e-01 -1.1472710317916608e+00
      -2.0282926675568347e+00 1.9692607360984145e+00
      -2.8086566640709845e+00 4.5438428005870639e+00
      -2.0924486726190472e+00 -7.0515020411125313e+00
      -1.4878474499585703e+00 2.0959520830799279e+00
      -1.1726415253245599e+00 -4.3541338317419838e+00
      -9.4341567144196592e-01 6.5414929457041715e-01
      1.3464068184646565e+00 3.5161676896009680e-01
      -5.6788122565310388e+00 5.9849589485959784e+00
      -2.4394184923809403e+00 2.0743611311629269e+00
      -2.4012327672075764e+00 3.2385715582012522e+00
      -2.5037685250984504e-01 -5.9756004779103211e+00
      -9.8539307219757344e+00 -3.5010065687539393e+00
      7.3582162453108797e+00 -8.8748122439296040e+00
      -1.2282025555436128e-01 4.8990035712455429e+00
      -3.4432325478515242e+00 -3.5700662858623238e+00
      7.3279409761123604e-01 -1.6169252335860831e+00
      -2.4159961058790342e+00 4.5606039644898315e+00
      3.9331248180635181e+00 6.6532200514989128e+00
      -4.3025970603879027e-01 9.1628355144875027e+00
      1.2180284513643978e-03 8.3716381535456357e+00
      4.5677590935759644e+00 -2.4512456509768299e+00
      -5.4350439481083823e+00 -5.1478724221055083e+00
      -2.8604519111336919e+00 8.5890429704569957e+00
      4.7761956331461946e+00 -1.2255890297536794e+01
      -1.4460579863037024e+01 -4.1711750086850001e+00
      -1.4033826933355460e+00 1.0331304652156847e+00
      3.5526884954379717e-01 -9.0322761119613793e-01
      1.5268832139295174e+01 -1.7684173534455232e+00
      -2.1991212706185248e+00 5.4584550300580217e+00
      -1.6758082788683670e+00 -1.4026318969844271e+00
      -1.2543732336202893e+00 -2.0519495489336649e+01
      -5.0004187504548958e-01 9.2871389524368997e-01
      2.0371934437500179e+00 -2.0109270647936857e+01
      2.8575465831922120e-01 -1.5691690063390940e+00
      4.9581628043751920e+00 -9.2843655356195125e+00
      7.2575760395484155e+00 7.6739331690789359e-01
      9.1467820355851837e-01 -2.8100383551526771e+00
      -9.3340629653236427e+00 3.6966790265243715e-01
      -4.1688052488698650e+00 -1.4798805345261592e+01
      3.1135797335066961e-01 3.3979720554881583e+00
      3.9795978064353617e+00 3.9550878766749968e+00
      7.5838567686744163e-01 -6.8512164812362775e-01
      -3.8634304428903068e+00 -2.8474771057129677e+00
      -3.5363590451290383e+00 -4.2077600128055531e-01
      -5.6292504496313098e+00 1.0968840039838899e+00
      5.8971608492122733e+00 -8.0246286592468135e+00
      3.5928414359515870e-01 -3.0563194360536317e+00
      9.2972031736631120e+00 -7.5409572160908245e-01
      5.8896780453179183e+00 -1.0064576752082967e+01
      -1.4632388283032565e+00 6.8445285958731916e-01
      9.8926095275709780e-01 7.2745156045822341e+00
      2.8391286253313535e+00 -4.0503491525230118e+00
      1.6582252860902882e+00 -1.0473872522323338e+01
      6.5762922383051725e-01 -5.4520549804208873e-01
      3.1695910522068229e+00 -5.0043072852536497e-01
      -2.1361908423138747e+00 -5.0462121603716914e-01
      5.0232354018501404e+00 1.2265823389054056e+00
      -1.1431515121055567e+01 1.1453311476803692e-01
      -3.8362234167281146e+00 -1.2438251284888453e+01
      6.4606431998970626e-01 -7.8912544437428531e+00
      6.5197998656913638e+00 -1.8175281450671013e+00
      1.2420136407904820e+00 -1.3688528864642482e+00
      2.0969073519592745e+00 3.9088003989313096e+00
      -3.4752724587726086e-01 -1.2055964018063712e+00
      1.4520923864178361e+00 4.3676244262175157e+00
      2.6840932249038696e-01 -4.7112936476416465e+00
      -1.6470693883619764e-01 -7.8690848686628490e-01
      -5.5074837227755884e+00 4.7881183445737374e+00
      -3.0648737893706590e+00 1.1289548049068060e-01
      2.5061032324188419e+00 -1.1224081452380721e+01
      -2.3235764426499204e+00 7.1204847374048832e+00
      4.3410996821255186e+00 4.3690343325447270e+00
      -1.0563468858956268e+01 4.8500616230710811e+00
      1.6083744303861705e-01 -1.1259794634831952e+00
      2.9934444873678046e-01 2.6625004267383563e+00
      -1.6638917176865400e+00 2.4975670407392966e-01
      2.3690127036783024e+00 1.9771714112568601e+00
      4.8240286874869636e+00 -5.8251963450156454e+00
      -6.3966036967667437e+00 3.2211399159772585e+00
      -9.2046236511296439e-02 -7.1897778643347534e+00
      1.0678041522151447e+00 -4.1922692293298089e+00
      -9.7295130024317333e-01 -4.0447008268013951e-01
      1.5867032050541694e+00 2.1160349336430206e+00
      3.1412123372323952e-01 7.1840601512793367e-01
      1.0226069445323253e+01 9.0982869772893238e-01
      -7.3281722489109322e+00 1.7060217087369209e+00
      -3.8145552192343901e+00 -4.0387401024962877e-01
      -8.1041550212139679e+00 1.3125762096778906e+00
      -8.2465607573328858e-01 1.0605079804120217e+00
      3.2859919196743461e+00 -8.1364939657677766e+00
      -4.4642987814333122e+00 4.4435959630508561e+00
      3.1634614155253367e+00 3.8475928572825091e+00
      2.5591585208052203e+00 7.6055045951102729e+00
      -4.8011111411567198e-01 8.1381283056229350e+00
      -2.8236493966687860e-02 -1.4049845533598564e+00
      4.1189887306155386e+00 -2.6447878597132479e-01
      -1.3176560313371142e+00 8.1619316788410878e-01
      -2.9693357985752422e-01 -2.8219261419974977e+00
      7.2419862535623025e+00 6.3341167742976516e+00
      -1.9198571979127657e-01 -1.1647037281765449e+01
      1.1895692565572518e+00 1.5557549202274192e+00
      -3.8808411016080469e-01 9.0161001377860650e-01
      -3.2567274547961500e-01 3.0218190265171496e+00
      2.0164861472129068e+00 -2.1430580524885627e+00
      1.6850266014852480e+00 -1.0389273487105626e+00
      -4.1790261988578683e+00 -6.3773055773139786e-01
      -5.6321609796994858e+00 1.4879689992557874e+00
      -6.9070813250067822e+00 -3.9059099638391981e-01
      -1.2885783973206677e+00 8.5811371228136881e+00
      -5.0412582628066103e+00 -5.9265361985416218e+00
      -6.4872209467143938e-01 2.3011651220419016e+00
      3.8146170215486448e-02 -1.4257106173699006e+00
      -2.4282572309438577e+00 3.7531262127809590e+00
      -1.4334311029663778e+00 2.5853468556225598e+00
      -1.1412965545171663e-01 1.4305031271255683e-01
      -5.4250582181982665e+00 -2.0010944604382481e+00
      1.3178847863485932e+00 -8.8978561543296983e+00
      1.9302210618775995e-01 -2.8564125482518281e+00
      3.5458692442469859e+00 4.6438337207585523e+00
      -4.2832781338740300e-01 -1.3714129992578032e+00
      1.1970099002296627e-01 -2.9203417261535836e+00
      -1.3883003326734422e+00 7.5789065299993084e+00
      4.3566888543573334e+00 1.4505815399342694e+00
      -3.2620316398596211e-01 -5.2287896513294614e+00
      1.6673080614493963e-01 3.3325191066801305e+00
      -8.9306078456982245e+00 7.1699904983181861e+00
      -8.8127707514075908e+00 3.0837578681190112e+00
      -1.3044958552612380e+00 -1.4464087204668092e+01
      1.1492861721343284e+00 7.0941574160369409e+00
      -9.2266100092693337e-01 -2.1892295705790992e+00
      -5.1351729103955730e+00 -1.3813658566965320e-01
      -4.2880552021607627e+00 4.1391919817806944e+00
      -8.2319111012130186e-01 6.4919002526686387e-01
      -4.9735908442026927e-01 -7.7734162514671210e+00
      -7.8239187496042497e+00 -3.8263330020179027e+00
      -9.0903015539620147e-01 4.3872043393553311e+00
      1.3262847431450977e+01 -7.2826907687318476e-01
      -2.1404606351137652e+00 1.4318651601087649e+00
      2.9809455922178685e-01 -5.7188639751882206e+00
      -3.5711662106512381e+00 -4.5685627961504967e+00
      -3.2534521887080547e+00 1.4708044626755343e+00
      8.7507548879467364e-02 2.4215908756170790e+00
      2.1298798962291285e+00 1.3876064175273436e-01
      -4.9013853267727547e-01 4.7587298300731042e+00
      -5.4695809264594928e+00 6.1994638789285244e+00
      -3.5382623637253565e+00 7.2184643411203320e-01
      4.0059617915176036e+00 2.4740610777686878e+00
      1.8003065197109052e+00 -4.9190230959593464e+00
      2.3532397254751376e+00 3.7355617048539393e+00
      1.3157499611173098e+00 1.8913306359659030e+00
      3.7706986839731242e+00 4.4870952433489455e+00
      -5.1027420628339488e+00 -2.2676189889413063e+00
      3.0598185832775817e+00 -5.8694510855786817e+00
      3.2257367096678075e-01 -2.3826654358773780e+00
      -1.2344354998203899e+00 -1.4220079394013696e+00
      5.1215601756106617e+00 -4.6312748371793520e+00
      7.2305417894678670e-01 1.6131618962091110e+00
      8.6947384589366070e+00 2.0033939983164770e-01
      -2.4577331133290823e+00 2.8362172910836452e+00
      -1.2833638627811812e+00 1.2720174568131424e+00
      4.3279231390489938e+00 3.7867911005532546e+00
      -2.3152327168431484e+00 -2.2375752670851994e+00
      -2.0100034494348183e-02 -1.6574426855987772e+00
      -1.2948625359247656e+00 -4.6037042942286188e-01
      -1.5346943169282776e+00 -1.7609734290279282e+00
      -3.3634044011919388e+00 2.8314177494890118e+00
      1.2027111661076502e+00 1.4369970688239870e+00
      -2.4742386398050513e+00 3.0108942154900969e-01
      3.3200868314935343e+00 -1.0622674748052969e+00
      5.8817043361655816e+00 2.5008437427531858e+00
      1.0083497950788441e-01 4.8639096888895255e+00
      1.2150990034536955e+00 -8.6719463063804247e-01
      -4.2096439709793136e+00 1.2097016375724816e+00
      -4.5702244957237115e-01 3.0484250596102429e+00
      -6.7361837609614317e-01 -4.0193314372577564e+00
      1.6473157546688553e+00 7.0718446136699709e-01
      -1.8692708950323396e+00 -7.4126538891413463e-01
      1.3623970576682676e-01 -2.6752066715357575e-01
      4.4471399313953324e+00 4.7616298745101924e+00
      3.0416477331019132e-01 5.9354101650547564e-01
      2.7301456854106165e+00 9.1704922462402017e-01
      -1.1618983369389287e+01 -1.9188217202033593e+00
      2.5331600551146183e+00 -2.1773397943270281e+00
      -4.6412280623727264e+00 -5.8915187317196862e+00
      -2.5865692829345295e+00 -2.6077580769966620e+00
      -1.2662785536480929e+01 6.7124995795750984e+00
      9.5701403571168431e+00 -7.7855628571081170e-01
      7.4930235441796000e-01 -5.3856237655866055e+00
      -1.3751635646969469e+00 -2.5644284958338175e+00
      7.2232356985687964e+00 7.1945860876586012e-02
      8.5767389308838666e+00 -5.3097121726008902e+00
      3.7616128611777757e+00 1.0127437405886157e-01
      -5.7744493434164985e+00 -5.7648567880434127e+00
      1.7650567086968208e-01 7.5589842633980906e+00
      -4.1138221907406782e+00 -6.0554103862955477e+00
      4.9332452169454521e+00 1.0154658803419825e-01
      -3.1726031006614410e+00 -4.1725240664129233e+00
      3.4469703897364816e+00 -7.2172546010795386e+00
      6.7301529741386084e+00 4.0675243107693309e+00
      4.5888068143723304e-01 -2.0302776802135938e+00
      6.8784487872519433e+00 1.9073481573861164e+00
      -3.4399167502817143e+00 -5.6888006473211101e+00
      1.7408107447129608e+00 8.8996539822923406e+00
      -5.3939474396552196e+00 -5.7263216685399234e+00
      -1.9466866184844578e+00 -4.2007300920338730e+00
      -8.1703116152093074e+00 6.6481131375666344e-02
      6.5054228716404499e+00 2.1116335677509954e+00
      8.1677255629527359e+00 -3.2121307873678173e+00
      -3.3567239251402086e+00 1.6814573023833540e-01
      2.6163294733965281e+00 -2.3800002858163123e+00
      4.8823662289160650e+00 -5.6712856184463700e-01
      -1.1679189905096198e+01 -3.7423877706523329e-01
      4.2165769522182748e+00 -7.5682035666497862e+00
      3.1981006229992426e-01 9.6354801650490369e+00
      7.6338615863101484e+00 9.2660263593410785e-01
      4.1067239850284709e+00 -6.5973041389650022e-01
      -8.9385095390009672e-01 -8.1748483308529785e-01
      1.8456703688507150e+00 -6.4755268775119283e+00
      -2.6724681643618378e+00 6.6047231545003218e+00
      -4.3565267566040755e-01 3.9574899089749338e+00
      7.0545555098202017e+00 -2.1080177454931470e+00
      -1.9490919217784780e-01 -3.9831653534594631e+00
      -4.4664693041906309e+00 3.8756609814068117e+00
      1.6592978433729793e+00 -7.4267886009139517e+00
      -1.0182912808730264e+00 5.3043892229141842e-01
      1.2595914524318428e+00 -2.5939342839442494e+00
      -6.1088834005149683e-03 7.7924841131790474e+00
      8.2020297137138787e+00 1.0561758599320051e+01
      -7.5322203221836359e+00 -3.9707124951381387e+00
      -5.5639425865354815e+00 -2.7069897105154141e+00
      -8.2855112628545380e-01 -6.8530898601348884e+00
      2.4727468684560878e+00 5.4704423820144032e-01
      6.3571818506541051e+00 -7.6342572310473606e+00
      -2.7664916385415816e-01 4.5687753644763944e+00
      2.0024469341149547e+00 -2.5601334341233861e+00
      4.1106433784573976e-01 -2.7296994054194690e-01
      -4.8727660977183866e+00 -4.4686697298111380e+00
      -3.7803843758942213e+00 -9.0654624659049754e-01
      -3.6941321947039194e+00 1.7021566881756416e+00
      6.7559159950244230e-01 1.7948629071900302e+00
      9.5456824282581252e+00 3.7482174057228161e+00
      1.5591286026260698e+00 -1.0423314383060724e+00
      -6.6866351697864754e+00 -5.4528715647848403e+00
      2.3515708033043170e+00 -3.5210198854071741e+00
      -9.5531731650048339e+00 7.1794496111446175e+00
      3.1990558789357665e-01 8.4443507455717470e-01
      -2.1548171982518491e+00 -7.4642962589795019e+00
      9.6876012462511660e+00 7.0221378198090871e+00
      -5.0908882173511278e+00 -4.4372098073138329e+00
      -2.6497776714011945e-01 4.2867657733405364e+00
      3.3716193535190297e-01 -1.8165268435677895e+00
      4.3944279503935855e+00 2.6441856624801243e+00
      7.5853516508302379e+00 -5.4627475263275018e+00
      8.1244544684851994e-01 -9.3163755240618951e+00
      5.0929765205557542e-01 -2.4771790692721236e+00
      -4.6506131945936877e+00 -1.6134581461392639e+00
      2.2053371682782767e+00 4.0586617680084505e+00
      2.4051276563019091e+00 -3.2263826861412133e+00
      3.5123356575251163e+00 -9.2938666206891405e+00
      7.6391368136680027e-01 -5.2969791735809277e+00
      1.0626335336940249e+01 5.5390818233045036e-01
      4.7074163769521125e+00 2.3374303943292629e+00
      1.3350436598392024e-01 -2.0049573210767631e+00
      1.9194161588549008e+00 1.1267753047290787e+00
      -7.8113567156632167e+00 2.6076729974340496e+00
      -2.8189426337591411e-01 9.4647281393184790e-01
      2.6525785203918342e+00 -1.6778935003595361e+01
      7.1811020099834471e+00 -7.6183664628639978e+00
      -2.6704717414390458e+00 -3.4692782770554911e+00
      1.2365992560984658e+01 4.1291768964895468e+00
      -9.2440323458305163e-01 5.4969013993049387e+00
      -2.9165521531945933e+00 -2.2004074590094196e+00
      4.4623292108679964e+00 3.2564657777697135e+00
      3.8471133001514346e-01 1.3136621743781765e+00
      3.2642669498174182e+00 -2.1831656391850929e-01
      -5.5908109652138611e+00 -1.5401257825425236e+00
      2.0359031704853008e+00 -1.9405126479732637e+00
      2.0313352028208249e+00 3.1936773372865428e+00
      8.9790519870233023e+00 2.8462345613952902e+00
      -2.3387008291376574e-01 -2.0128461070116033e+00
      1.1175235973217534e+01 -3.0294540165466119e+00
      1.0172313526937183e+01 -4.1021335189284693e+00
      1.6219065342305785e+00 2.2790685857639725e+00
      2.3868764402728515e+00 -6.1500909864124882e+00
      4.6422345448533706e+00 5.6108233819716036e+00
      -7.0597264257220171e+00 4.7637008040345705e+00
      -5.0203104984083211e+00 -6.6480751911116540e+00
      9.5896236960171848e+00 2.3312103861338969e+00
      4.4907658050305663e+00 -4.7403319400983623e-01
      1.2279364731223216e+01 2.5531393097780617e+00
      -3.1298569354762220e+00 7.9111519857740475e+00
      1.6774733268982684e+00 3.9753359751829659e-01
      -4.6814595252360505e+00 8.2494375750996145e+00
      8.0286420126436595e-02 9.4223229321579645e+00
      4.0117548644183811e+00 5.6093021157469547e-01
      -5.2499322203502041e+00 2.9588811299144924e+00
      5.3868202422210176e+00 -4.6621132048472109e+00
      -7.4371091309463662e+00 -1.6739884762107771e+00
      -3.2339804715026599e-01 1.7167078571905106e+00
      5.8827473192962450e-02 5.4342108198463333e+00
      1.2402353733275993e+01 4.0844890182814375e-01
      5.3055840316743890e+00 2.2306124904615987e+00
      -3.2190468151585727e+00 -1.3140635886158389e+00
      -3.8098266107589986e+00 -2.4138107314973811e+00
      7.4175744872682792e+00 3.9919109539795512e+00
      -1.2258060566193609e+00 -1.2890365624124469e+00
      2.1514023392794703e+00 9.2327739301128775e-01
      2.9724022413960216e+00 -7.1483116805193578e-02
      5.0363281112023470e+00 7.2749010124536282e+00
      3.6227401761183504e+00 3.7999410546988917e+00
      -2.6843813139705253e+00 -3.6587626332579206e+00
      4.5708110323207043e+00 -2.0752763167535607e-01
      -4.7323904730067339e+00 4.2409005907373087e+00
      -1.7335970982798010e+00 -1.8035558121132642e+00
      -3.3502943809926236e+00 1.2586483270234380e-01
      1.4287638215680849e+00 -3.1815901221138514e+00
      -4.9639952151390787e+00 -2.3493701649194465e+00
      -2.9661134969193848e+00 -5.7183373703447540e+00
      2.5028331387482683e-01 2.1940931841431588e-01
      -7.7423176860035947e-01 -9.6601956271087808e-01
      -8.0210710823790410e-01 -2.4378592804525061e+00
      -9.8147443220237451e-01 -6.1501178813526902e-01
      -8.0482998324100608e-01 -4.5649171366409787e-02
      1.0636704102350920e+00 2.3315159223602242e+00
      2.0514766782174259e+00 -4.8499578933896306e+00
      -3.1012152966322697e+00 -6.0964637197570115e-01
      -4.5555154032698635e+00 -6.1300947582334793e+00
      -4.9675912357204002e+00 -4.8911899053978090e+00
      -1.3667321266292214e+00 7.2122632625684369e-01
      -1.1017185619218438e+01 3.3610201849614146e-01
      -1.4946606779665770e+00 -3.8118855085661676e+00
      1.1761304206326659e+00 3.8173760029892723e+00
      3.2933104026149795e+00 4.4247046468128568e+00
      4.6322444537570856e-01 -3.6204776040098046e+00
      -4.0038083003005589e+00 -5.9095431338796622e+00
      -5.2367201970400714e+00 -3.9770864233992227e+00
      2.1656985494503966e+00 -7.6420921891437144e-01
      5.7529252826532717e+00 -1.0281921185305809e+00
      -5.0781805140706171e-01 -2.7669215721460829e+00
      -3.3779392495092129e+00 -3.7724718968438729e+00
      4.3685631853862157e+00 -9.6517525379802893e-01
      1.8737260286897064e-02 -1.3517866907893992e+00
      -2.4207115856652615e+00 9.6854636992442134e-01
      -1.9039639347326914e-01 -1.1607024243850834e+00
      3.5894714170778697e-01 -2.0642733224789609e+00
      -1.3538662097613006e+00 5.1041758172517397e+00
      1.1067842739590399e+00 -1.5900788652759339e+00
      -1.9154713432096833e+00 9.2157333892482318e-01
      8.4443573683042827e-01 4.0997431184369395e+00
      -2.3706853200818072e+00 -8.0538078781741695e-01
      5.1347966578971596e+00 -4.5900297256897865e-01
      -2.6057473226873418e+00 3.1697466903685245e+00
      -3.9984726777154660e+00 6.2051157411631142e-01
      -4.1027201169843867e-02 7.0334156388084015e+00
      2.9253209590511635e+00 1.1881642599712015e+00
      1.0191937024835958e+00 -2.6204323389794681e+00
      -1.0854603645395762e+00 -1.1256726859623500e+00
      -8.8436351835112015e-01 -1.4613993166592314e+00
      1.9671136169526651e-01 -3.6801294458996274e+00
      -1.0065761247397880e+00 4.4006603298094171e-01
      5.9177421180624963e+00 1.4821607046723939e+00
      -1.2529852171662628e+00 -4.6450316680836057e+00
      3.0730702471055764e+00 1.6134501414082034e+00
      -3.6995422179859632e+00 -6.3796983694278584e+00
      1.0473409893335273e+01 -6.4671065273830761e+00
      -1.2760012436668641e-01 -2.0449473326108798e+00
      1.5218725062972835e+00 1.8691434661053250e+00
      1.4081899681537693e+00 -9.2094307222571441e+00
      2.9031230126346901e+00 -3.4858583208633114e+00
      6.1743592625857424e+00 -1.1138625047445401e+00
      2.5769457052179212e+00 -1.3166098697774613e+00
      -2.3546330735712413e+00 -2.2180739674653673e+00
      -6.8348205449523975e+00 -6.3807605303661230e+00
      -3.7813553827198371e-01 4.9848960138856766e+00
      4.6150155199059328e-01 4.2693086061039809e+00
      7.5123754134769012e+00 -3.6419503850419788e-01
      7.4160218182326476e+00 -2.1546616101546179e+00
      8.8403674585921843e-01 -1.1877625793953956e+00
      2.8883036863411267e+00 -4.2274819743541592e+00
      -4.0973852751804596e-01 7.8627336638495604e-01
      4.9595133655974024e+00 -1.3701200310967721e+00
      3.4425773841422758e+00 -4.7264281155285008e+00
      8.5501504487173818e+00 1.5492741434814585e+00
      -3.7854436385394230e+00 -5.2657815293824521e+00
      8.0377702458395817e+00 -7.2484592623893684e-01
      -1.9422076450964241e+00 -4.8471515155641720e+00
      -4.2602500620134318e+00 -4.7312978718098515e+00
      -4.0610150828630509e+00 -1.4815592836795275e+01
      4.7798573082161626e+00 -7.2732162520220340e+00
      2.3304541065453943e-01 1.8862204052272953e+00
      7.2438810270238401e+00 -3.1876693754927155e-01
      -1.0026559572219103e+01 -6.6842462156633875e+00
      -2.4031497605653196e+00 7.1814295194632631e+00
      -3.6629812622281410e-01 -2.0752259933979933e+00
      2.2521981650531897e+00 1.3127595787510394e+01
      7.4463246143010009e+00 -8.0815163258454537e-01
      5.4449154521868994e+00 3.4176723008767240e+00
      5.8299581819286681e+00 3.8526307653653431e+00
      6.7615141766268252e+00 5.6139976275094110e+00
      -2.8457303349543356e-01 -1.2321376863205882e+00
      -7.6359413476886984e-01 2.6127956454791663e+00
      -2.1174316615107127e+00 -9.9802708880642417e+00
      3.0690671949311681e+00 -7.2089555744036096e+00
      -1.1426129888481689e+00 1.1960391283490575e+00
      -4.0142611522211711e+00 8.3886900663017128e-01
      -5.3287699356496541e+00 -9.9640403610196255e+00
      4.7142078441863633e-01 -1.0611296465042839e+01
      -1.8248991489141251e+00 -7.8878570150452365e+00
      -2.9805589288980192e+00 8.3079411887725485e-01
      1.0912544201663120e+01 -6.8086655829412344e+00
      4.4622243651246860e+00 3.7442198466389343e-01
      -8.3815442917523022e+00 -1.1313332048838023e+00
      1.1039862274353363e+00 5.8034803899895226e-01
      -4.0130880843465516e-01 -3.7389433995160171e+00
      -4.8480283941499813e+00 2.0637398797283169e+00
      4.5041266485708684e+00 2.8415198679976261e-01
      3.3578190904070966e+00 6.6262507648673576e+00
      1.3321749773164910e+00 1.0711521037288136e+00
      -8.7219926363715086e+00 3.1693841620403429e+00
      -3.2485503893958836e-02 -6.1824521023519194e+00
      3.6017792961747439e+00 1.2626640155273209e+01
      6.2001612402212851e+00 -1.5770489863408404e+01
      1.5067072226221174e+00 -7.0320323237792941e+00
      -3.3787203033840574e+00 1.2717964149882427e+01
      2.3186950082059150e+00 1.9233686760511046e+00
      -7.5529924479050097e+00 -8.2466678855793702e+00
      9.7120043899486186e-01 2.8539076498194817e+01
      -2.2928250549321499e-01 -3.6338629121050099e+00
      2.5082099629293717e+00 4.1012221313477487e-01
      -2.5575966176331058e+00 2.4599743547172293e+00
      4.1060213222220758e+00 -7.4401152627897300e+00
      8.8767260757092412e+00 -6.1556871002520124e+00
      5.5156776337675897e+00 1.0929572932544110e+01
      -4.8498016814780172e-02 -2.8965172583170693e+00
      6.1615806477997337e+00 8.2280074144540105e+00
      -1.2351573725608507e+01 1.6729860655006337e-01
      -1.2232999727093635e+01 -3.6259543333637893e-02
      1.9921109447095835e+00 -3.9779784533739355e+00
      6.1615214500150213e+00 -1.1264692577556360e+01
      1.6521512381866557e-01 -9.2950473754042218e+00
      1.0417089836131169e+01 1.1774499669888426e+01
      -4.7593661012129145e+00 -1.5033046648297606e+01
      2.0165843628920803e+00 -4.6125340575288050e+00
      2.0983390606471297e+00 9.6629857536410739e+00
      -5.6273869566021553e+00 -9.0850406632969560e-02
      -1.2727575059350270e+01 -7.3928764259571791e+00
      -2.1637660417321980e+00 1.1987009307650055e+01
      5.1180204011190504e+00 -4.8698929664647697e+00
      5.4409675638384325e-01 2.7159971073893296e+00
      -6.1890494470458286e+00 -4.2233815589946877e+00
      2.8381920838490644e+00 -8.3814705156703777e+00
      -1.2884272361465126e+00 8.0570872152185764e+00
      -7.6555238451897489e-01 -6.2010510640944139e+00
      -2.7793456716652759e-01 -1.4758863844499228e+01
      1.5562388878193509e+00 8.8953770489949520e+00
      3.2258513415508538e+00 4.8808806507870476e-04
      1.5134600854198685e+00 -5.9742676410792104e+00
      1.3557131296213857e+01 5.9294125131903064e+00
      9.0193017652542142e+00 -1.5340144220034247e+01
      2.3220838003092320e-01 3.3595620031460047e+00
      9.9450481168198053e+00 1.1160809943902786e+01
      -7.0473266196669586e+00 1.2926640400850630e+01
      -4.2288568628602201e+00 -2.1453103767288453e+00
      -5.5642625035714319e+00 5.6547606061919256e+00
      -5.8408802549912853e+00 5.4644666581286954e+00
      -1.4762440333970014e+01 -5.6952326098941395e+00
      5.9733510905248428e+00 3.1652375898030756e+00
      2.3523394258583075e+00 -3.5305997156984872e+00
      5.1225435349566499e+00 -1.0488764005892339e+00
      7.8570315747279551e+00 4.2318223619931530e+00
      7.4126232960013083e-02 6.6087689328220254e+00
      -1.0981950838874415e+01 4.1320392167916751e+00
      -1.3324859918535694e+00 5.3587704195523056e-01
      2.1657186835888742e-01 3.5825878530813138e+00
      -5.9497279537712080e+00 -5.4601959433810148e+00
      2.4014305337799207e+00 2.0116392207393324e-01
      1.1607470032233708e+01 -2.9601947410504259e+00
      -1.4395911144400193e+00 2.9518465055630543e+00
      1.2328723881929514e+01 -7.4202793772409548e+00
      9.1310990548096671e-01 8.3572239878678989e+00
      3.9251654923663148e-01 8.6596764263183132e+00
      -7.2227923203251532e+00 2.3789827824273067e+00
      -1.8894148854212940e+00 -3.6571823612023096e+00
      -1.6117716926408412e-01 -8.1200962415491382e+00
      -6.7846702603303477e+00 5.7432536154240319e+00
      5.4276984513732274e-01 -7.4250608469904025e+00
      6.5946058753198447e+00 -2.2672362590260677e+00
      -4.6168556494032513e+00 -6.3559542492720631e+00
      4.4494440816073748e+00 2.2107994462919942e+00
      1.1905111264803468e+01 4.6283136358890564e+00
      -1.7181034741295602e+00 8.7111392096873193e+00
      -3.6520973713520841e+00 -4.8875870794945344e+00
      -1.3282953636971855e+00 5.5058540265547746e+00
      -4.2683773916872175e-01 9.2238104760414892e+00
      6.9783089138477896e+00 2.5357384948654742e+00
      -6.2302135448213498e+00 -1.3282358574540258e+00
      -3.4935375340676984e+00 -1.0484943420029846e+00
      -2.7941703284789416e+00 -8.8350577669814889e-01
      9.8442590067711500e+00 -2.0265580756413804e-01
      -8.2635195116400928e-01 -1.6117648497350121e-01
      9.4445273956898168e-01 2.0891387663025425e+00
      -6.0629981342040562e+00 -7.3384357094839370e+00
      -7.5397169756237858e-01 4.0416865597980342e-02
      4.0714322793015045e-03 3.3856930766158926e+00
      -1.7251493778403701e+00 1.3177200844621522e+00
      9.7500332975240667e-01 -5.0774988917254760e+00
      6.3342927955966122e+00 -5.6474802888315896e+00
      9.1724643319525423e-01 -6.0346981639994741e+00
      -3.0365173608725504e+00 -6.9838855443719741e+00
      8.1787120759076313e+00 3.2484568234630986e+00
      5.3193987154230671e+00 5.4230358349872354e+00
      -4.3540113349571119e-01 -2.4565958763757392e+00
      3.1331597287696260e+00 1.7836819100180168e+00
      -7.5210531851267493e-01 1.8147661959216892e+00
      -3.2154563964497909e+00 -6.7718470124172860e+00
      -3.7013580941200632e+00 -2.0595452454873029e+00
      1.1644797258721164e+01 2.8462035226986682e-01
      4.9819200183247236e+00 4.8478975927912824e+00
      9.5459493517873495e-01 -5.6255648751344109e+00
      1.6435287089954514e-01 -5.4197952076747589e+00
      -4.0605898894831247e+00 -2.8532170221433972e+00
      3.6749244641434875e+00 -5.9074811565020346e-01
      -8.3197448901744220e-01 -1.7028825578911827e-01
      2.0428419758875385e+00 2.9534594641571319e+00
      2.1820383861977238e-02 -5.0970490735067520e-01
      -3.2118250380324738e+00 -1.6724250669633864e+00
      -4.4175049063062699e-01 -1.7700027058242884e+00
      -1.0429892252097459e+00 -8.4392080718549547e+00
      -1.4477128918432650e-01 -5.2781808624195181e-01
      -9.1334747599869601e+00 -2.8853435378293009e+00
      -1.6968532977158566e+00 -2.8436406073481639e+00
      -1.9404670127538519e+00 4.2371273487799721e+00
      4.5348252438176742e+00 1.3973208560334702e-01
      2.5418643612573122e-01 -1.5954212779615020e+00
      1.7371402624294336e+00 -9.5415415721475743e+00
      -4.5387083236635553e+00 -5.0695687142874961e+00
      4.5347737397217243e+00 4.6430039521247513e-01
      1.2352657449835558e+00 -3.8688245758636333e+00
      -2.3299194128079885e+00 -2.2965237051229126e+00
      -2.5036582430898946e+00 1.5495163126090264e-01
      4.1167605110806615e+00 -5.2320459660508272e+00
      3.8269585679817020e+00 -2.2664466023956416e+00
      3.8056498220570480e+00 -3.3485820584446346e-01
      1.1255686133689244e+00 -5.8889257200161973e+00
      -6.6696146500754336e+00 -1.1177186376161738e+00
      -6.4335894314914412e+00 2.4846828517727899e+00
      -1.3440213245299824e+00 5.1622744582601809e-01
      -6.0773067041455944e+00 -2.9982601425818872e-01
      2.3752186502577968e+00 3.6707909905872800e+00
      -2.4644686724246871e+00 -1.9873832872940309e+00
      2.0273591510282838e+00 -4.3769911179324472e+00
      -3.4604108156357851e+00 1.3569915319322716e+01
      -1.8517629838010365e+00 -2.8009631764835015e+00
      1.8223415256208081e-01 -1.8530526270583194e+00
      3.3971347289305704e+00 9.9488673495086455e-01
      -7.5844991522843355e+00 -3.0314562567272838e+00
      1.5746550182233550e+00 -9.1570427879020833e-01
      1.8586062313220115e+00 3.8563748193774489e-01
      1.1083236358374582e+00 -3.5213854772854805e+00
      -3.4738080488299261e-01 4.0140501906187864e-01
      3.2435888136486501e+00 -2.2517367383103988e+00
      7.0418515684618654e+00 -1.4141262077048964e+00
      1.2616625083994042e+00 7.8481935650255918e+00
      2.8165407835010620e-01 3.1471924218404279e-01
      -1.4172664791572964e+00 -7.5889727022394471e-01
      -2.3607095387166668e+00 1.7862660911182915e+00
      -2.7772622618230822e+00 -3.1153750858196316e+00
      2.0497660331638823e+00 -5.3289905979869649e+00
      -1.0214957850232684e+00 -2.7888520594997046e-01
      3.8666442357176343e+00 -1.9313312189886014e+00
      2.5925112634505526e-01 4.2154508763469440e+00
      -3.9939397589371488e+00 -3.2431825207789972e-01
      -3.6710060081899778e+00 1.8726488251868028e+00
      6.5347963190257741e-01 3.4233189298055358e+00
      3.2404016883992663e+00 1.4475558904318813e+00
      1.0653932253467140e+00 4.0623980174885693e-02
      3.2339463653032330e+00 -7.4820918229793232e-01
      4.7531379824545050e+00 -1.7173126628777136e+00
      -1.0645833460746932e+00 1.7371922648427478e+00
      2.4603353291036761e-01 -3.8648179309786994e+00
      2.3635373677543212e+00 -1.3914929454436265e+01
      -5.2288683457722474e-01 2.3028492455873018e+00
      1.4906798510792167e+00 2.7878305207141070e+00
      -2.6704297833712337e-02 3.4838928398307774e+00
      6.6989419855361323e+00 -3.0643323657047934e+00
      -2.8844622084443068e+00 -1.4877395144569391e+01
      -8.5201778068587319e-01 -3.6079366295337283e+00
      5.9727676419124345e+00 -1.5322441183861550e+00
      6.3094956514613019e+00 3.9205860886843582e+00
      2.2753654956304175e+00 -4.6359891988867270e+00
      -2.9792191335852207e+00 1.1655208670653623e+01
      -5.5180342308045249e+00 5.9437329298641197e+00
      -2.8821760618058931e+00 2.7684417640056194e+00
      4.7987315153599369e-01 1.3745358015689157e+00
      -1.0402812145373623e+01 -1.4872895056112352e+00
      2.1201569576267696e+00 -1.8636135436107300e+00
      3.2043398533928844e+00 8.5185262653899976e+00
      -1.2352745212733878e+00 2.1458179784635645e+00
      -6.5432916610945933e+00 -6.7386089091745438e+00
      -3.5157033123144521e-01 2.1141372553856272e+00
      6.3824324869424576e+00 -8.0461324764636082e+00
      -1.6315483542856044e+00 -1.9042991713732649e+00
      4.7353579035175954e+00 -3.2375009601864901e+00
      4.5541809634137191e+00 -3.1808723349757297e+00
      4.7821567037666117e+00 -2.4926558629283260e-01
      2.9259601891026072e+00 -1.3598069482545988e+01
      1.3310703416055421e+00 1.8451090545803956e+00
      -6.8938515116788492e+00 -7.0112514379466351e-01
      7.9739450059365513e+00 -7.8932782041934990e+00
      -4.0863959323443257e+00 1.1495184984075750e+00
      -2.4374010211250390e+00 6.6207977048921218e-01
      -3.1771825225279424e+00 -7.0885621436042379e-02
      -1.2963355030725701e+01 9.2760127600345790e+00
      9.1221962562063119e-01 1.6683485284167672e+00
      -7.0426156827023956e+00 -1.5005378186804061e+00
      -1.0064961792466489e+00 -1.1108527977624814e+00
      1.1670529496918503e+01 9.9022568969644063e+00
      -3.0326478686641232e+00 1.5081216206117030e+00
      -8.2550258010504400e+00 -1.4203835232376698e+00
      -2.8422523254353455e-01 7.7213207420644983e+00
      8.5814851591165837e+00 1.6925343162120601e+01
      -2.1520241278044216e+00 -8.9500145597252612e+00
      4.8308935332918619e+00 4.2145919749927048e+00
      1.8029213041115693e+00 6.9898592121846015e+00
      1.0772921839085269e+01 9.0949011536638436e-01
      2.6122435094839704e+00 -1.1308295136240837e+01
      -1.2307741688136211e+00 7.4612963451190528e-01
      -4.3721668485826077e+00 -6.8102000096886295e+00
      -1.0720569770143011e+00 -9.7946179958364183e+00
      1.1814688801038946e+01 -3.3446895713787312e+00
      4.9305458494526393e+00 -1.9973163686495226e+01
      5.4854495770417389e+00 8.4396215393509202e+00
      -5.5377398387143444e+00 1.4594074913338831e+01
      7.7601339731669550e-02 -5.0599375282486081e+00
      4.9480080464505489e+00 3.1374111916744019e+00
      -9.8877969124660599e+00 -3.5937852077096615e+00
      -2.8144852139149108e+01 7.9867880055956206e+00
      6.4056481291924261e-01 4.7668231309496365e+00
      1.3733919762222886e+01 -3.0622690910387194e+00
      -5.4992648316821890e-01 -6.9331448161155960e+00
      6.1401402517250618e+00 3.1577460062463930e-01
      -2.2618772188924483e+00 -4.6507925399997596e-02
      -6.8446520895475258e+00 4.5471198913997979e+00
      3.8357106573595070e+00 6.4806350967035238e+00
      -9.6626483571538824e+00 -8.3351890173229259e-01
      -9.1715653876504923e+00 -3.3008632677120202e+00
      8.1099959660343357e-01 4.5573290964123965e+00
      -2.8717880132140294e+00 -3.6958778379314272e+00
      -4.7977582740136082e+00 4.1802560234820190e+00
      3.0134761565869277e+00 -1.1270156356125067e+01
      -6.1152618948164479e+00 -7.8753767694823491e+00
      -4.5111470315426319e+00 5.7432503990418988e+00
      -1.3502693308433149e+00 4.9417350387679254e-01
      -1.2394733280793433e+00 -1.8484087329420696e+01
      2.3393842210608073e+00 2.6207327143615515e+00
      -3.6418495457138529e+00 4.8341567156893264e-02
      7.3523155162531193e+00 -6.5199870216798328e-01
      -7.0277519151903500e-01 1.3929183515919556e+01
      1.2457861685956411e+00 -4.0431957615388381e+00
      -3.2867500202996075e-01 6.8278217732046373e+00
      -4.4207673053160903e+00 8.9228987292527595e+00
      -1.5965906428033717e+01 9.8506190580548003e-01
      6.0527326456474084e-01 3.6861580938094036e+00
      -4.1182938603152114e-02 -2.2568369786110258e+00
      3.3496028818517249e+00 -5.5739490297064842e+00
      -1.7167022621267876e+01 2.0302796496402067e+00
      7.4481467879751913e+00 5.7669347730181340e+00
      -7.7311407862932242e+00 -2.4061513197457867e+00
      5.3599249217781804e+00 8.5837865558026483e+00
      9.0553549705285974e+00 9.4950836458261634e+00
      -7.9460886667726403e+00 -8.0544356717778032e-01
      -1.0703766618193724e+01 3.7312255497823039e+00
      5.6086410887778708e+00 3.2666209755273909e+00
      -6.7286726269919195e-01 -1.8790825460777143e+00
      -1.9657724672448971e+01 2.5640831100269104e+00
      1.0680349309740819e+01 9.6865436591850795e-01
      2.6570626872246890e+00 -8.5507793160478300e+00
      5.0740004424185781e+00 1.1640883291139760e+01
      -2.0819517439127369e+00 -1.9098452616662872e+01
      3.3220511846359474e-01 -2.4366588300608067e+00
      -1.0139951681427108e+01 8.0174058175351330e+00
      -9.8517885172757538e+00 -1.0683629165403496e+00
      8.1107939203234363e+00 2.5973164173761654e+00
      1.3202236496750697e-01 -2.9265024769733672e+00
      -4.6265993384337083e+00 -1.5312988679423774e+00
      -5.4805061971347326e+00 -1.2284985313865224e+01
      1.0419202426455909e+01 1.5160682510327307e+01
      7.6244311973140133e-01 -2.3419687267011278e+00
      8.4095678994918799e-01 8.1063292628807893e-01
      2.3054271488578904e+00 -1.8945282795780740e+00
      1.6099193764078650e+00 -1.0956818483879051e+01
      -8.1011520177185155e+00 3.0949297771706608e+00
      -3.3159505679121071e+00 -5.5852223727158163e+00
      1.5639754005333606e-01 2.4839258503390063e-01
      -1.1753753466219296e+01 6.5031294650337248e+00
      9.6353117375832458e+00 -1.2567757260960128e+00
      5.8265783065839685e+00 -1.2813231578654333e+01
      -2.3795670673059854e-01 6.1706804459082081e+00
      -3.6694610319347194e+00 -1.5010681493554971e+01
      -1.9229857225224374e+00 -3.3790770999509716e+00
      1.4258902915972449e-01 -3.3105139146532707e+00
      -6.7972813449384279e+00 -8.2940393635916543e+00
      9.3608508616605199e+00 3.0105422321806957e-01
      -2.4011970068130228e-01 -5.8036788412290692e+00
      -7.5331658915834305e+00 -6.6907802164551788e-01
      3.1495802066885288e+00 1.1962502437743074e+00
      5.9478654921977103e+00 5.7359083143846412e+00
      4.6120764319508138e+00 5.2028464637635121e+00
      1.4521412932184947e+00 -4.9786257506427694e+00
      1.3509083977660132e+00 3.5126268345725542e+00
      2.0970920531787712e-01 1.8308757610321031e+00
      -4.1252394513143100e+00 -2.1614227817623348e+00
      -1.7209538725997822e+00 -9.1844629134344498e+00
      6.6646588170459620e-01 8.7022048736087783e+00
      8.1586397124340930e+00 7.5366483424666058e+00
      1.7257318657940179e+00 -3.2430792944683198e+00
      -5.7416469140381086e+00 -3.1851444134347400e+00
      5.0353833796685006e+00 -1.8018160631105100e+00
      8.9747563926326712e-01 -2.4910395562160930e+00
      2.6976774479748972e-01 -3.6130847335069632e-01
      7.1294182708978386e+00 -1.6448938768129224e+00
      -5.0219157390793239e+00 -4.5499074676284392e+00
      7.4232125594259397e+00 2.3857481224929202e+00
      -2.3564805395603478e-01 -5.0283129127565598e+00
      4.4043039134841505e-01 -6.2828465360492558e-01
      -5.2666833832436160e+00 -2.2074984631590073e+00
      -3.0598389668959096e+00 2.9692134182894496e+00
      5.0717704034652900e-01 -4.5996590271526898e+00
      5.9511679119849714e-01 -6.6865818247687088e+00
      2.8225616908501854e+00 -8.5285298276307415e+00
      -6.5370863199225993e-01 1.9014356883421297e+00
      7.8084481310277321e-01 7.6295043703740806e+00
      6.1776942153769143e+00 2.6242998976147760e+00
      3.6224974527965831e-01 -4.5507016710881674e+00
      5.2887191155183491e+00 -3.9869439187640210e+00
      -9.3355691833057026e+00 -2.8370383696637722e+00
      -2.3457033028660970e+00 -9.4245097191511740e-01
      -4.7298015620224003e+00 2.4745758904530595e+00
      -2.6684605322460722e+00 1.0013677124280485e+00
      -2.2839241082620134e+00 4.7034153609011478e+00
      -2.6652277203110852e+00 -6.6978326364299319e+00
      7.5113276050530142e-01 -4.5039715491102465e-02
      3.3972322011116978e+00 1.9276153223957790e+00
      1.3561105631149108e+00 -4.1600606899411030e+00
      -4.9719724350900050e+00 -4.7068732126415522e+00
      -5.9089278436334043e+00 1.8711277999096660e+00
      1.4099569532086114e+00 -5.6544581231603654e+00
      -4.7826929971956407e+00 6.1878586257648118e+00
      1.4975152873362854e+00 -1.2215596047320896e+00
      7.6236692889454991e+00 -4.8005205949618812e-01
      -2.5628452079446951e-01 -1.0190819447017887e+00
      -3.7052559151114495e+00 7.8660569346110902e+00
      3.1309703780627411e+00 -4.2042032518943548e+00
      9.8254505924805016e-02 -4.2157831214461501e+00
      3.6448426468923620e+00 2.4889105740119977e+00
      -2.5937317753357587e+00 -1.6674015401355917e+00
      -7.5325772572226741e+00 3.7043214401715863e-01
      -3.2858521685985287e+00 1.0264467532081629e+00
      7.9544344138603638e+00 -2.2532583185375010e+00
      -5.3504511983401404e-01 -1.2753639684996983e+01
      -3.8736969258776819e+00 -9.5321421005086080e+00
      7.9889181449824387e-01 -1.4876514577193611e-01
      -1.8807141377188344e-01 -4.6648929720058314e+00
      2.3540402324674448e+00 3.9360441460073625e+00
      2.8760431012401861e+00 -2.0344762048970155e+00
      1.3218879628087548e+00 -3.0648411031467280e+00
      5.3697369865499258e+00 -2.1566617172031446e+00
      -2.9875955117118513e+00 1.0821828124476742e+01
      2.4551738281518660e+00 -9.7575214799333831e-01
      -9.6340319540320678e+00 -1.1998053695237787e+00
      -4.7922802724011166e+00 -2.1138734759188664e+00
      2.6034951755358643e-01 1.1912691705953244e+00
      1.9898474821980989e+00 5.1606863667879610e+00
      3.8362653103749322e-01 -2.9072273210792057e+00
      -3.1688367671790396e+00 -2.1852339868976967e+00
      -6.4668474888423484e+00 5.0279687919899141e-01
      -1.7516480394936187e+00 2.9860521669015188e+00
      -1.2201709113747620e+01 4.2872364105006078e-01
      -4.0804600331981336e+00 2.4002342851252456e-01
      7.3640388406742352e-01 -2.2258863410339682e+00
      -1.0210562023640197e+00 -1.3084265080099366e+01
      5.5989569182282706e+00 6.5776247891387261e+00
      -6.7542510823638064e+00 -8.6295697548448769e-01
      -1.6326591051405674e+00 5.8936073599273628e+00
      1.1250182799922307e+01 -3.3732674293785636e-01
      4.7758227010427250e+00 -1.4946079006469489e+01
      -1.6294140881895698e+00 -2.8159538766974745e+00
      -6.1389731861742947e-01 1.9324790925502327e+01
      1.4014181276081827e+00 -6.8706977131123272e+00
      4.1928762558463086e+00 5.2397271372745537e+00
      -3.6356800068354009e+00 -1.1755583878837410e+00
      8.1396475639284205e+00 4.3920896682822770e+00
      2.9471261304243823e+00 5.7996039568514810e+00
      -7.1367839607847511e-02 4.5813536434391731e+00
      8.5625174887694755e-01 -5.8374341738282185e+00
      4.2757975107446473e+00 -3.6052864436222920e-01
      1.3945760159991145e+00 1.2395676101245723e+00
      -1.9888543458176130e+01 5.9196871039814090e+00
      -1.5485818955494503e+01 7.6519170652162876e+00
      -3.5342177425977606e-01 3.7394961702244607e+00
      -4.9814619715457858e-01 -1.1653237001546470e+01
      1.3520016716926586e+01 -5.6157692152208094e+00
      -5.3900776813941844e+00 5.4078581330481867e-01
      2.3551104978277448e-01 2.6983586560916097e+00
      1.1560390903379313e+01 -8.9369526402230370e+00
      -6.7772485632000476e+00 -1.7985173590390879e+01
      -8.9111577160031956e+00 -1.2716463609891466e+01
      -1.1448000486291701e+01 1.0263869057090922e+01
      4.5851571278357177e+00 -8.2290925793350844e+00
      -8.9892814957378526e+00 1.0947072980540444e+01
      -5.3457040030650838e+00 5.5692289934758881e+00
      1.4019482497646814e+00 4.7973969283887336e-01
      1.9311877106418378e+00 2.4211656560628780e+00
      2.1351450710467990e-01 8.3277701768010779e+00
      -4.9177778406756998e+00 -5.1928028089795299e+00
      3.8407737293956906e-01 1.5307056657132951e+00
      6.7059467382389215e+00 -2.7908766393827134e+00
      3.4037091136166615e+00 4.9216206479360638e+00
      -1.0132534281553095e+01 -3.9774259237622371e+00
      -6.7447131537098415e-02 2.9115699176388352e+00
      3.7817024260690402e+00 -9.2234835111917490e-01
      -4.8007054871246106e+00 -6.1634308363504537e+00
      -2.8893346109796800e+00 -1.6614917664224953e+00
      -6.8810284938101218e-01 -3.2229869613272792e+00
      9.7601641467149793e+00 8.5076937447921974e+00
      -1.4256359031845278e+00 -7.6804026150172969e-02
      1.7228494707355593e+00 -2.6912581707123149e+01
      -1.1981727384514461e+01 -2.4454816570336853e+00
      3.4320830420178776e+00 1.5228412313415301e+01
      -6.3961844518170814e+00 -6.6105479671813088e+00
      2.5461658300452701e+00 -3.6556100382350758e+00
      4.6102477612904491e-01 1.3711280126842199e+01
      1.3667907231907469e-02 2.0904142962042922e+00
      1.2154696783689578e-01 7.9936529174363553e+00
      -4.2084309466130565e-01 -1.1151400763034245e+00
      -1.3684930711864076e+00 1.1665786578117454e+00
      -1.5463988471188035e+01 -1.3034385292442694e+00
      1.0627632356229158e+01 8.4565146150470749e+00
      3.9305148740719392e-01 -6.5633872094220411e+00
      2.3342169581541425e-01 5.4116981335904395e+00
      -1.9145178622349839e+00 8.9111950602450136e+00
      -4.2639698005120854e+00 2.3982050484987432e+00
      -6.1010138460464769e-01 -2.8023575927927551e+00
      -3.6862491871785825e+00 -6.5411775684040991e+00
      1.7720868405404868e+01 9.0021062019646880e-01
      -6.0574167183076169e+00 3.1532178927055856e+00
      9.4820517915710634e-01 -1.1758822769589477e+01
      -1.7698776433813515e+00 1.0612701271454489e+01
      -3.8232380642855301e+00 8.4312572192214947e+00
      -2.9882495323057472e+00 -4.8276234820536716e+00
      2.2320428613272441e+00 3.4054341171218594e+00
      3.0566763736350699e+00 3.5857040367292997e-01
      -5.6019186779145891e-01 -2.7408514069425216e+00
      -1.3522029404615346e-01 -2.5390866746455623e+00
      -4.4576990793912117e+00 -2.4569666607249570e+00
      -1.5627561360573788e+01 -1.7331892319647785e-01
      1.1147805687086654e+01 -5.5912238617502377e+00
      3.8214148350601733e+00 6.8874064476514567e+00
      1.7696262981178641e+01 2.4913363994327775e+00
      -5.2413471668003542e-01 2.3942735081330371e+00
      -1.1297925957733105e+01 -2.6972863613886995e+00
      -2.1504057362731053e+00 -1.6506110299224088e+00
      5.8527903031377013e+00 -9.5639194345266321e-01
      -2.9045887760145996e+00 4.0050257739763335e+00
      8.5120559860087699e+00 -1.4701305522885262e+01
      -4.2420691602700416e+00 1.6461044666064556e+01
      4.4121358381149918e+00 -2.6274020462050457e-01
      -1.1174158887347769e+00 1.3384222222035126e+01
      3.1681796633323942e+00 -3.6350045097679362e+00
      -5.6147520686797723e+00 5.0883039875525391e+00
      4.0434330770346527e+00 -4.3531486581112215e+00
      5.0631589400320340e+00 -2.9312476256662685e+00
      -3.7465319754707949e+00 3.7706136336376743e+00
      -9.3106316029010339e-01 -1.0751626069566900e+01
      -1.2898583374903973e+01 -1.1404469822340217e+00
      -2.8535819809190122e-01 -1.4741455891251394e+00
      2.9659408095025941e+00 -1.2333193054613959e+01
      -1.2994458234527432e+01 4.9755139454665160e+00
      -8.2537483697545628e+00 7.1264685171326614e-01
      -3.5604661534860760e-01 -9.6826609353255435e+00
      -6.0013953210518700e+00 -1.9673680276603438e+00
      -4.2883716745274496e+00 -2.3789781872388482e-01
      3.4547206631234841e+00 4.2712481551485526e+00
      -4.2281542357472643e+00 5.1665136326658825e+00
      4.0055041990740357e+00 -1.5853718983310760e+01
      -3.2761581882348088e+00 2.4662272616219245e+00
      4.2538850953692462e+00 -7.8884224187916869e+00
      8.4603641180818756e-02 8.5305020027353979e+00
      -9.8626445083644576e+00 -2.5588991422850045e+00
      -6.1286486083913116e+00 1.6122486069689735e+01
      7.9394308289895381e+00 1.5664095615017937e+00
      -4.5455761887104185e+00 2.4419754063508203e+00
      -1.1902706041732074e+00 2.5503449388140869e+00
      -1.9501712760726528e-01 -7.7368372470147042e+00
      -1.3203008520507341e+01 1.4534207850709508e+00
      2.0868897821913075e+00 -9.5043529111928249e-01
      -1.1687023236082085e+01 1.3009151029674235e+00
      -1.0334352331178920e+01 7.9567129015171023e-01
      -7.9753563902242428e+00 8.2784819904180260e+00
      -2.0996772573712583e+00 -7.2370894224124767e+00
      2.7888742910497744e-01 -5.7499549446761424e+00
      -2.3512219983503329e+00 3.5809762596112411e+00
      2.1726949593554634e+00 -9.0533140342738316e-01
      3.0708992234660180e+00 4.1992149626514976e+00
      -4.1513574852523387e+00 -3.3285629481811876e+00
      -6.7323452381913977e+00 4.3198840171446022e+00
      2.8877813260594185e+00 1.5876404693148458e+00
      7.4007457696129473e+00 7.6756920621110067e+00
      -3.9093324243964194e+00 -2.9804258411364803e+00
      1.8387552816679267e-01 1.2210905186434998e+01
      2.8472717046341951e+00 -1.6204198968111228e+00
      -7.8370622508947153e-03 -2.5007487056863869e+00
      -3.1021226992997843e+00 -1.3378833674053654e+00
      1.0711805211049985e-01 -2.4274141490909362e+00
      -6.4562823029036851e+00 4.3983958028542034e+00
      3.3818576842780690e+00 -1.0980002732217646e+00
      1.8207822384097089e-01 -6.6823175813235447e-01
      -5.8698121698223584e+00 2.6657616037827179e+00
      -1.8038458272314364e-01 4.6450491143905239e+00
      5.1334132736524096e-02 -1.3382010174587957e+00
      1.1973713993854436e+00 -2.5503144686724224e+00
      -7.1525875420313030e+00 -8.0505528528378107e+00
      9.5176868245191759e+00 4.6085154227759689e-01
      1.7042983430165468e+00 -8.6274222882762786e+00
      -2.6078204419812190e+00 3.0063402095525240e+00
      6.9759066831984571e+00 4.8713547351960891e+00
      1.3910279558212559e+00 5.2993086815292960e+00
      -1.7533516427091980e+00 -6.2100307545820179e+00
      1.4486072303832533e+00 -8.9445698054968459e-01
      -3.9297144099607499e+00 -4.2976222334654688e+00
      -1.9036736348281205e+00 5.5763243372800426e+00
      -2.0170976431704646e+00 6.9734848846162425e+00
      2.6795143573083338e+00 -3.4544436451708416e+00
      2.7330178922433734e-01 -2.7157534782127932e+00
      5.1305794860637191e+00 -3.9401473400582847e+00
      6.2170175454395755e+00 1.5114890642426964e+00
      7.5153030056036074e-01 -3.9353402883707694e-01
      -5.2203154880415337e+00 4.4936973910406239e+00
      -4.2721839000621037e-01 -7.2501650370711381e+00
      -1.9846110450525405e+00 3.4744620905743426e+00
      -2.8763389035007960e+00 -3.7436413007681084e+00
      -6.3528160936438534e+00 1.2405280726271755e+00
      -6.8749916552098380e+00 2.3192719066536687e+00
      -1.4954410173574439e+00 -3.8210729262418299e+00
      -5.0601955345951870e+00 4.8274361520180396e+00
      9.5851007578189340e-01 6.0973855298468420e+00
      -9.6942596417443738e-01 -8.9091335462657497e+00
      -3.7296290057145263e+00 6.9430187346008898e+00
      1.1493850161901547e+00 3.1761835871313968e+00
      1.8286183240612395e+00 1.2639191910351351e+00
      2.1402031187004229e+00 4.9978740700281143e+00
      -6.3786686038789542e+00 4.2316527446118002e+00
      1.3106149503649573e+00 -2.1664137730288457e+00
      -6.3520591735020169e+00 -9.5938977906347205e+00
      -2.7504023224723340e+00 5.8848702157102819e+00
      -7.1293995537742791e+00 3.0901006797725716e+00
      -1.0930417275721822e+00 -2.2699158636349628e+00
      1.5662239627735650e+00 6.4643606969647482e+00
      8.2799081067465021e+00 -6.9782177433413368e+00
      2.1321223481504184e-01 5.0701232634485316e-01
      2.2930767793097586e+00 -7.1354951002142757e+00
      3.4025944350951884e+00 2.9021523636757922e+00
      -7.8887676313532458e+00 -2.3269488166827629e-01
      8.1032520947747466e-01 -1.8163388045353444e+00
      -1.2293328753957549e+00 9.9099049587987871e+00
      8.6193735484994798e-03 3.8425486470433965e+00
      -2.5109403737893778e+00 -1.2563272605414650e+00
      -1.1494701095905269e+00 1.4501548022865827e+00
      5.3946054199419589e+00 -5.1003353056826493e+00
      -2.8467928272223815e+00 8.0935309646997542e+00
      3.9673292040808250e+00 1.3454534530354174e+00
      -5.1048587315300660e+00 6.5673439047127735e-01
      5.0775184860726181e+00 2.9775953086929290e+00
      3.2371440557325604e-01 1.3663087230980215e+00
      2.1541336497700385e+00 -5.1410575594873400e+00
      -2.5347270520061711e+00 -3.4043824768578446e-01
      1.3322540130051714e+00 -2.0852889411084372e-01
      -2.8179072550372095e+00 4.2766062065738106e+00
      -4.7639759645713886e-01 2.2128371097618000e+00
      5.2492979102149329e-01 7.1683795759186024e+00
      -3.0416751250791574e+00 -8.1919389247695644e+00
      -9.7022657539927593e-01 5.7481447729775859e+00
      -1.9806091794503825e+01 -2.7388746778010917e+00
      2.8774508801506582e+00 -3.6797835039282218e+00
      8.1904650292484926e-01 1.0287130586368194e+01
      5.2252207983421393e+00 -3.3856162535895740e-01
      -4.1106109517823386e+00 -4.8268737651886244e+00
      -4.9806820445689235e+00 6.9708977662327261e+00
      -7.7666011580435015e+00 2.0049913976311839e+00
      3.0925121465262606e-02 1.1578678887863321e+01
      2.7098989780661742e+00 -1.0170521188861088e+01
      2.2198249288559815e+00 -7.0344100921999617e+00
      1.0002521405786663e+01 9.7788897185860524e+00
      2.3371643848937651e-01 1.0118730981026903e+01
      -4.7142792786424090e+00 5.7256469622965458e+00
      2.7933870262564100e+00 -2.1555357441416336e+00
      4.9877447024471762e+00 -3.8364208466925294e+00
      -4.2652075278782560e+00 -9.6555475951271030e-01
      -3.6706505177752558e+00 -1.8628294035674426e+00
      7.0930554027891321e-02 4.5350405416508703e+00
      -5.9503954218925141e+00 -1.3703111762975064e+01
      -3.3545309354437949e+00 6.0923732943196667e+00
      -7.7583964763812876e+00 -2.4071379573972900e+00
      3.4570827067061827e+00 -4.2619343002607424e-01
      4.1138751471228101e+00 3.4386441016746114e+00
      -5.3638116192218694e+00 -5.4670402983447630e-01
      -4.3426965584967601e+00 -9.3512419135250742e+00
      -1.9656683467933771e+01 4.1008919098832015e+00
      -3.2576311006308623e+00 3.8794411126721271e+00
      1.6270207927172651e+00 -1.0772194501606247e+00
      -5.6014494708202482e+00 -1.7924963696834894e+01
      7.2464231322523229e+00 8.5861348860695141e-01
      4.2372902690633546e-01 1.1970330162191422e+01
      -1.3773330306858186e-01 1.4552900876937368e+01
      -2.4375586188548612e+00 7.1526734933793996e+00
      7.7564181752997499e+00 1.8737541976501839e+00
      2.2975811134591031e+00 -1.0665297434526472e+01
      6.8578245136255971e+00 1.3832496716487537e+00
      -3.3626527884772490e+00 1.8096657754183003e+00
      -1.2342033204150794e-01 1.6432043330442054e+00
      -3.3637644879660793e+00 -7.9665545899222490e-01
      -2.6756345930872250e-01 1.9359933622217185e+00
      3.1662182215895291e+00 -1.6553619258063839e+00
      2.5489253107320586e-02 -8.1941800650871119e+00
      9.1448220327522147e+00 1.9718763570209563e+00
      -1.5403154682994960e-01 -2.2084979289778537e+00
      2.4777061868538608e+00 -1.3303583411153905e+01
      -4.8446879436993120e+00 -1.1987003927590100e+01
      6.6472425193371736e+00 1.2920195387324826e+01
      -9.4191974149416353e+00 -5.3972847125637298e+00
      2.4565303125699423e+00 1.3301444666894247e+01
      5.4319529738811312e-01 4.7888752181696592e+00
      -1.4278965540549089e+01 1.7594346853632199e+00
      -2.6458879016249548e-01 1.0852850818026186e+01
      4.2210534207936172e+00 3.1467543818134640e+00
      -4.0088078756280288e+00 9.6320688229791451e-01
      -4.3659514141342095e+00 -9.1311610089506043e+00
      -1.0911016133700995e+00 -3.4461014262878211e+00
      -1.4792539659746022e+00 4.0033255480671857e+00
      3.3459349434537966e-01 6.8260490364657462e+00
      -7.2068696886234882e+00 -4.6658415952618109e+00
      -1.0895892360385862e+01 3.9105496580182812e+00
      8.5207964345040530e+00 -1.3944939849248041e+00
      -3.0488933841921604e+00 -1.0200484881325284e+01
      1.9163547204557091e+01 -4.0047459395312934e-01
      -3.9605964133560190e-01 9.5453103793141700e+00
      5.9624769302594922e+00 -9.3319905150015039e+00
      -8.9820079522565415e+00 -5.1916261038533005e+00
      3.9629158291105488e+00 -2.1237553905687037e+00
      7.8401278399890346e+00 -4.5821998195442424e+00
      9.7791592080654581e+00 1.2641123715475128e+01
      4.1902995175916375e+00 4.3604299110862703e+00
      -6.3896829590784572e+00 -1.6168533217690060e+00
      -2.2499964013343323e-03 1.2408741149501159e+00
      -1.4029161335103884e+00 4.7651097788617705e+00
      -1.4763729322973193e+01 3.9322362023405982e-01
      3.2952343730554041e+00 1.0222398333503726e+00
      -4.9370871254926403e+00 4.9143089033120724e+00
      5.6205771979729020e+00 6.9391858998466116e-01
      -3.9652325313556719e-01 -1.2715681909454732e+01
      -1.1557760373198690e+01 -7.1511868317925034e+00
      -1.4562037047684313e+00 -2.8564369600596282e+00
      -5.6540513476149075e+00 1.5721147332543397e+00
      3.5945658939923680e-01 -3.0884569705484299e+00
      1.0661626198173556e+01 -1.1429917428052972e+01
      -4.4533511892995286e+00 2.5393702270020029e+00
      7.5848150324666119e-01 -7.6049112753759616e+00
      6.9806369718817747e+00 1.2269235644060609e+01
      -7.9037683505962963e-01 -7.9595431005011870e+00
      -3.3801854688983295e+00 5.2290572683194316e+00
      1.0809155266610468e+00 7.5538454013230805e+00
      5.6945804439042886e+00 -1.6743491246300654e-01
      4.8472039671483529e+00 -2.1351066024538286e+00
      -7.5842381857599657e-03 -1.5371625033910956e+01
      -2.1806689287828003e+00 5.7390886221874950e+00
      -1.3705247636344913e+01 8.7168523322720515e-01
      -1.2096783690748640e+00 5.6971492382260758e+00
      4.8292914771857962e+00 -1.0132475961647694e+01
      -2.0021814575394967e+00 1.8236271086537512e+00
      -1.9664959231533699e-01 -6.4206372243784395e+00
      -5.0736058058042683e+00 -6.5463597999360639e+00
      -3.7142078998805372e+00 -4.6316833011237097e+00
      -7.8551257987201666e+00 1.3638620243742938e-01
      1.4487181884141038e+00 3.8963823324732658e+00
      -5.3626337882726043e+00 -7.9543389338217407e+00
      8.4025105543671739e+00 4.6202090791439501e+00
      -2.1082146546517815e+00 -5.0077167753085359e+00
      3.6219241809856828e+00 6.7439328489321637e+00
      -2.6205111156476288e+00 6.0294641962283215e+00
      -9.8192632224083969e+00 1.5750765899619955e+01
      -2.9473863400230504e-01 -1.5413311475517484e+00
      1.0706485899327207e+01 4.1441497335151816e+00
      -6.0541565559005317e-01 -1.1832381043296532e+01
      -3.8834184273101552e-01 -9.8199117993303471e+00
      -6.0179967091143416e+00 1.6832656305961267e+00
      -6.1874717150632055e+00 5.2179712351538687e-01
      2.1473357765495193e-02 5.0369262872153007e+00
      7.0553581009593049e+00 -2.1464960128094499e+00
      6.1798170506474879e+00 1.4018318232830469e+00
      -1.1632733596973552e+00 5.5927656419368044e-01
      -1.8323822929365263e+00 -6.9206705647365052e-01
      1.7439265106455111e+00 -1.2794696802550594e+00
      -7.7867194453445698e+00 5.4101093799463191e+00
      3.4621737271399011e+00 6.1868695983264974e+00
      7.1957553065763573e+00 4.3118412017503935e+00
      5.9680900668243400e+00 8.6354353928103011e-01
      -4.3223864724799693e-01 -6.6516223362123394e+00
      -4.1793913273447375e-01 5.3725598788944415e+00
      -6.8989955120142346e-02 -1.5840581421135671e+00
      -1.3339723941452339e+01 7.0043816270092050e+00
      -4.2974480678165733e-01 -2.4057448976404223e+00
      -2.0622138502807847e+00 1.3145015961823152e+00
      -3.1237909440690954e+00 -4.9048568933201855e+00
      8.8393842527316274e-02 -1.2581927586564060e+01
      -4.9772129766852231e+00 -9.5054862688679815e+00
      -8.0268066494131363e-01 2.2486891408593909e-01
      1.0781158869698270e+01 -5.0992586905212134e+00
      9.1620900633469315e-01 -1.5336465075909282e+00
      -2.1454064174703258e+00 5.6414630226065849e+00
      -3.6517899907482110e-01 -1.0261796423308720e+00
      2.8533328276770842e+00 4.5648443839229524e-01
      -5.0858272446900932e+00 -4.2576310512650641e+00
      1.4449312076793830e+00 5.2706922987607663e-01
      4.9078067586355434e-01 -9.4865755374984833e+00
      -3.2492119898649827e+00 6.4738166108026025e+00
      1.3301333164513835e+01 -4.9478502630137777e+00
      -1.3230955154660888e+00 4.9022553543142440e+00
      -2.0956567568009599e-01 -1.0531102835097236e+01
      8.6589354635339399e-01 -1.4178395938636679e+00
      -4.7802100948519195e+00 -7.0642615704982270e-01
      2.2240384392465877e+00 -6.4312597603834698e+00
      -2.6714387941266660e+00 5.4752590362718214e+00
      -7.0884709567990289e-01 -2.7153436412121206e+00
      1.9899744973582317e-01 -7.8294598741050763e+00
      5.6137720217303171e+00 -3.7636917719882947e+00
      8.6058895462584246e+00 2.1287082160120012e+00
      1.1754180860368910e+00 9.4440585877449801e-01
      -3.3263578360595600e+00 2.0882792501853888e+00
      7.0505822006105112e-01 -2.6513083896102065e+00
      -1.2200293509089852e+00 -3.4197602131181961e+00
      4.2215250626679701e+00 2.4543150622656715e+00
      8.3599405136673832e-01 -3.2520661158028363e+00
      -8.5607236684072383e+00 -6.9909865867879650e-01
      -1.8928406604288894e-01 -3.1061943706801669e+00
      -5.9411527954413650e+00 7.7724601169834540e-01
      7.9345543025210006e+00 2.6017335890313604e+00
      -1.7253141638116751e+00 4.4791130469220688e+00
      6.5050851418543729e+00 -1.1285670834747639e-01
      3.8611880622557893e+00 3.6101676807945440e+00
      -1.0028686301858137e+01 -2.2511855500577211e+00
      4.5306208890980644e+00 5.2375858785064766e+00
      -5.5270983720842475e+00 -8.0737713184035620e+00
      -1.6097350474996288e+00 7.0016399177114632e+00
      -7.5263073755501164e+00 -2.8607313552647842e+00
      -3.0308047419160942e+00 2.8665525197665529e+00
      -3.5758072123626992e+00 3.8837126202354977e+00
      5.4687062693721877e+00 -4.9044958862342414e+00
      2.7495634916181268e-02 4.9688841506755184e+00
      3.9833181913307398e+00 3.1972549581506882e-01
      -1.0335186090410499e-01 6.9605176037544778e+00
      -2.0087692613339962e+00 5.6072725790430757e+00
      -3.4962201023591186e+00 1.1501250537792020e+00
      3.2503154801303147e+00 -4.2025287709911394e+00
      1.9126975098454699e+00 -2.8555379501525153e+00
      6.1636831729033865e+00 -5.7343917082418185e+00
      4.9431157701789834e+00 1.7613648231164609e+00
      -1.8630534162761074e+00 -1.8124275713970213e+00
      7.8206040611284544e-01 -5.3246958786524701e+00
      4.9074968648572970e+00 -3.8015855637664386e+00
      -2.5592738900804499e+00 -7.4398340104977045e-01
      7.8730271129207026e+00 -6.1586044264581750e+00
      1.2275104157050203e+00 -6.9478273326601645e+00
