<?xml version="1.0"?>
<opencv_storage>
<opencv_ml_ann_mlp>
  <format>3</format>
  <layer_sizes>
    120 40 65</layer_sizes>
  <activation_function>SIGMOID_SYM</activation_function>
  <f_param1>1.</f_param1>
  <f_param2>1.</f_param2>
  <min_val>-9.4999999999999996e-01</min_val>
  <max_val>9.4999999999999996e-01</max_val>
  <min_val1>-9.7999999999999998e-01</min_val1>
  <max_val1>9.7999999999999998e-01</max_val1>
  <training_params>
    <train_method>BACKPROP</train_method>
    <dw_scale>1.0000000000000001e-01</dw_scale>
    <moment_scale>1.0000000000000001e-01</moment_scale>
    <term_criteria>
      <iterations>30000</iterations></term_criteria></training_params>
  <input_scale>
    2.2332208207367835e+01 -9.3765968659427962e-02
    4.1967498690252558e+00 -4.9591609368739192e-01
    3.1000449295370385e+00 -2.0411523592011438e+00
    4.2932591678565935e+00 -3.7146137592893766e+00
    4.1800147863464598e+00 -3.2347518641562489e+00
    4.4695260576329092e+00 -3.7154722664905950e+00
    4.2885292277029219e+00 -3.6331098662951486e+00
    2.9563783988452115e+00 -1.4937573752038749e+00
    5.6851203068178506e+00 -3.4842866536389822e-01
    2.8251905566312097e+01 -6.5689220785562552e-02
    4.0117727551438902e+00 -2.8978965946071340e+00
    4.7249913066199074e+00 -3.9037091431918465e+00
    4.3408032249765727e+00 -3.1821174610275249e+00
    4.4420323698917716e+00 -3.3538050391884893e+00
    4.8607946134401141e+00 -3.8546050861229157e+00
    4.7285823678434600e+00 -3.6663506915938262e+00
    4.3450758298691499e+00 -3.1094974947976066e+00
    4.6234401091209492e+00 -3.4567521239663619e+00
    4.5683984247537790e+00 -3.7075564984629197e+00
    3.5972162340345375e+00 -2.2955274016737528e+00
    3.2325677804400677e-01 -4.5208533104821348e-02
    4.4760798862042636e-02 -2.8088092612985244e-01
    1.3911814585094466e-02 -8.3239384139856343e-01
    1.1462280245511566e-02 -1.4028847084024949e+00
    1.0204423083056550e-02 -1.3783790657541337e+00
    1.0920356133181441e-02 -1.5731045436810904e+00
    1.1780678985818388e-02 -1.3960366353228437e+00
    1.6834531085096867e-02 -6.3273058571629126e-01
    5.6081802990482828e-02 -1.7745831255169797e-01
    2.7128094640822298e-01 -4.9044035399644054e-02
    2.3226512301904975e-01 -6.5201055163048388e-02
    3.0352492121994756e-02 -3.4610218960466849e-01
    1.1791419723382830e-02 -1.1345749299674814e+00
    1.1635098267536066e-02 -1.8185987732732718e+00
    1.1646069463199632e-02 -1.4368146230888661e+00
    1.2137416807760299e-02 -1.7714585922053006e+00
    1.1504319252312259e-02 -1.8881984034256549e+00
    1.3612516639891029e-02 -8.5461021091759382e-01
    4.2081357588882699e-02 -2.2008980273843043e-01
    2.0059026920935327e-01 -5.3207621537449748e-02
    2.2397973037473459e-01 -6.5828791018406219e-02
    2.9530307849337589e-02 -3.5570476854324212e-01
    1.1105805579757259e-02 -1.0968241887318235e+00
    1.1669024445027328e-02 -1.5779532002839505e+00
    1.0189141348397898e-02 -1.0421563764834598e+00
    1.0414472749181303e-02 -1.1843997315122703e+00
    1.1001717657091412e-02 -1.5895146847358270e+00
    1.2636355050756061e-02 -8.4426958195432233e-01
    4.1656420141312010e-02 -2.3397516782070718e-01
    2.6236169078092964e-01 -5.4483724072718794e-02
    1.8261297403023846e-01 -6.2716099972233347e-02
    3.0664883512878997e-02 -3.5066250947394895e-01
    1.1211897409516053e-02 -1.1324271576911840e+00
    1.1532519381728831e-02 -1.6645580741355925e+00
    1.0215502507796591e-02 -1.2214905061564330e+00
    1.0784471273154938e-02 -1.3571040878215699e+00
    1.0719794824293296e-02 -1.4907087113949635e+00
    1.2671994578952151e-02 -8.0366971710469359e-01
    4.3239777827068573e-02 -2.2931969891783319e-01
    2.5892657195756286e-01 -5.6979000317696281e-02
    1.9370260516360466e-01 -5.7881941085594649e-02
    3.3224794856203013e-02 -3.0846519410970341e-01
    1.1361066353167361e-02 -1.0330500777548950e+00
    1.0875700397304016e-02 -1.7047698682712580e+00
    1.1145175229547239e-02 -1.7459600106655349e+00
    1.1884301367013165e-02 -2.0034422915247405e+00
    1.1639665878757709e-02 -1.7844273480602855e+00
    1.3240165175543221e-02 -7.6207509188411615e-01
    4.7478790382054263e-02 -2.0701020199021181e-01
    2.8822915182858921e-01 -4.4787513350004055e-02
    1.8630860550207270e-01 -5.9327434115945980e-02
    3.4388753440507236e-02 -2.8451261020543217e-01
    1.1375031194864315e-02 -9.8163654803014411e-01
    1.1073688069400078e-02 -1.6446513176472244e+00
    1.1232832492303394e-02 -1.5437817505030591e+00
    1.1605338670467900e-02 -1.7894594502101697e+00
    1.1199998488595028e-02 -1.7662914340314710e+00
    1.2948810036101892e-02 -7.9503092538396691e-01
    4.6519311936538764e-02 -2.0336295616290787e-01
    2.5972305311323879e-01 -3.7618039666569396e-02
    1.7380448509750071e-01 -6.2064508497550380e-02
    3.2906168687284153e-02 -3.0514678787672866e-01
    1.1173534766044739e-02 -1.0249569546422865e+00
    1.1034702855953414e-02 -1.4972057378018977e+00
    1.0673621725979351e-02 -1.0622067967225559e+00
    1.0729707680507837e-02 -1.2571853392622367e+00
    1.0838901944474367e-02 -1.6066202159995839e+00
    1.2322694743142909e-02 -8.3392575644816114e-01
    4.3014690019610280e-02 -2.2766440419823142e-01
    2.5302227813025813e-01 -3.9088235170525808e-02
    1.6862717075029190e-01 -6.8647384660366670e-02
    3.0127316937327713e-02 -3.3125681038894123e-01
    1.1319456267896768e-02 -1.1527630552322150e+00
    1.1755009701122971e-02 -1.7064146943277003e+00
    1.0977855961409318e-02 -1.0990135105184933e+00
    1.0399102297492004e-02 -1.2147751229761448e+00
    1.0722089660353781e-02 -1.5865535609613350e+00
    1.2139493952889040e-02 -8.7099323112622540e-01
    4.2361093577434145e-02 -2.4860952794534247e-01
    2.5119782624016507e-01 -3.8062201786598221e-02
    1.7166769855793315e-01 -7.5361617297497949e-02
    3.1402294442130795e-02 -3.2885902247397403e-01
    1.1787453299783326e-02 -1.1287929144393072e+00
    1.1383610563849265e-02 -1.7669560612603077e+00
    1.2214444506470518e-02 -1.4891437342541263e+00
    1.2757068011165490e-02 -1.7128356016647543e+00
    1.0503930774273392e-02 -1.5767102529984254e+00
    1.3373573380901293e-02 -8.6431918056574397e-01
    4.4435958003648704e-02 -2.4638285020332998e-01
    2.3418278641533849e-01 -4.2032590877972530e-02
    2.2576518927308653e-01 -6.1174136332531853e-02
    4.7278944690181485e-02 -2.5148934515787419e-01
    1.4939660844121697e-02 -7.2866186558507740e-01
    1.1568814462791727e-02 -1.2020465928108131e+00
    1.0062833938619243e-02 -1.1828652432601257e+00
    1.0470386839268897e-02 -1.1650008560274272e+00
    1.1949270228153525e-02 -1.0957695358532631e+00
    1.7552475334433149e-02 -6.0004493047978646e-01
    6.6618239026551868e-02 -1.9235026716149423e-01
    2.9864716800147206e-01 -3.5357735812017198e-02</input_scale>
  <output_scale>
    5.2631578947368418e-01 4.9999999999999994e-01 5.2631578947368418e-01
    4.9999999999999994e-01 5.2631578947368418e-01 4.9999999999999994e-01
    5.2631578947368418e-01 4.9999999999999994e-01 5.2631578947368418e-01
    4.9999999999999994e-01 5.2631578947368418e-01 4.9999999999999994e-01
    5.2631578947368418e-01 4.9999999999999994e-01 5.2631578947368418e-01
    4.9999999999999994e-01 5.2631578947368418e-01 4.9999999999999994e-01
    5.2631578947368418e-01 4.9999999999999994e-01 5.2631578947368418e-01
    4.9999999999999994e-01 5.2631578947368418e-01 4.9999999999999994e-01
    5.2631578947368418e-01 4.9999999999999994e-01 5.2631578947368418e-01
    4.9999999999999994e-01 5.2631578947368418e-01 4.9999999999999994e-01
    5.2631578947368418e-01 4.9999999999999994e-01 5.2631578947368418e-01
    4.9999999999999994e-01 5.2631578947368418e-01 4.9999999999999994e-01
    5.2631578947368418e-01 4.9999999999999994e-01 5.2631578947368418e-01
    4.9999999999999994e-01 5.2631578947368418e-01 4.9999999999999994e-01
    5.2631578947368418e-01 4.9999999999999994e-01 5.2631578947368418e-01
    4.9999999999999994e-01 5.2631578947368418e-01 4.9999999999999994e-01
    5.2631578947368418e-01 4.9999999999999994e-01 5.2631578947368418e-01
    4.9999999999999994e-01 5.2631578947368418e-01 4.9999999999999994e-01
    5.2631578947368418e-01 4.9999999999999994e-01 5.2631578947368418e-01
    4.9999999999999994e-01 5.2631578947368418e-01 4.9999999999999994e-01
    5.2631578947368418e-01 4.9999999999999994e-01 5.2631578947368418e-01
    4.9999999999999994e-01 5.2631578947368418e-01 4.9999999999999994e-01
    5.2631578947368418e-01 4.9999999999999994e-01 5.2631578947368418e-01
    4.9999999999999994e-01 5.2631578947368418e-01 4.9999999999999994e-01
    5.2631578947368418e-01 4.9999999999999994e-01 5.2631578947368418e-01
    4.9999999999999994e-01 5.2631578947368418e-01 4.9999999999999994e-01
    5.2631578947368418e-01 4.9999999999999994e-01 5.2631578947368418e-01
    4.9999999999999994e-01 5.2631578947368418e-01 4.9999999999999994e-01
    5.2631578947368418e-01 4.9999999999999994e-01 5.2631578947368418e-01
    4.9999999999999994e-01 5.2631578947368418e-01 4.9999999999999994e-01
    5.2631578947368418e-01 4.9999999999999994e-01 5.2631578947368418e-01
    4.9999999999999994e-01 5.2631578947368418e-01 4.9999999999999994e-01
    5.2631578947368418e-01 4.9999999999999994e-01 5.2631578947368418e-01
    4.9999999999999994e-01 5.2631578947368418e-01 4.9999999999999994e-01
    5.2631578947368418e-01 4.9999999999999994e-01 5.2631578947368418e-01
    4.9999999999999994e-01 5.2631578947368418e-01 4.9999999999999994e-01
    5.2631578947368418e-01 4.9999999999999994e-01 5.2631578947368418e-01
    4.9999999999999994e-01 5.2631578947368418e-01 4.9999999999999994e-01
    5.2631578947368418e-01 4.9999999999999994e-01 5.2631578947368418e-01
    4.9999999999999994e-01 5.2631578947368418e-01 4.9999999999999994e-01
    5.2631578947368418e-01 4.9999999999999994e-01 5.2631578947368418e-01
    4.9999999999999994e-01 5.2631578947368418e-01 4.9999999999999994e-01
    5.2631578947368418e-01 4.9999999999999994e-01 5.2631578947368418e-01
    4.9999999999999994e-01</output_scale>
  <inv_output_scale>
    1.8999999999999999e+00 -9.4999999999999996e-01
    1.8999999999999999e+00 -9.4999999999999996e-01
    1.8999999999999999e+00 -9.4999999999999996e-01
    1.8999999999999999e+00 -9.4999999999999996e-01
    1.8999999999999999e+00 -9.4999999999999996e-01
    1.8999999999999999e+00 -9.4999999999999996e-01
    1.8999999999999999e+00 -9.4999999999999996e-01
    1.8999999999999999e+00 -9.4999999999999996e-01
    1.8999999999999999e+00 -9.4999999999999996e-01
    1.8999999999999999e+00 -9.4999999999999996e-01
    1.8999999999999999e+00 -9.4999999999999996e-01
    1.8999999999999999e+00 -9.4999999999999996e-01
    1.8999999999999999e+00 -9.4999999999999996e-01
    1.8999999999999999e+00 -9.4999999999999996e-01
    1.8999999999999999e+00 -9.4999999999999996e-01
    1.8999999999999999e+00 -9.4999999999999996e-01
    1.8999999999999999e+00 -9.4999999999999996e-01
    1.8999999999999999e+00 -9.4999999999999996e-01
    1.8999999999999999e+00 -9.4999999999999996e-01
    1.8999999999999999e+00 -9.4999999999999996e-01
    1.8999999999999999e+00 -9.4999999999999996e-01
    1.8999999999999999e+00 -9.4999999999999996e-01
    1.8999999999999999e+00 -9.4999999999999996e-01
    1.8999999999999999e+00 -9.4999999999999996e-01
    1.8999999999999999e+00 -9.4999999999999996e-01
    1.8999999999999999e+00 -9.4999999999999996e-01
    1.8999999999999999e+00 -9.4999999999999996e-01
    1.8999999999999999e+00 -9.4999999999999996e-01
    1.8999999999999999e+00 -9.4999999999999996e-01
    1.8999999999999999e+00 -9.4999999999999996e-01
    1.8999999999999999e+00 -9.4999999999999996e-01
    1.8999999999999999e+00 -9.4999999999999996e-01
    1.8999999999999999e+00 -9.4999999999999996e-01
    1.8999999999999999e+00 -9.4999999999999996e-01
    1.8999999999999999e+00 -9.4999999999999996e-01
    1.8999999999999999e+00 -9.4999999999999996e-01
    1.8999999999999999e+00 -9.4999999999999996e-01
    1.8999999999999999e+00 -9.4999999999999996e-01
    1.8999999999999999e+00 -9.4999999999999996e-01
    1.8999999999999999e+00 -9.4999999999999996e-01
    1.8999999999999999e+00 -9.4999999999999996e-01
    1.8999999999999999e+00 -9.4999999999999996e-01
    1.8999999999999999e+00 -9.4999999999999996e-01
    1.8999999999999999e+00 -9.4999999999999996e-01
    1.8999999999999999e+00 -9.4999999999999996e-01
    1.8999999999999999e+00 -9.4999999999999996e-01
    1.8999999999999999e+00 -9.4999999999999996e-01
    1.8999999999999999e+00 -9.4999999999999996e-01
    1.8999999999999999e+00 -9.4999999999999996e-01
    1.8999999999999999e+00 -9.4999999999999996e-01
    1.8999999999999999e+00 -9.4999999999999996e-01
    1.8999999999999999e+00 -9.4999999999999996e-01
    1.8999999999999999e+00 -9.4999999999999996e-01
    1.8999999999999999e+00 -9.4999999999999996e-01
    1.8999999999999999e+00 -9.4999999999999996e-01
    1.8999999999999999e+00 -9.4999999999999996e-01
    1.8999999999999999e+00 -9.4999999999999996e-01
    1.8999999999999999e+00 -9.4999999999999996e-01
    1.8999999999999999e+00 -9.4999999999999996e-01
    1.8999999999999999e+00 -9.4999999999999996e-01
    1.8999999999999999e+00 -9.4999999999999996e-01
    1.8999999999999999e+00 -9.4999999999999996e-01
    1.8999999999999999e+00 -9.4999999999999996e-01
    1.8999999999999999e+00 -9.4999999999999996e-01
    1.8999999999999999e+00 -9.4999999999999996e-01</inv_output_scale>
  <weights>
    <_>
      2.1880343698798397e+00 -5.8234399432188608e+00
      1.6047984612800852e+00 -4.8097228543751172e+00
      2.7953499277641689e+00 -1.0538955278195801e+00
      -1.9896968620887182e-01 4.0262008427335489e+00
      -7.8753072909276955e-01 -3.4433049526949511e-01
      5.4097511626164674e-01 -2.8221672961945630e+00
      4.7433759327382358e-01 -4.1871028899743520e-02
      3.5996922463743825e-01 1.8578587372272021e-01
      1.5858039529171279e+00 -7.6464170952323074e-01
      -5.2527448058779678e+00 1.2891742605252068e+00
      1.0458923344505555e+00 7.1476824923228595e+00
      -3.3270315507495702e+00 -8.7219659997935861e-01
      1.0643237516502344e+00 -2.5365074773782927e+00
      -2.1904662065052111e-01 -4.0890830278629524e+00
      3.1451519505536285e+00 -9.1591690365873069e-01
      2.7202926650827197e+00 4.6526648519490998e-01
      7.6221406142005677e-02 2.2739678679954416e+00
      3.2149083062849482e-01 -5.8189266024636599e-01
      -2.9594373495054344e-01 2.0732327440676372e+00
      -2.6776605582126352e+00 2.0350829343563763e+00
      4.7948558692965704e-01 -2.4684102101761090e+00
      1.2292534664795387e+00 1.3989223839877098e+00
      1.4990957690615634e+00 -2.1744914248036706e+00
      -2.7171858723974527e+00 1.9487441879426322e+00
      1.6275464635287222e+00 1.2635048834069971e+00
      3.0205084261264548e-01 5.2123343157221003e-01
      1.7519823931383127e+00 2.0616739839334528e+00
      1.2743169050689085e+00 8.3494529551746377e-01
      -1.6043620627280393e+00 -2.3485307595981514e-01
      -4.2032961675037717e+00 2.3580554707847165e-01
      2.2180648921299384e+00 -1.6340669872859486e+00
      2.7275363755593771e+00 -1.0601821877641158e+00
      2.7333278919282584e+00 -3.0801640554563607e+00
      -1.7900595668840527e+00 -2.3677938562444529e+00
      -5.1834893823566697e-01 -1.1937652095207532e+00
      4.1450102173817323e+00 -3.2735229872662847e-01
      -2.3725346335138604e+00 3.2459418290322257e+00
      -2.4574884689706344e+00 -1.3486226684001761e+00
      -4.2276938365977115e+00 9.8631300562771429e-01
      -9.2561348845564240e-01 -1.9024706700850389e+00
      -1.6809510034367341e+00 2.5816484718628891e+00
      -2.3690506750027880e+00 2.0010238164109588e+00
      2.5149683693291713e+00 -1.0648608271665860e-01
      -2.9825331709106613e+00 2.3199381447046017e+00
      -4.0695986653093223e+00 4.4622729947163382e+00
      1.7069768805008139e-02 -2.1982956022845630e+00
      -1.9734820077438139e-01 -3.4204536227827315e-01
      5.3184196097375143e+00 -5.4243624055152007e-01
      -1.7572046892085564e+00 1.9580718345011572e+00
      -3.0404646680763632e+00 -1.2892595586662745e+00
      -4.2240439171627235e+00 -1.0153914432647773e+00
      -8.7538124683928586e-01 -6.0909548160965188e-01
      -1.2068371125818915e+00 -1.9848092042543728e+00
      9.5994417861950332e-01 1.8375244895169614e-02
      -3.6274882544188065e+00 4.5881584901128114e-01
      3.2268120393556958e+00 -4.7494308293423654e-01
      -1.7411011128154277e+00 -2.2545796774692124e+00
      -1.6832283603640432e+00 -6.0347262835427580e-02
      -6.8858809604525968e+00 4.7586106357337634e+00
      -4.8969150605730265e+00 2.0299903392198315e+00
      -2.5002576569088624e+00 4.7908351738464887e+00
      -2.9875390250174187e+00 -3.3779767125100340e+00
      3.4693271074920378e+00 4.5610252898015364e+00
      2.0458454880192849e+00 1.6459578721225958e+00
      4.0013770839925247e+00 1.0639364645759253e+00
      -7.4480736208614051e-01 8.1648979938221944e-01
      -5.8161967194982953e+00 2.4397421886696857e-01
      5.9994037899509287e+00 -1.5294607622120451e-01
      1.5870263215245870e+00 -8.6087728777753758e-01
      3.9982823359819064e+00 1.6677707798808397e+00
      7.1104021776365467e-01 2.3024823579752587e+00
      8.7650880610618120e+00 9.7251386555593872e-02
      -7.6463527438362211e-01 -7.3925957752700686e+00
      -7.0477725825219684e-01 -3.5135371586291857e+00
      3.3363717099087884e+00 2.7899224222575292e+00
      -1.5616701290529285e+00 4.3629157787050099e+00
      -4.4050460786608143e+00 -3.2914799370143624e+00
      -1.0266766341080205e+00 1.2686945892817394e+00
      -2.3684332279310447e+00 -2.4335444944106052e-01
      -3.0805322340285159e+00 -4.8575486402481716e-01
      -2.8283705176040423e+00 1.7160733255660952e+00
      -3.0242768706528129e+00 -1.4387277402308696e+00
      1.7836404988439840e+00 2.3563254528645610e+00
      5.0885204853968693e+00 -1.6686931916534593e+00
      6.0117572370349182e+00 1.2187535361212411e-01
      -3.2215054888897976e+00 -1.8663952927977527e+00
      2.9227413564420859e+00 -5.8598155576645428e-01
      5.8474089959720494e+00 -8.4694643186757579e-01
      2.2187353648157191e+00 2.3110069778324536e+00
      1.0487445230331287e+00 -3.9856666580997131e+00
      2.3275280985501698e-01 -4.6544044145648868e+00
      -2.8803038762406441e-01 9.4323577992551130e-02
      4.2153842181974417e+00 -5.1979589855258297e+00
      -1.1631361511351850e+00 -4.1411662666329523e+00
      7.0099452131882796e+00 7.3635204673165233e-01
      -1.2778679285977903e+01 1.9709124560558280e+00
      -1.0796558455270981e+00 -7.7475554910936129e-01
      -1.7864713542055985e+00 -3.6990266462438117e+00
      -5.7318976243762059e+00 -3.6928270967047880e+00
      -1.9332768474229056e+00 -1.0467143035293993e+00
      -1.5141982687628812e+00 3.3117652928009111e-01
      5.5588152576174998e-01 1.3044422670374853e+00
      3.2378749012067733e+00 -3.1198360244534606e-01
      6.1167451953637597e+00 2.7009459671298148e+00
      4.7228472878441741e+00 -7.9681781422496334e-01
      1.9885910720334499e+00 -2.0820511405482089e+00
      -3.3803737841023407e-01 1.6911972556331956e+00
      3.8783069266566419e+00 -1.2576534594935196e+00
      -1.8849395604082155e+00 2.7763393865491208e+00
      6.4074558529407319e+00 3.4856291860892537e+00
      -2.1651070867558109e+00 -1.7088754025167756e+00
      -2.4291583522575007e+00 -3.1065742143474107e-01
      -2.3760992307479370e-01 -3.6192389841046269e+00
      2.6056397710972541e+00 7.0586252463073607e-01
      3.9278192057169541e+00 2.9788631632376492e+00
      -5.3119527468019125e+00 4.6358993316403811e+00
      2.3568025520624047e-01 -2.6897506867606320e+00
      -2.7371400391204244e+00 -3.0424069123057178e+00
      1.3033991227217296e+00 -1.1913941129432963e+00
      9.8437739481447861e-01 -2.9556349088425167e+00
      1.8979406485596388e+00 -1.3094033549867508e+00
      -5.7417926819042797e-01 -3.5952161785225978e-02
      3.1047859758080345e+00 2.2135404220088879e+00
      -1.7648670269980251e+00 5.2863856926259318e+00
      2.4268807901655376e+00 1.3570033952141756e+00
      9.3348550554460241e-01 -2.1044729507787876e+00
      -6.0681445093562543e+00 -1.3186090406033690e+00
      9.6431423476306701e+00 -3.4748373706996998e+00
      -4.6631006600315610e+00 6.1652445826719837e-01
      4.4845138936925206e+00 -8.5661647542795227e-01
      -4.9282596269199113e+00 2.3696725896171773e+00
      -3.0012145141143947e+00 -1.5602971141782473e+00
      -4.1723121878117403e-01 -2.4301651670631568e+00
      3.3410410660476151e+00 -3.8657126660751628e+00
      1.5096191814606210e+00 5.5952623751308437e+00
      -3.1444684010308288e-01 4.3263106152753990e+00
      -1.1604748317230926e+00 -3.2480794136641480e+00
      9.4824602060890972e-01 6.2778221014901714e-01
      1.2598396399990399e+00 2.0123913933798394e+00
      -2.2651246730190864e+00 -1.4988391857438541e+00
      2.1259123941197249e+00 -4.6099145643364485e+00
      -2.3231488480790015e+00 1.8679934641621780e+00
      1.8952551503917496e+00 1.4406256197372038e+00
      2.0563360416824992e+00 2.1367578470276460e+00
      -1.4043776012669020e+00 1.7530574130938910e+00
      -2.0846498472949168e-01 -4.0197257338997971e+00
      4.1547486404973517e+00 9.8537237657820143e-01
      4.3005294423205820e+00 2.1408164684751996e+00
      7.8105832713240980e-02 2.8703964679099783e+00
      8.0072870322710070e+00 -1.2758752673568048e+00
      1.6020980966890475e+00 1.1237266171218555e-01
      4.3940888227109074e+00 9.0998074306887966e-01
      1.7302093042434152e+00 -1.4845863956559593e-02
      -1.8207290981295166e-01 -1.2823425868942613e+00
      5.7582701706384731e-01 -2.7536365760323642e+00
      1.6337651908408013e+00 -6.8934122283806571e+00
      4.3029204595150705e-01 3.7461734857126858e+00
      -2.1107909907303051e+00 -9.0253997607481551e-01
      -1.0237421680119634e+00 4.7947105547677005e+00
      -6.7078419807555711e-01 -1.1625169187195805e+00
      1.0473621541319458e+00 -7.2796146432355502e-01
      6.8893518488882555e-01 2.2847176012633001e+00
      3.7559538462804209e-01 8.8965438335855218e-01
      4.1825599395990326e-01 -5.0753305207269355e+00
      5.2682743325545189e-01 -1.0559810830757064e+00
      2.7247915128106546e+00 -2.7623354834965226e+00
      3.0231381403766924e+00 1.7288711305767210e+00
      -1.8638710372763574e+00 2.1712847196870797e+00
      -3.2985533928440836e+00 2.8734127603387614e+00
      1.8205985698909566e+00 1.5602719019031946e-01
      1.5016578531506521e+00 1.1933809875301673e+00
      2.8147651954493758e+00 -7.6017839561976897e-01
      6.3102500939371553e-01 -7.9238980682652438e-01
      1.1888558359822265e+00 1.8507927269792350e+00
      3.9891708756850801e+00 -3.1561065469386049e+00
      -9.4885954518919413e-01 -3.9342207795371560e+00
      1.3744182317840390e+00 1.7441734067022436e+00
      -1.3914747302749457e+00 -3.4884159112118849e+00
      2.1358803641085855e-01 -1.7750377956880854e+00
      4.0727153564035445e-01 1.7350221575982754e+00
      3.3349436774203167e+00 -1.6480218347477346e-01
      -1.7931826265327542e+00 -4.3068579385735806e+00
      -1.5496052005657499e+00 5.4985318162008801e-01
      2.0477315797244842e+00 3.6171707489568705e+00
      2.8996769046346018e+00 -1.8446046494786399e+00
      2.2805584397594107e+00 7.3290702058689439e-01
      -2.8429571573544807e+00 3.8720942503598377e-01
      2.1047708468136825e+00 2.7110584442790486e-01
      -4.4168588923326926e+00 -3.0683416248817270e+00
      6.5871119136871348e-01 -5.5788546960867125e-01
      5.9476637643973718e-01 2.8309444789635361e+00
      2.1987136882780174e+00 1.0443808973400734e+00
      -2.1576551032030764e+00 -3.8505595410121357e-01
      3.7847636957615944e+00 2.4167185249934398e-01
      1.5547602941102423e+00 9.7106150611288955e-01
      -1.3392838941611562e+00 -1.3145588081966637e+00
      -2.3938344744697484e+00 8.9240785097524089e-03
      -2.0819724094290968e+00 -1.5008910828780386e+00
      -2.0545601370024000e+00 2.9121400526578087e+00
      -6.9292222450095076e-01 3.2703826705747847e+00
      2.8750893610981065e+00 -4.7366668224095032e-01
      4.9116452760396917e-01 1.2311972238356177e+00
      1.2065708831593425e+00 -8.8489363258913922e-01
      2.1751353063153269e+00 -2.5008828127147771e+00
      -3.5692599098066791e+00 3.3207420408133133e+00
      -3.3551164759094019e+00 3.9458454899850320e-01
      -1.0445977297338214e+00 -1.8123752470685370e+00
      -1.7016306095122946e+00 -1.1093325150464566e+00
      1.9412728926052696e+00 -2.6829335069003202e+00
      -4.1598081727661307e-01 8.0953288888814834e-01
      1.2117827294488877e+00 1.0150978799435624e+00
      -2.6307252515134544e-01 1.0478248150752760e+00
      1.7591171021539389e+00 1.3471725995740464e+00
      1.5905984577517527e+00 -3.8190737242961217e+00
      -5.3508306657651161e-01 1.2622732490403281e+00
      2.3248693542707877e-01 3.3894458390574783e-01
      6.2056699688227135e-01 1.3824654170364776e+00
      4.8081697547154195e-01 -2.3494188035878620e+00
      -9.1290494883818452e-01 -3.7267365784767670e-01
      1.0038871866810632e+00 1.7716223659985546e+00
      -1.0121937950036466e+00 -1.1788188634727053e+00
      -8.6947303844659507e-01 3.8354332588765461e+00
      2.3899159614546575e+00 -1.1182421483724347e+00
      1.2279619970315943e+00 -1.5795922619045808e+00
      -1.2206186661929628e+00 2.8265086951189855e+00
      3.1268447011010747e+00 5.4951168572181064e-01
      -3.8675350508890407e+00 -9.3117462023857261e-02
      -2.4033363647830637e+00 -2.2293347906706171e-01
      2.3327575776575107e+00 -1.6413967875609772e+00
      9.6152943722324261e-02 1.4177259256397221e+00
      7.5191956703566254e-01 -1.0393174598228596e+00
      -2.5830196785516990e+00 -1.2527834712033326e+00
      -2.3010887480294091e+00 3.0057645677094245e+00
      9.5618995258453376e-01 3.8660181110026759e+00
      7.3589132490592746e-01 -1.7967786522895870e+00
      -7.0812891043439574e-02 -6.0376981845036792e-01
      -1.1196572685432218e-01 1.1339195183814406e+00
      3.2849853152343894e-01 -2.9825826446129886e+00
      1.2110907797009612e-01 -4.6564447069271244e+00
      2.3567467323274074e+00 1.7061653811238759e+00
      -5.3429359509355312e-01 -3.6881999374197396e+00
      -2.2520542106425308e+00 -4.2646765717610807e-02
      -1.9995174534988887e+00 9.8114733379128738e-01
      1.2223368594568267e+00 -4.6344075952464614e-01
      3.6823410418412805e-01 -8.6033342013416303e-01
      2.0185107636266295e+00 8.3139566914226870e-01
      -8.3563792192577824e-01 3.4100529867147350e-01
      -2.2260425134110444e+00 2.3923858080901850e-01
      -9.1378079777217425e-01 -3.0439621786502520e+00
      -3.1871157827856861e-01 6.6402709933066684e-01
      -9.4156228646031892e-01 -1.6945990621748521e+00
      -4.0693286416187684e+00 -2.1358704731377767e+00
      -3.5860914263763584e+00 -1.3982860966603596e+00
      -4.6217921712178683e-01 -1.4578092163044667e+00
      1.2619028691515184e+00 -1.4447713974762455e+00
      6.8783661357912229e-01 8.1211281520123624e-01
      -1.0427632164511721e-01 3.0723506334211979e+00
      9.7250836230266480e-01 -2.4576851258152264e+00
      2.6825570023877918e+00 -3.6970571818152971e+00
      2.7597423967566161e+00 1.8559262956843490e+00
      9.0657063286997674e-01 -1.0634228491785789e+00
      3.8391811838769363e-01 -2.3224981854321398e+00
      -5.8747061515379229e-01 1.8058933131811461e+00
      -1.2589937471553168e+00 -1.6464507460759306e+00
      2.7992172743812538e-01 -1.4223803989264507e+00
      3.5226873076798104e+00 9.4533435944109290e-01
      -2.6241179212803813e+00 7.5833244711946302e-02
      -1.0901873777253495e+00 2.6949000408521440e+00
      3.2841214457393669e-01 4.4151117545216317e-01
      -1.7555574143518877e+00 -8.1957893399481940e-01
      -4.6584186158558785e+00 -3.2166000625947482e+00
      -3.5677234188210322e-01 7.5542079161788078e-01
      6.3514402125286840e-01 -3.6559340237280118e+00
      1.1436173093065995e+00 2.9298412060230561e+00
      -3.8574586417608612e+00 3.3528084857999136e+00
      -1.3203696157209146e+00 -2.8246131373185994e+00
      2.5131970139947168e-01 2.0597516528180422e+00
      -8.9672225142690176e-01 -3.3036737147008020e+00
      1.2990487882266510e+00 -9.6793162070894667e-01
      -3.7699604702606343e-01 4.6706636146950569e+00
      -6.2325763978312210e-01 5.4090372706872214e-01
      -3.0258651110016550e+00 3.5004488884623788e+00
      7.7371478227782231e-01 -8.9148646439541024e-01
      -1.8038071465415324e+00 1.4265780656317026e+00
      -3.7602562408500635e+00 -2.7606573407642854e+00
      5.1909267206151641e+00 8.2805261418110376e-01
      -3.1150715955352486e+00 -4.9567967357093695e-01
      1.8761063921786483e+00 -1.0481313973579873e+00
      -1.8779960729637941e+00 5.2594831926390491e+00
      -3.1960530686963726e+00 1.0952075280866888e-01
      -8.6897887620816594e-01 3.4486309105827559e+00
      5.2073364956895887e+00 -2.8020504511075277e+00
      4.4245319223192849e+00 -1.2713137892756454e+00
      1.3519661239111380e+00 2.2436569680024118e-01
      -1.9758266739436487e+00 3.7824205912026221e+00
      -1.2738356001875746e+00 -1.4583203192491085e+00
      -3.1161932883959618e+00 -2.2616609277932556e+00
      -2.3746398448161057e+00 -1.5735463907895908e+00
      -4.5712958648565744e-01 3.6298344939673821e-02
      3.8607100261011090e-01 2.8567072031310139e+00
      -5.2510079624469663e-01 6.2486799834500681e+00
      -6.5979305359615409e-02 -5.4597581720770085e+00
      -3.6248839267705475e+00 -3.8594560546587170e-01
      -1.8572475426678130e+00 1.2944161224963215e+00
      5.1094940667651911e-02 -5.0337428914649665e-02
      1.1559278716001229e+00 -3.2665811004870067e+00
      -9.7880809671926106e-01 -9.2249908423860147e-02
      -4.5630072913753494e-01 -2.1593931311900554e+00
      -6.9635337173414136e-01 4.1184533208132923e-01
      -2.3632735558904359e+00 4.0124693566865846e+00
      -3.2288348001408407e+00 4.9286829756339179e-01
      1.5009670370319643e+00 -1.5107731371377944e+00
      6.1917926002098680e+00 -1.5508398444153298e-01
      7.4926867761129068e-01 -2.1315051452615705e+00
      -1.2780484016159750e+00 -1.3299428541435423e+00
      1.6560474240139444e+00 1.3272764038777307e+00
      5.8577325556513493e-01 -2.1804333994517475e+00
      -4.3642356502140922e-01 -6.1393172345549629e-01
      1.9855700569766883e+00 1.9001959163612550e+00
      9.6741559758958584e-01 -5.6980157356612167e-02
      2.4714599046609489e-01 2.0319203349636306e+00
      1.0903716277938511e+00 -2.5513104764712486e+00
      -5.5998399220048771e+00 1.5543403189015133e+00
      3.2444153808435043e+00 -2.7635899088398452e+00
      7.7402270616635127e-01 7.8168945610015539e-01
      -2.4060678504666315e+00 5.0385480602469581e+00
      -4.1564307063970896e+00 1.0877175561639794e+00
      1.8003639350098455e+00 -8.1781768816834063e-02
      -1.9656402650121361e+00 -2.4711423401180319e+00
      3.3327833225247910e-01 2.5622050192853254e+00
      2.6448026329126967e-01 -3.5980362169617970e+00
      2.8252195642881983e-01 1.3174755650245429e-01
      -4.7042355353703502e-01 2.0604309637262905e+00
      4.3432939558433403e-01 -6.3730579656493480e-01
      -1.2205825211675531e-01 4.3295279520773144e+00
      -3.2877704071227236e+00 -1.1816542274204624e+00
      1.8550908915200173e+00 -2.6778280894317077e+00
      2.5120892806345578e+00 1.1352106019878101e-01
      -1.2527653677088502e+00 -2.0487153814090182e+00
      -1.6617149425829136e+00 -2.0209446045357069e+00
      -4.3089445798409709e-01 4.4981950892684858e-01
      -6.5971309361111963e-01 -2.4917067767473142e+00
      2.9731309413366400e+00 -1.5133610595728486e-01
      3.7679000233296618e+00 1.8396064796507205e-01
      -3.1965674281428047e+00 4.6283446513040802e+00
      -1.5172774150879929e+00 2.6193603016561533e+00
      5.5157930098513530e-01 -1.3980121724440708e+00
      -1.2948326705073772e+00 4.5171790817096841e-01
      -4.0013035962831314e+00 -5.2451487868201809e+00
      7.4614268061575988e+00 3.6048525779888587e+00
      1.1923047444695589e+00 -9.8576598232254675e-01
      -3.6174445704393992e+00 1.9172810511746741e+00
      -5.3913648199556785e-01 -4.4393679104328818e+00
      -3.7681200108140072e+00 -1.8033350147454934e+00
      -6.1021594872578599e-01 1.0712306452536886e+00
      1.9656354884801970e+00 1.7718603973981454e-02
      1.1545966875632356e+00 -1.1242042428188792e-01
      3.6410577877579766e+00 1.2142666774555300e+00
      2.1835764364058456e+00 -1.9039118346940340e+00
      -2.7628341355762283e+00 -1.3133866052011769e+00
      -1.8676056219591816e-01 7.7616578440334566e-02
      -5.4454895547109450e-01 -3.0465983746523926e+00
      -3.9290265183175759e+00 1.6356453060518792e+00
      -4.1882835717619077e-01 -1.0219518623862183e+00
      -1.7191225380503727e+00 7.6898405439468185e+00
      -2.7718493186765287e+00 1.7832265955810478e-01
      -2.8714156747133965e+00 1.2507394642989162e+00
      -1.6671712819670566e+00 -1.0007416302373049e+00
      1.1451760626715786e+00 -1.6269767851163164e+00
      7.6302980625736030e+00 2.2025295413567925e+00
      3.4152790502586341e+00 2.0412377971605724e+00
      -6.6956898597829839e-01 4.3302690022612222e-01
      -4.4825563753652196e+00 -7.5293656863825928e+00
      2.3716055471399318e+00 3.8518498150716831e+00
      7.0315503365235155e-01 9.5347329121988544e-01
      -2.2525176728381231e+00 5.5678630117401617e+00
      1.3354391360448818e+00 2.7186153378111393e+00
      -1.4571353014309416e+00 1.2917194654769031e+00
      2.9511327212108789e+00 1.4354752391760195e+00
      -1.0627382107260857e+00 3.5845203351692140e-01
      -7.8960156063027964e-01 -2.3079950662903350e+00
      2.8742221976056217e+00 2.8252793087555794e+00
      -2.1547824322640103e+00 8.7416222532777255e-01
      -6.9242202441666112e-01 -8.2667052194986990e-02
      2.1326075348199031e-01 3.7876972457499464e-01
      1.4038785875360844e+00 1.8124711971257257e+00
      -6.9262995734773025e-01 -6.0487875889767528e-01
      -3.5294944319852573e-01 -7.7814136063311101e-01
      -1.8924305848343323e-01 3.3670871215088605e-01
      6.6930762847196479e-01 -1.4499900481465253e+00
      -9.7355754220871715e-01 2.5542227544286740e+00
      -3.6337406856012362e+00 -2.3993369909662516e+00
      3.6423106759734782e+00 -3.5670853014549948e+00
      2.6183185419152766e+00 3.3817427282403165e+00
      -2.0315769934732524e+00 1.2138868205490936e+00
      9.0382321970081081e-01 1.1444937607638785e+00
      -2.7639050983897056e+00 3.6817202126578001e+00
      1.3633676129120362e+00 1.7742682881174852e+00
      8.6759984862702377e-01 -2.5108643413875753e-01
      -9.5837425029613482e-02 3.8980500531943763e-01
      2.4037913099024557e+00 5.0392622830362903e+00
      -1.7787493878222964e+00 -1.5282671530495386e+00
      -3.7285211660187478e-01 6.5107475259660790e+00
      1.1267470371881945e+00 1.6244695598330348e+00
      -1.9236900625193440e+00 -1.6538882561563677e+00
      2.4418037116419118e+00 1.3155188821560080e+00
      -2.8857559895581240e+00 7.8033258072405437e-02
      1.4200784003067899e+00 4.0723087087343962e-01
      -6.3704601933061419e-02 1.6548397675723214e+00
      -1.0154258102290743e+00 3.0079058676701975e+00
      -3.1339945694337121e+00 -4.0826904692381403e+00
      -3.1361552092502514e+00 1.2416925264872920e+00
      -2.7977064075098417e+00 -1.9215010827041570e+00
      -3.5843097799066053e+00 -9.6547590467183397e-01
      -2.6388770726187896e+00 4.5686373675853709e-01
      5.5212050715234051e-01 5.8261721691660295e-01
      1.6558337319460881e+00 -1.0233240190285613e+00
      7.2172024808370450e-01 -2.8569562049482031e+00
      2.1810009383653735e+00 1.7276524968983011e+00
      -2.7236218220559167e+00 1.9680765620880469e+00
      -2.0947081335370563e+00 -5.8944908164259879e-01
      -1.2150833067081304e+00 8.7106950279769035e-01
      1.2024728334769335e+00 -7.3315049741100080e-01
      1.2421033245036286e-01 1.0018828317036372e+00
      -4.7004702959065603e-01 -7.4839439205522709e+00
      -1.0540410560202695e+00 3.0518855000654717e+00
      -8.9421115138771523e-01 2.3064532769195373e-01
      5.0442885001418880e-01 -1.6670327371800755e+00
      1.8094318491031096e+00 4.6775153360309663e-01
      -1.9096079100615708e+00 1.5324556561727416e+00
      -6.6241200308956893e-01 6.8224818933143005e-01
      -1.1573262048801838e+00 3.2709226100880806e+00
      -4.5816422110453048e-01 1.7498665668179909e+00
      2.7425258462165898e+00 2.9601646790189671e+00
      5.2297707907989410e-01 2.4700439203792743e-01
      -4.5411978304262540e-01 -2.1942277089931150e-01
      1.2565721696427727e+00 2.8696512667006076e+00
      6.6241677394601139e-01 1.8714371475723268e-01
      1.3623717106003714e+00 1.3207847629186689e+00
      -3.1635993034712806e-01 -5.6730856985035505e-01
      -2.0100564960282150e-01 -2.7107548976297902e-01
      1.8085717925818856e+00 4.3692185675706243e+00
      2.6265608181234268e+00 1.1634570480301230e+00
      -1.7977965117007813e+00 -2.2952591409990943e+00
      -7.4598009071620053e-01 3.8904754454998334e+00
      -3.3982052719188607e+00 3.4744418285822429e+00
      6.7700292939231610e-01 6.0260969871413272e-02
      1.8103363555318357e+00 2.3337598636617423e+00
      -6.4410630763131778e+00 2.9659450822807049e-01
      8.6987028847176739e-01 1.5211777178028236e+00
      5.8574550011623128e-01 -2.1504926408085669e+00
      -1.1278400951763055e+00 4.1222626131349127e+00
      -1.6101470502011219e+00 -1.0425868823967070e+00
      -1.8359213037070614e+00 7.4312023093565864e+00
      2.1593943748621189e+00 -1.6496193477463017e+00
      2.6739764677070443e-01 -2.7996144104147294e+00
      -3.5453900966997159e-01 7.2186777591951685e+00
      -7.8278706417276234e-01 -4.0218392908435974e-01
      -1.3648260163288157e+00 -2.4513041427396725e+00
      3.5152620611825673e+00 1.7075968134624337e+00
      -1.7352003256980741e+00 -2.3465127894253355e+00
      -3.4980359778324135e+00 -2.4938394173180672e-01
      2.6965352169736723e+00 -2.3775290257748374e+00
      -1.3709783089406695e+00 2.0671915034638486e+00
      -3.5849690884975116e+00 1.7650865404760920e+00
      -1.7797318186394457e+00 4.4849995765075228e+00
      -5.1721248032450651e-01 -1.4698537880760594e+00
      1.7782636830650862e+00 -2.1528564829882244e+00
      2.1824754340071748e+00 2.0753121014144011e+00
      8.3120520403038944e-01 -1.3437073389525556e-01
      -2.4689907559754820e+00 -2.4738108420143630e-02
      3.0906093424201360e+00 -1.0422789658330054e+00
      2.4332464379293648e+00 6.1678090356544868e-01
      -6.1961343385740018e-02 4.5711727691681467e+00
      2.5468097147724911e+00 -2.5811924944785822e+00
      -1.2888152109078335e+00 -1.6093927762012279e+00
      -1.0386984299536786e-01 -1.3683677952418302e-01
      4.5091787142668851e+00 6.6121065596159467e-01
      -3.1179524138059982e+00 -1.3554737509656531e+00
      2.0219807026710899e+00 1.4621195732155292e+00
      3.1493471280653358e+00 3.3027044311844520e+00
      1.8054947850629896e-01 2.1946679928497557e+00
      -2.7522601939920448e+00 1.1287655339912759e+00
      3.2318376858917004e+00 8.0700871292068239e+00
      1.9105952108798563e+00 -3.3152259873798323e-01
      6.4507771642186607e-01 8.1832472666557188e-01
      3.8168308884345348e-01 1.4636723461679348e+00
      3.9713529931493188e+00 -1.8418264388939407e+00
      5.9642071577754932e+00 -5.4288242865570062e+00
      -1.8191243792363889e+00 -1.7998832001889347e+00
      -4.3856480550841270e-01 4.5755770408493834e+00
      3.3461618266547650e+00 -4.9254685037371915e-01
      4.0097004438169632e+00 2.3514506675424034e+00
      2.4208087028920606e+00 -7.9733340660902732e+00
      5.5384718168379612e+00 4.0880181599140819e-01
      5.0152572623764087e+00 2.6290913822189648e+00
      -1.0091588167050466e-01 -7.1727495578788698e+00
      4.6949521533955503e+00 6.8089556622901570e-01
      5.8749996089798904e+00 8.2404899463291432e+00
      -3.9431520570653150e-01 -3.7403999357222850e+00
      8.5250137404452742e-01 1.4881756011540488e+00
      -8.9872775914390168e-01 1.7854373290010992e+00
      -3.5426253275877064e+00 -3.4036117767814686e+00
      -2.5911889595082327e+00 1.2558913797100628e+00
      4.8406743773010499e+00 -5.7601336120906632e-01
      1.2355549110557944e+00 -5.7623661395521681e+00
      -1.0775462399317135e+00 -7.7769568940546274e-01
      1.3263843968765123e+00 -3.1445204831287827e+00
      6.7681806536524496e+00 2.6958767798819436e+00
      3.9868461566325158e-01 -3.1478400922587751e-01
      1.3839707668645547e+00 1.3932656105780188e+00
      2.4022075124922924e+00 8.4324040512579146e-01
      -1.8424183677361072e+00 -1.1327493137428573e+00
      -6.9952170543470116e-01 -6.2734082285482682e+00
      -5.3051103806337379e+00 3.8842507450746249e+00
      -1.2852405801535183e+00 5.0508009183691560e-01
      3.4144566080642020e+00 -8.2666755208458120e+00
      3.4139859332403684e+00 -2.2945850380597074e-01
      2.2675981977696176e+00 4.7050142621968911e+00
      -6.2939608790477495e+00 -1.0700084905142022e+00
      -4.6604633729824535e-01 2.2697557366175949e+00
      4.5704291195415525e-01 -2.7627726219755639e-02
      -5.2979129254503410e-01 9.6790791718228963e-01
      1.1942595678797914e+00 -2.7577356509691850e+00
      -3.8961727398633457e+00 -9.4842700499236976e-01
      -4.2577038303783974e+00 -9.6832106249878869e-01
      -1.0676551886668763e-01 4.9704568521347059e-01
      -3.9261401264629301e+00 1.2787945325668082e+00
      -5.9212085303285056e+00 4.9991088148996315e-01
      6.6069080576964212e-01 -3.5183184647021220e+00
      9.7036010214446555e-01 -8.9878835345427077e-01
      -2.0995465481256907e+00 1.5684523685036489e+00
      2.5993121870735364e-01 -2.2842627222451677e+00
      -1.4378884043436624e+00 -4.3252891139509295e-02
      3.7279057329393113e+00 -2.5212561254427701e+00
      1.1841226600733414e+00 -3.9515361900199188e+00
      -8.8959705918858312e-01 4.2686617386810095e+00
      -2.6511874188562898e+00 1.0415049990207315e+00
      -1.6127907160258781e+00 -4.2581024268404946e+00
      -1.2401212654839175e+00 -2.2492446821287633e+00
      1.4040587322511091e+00 1.2054157293325509e+00
      5.6618517908435773e-01 2.9376183276733476e+00
      4.2899075142435195e-01 9.8007148596866056e-01
      -1.3514833839981739e+00 -4.2215047774827257e+00
      4.4773287031622955e+00 -4.3532966898447578e-01
      1.6017250692667353e+00 -4.2751559201019154e-02
      -1.9714931295633782e+00 1.1216846085391043e+00
      -1.1048808364324192e+00 2.1185224657998187e+00
      -7.1006393968143513e+00 -5.0086249003671379e-01
      1.4462381671459358e-02 -4.9094616681354578e-02
      3.8699312813863820e+00 -4.0790213304183404e-01
      -3.3172827845221833e+00 2.9924242725619110e+00
      1.0987027070301205e+00 -1.0255163921359767e+00
      8.3282557588920314e-01 -3.6853153871681710e+00
      2.3899904812133790e+00 -4.2182055541789145e+00
      2.7470096627878822e+00 -4.5686484497151145e+00
      4.4093331148041531e-01 4.0557964334380298e-01
      -2.5209137045190793e+00 2.2346916627467204e+00
      -1.4683096195376917e+00 -5.1064909321974461e-01
      3.7295042840169201e+00 1.0190356166381513e+00
      -5.5014271158201522e-01 -2.6530219001212756e+00
      -8.2466438165058309e-01 -6.8223065357902435e-01
      6.3688060161363969e-01 -1.1419048270280034e+00
      -1.6086495888418391e+00 4.8154387563394945e+00
      -1.8503212673646749e+00 -1.5636910511128861e+00
      3.3611113116105411e+00 1.7472664398299409e+00
      -3.6637079457552002e-01 3.5435233930539178e+00
      -2.0699283637399604e+00 5.1890535391457482e-01
      1.0482784880005787e+00 -2.0229913127534194e+00
      -2.4427698560460959e-01 -1.5727679871455074e+00
      -1.3057189773874309e+00 1.8161646110569314e+00
      -2.7996858211476234e+00 4.3055138188318143e-01
      2.7329584845737136e+00 -1.1000708917084592e+00
      1.6725748967477987e+00 6.5201762939778207e-01
      1.2180577670871982e+00 8.3975159539476901e-02
      9.2529863419141967e-01 3.7665311997251609e+00
      -3.6340293993036648e+00 1.4757769529099352e+00
      -1.5728009877997766e+00 1.1257358242147718e-01
      -9.4390315030181571e-01 2.9845310021162117e+00
      -4.2103015401476324e-01 -1.2223293418749832e+00
      3.1376915260188314e+00 -2.3086768583407169e+00
      -2.1927133382944035e+00 -3.9861738077836031e+00
      -1.4971149255485920e+00 -1.9230448965529320e-01
      2.2024573777670398e+00 3.4428441377484194e+00
      1.7784123469754423e-01 1.1245245844765168e+00
      3.8121815594153713e-01 -9.6105322079068156e-01
      -2.1907207178610855e+00 6.7703104283187876e-01
      -3.7745667508807917e-01 -6.5907761096969886e-01
      -4.4316333152739125e+00 3.1227154526099610e+00
      -1.7645149403985259e+00 -2.3544422134314265e+00
      -3.0054673226422119e+00 1.9029823241745862e+00
      1.7096611730995381e+00 2.7788745345494210e-02
      -2.8132613250431443e-01 -4.7755683191748793e-01
      6.1690210954582332e+00 1.1399139067063918e-01
      7.2468015863390933e-01 5.2397849621307371e+00
      2.3558845364752674e+00 -1.0306398939327588e-01
      -2.0864606249522990e+00 1.3535475870647569e+00
      -8.5980985432131107e-01 -8.2850679687183681e-01
      -4.2608814858545321e+00 1.8669642432783442e+00
      4.0175587111227973e+00 4.1798407048482895e+00
      7.8319892282998260e-01 3.1551479149670527e+00
      7.7782331336830157e-01 -4.6500954982014259e-01
      1.0184324507074025e+00 1.5258548076122513e-02
      -1.8052066687902539e+00 8.5778831804335476e-01
      1.7524997893845223e-01 -2.5397336092732359e+00
      3.4467789299757103e+00 8.0904561837942757e-02
      -9.7460088139272083e-01 -4.9675018086601391e-01
      6.3494632035874166e-01 8.9007052330004610e-02
      6.4256683533798420e-01 1.6905390965095739e+00
      6.3562693735046905e-01 6.4021762814845151e-01
      2.0103484366192239e+00 8.7606827542738797e-01
      1.7552863957098246e+00 2.0418819197787315e+00
      -4.6572024430366161e+00 2.9171885517574707e+00
      8.9831833916711978e-01 1.0010528199831976e+00
      1.5067548116827423e+00 2.0597832023167544e+00
      5.2431478145825106e-01 -3.6743963513053366e+00
      3.8551311591457900e+00 -1.5914420155909470e+00
      -1.7597921328245478e+00 7.7445015176124388e-01
      -1.2810305228112528e+00 -4.3267220295585984e+00
      -1.2027678219487714e+00 4.2473888838134677e+00
      1.6677738439118326e+00 1.1750094066970183e+00
      3.3594129138317419e-01 7.8008677169515506e-01
      1.7734583016920555e+00 -5.6024423380306587e-01
      -2.0555461274964211e+00 -1.9035545178726472e+00
      1.9534169840690312e+00 2.3876888613542913e+00
      2.2963440346791101e-02 -2.9227416470960182e-01
      1.0738249319113120e+00 -1.3472118888852056e+00
      -9.5820201628078250e-01 3.0992360681041629e-02
      -1.2350371259287301e+00 4.3415747576082742e-01
      -6.1374765591782843e-01 -1.0532641976871537e+00
      -2.1620000085348616e+00 3.8061813933030619e-01
      -1.4524941685718860e+00 -2.5820428306708059e+00
      -2.1962429337226586e+00 -7.6220744791742867e-01
      3.4703940458524214e-02 1.9847434351405087e+00
      3.9778890446375907e+00 -2.8662176313161485e+00
      1.9875044287519179e+00 -1.0913956401165517e+00
      8.1817770739518436e-01 8.9328123054215136e-01
      1.9675112213362431e+00 9.3416783368493961e-01
      -1.7726748058966368e+00 4.6601881495421960e-01
      1.0297234650311988e+00 -1.2709692750211219e+00
      3.5275677368517715e-02 -2.5229289155999863e+00
      -1.8697945119066370e+00 -4.7127973744516655e-01
      8.5929486582092485e-01 -3.3658744885932586e+00
      -1.1200623492478735e-01 1.2671672248104966e+00
      -2.5006426266199453e-02 -1.9618838528310225e+00
      -2.0763211068807794e+00 2.9209757125468165e+00
      1.7057058667606213e+00 1.5586200738684068e+00
      -1.4586575801149613e+00 -2.5457390695398181e+00
      4.7725366929789148e+00 -4.5441979249197786e+00
      -2.8089493590411583e+00 -1.2417423613166010e+00
      -4.4962028151500935e+00 3.6441338372678906e+00
      -2.6509594681143707e+00 -1.7638130148225319e+00
      7.5168755965755352e-01 -3.9437615325592694e+00
      1.0823317511874744e+00 5.8913847419334680e+00
      9.8321524681982346e+00 1.4235379486280018e+00
      1.5216920282189583e+00 5.4862236219598082e-01
      1.6364067293591860e+00 2.4718350019952888e+00
      1.3971381999281161e+00 -6.2315339562807293e-01
      -8.8870946451889288e-01 1.3875638344015095e+00
      5.0883391372455158e+00 2.9669773707871929e+00
      -3.9599952115053333e-01 -2.9607533723809265e+00
      3.5170002422774355e-01 6.2912629425437094e-01
      -8.5525516274698699e-01 -7.0728128784799493e-01
      4.7795659562623989e+00 -7.8914731055740972e-01
      -6.8840540197312644e-02 2.2904224152766681e+00
      -1.1336508879978684e+00 4.7377112465362385e+00
      2.2423565774678269e+00 -1.1953523400850383e+00
      -2.4373648995344595e+00 -2.8884157132711987e+00
      4.1226120314303634e+00 5.0029173294794180e+00
      -4.0242967112993284e+00 -8.8957812548522586e-01
      3.4707114106477638e-01 -3.5749297862017668e+00
      2.2484351465791916e-01 8.6497870238252084e-01
      2.0421773937516488e+00 -6.6687948080011039e-01
      3.2581762746399847e+00 -6.2325707908473333e+00
      9.0067183543252174e+00 3.0241240496316437e+00
      1.5891857333514998e+00 1.0172395901201530e+00
      -9.1939643080095473e-02 -3.5666635309929253e+00
      1.6901436733364403e+00 4.2536058198566234e-01
      4.7571448450463912e-02 -2.5645904652181386e+00
      2.4204205029313668e+00 -3.6163311913895019e-01
      -1.0038109957334369e+00 1.5679159794790403e+00
      1.6285444232852346e+00 3.1025095140127563e+00
      3.3454764179766046e+00 -7.4149404191895947e+00
      5.0158112309259000e+00 6.7830333335986248e-01
      1.5796390155723405e-01 -5.1353965907164323e+00
      -1.3428349268231428e+00 1.6271307146281806e+00
      6.7863337104503838e+00 -5.8257568430417273e-01
      8.2067137134002675e+00 7.4302265329137085e-02
      -1.7930424688167055e+00 1.4252842307506497e-01
      -2.4180225532635324e+00 -2.9866719647637034e+00
      2.6034614897798041e+00 1.6323109162917928e+00
      4.6750689390225855e+00 8.5564134215169141e-01
      2.7524824938647785e+00 -3.2072632843665017e+00
      9.7660396856889253e-01 -4.8313282545740641e+00
      -2.1800766549346822e+00 5.3717360701111361e-01
      -3.1220256853252715e-01 -4.7761637726373674e-01
      -2.2693438527697980e+00 -2.5022257043509788e-01
      -1.4863155683574631e+00 -1.5211770971808354e+00
      -2.8879299992635561e+00 3.6116662748422406e+00
      -1.7722429254354974e-01 -2.2936709267457158e+00
      -7.3569567736672148e-01 2.5109700540932134e+00
      -2.9986500957519735e+00 1.8649052806070094e+00
      3.3602500477928419e+00 -3.7887197444997809e+00
      1.9912750262313383e-01 5.6060856184123073e+00
      1.5070285931475351e+00 7.9186750052331523e-01
      -3.8259820607857393e+00 -1.7958553711741176e+00
      3.5037633679821134e-01 4.9947937806651185e-03
      7.2160742920077565e+00 9.4332793341895671e-01
      2.8136972056716973e+00 1.2588714294507800e-01
      -6.6958920525343313e-01 -1.7505496223179249e+00
      -1.0722201273332534e+00 4.0138040003376494e+00
      1.0677752002619130e+00 9.5079591270296970e-01
      2.8100056819136672e+00 -5.7636329074837211e-01
      -7.5167676158021779e-01 3.4629145583753500e+00
      -4.8455249899734092e+00 -6.6929699144551658e-01
      -1.4901303335563845e-01 -4.7110242431945831e-01
      -1.9985694661533056e+00 2.0261103368855157e-01
      1.1283360703773593e+00 -1.5612825456016069e-01
      -3.8694987231591926e+00 2.0743627096383185e-01
      -9.2462893869346086e-01 2.3093331022703434e+00
      3.9338223851976417e-01 -3.8304738130363400e+00
      -3.1249144457468292e+00 6.5731909113079912e+00
      8.0963078774851809e+00 -3.8902207461345752e+00
      -7.0078970231980007e+00 -2.8514252771400206e+00
      4.1470634737238727e+00 -7.8285570023708850e-01
      -9.1110692661194848e-01 -2.4952344011655456e+00
      8.9528639499082863e-01 3.0488648877346752e-01
      -9.6134239948428124e-01 7.5536998014405088e-01
      4.7406413483581549e+00 5.9607135966120793e-02
      9.4210245027181816e-01 8.4548411948922231e-01
      3.3568086643004920e+00 3.1137586414171845e+00
      -5.6804077959701962e+00 1.9472337417170613e+00
      2.8057158171484149e+00 2.8106342351635355e-01
      1.3463324945409447e+00 -3.1290695928064047e+00
      -4.4953367847825634e+00 -3.4363315663268352e+00
      -1.6293893323164181e+00 -2.1520204575506803e+00
      -1.6916239921541315e-02 -6.7647279060823529e+00
      5.7892547993879857e+00 -4.7468047757485188e+00
      2.8417854070600836e+00 -2.0132253632306112e+00
      -2.6854930516600048e+00 -3.9268018922484598e+00
      -2.4085242032196161e+00 -3.7825187135857297e+00
      -1.0884550421219112e+00 5.2326109707427548e+00
      7.3019955351730168e+00 -4.1530858583535230e-01
      -4.2077784268564844e-01 -1.2054582653462502e+00
      1.1203668256316084e+00 -7.7835785302693834e+00
      -3.0012349581438720e+00 -4.2966117844514473e+00
      -1.3201284810845235e+00 -6.2136265541327951e-01
      -1.1755324787116006e+00 5.2778617676216744e+00
      2.5518335110885801e+00 -4.5088892912733103e+00
      1.3901181102349831e+00 -1.9521974861437703e+00
      1.9195587537435586e+00 3.5246190693373562e+00
      -5.7963420026419898e+00 -1.7008904377139500e+00
      -1.5760296725573901e+00 2.7978348704411045e+00
      -8.5523123363322340e-01 9.1680953521393660e-01
      3.9320661521459312e+00 3.1599267088886900e+00
      3.9874199503808230e+00 2.3647612405143262e-01
      1.1446911574963772e+00 -5.3129326558166099e+00
      5.1792134535366485e-01 -1.8602843572161354e+00
      1.4750646112509591e-01 -1.2139460163334965e+00
      -8.2393222804300281e-01 2.7739032256021696e+00
      2.0159971607830052e+00 -1.6968033121148704e-01
      -7.4298366848444852e-01 2.6352402233165928e+00
      4.1485365131562224e+00 -1.8469742010972832e+00
      2.3457349332285746e+00 2.5293447590878548e+00
      2.1352029920015758e-01 -2.1576469236230753e-01
      -4.0049725368205307e+00 -1.3244644127181604e-01
      2.4208311709584041e-01 1.0821609164474966e+00
      -2.5855492251169138e-01 1.4484959001320422e-01
      5.4049193221269054e-01 -1.6728462869453598e+00
      -4.4562518789179730e+00 -2.3553030509347145e-01
      3.7565217538016621e-01 3.5619238382633625e+00
      -1.7581789401803147e-01 -3.8382018155940684e-01
      2.7018513294982927e-01 2.4903079811153261e-01
      3.5709731624106875e+00 -1.0774883790940502e+00
      -5.4497878683063714e+00 1.3471569109939878e+00
      8.5220876918240396e-01 -1.5409261418058460e+00
      2.1668860271595030e+00 1.4339604338879236e-01
      -3.3999571529836952e+00 1.6684083708570840e+00
      8.9206473348841686e-01 2.0633858948891062e+00
      2.3078173250030147e+00 -4.5828682035921791e+00
      4.2060776257184020e+00 -2.1058251707941289e-01
      -3.0064773986121636e+00 -3.2174879038582440e+00
      -8.5201531214828252e-01 3.7830624725673587e+00
      1.0749303983642555e+00 2.5835004872576235e+00
      3.6948526167022671e+00 7.0663806342647162e-01
      9.6712537442292756e-01 4.9083228856702998e-01
      -2.2141967876644557e+00 9.0108813876304469e-02
      -6.6576141005372391e-01 7.2963650292178295e-01
      -3.5238624588692242e+00 2.3777674506370481e+00
      3.9033551875312873e+00 -3.7190894280640792e+00
      -5.9520701573058377e-01 -2.7918354394132749e-01
      -5.0097646403014851e-01 2.3430599727965151e-01
      -4.7341156229880346e+00 -1.9483904099636975e+00
      4.5567845645423697e+00 -1.4519390382723829e+00
      -4.5893839582449765e+00 3.0437818773482070e+00
      -3.9793648297101580e-01 -2.9533801645978173e+00
      -1.8788612657589419e+00 1.6424123495495551e+00
      -1.9623503930345798e+00 -1.1786210019538097e+00
      -2.8485693901994797e+00 3.0681463390654420e+00
      3.4702481340640938e+00 4.3230340577277877e+00
      1.3120664070912449e-01 1.2227774268129499e+00
      6.1888898310192164e-01 -1.3318118961742842e+00
      -2.0980486157524396e+00 7.8321741958080748e-01
      6.0558712867488873e-01 -1.4812649382920682e+00
      -2.5936341200723936e+00 2.5039336814162523e+00
      7.8683731985394811e-01 4.7050371333480540e-01
      -4.4756346970840422e-01 1.4826304783559596e-01
      -2.4184183141264350e+00 8.6384206441863631e-01
      1.0398468788670269e-01 1.6752437137531473e+00
      -3.3819958407657085e+00 -5.5076230775891322e-01
      -2.5796047585275459e+00 2.4265127245773987e+00
      7.1029987858867705e-01 -2.1629113412109979e+00
      -1.7081836591867996e+00 -7.7888139715692872e-01
      1.8125672231901360e-01 -1.9930497989838083e+00
      3.2786668349538117e+00 1.5516284516797514e+00
      -2.1887572503817467e+00 -6.3550388705238414e-01
      1.7523450064016619e+00 1.1894913637182227e+00
      3.4712906559992729e-01 1.8595872145867098e-01
      -3.9107485987571494e-01 2.7292240586341960e+00
      -3.0066264929615212e+00 3.0048350970841744e+00
      -3.8039889965959979e-02 -2.3037979672143081e+00
      -1.1940477159849012e+00 -2.2944484002200243e+00
      -5.8326645063460247e-01 2.6503182421177982e+00
      4.1317906537748712e+00 -2.3670923932638113e-02
      1.6039824474073312e+00 -3.8690042602827606e+00
      -1.7271656635097818e+00 -2.5378272290571560e+00
      -1.0847792231892051e+00 2.1358942576789719e+00
      1.2739406471855294e-01 9.0063289687510795e-01
      1.1606019848081695e+00 -3.2065145712186366e-01
      -2.1800148640658459e-01 -3.7925079770068915e+00
      -6.0502233391344333e+00 -1.8974761600921786e+00
      5.0148011851755370e-01 -1.0414056086348267e+00
      1.6851224809408233e-01 1.1292163672740412e+00
      1.5256192943038549e+00 1.2452826096688396e+00
      2.8981941065945813e+00 2.7857174068150248e-01
      -1.5788961394916774e+00 -2.6463346275247099e+00
      8.4135566468287704e-01 1.8377247123141405e-01
      1.3294703951038993e+00 -1.1886241213672755e+00
      -1.0258504716281847e+00 1.9601014316410055e+00
      -5.1165596145642334e-01 3.8130586050920823e-01
      3.7140694722219885e+00 -1.0057273945133202e+01
      7.1781689315624209e-01 -6.1720400864851008e+00
      -5.9789408188108117e-01 2.9523894794072940e+00
      -2.3079192919780929e+00 -4.3631927636063503e+00
      -1.0078397018563121e+00 -1.3976578671984861e+00
      2.7418320167992696e+00 -3.8124689917140486e+00
      4.9690051101006200e-01 1.7368720960062685e+00
      1.7392654657407500e+00 -5.7134121849546116e-01
      6.1424087492328825e+00 2.0800231226817276e+00
      4.7207833765153184e+00 -5.8696792089203385e+00
      -2.8286291749212378e+00 2.3014649320448886e+00
      1.8135480597766479e-01 -3.3757325899509669e+00
      2.9315227202553427e+00 3.3593796245118890e+00
      4.3900644636910977e+00 -2.9506227911181804e+00
      6.9906893475011787e+00 -5.8473087155832522e+00
      -2.9169848114356811e+00 -1.1051558210588481e+00
      4.7082360660537109e-01 -3.4963123943374828e+00
      -4.1597632994513639e-01 -2.4420876005265839e+00
      6.5003394100513061e+00 -1.0897965637583356e+00
      4.3739547197231934e+00 -3.7105979377546379e+00
      2.1975069706548620e+00 -2.4936452744096886e+00
      3.3580751786510139e+00 -2.0077943939400433e+00
      4.8355171060265247e+00 -5.7541813940853865e+00
      -4.3916448002631964e-01 -3.1580890756873079e+00
      -2.9591778706219241e-01 -1.3641514348173005e+00
      2.9351624500476925e-01 2.7040008370108293e+00
      -7.8163102719757027e-01 6.5595601563878103e-01
      1.1413321502559928e+00 -2.0457928400547690e-01
      -1.3061519838219676e-01 -1.4163621935659556e+00
      -2.1402666345109469e+00 -4.6580122161037165e+00
      -1.9141583135411242e+00 2.8208945952593707e+00
      -8.8002275299748434e-01 -3.6628287429411732e+00
      -4.7422849477937481e+00 -2.8489625034043007e+00
      2.8131880277290242e+00 7.1308999970058053e+00
      3.0455610938371596e+00 1.9693059408294820e+00
      -2.6794966580304460e+00 3.2968337550713027e+00
      3.5882658221335393e+00 5.7644946892235960e-01
      -7.8249137984124384e-01 3.2188980128134412e+00
      3.6276715938618955e+00 -4.8993208218289480e-01
      1.9134905139508443e-01 3.5166860286175283e+00
      -4.1829577660942141e-01 -1.7226976040341888e+00
      1.2277813486368254e+01 -6.3629897370112163e+00
      1.2951881920161391e+01 3.2141544383264877e+00
      2.4143735456302133e+00 -2.0497440899815875e+00
      5.8242750831763335e+00 5.0029692194995219e+00
      -5.1697959013116828e+00 1.7414313991994709e-01
      1.6610604064848225e-01 5.2654800923826117e-01
      4.2214481080290005e+00 1.0309422209651224e+00
      8.5148727321369944e-01 1.3936862002158998e+00
      -7.6832763393579206e+00 -5.4398010345890158e-01
      9.1477331676138629e+00 -8.4728096212183779e+00
      4.8063415590565324e+00 -1.5291110653804156e+00
      1.9947740679530740e-01 -6.6695206048653644e+00
      8.3148296285046435e+00 1.0502313967632814e+01
      -3.3493089442344535e+00 5.1658358610082118e+00
      5.9997484091038382e-02 1.4068396571627666e+00
      4.5599122710487112e+00 -2.8565905159646685e+00
      -9.3394584339651185e+00 -6.7302810575911369e+00
      3.4311614127563792e+00 -7.9475385784638863e-01
      -2.7910323696378785e+00 4.6056889544014962e-01
      2.3924832843547175e+00 5.2928363500971622e+00
      2.1078874565310043e-01 -6.9315539491192650e+00
      5.6062072710005832e+00 -5.3050231884281138e-02
      -4.8210329421408762e+00 3.2861857284634870e+00
      2.2172357545736463e+00 3.7638755547697924e+00
      -9.1121099107813368e+00 2.4909337274337378e+00
      1.0828475568670812e+00 2.3606243797535269e+00
      1.1905527167423111e+00 4.0346421465764069e+00
      4.2548376842670717e+00 1.9327353278119637e+00
      -4.2130287726155133e+00 -1.0792391240580608e+01
      9.5099413356667906e-01 -3.2209128797271833e+00
      8.3775674962135582e+00 -3.4746210319308957e+00
      -8.3106293753729563e+00 -3.8289577293966093e+00
      -2.0632440350024757e+00 9.7343544751789413e-01
      -6.0151236785183437e+00 -1.5641962995267908e+00
      -1.3850075625295377e+00 1.7927133161521300e+00
      2.8675239245036206e+00 -1.3673547805017161e+00
      -1.9776047510231354e+00 -8.9979417203791972e+00
      3.7364296664645531e+00 -2.3611784891373322e+00
      -4.6410110385566226e+00 1.5828224867110266e-01
      7.1437786137516612e-01 -3.1472783979474181e+00
      -4.0204870954434924e-01 -3.9462473841296299e+00
      2.5415863608176092e+00 -1.5812776101760031e+00
      -6.4578609683323682e+00 2.1319937511855702e+00
      1.5530388536217368e+00 4.5348701316968283e+00
      -3.8696870890306942e+00 2.1051931443491876e+00
      -6.6173774394715243e+00 1.3648126545433632e+00
      5.9499214931138305e+00 -1.8223615179882535e-01
      1.1685584181210793e+01 6.2654708838534134e-02
      -3.5499772764292219e+00 8.6495630044001814e-01
      -7.1357088085709535e+00 5.9800109091157099e+00
      -6.5885020523352988e+00 -5.4840577042573113e-01
      -9.6910869963603528e+00 -3.3751741798868662e-01
      -3.1025236534941940e+00 4.7169243988538237e-02
      -1.5598307542563654e+00 -3.5629598432828975e+00
      2.3722140872308572e+00 -2.2283182924545057e+00
      3.1868585617895606e+00 4.7809752686764462e+00
      5.4143852631546947e+00 -3.1294647471014598e+00
      -2.1772519576976159e+00 1.4801689061643004e+00
      4.9318396015758390e+00 6.4912864285420124e-01
      1.6370535120636656e+00 -3.8142144440873196e+00
      -4.5372660250283509e-01 -1.0343445979941770e+00
      1.6460827627772359e+00 -2.3222413562575381e+00
      1.6581671371810323e+00 -2.2122372764882643e+00
      -8.0686006316821912e-01 -2.5888543108325646e+00
      -1.3863038075850524e+00 -7.0857118844042855e-01
      -1.1701221628727143e+00 1.0139194187417466e+00
      -7.7805916755303839e-01 -2.0679366058478834e+00
      5.3100275704058788e+00 -2.2573555132390788e+00
      -7.1067774163783772e+00 2.4862525717631252e+00
      -7.4515851702851972e+00 1.7034393432780508e+00
      -5.2859249677623348e+00 -9.7591723566080912e-01
      -2.6296243351443227e+00 -1.3594082093140023e+00
      -3.8152463267368866e+00 2.5930009077280163e+00
      4.1213941551241479e-01 -2.2160565095328937e+00
      1.1194102482033188e+00 -1.5253266328663142e+00
      1.3571793119763382e+00 -2.5799174154863298e+00
      2.7458699251172032e+00 -5.7164646519494395e+00
      -2.7406603541216596e+00 2.8900327574351170e-01
      -1.0843144249250662e+00 -3.5440944556555021e+00
      6.6850256420891152e-01 -1.4685785610622470e+00
      7.1130632318555709e-02 -1.2738863217839120e+00
      -2.5932585149193339e+00 -5.5826914270104033e-01
      7.3033297430468588e-02 -2.8702003531580617e-01
      -1.4599877653434365e+00 -2.1005595518210018e+00
      1.3842942704011831e+00 2.8966568982465080e+00
      -3.7026496740793027e+00 2.9949199349980571e+00
      1.0010040885449392e+00 -1.9780312662764230e+00
      3.5268527220151777e+00 -2.6873185720495467e+00
      1.7660480438708261e+00 1.1409428235602146e+00
      -5.2654056940053913e+00 -4.5013107346140258e+00
      -4.3603367518325786e+00 1.6955984582890307e+00
      -3.7970865907304030e+00 -1.6173329235009217e+00
      1.0342864930348319e+00 5.5881332391328042e-01
      3.1609219734648075e+00 -9.1962144217120012e-01
      2.4758673649095444e+00 -3.4254942772742254e+00
      -7.7477044326346023e-01 -4.9108917030859178e+00
      2.9299269363789850e+00 -2.2427879284003045e+00
      -2.2014460449687396e+00 -6.2158788931593190e-01
      -2.3161537395600635e-02 -2.9700806394832293e+00
      -5.2549884846405714e-01 2.6810829140462635e+00
      -1.3429369914591249e+00 -2.6724532109827539e+00
      -1.3724807728659749e+00 -6.0262592838647500e-01
      -5.0807951368586179e-01 1.5533267488795619e+00
      1.3005524913688538e+00 -3.6024902765696032e+00
      1.1378653813114863e+00 -1.3918433169709359e+00
      -1.5386753370435102e+00 -6.8582135264197808e-01
      7.2926217539160865e-01 1.3019542519813219e+00
      1.6244639742650739e+00 -1.5478000840167689e+00
      2.9777364309306362e+00 -5.4501250903231435e-01
      5.7253374679781501e+00 -3.3775806412022282e+00
      2.8556813282024005e+00 6.5905653351035676e-01
      -7.8786281066835662e-01 -9.5794537983646810e-01
      6.0944756385678716e+00 -1.7670422716818492e+00
      -2.4609145637319546e-01 2.9868780999154532e+00
      1.6830451066354530e+00 9.4802837134505091e-01
      -2.8596236793882057e+00 2.3825704576406717e-01
      4.6049663292860687e-01 -4.7338523319648802e+00
      1.0590805947566899e+00 3.6823156346338974e+00
      -1.0669449603789403e+00 -4.0457753941791769e-01
      2.0641993055605523e+00 -3.0929208033480431e+00
      -5.6404959444652492e-01 -3.3166257165047988e+00
      -3.3899404670447408e-01 -2.5615111001784230e-01
      1.7972395573217930e+00 2.9598548738932000e+00
      -7.9767961814290689e-01 8.4612347598520032e-01
      -1.6149274617690113e+00 -9.2553260769061119e-02
      3.4172066241507864e+00 4.8905817489471687e-01
      -2.2433331064633316e-01 -1.8715024000347838e-01
      7.5856248333871978e-01 -2.2347183501005188e+00
      -4.1479130776520039e+00 2.1874571626199382e+00
      4.9298370334932853e-02 -1.4639034303130563e+00
      -2.0025830363880268e-01 -4.9169036024254299e-02
      -1.5798563256296354e+00 -1.3816796469837807e+00
      1.5528160601199037e+00 9.8324759666630512e-01
      5.6810756012634089e-01 -2.8470698627465407e+00
      3.1773352538392552e+00 1.6824161225575560e-01
      5.6441925940362814e-01 3.3546586677578234e+00
      -2.0120002350910093e+00 5.8082889442544139e-01
      -1.6046500607575245e+00 -2.8276590109805304e+00
      -5.7434147124430268e-01 2.2953253892680872e-01
      -1.5281485755604651e-01 -2.3482333937201711e+00
      -9.7803117700242992e-01 -5.5919362455155774e-01
      -1.5813576872259354e+00 1.1974259510505967e+00
      -3.3952712479420510e-01 -3.3316931641532324e+00
      1.2050680859570466e+00 -2.4698557059608314e-01
      1.2037756251582117e+00 -2.9775473660699947e+00
      1.7923187302579160e-01 -5.4924047968759093e-01
      5.5071400493465772e-01 4.5360539753533929e-01
      2.3710140619145448e+00 -1.9308202733682274e+00
      -2.8784904830639548e+00 4.5044180081084273e-01
      -2.6458554035807935e-01 5.7474927655320185e-01
      2.6073459533755050e-01 1.0728706957887617e+00
      5.6870185054156797e-01 4.2837609040819880e-01
      -1.6960191014230486e+00 -9.0717553779971305e-01
      -5.5691235156079042e+00 -2.6521030543485069e+00
      -2.7801518793127671e+00 1.6066296410304006e+00
      -2.7616898509721231e+00 6.0327682157534646e-03
      -3.9745230660389619e-01 2.1362355716116199e+00
      -4.1488478886041957e-01 -8.5451944345250441e-01
      5.1584716942892195e-01 -1.5179806373646065e+00
      -3.2562067085262609e+00 -3.3704699342984590e+00
      1.3594491861661587e-01 7.4428698470389798e-01
      -1.9714159423351605e+00 -9.3961352361744632e-01
      -1.3894413517530206e+00 -1.6691564310641263e+00
      9.5178499624899515e-01 1.5628241884382108e+00
      2.8320352323440550e+00 -5.6545159075666174e+00
      -3.1830909947127455e+00 -1.4296099823311583e+00
      -1.2839950286595052e+00 -2.0821166735219998e-01
      -1.9591892540146592e+00 2.2413762978120033e+00
      3.8612190751587669e+00 -2.8732454765254606e-01
      -1.0119986339939784e+00 1.4403951804391868e+00
      -1.9793997756817927e+00 5.8784116090141323e+00
      -7.9553943411708596e+00 3.2811837010671066e+00
      -2.6211146248805508e+00 -2.2395857319853598e+00
      -2.6764231325029706e+00 -5.7276969146508316e-01
      -7.2468652656056367e+00 1.2470492402685798e-01
      -3.4373871680401034e+00 1.9673143713104493e+00
      -2.7710064699194827e+00 2.2070332055918831e+00
      1.8957757274529694e+00 -1.4351046190426933e+00
      -8.1303440868012355e-01 1.8527249961576002e+00
      3.0534202467856658e-01 6.3240834443836871e+00
      1.0021145602012402e+00 -1.4478207732660766e+00
      -1.1294512419797667e+00 -7.2629420087466290e-01
      -3.7005138916420650e+00 -8.4623704400988302e+00
      -9.2121537215483151e+00 -1.9678481971520860e+00
      -1.2391175474274261e+00 -9.0286625942606928e+00
      -1.1294142008222892e+00 -6.1038102911678038e-01
      -9.0232708361310943e-01 1.4705207734248178e+00
      -8.1652545237062280e-01 -1.1806586217498485e+00
      4.8691141872772326e+00 -1.9116515431933019e+00
      -4.3797492879837572e+00 2.7303151109228354e+00
      -1.8274891643323827e+00 1.8029883032476379e+00
      -3.2636361842064119e+00 -8.6036370255235983e-01
      2.4978172610543978e-01 1.3034272574494192e+00
      3.9097519625576531e+00 4.3132603058454224e+00
      -4.0433272020265667e+00 1.7008810763405244e+00
      1.0467905325465279e+00 -4.9017507238174920e+00
      -3.4364712608297574e+00 8.8773695309484513e-01
      6.3936943338924044e+00 9.3341902056959358e-01
      3.3706848940304202e-01 -2.9524555970693750e-01
      -3.8134940890030866e+00 -1.3749941614104393e+00
      5.0224118556152977e+00 -2.2269388266494454e+00
      2.8207953718731589e+00 6.5900630515821721e+00
      4.2660916444980694e+00 -9.0008005151517922e-01
      5.2518799468700950e+00 -3.1512354260661715e+00
      -5.5135606708883440e+00 7.6345231191840144e+00
      -4.9482212868781934e+00 -5.7979125775177331e-01
      -2.3700426873484619e+00 2.2575557078751438e+00
      -2.0009150750616995e+00 6.1320129117869744e+00
      -5.3281606770081735e+00 2.2722114801661424e+00
      7.5357039780156276e-01 -1.1008651856226630e+01
      2.4110324084097567e+00 2.3767611451285902e+00
      6.7797859593856580e-01 -2.8138192760213154e-01
      1.4255873808006474e+00 -1.9881493331996003e+00
      -2.4434766490644177e+00 -8.6875751626003943e+00
      2.8920673663330123e+00 -1.4281326674234288e-01
      2.0147678918117791e+00 -8.6407196196784444e+00
      -6.8505879676344410e+00 -2.5195614763973689e-01
      6.0213501684111197e+00 3.8352917076612245e+00
      1.7288823567076342e-01 4.0239299759247364e+00
      -1.0371354396768140e+00 -2.3926025294920431e-01
      5.0236247098340412e+00 2.4456181252191858e+00
      5.7355647548991859e+00 1.9964099148066037e+00
      -3.7240630636416228e+00 8.0170679010228341e-02
      2.3143050994236449e+00 2.0139084011335884e+00
      -5.0745759837069233e+00 3.9059329169172869e+00
      4.1093295564244059e+00 -1.1109173115379312e+00
      -3.6838983797936939e+00 3.6310031795298486e-01
      3.3792998736117945e+00 -5.1752436088104736e-01
      -7.4592310474975774e+00 1.2249496629932792e+00
      2.1166494319450728e+00 2.9732133234574833e+00
      2.1367890302873089e+00 -2.2420447851821148e+00
      -3.6111601408453038e+00 -5.7593010958123534e+00
      -3.2266852474907246e+00 -6.6887252944378623e+00
      5.7931107408123197e-02 -8.6826982310959782e+00
      -3.6250198335850650e+00 3.2779069555786253e+00
      1.9518013758932877e+00 -2.3479519768113666e+00
      1.4968343559571236e+00 -7.8173443349339031e+00
      4.4791583109950386e+00 -1.4203800975864092e+00
      4.1872618365888110e+00 -3.9237208412467353e+00
      -4.1808638846466839e-01 5.0188378154814286e+00
      4.7463624115408560e+00 -1.5819485424989226e+00
      -1.1535788826263849e+00 5.0168418640725809e+00
      -4.0266414162350825e+00 -1.1930061753044248e+00
      -2.9441392385896150e+00 4.2746499515048120e+00
      1.0742944094966116e+00 6.7615255751490446e+00
      -6.9005367477917599e+00 -2.4517772716523916e+00
      2.6565799624786557e+00 -5.2781404599709862e+00
      -4.2711093810754610e+00 -5.2871653699414338e+00
      -8.3709289031840246e+00 1.8046323730430800e+00
      -8.7355486814659233e+00 1.0132794656593347e+01
      -1.7391055439157070e+00 -1.1719941672387388e+00
      -5.9618426682666374e+00 -5.5123033395785725e+00
      -3.0530025945263097e+00 2.9609322734437917e+00
      5.4953734323595684e+00 5.7274982688857854e+00
      4.8785461144811482e+00 4.4553132154905803e+00
      -5.4791678679472300e-01 9.3642758265731096e+00
      3.1114127833320961e+00 -3.7462835721641556e+00
      2.2705163211391635e+00 3.0158336522521938e+00
      4.1599911984702596e+00 -1.8521845514114383e+00
      -4.6080463350966774e+00 -4.2014954492545004e-01
      3.9419820306104474e+00 -6.1297976893610446e+00
      2.8373154333008438e-01 1.0363787766443848e+00
      -6.0349300642542159e-01 3.2697104052545418e+00
      -2.8847194408952124e+00 2.0975919841871296e+00
      2.9453624958248703e+00 6.9623603945268062e+00
      -6.7869399529018164e+00 -9.4021729001776666e-01
      7.2442772050162585e+00 -5.7554721658936883e+00
      8.8694779401729940e-01 -4.9068453584402771e+00
      -6.7103797894470381e+00 -1.5682403352262915e+00
      -9.1324040202391075e+00 -2.9717458880221352e+00
      4.9158602750930527e+00 -3.3497262156853269e-01
      -3.6719181066854030e+00 -1.9233470175843577e+00
      -1.7015141904686126e+00 -9.6999302617359062e-01
      -1.6286693806867683e-01 1.5216692099889745e-01
      -4.1373960864964442e-02 -4.2509534267765303e-01
      -1.4381337116786956e+00 3.5113158275148981e+00
      2.9905654456484707e+00 1.8323156028084289e-01
      2.0388592361326419e+00 4.9784159074137433e+00
      2.5818606649040090e+00 4.1389867558015849e+00
      -1.4374586444114030e+00 -6.5718273448412212e-01
      1.1581114006192457e+00 -3.3569698708940394e+00
      2.0205086369131022e+00 -7.2030274499631963e-01
      7.5986857932757668e-02 2.1134977804293302e+00
      -4.9266734267254919e-02 -6.0838023183924115e+00
      1.7726188611418059e+00 -1.5176789264267218e-01
      -1.5656570500183882e+00 5.4996431898385134e-01
      2.4607675934534443e+00 -7.6846562474412083e-01
      1.2277016276327686e+00 -4.6632801778521532e-01
      -2.1811916085020347e-01 -3.1899221884762303e+00
      -1.1746637776802933e-01 -2.2913222795502488e+00
      1.9679435765946431e+00 7.8472376267861244e-01
      -2.7798387780875128e-01 4.4545116083641492e-02
      4.8837244605694163e+00 -6.8385733818746641e-01
      1.3490093374313643e+00 4.7351849471843849e-01
      1.9131168462594910e+00 4.1298650141394438e-01
      -4.1577798367068153e-01 -3.0466350751429627e-01
      -9.2871009912269353e-01 1.9445612821974552e+00
      6.6830851381540457e-01 -2.8458751614544237e-01
      -1.8468388918247660e+00 5.6779582063067604e+00
      5.8662030082460048e-01 -2.3056519790148173e+00
      -1.2186895575938093e+00 -4.3552995856550458e+00
      -3.1792403740354178e+00 -1.2581141488144751e+00
      -1.9303049971659098e-01 3.6960350049697861e+00
      -2.5438633269156261e+00 -7.5426941345183496e-01
      1.6473129900977403e+00 2.1253504768590128e+00
      -2.6448497744410893e+00 8.7532234768098705e-01
      -8.6140991183391163e-02 1.2373145469563798e+00
      3.8308087018003778e-01 -2.6301591809920182e+00
      -1.5287190926211882e+00 -4.1232473236719098e+00
      2.0591463678016247e-01 -4.5552367045517022e+00
      4.4795117171277656e+00 4.0626502896638750e-01
      -9.0849507062828838e-01 -3.0516259539391393e+00
      5.9547379056118901e+00 -1.7598915720221426e+00
      3.4786590613998269e-01 3.4828448408715302e+00
      4.1548700638370706e+00 4.5832674736725538e+00
      -2.7622649251262504e-01 1.5933969363023246e+00
      7.0955382612962381e-01 -1.6298247432156940e-01
      -1.8564851743416311e-01 2.3814266832604747e+00
      -1.4954589028782386e+00 -7.0525870243805378e-01
      7.7415908910829234e-01 -5.0990604268205016e-02
      9.9206245708787860e-02 -4.0732182101730308e+00
      -4.2290037395917468e-01 -3.8043595262839776e+00
      -1.6424480107161585e+00 3.6474101179600718e+00
      3.6703469403955875e+00 7.0372092064059022e-01
      8.9296489527167988e-01 -2.5923150513685393e+00
      -2.0826549210082606e+00 7.4651364267295028e-01
      -5.1410823689771457e+00 -3.1786877957439691e-01
      1.8083141149250950e+00 -1.9405895601851235e+00
      -4.7445922945748595e+00 9.9507283945529179e-01
      -2.0364015245236629e+00 -2.0766866422160364e+00
      1.3967583482310155e+00 1.1054976817219893e+00
      -7.6708795428406051e-01 -1.1639896157588510e+00
      1.4115259230843857e+00 6.6074683477222318e-01
      4.0239525960396087e-02 1.2549989078802026e+00
      2.4630585399756361e-01 1.3913414764469090e+00
      -3.9986424841249781e+00 2.9002877021424283e+00
      9.2206668441154793e-01 2.4707282932909727e+00
      -1.9237725542405033e+00 -3.4366482054445541e-01
      -1.3016320662161265e+00 1.0887833066888965e-01
      -4.5954035301220966e+00 -1.8909141109171010e+00
      5.4668670477100534e-01 -9.9892158724258817e-01
      -1.3717140722497689e+00 -4.6402116170968783e+00
      -3.1818555019230024e+00 1.8076331225779338e-01
      -3.1513071939306294e+00 3.5019839045846917e+00
      -5.0443222652067798e-01 -4.2339527018402451e-01
      -1.2184922147589763e+00 2.0478831956174268e+00
      -3.2001427811622749e+00 3.7703144858074383e-01
      -4.8659010926796253e-01 3.4675514645930616e+00
      3.9619469197871804e+00 4.1609518190449100e+00
      4.8127965168983478e+00 2.2074584959526953e+00
      -3.6678413752202084e+00 1.6273045294017656e+00
      7.8093938826616638e-01 2.0513331335201284e+00
      1.9031286612675058e-01 -5.8614780885198794e+00
      1.6730399003205907e+00 -3.1070671832172220e-01
      -4.0955373373117050e+00 2.6347772479566678e+00
      -2.0906346843237253e+00 -6.1635248042194011e+00
      -3.5069264910423779e+00 3.2583940888867633e+00
      -9.7813234261885573e-01 -5.1933434840762276e+00
      -1.2616574212352578e+00 1.2081402700242971e+00
      -5.6258735210191946e-01 2.6962311446967404e+00
      5.3982711074561829e+00 -2.7819882836760237e+00
      2.4051709417385037e+00 -6.2783875763477868e+00
      -7.2867570587313724e-01 -3.2744614933178799e+00
      1.4276753038266771e-01 -3.1862853671495466e+00
      6.1138114166460955e-01 -2.1968006490974896e+00
      -4.7837016679319300e+00 2.8214935952340363e-02
      -8.8858946253837556e-01 3.6220954171608803e+00
      -9.5548404588611806e+00 3.4133344373557666e+00
      -1.1738705414268551e+00 -3.4301504114379616e-01
      -1.4144830890190823e+00 5.5048384165585897e+00
      4.0508231998142135e+00 4.7835291309705559e+00
      -6.9160470135089380e-01 -1.9077277676423101e+00
      -4.9609946355051306e+00 -2.1010970748720584e-01
      -5.2793734493563127e+00 8.2159820550657638e+00
      -3.7192942718606297e+00 1.5877414303778217e+00
      -4.6510417299742999e+00 -9.3219427085850839e+00
      2.1358243637098531e-01 7.8188495572369177e-01
      -4.5299145874054139e+00 5.3958692008414619e-02
      1.7488045643189212e-01 2.6923463218377481e+00
      1.8877558348596197e+00 2.3251130940732539e-01
      4.4564281716435268e+00 3.7662421119857020e-01
      -1.8816105899677389e+00 2.7954225245220958e+00
      -4.9698841876958548e+00 -7.7970045194538651e+00
      -8.5255486125789055e+00 -5.8017648388086940e+00
      -7.5956623714665050e-02 -3.9106448766844442e+00
      -4.0523375613921271e+00 -9.6577589744662906e-01
      -2.4008868226609761e+00 -2.1091788304491801e-01
      -5.4663102960474363e+00 1.3767131791470588e+00
      9.0532911082146796e+00 6.4478360092335345e+00
      -7.1520765303847336e+00 4.6976352755759132e+00
      -8.0208804054054528e-01 2.8098745135527814e-01
      9.8720502449937075e-01 -2.4754392246290697e+00
      1.4244734173697580e+00 1.5295299259571444e+00
      3.5170499760378595e+00 5.7686908344048158e+00
      -1.4051815342009719e+00 -5.4354702428195028e+00
      -1.8123660661468712e+00 -7.7399578140244021e+00
      -7.7790252843974494e+00 6.1075114871937919e-01
      -3.0167520664978560e+00 -6.1040621298295883e-01
      6.8831690581165725e+00 -2.9675385751382249e-01
      1.0869594711590806e+00 -2.6559554396767346e+00
      -1.9785729947622801e+00 6.9922693284776223e+00
      -7.3382849126755332e+00 2.5444566183623349e+00
      1.3254334542924944e+00 -2.9942568775165066e+00
      -2.3609040535258261e+00 2.4587263848775809e+00
      -1.4492058417764118e+00 6.5835276212635119e+00
      -3.5040134615584480e+00 -1.5870609476462711e+00
      3.3571549296937730e+00 2.1395786641336123e+00
      -1.6912169566171662e+00 6.6143947591926748e+00
      3.1706423015219261e+00 4.1853144281226946e+00
      -2.4516528849641186e+00 -9.7283285482765205e+00
      -1.2108581689903839e+00 -1.5209046671496036e+00
      6.8312097365965299e+00 1.6984628462403368e+00
      -1.3429737421311441e+00 -8.1572154524649658e+00
      -2.5217634605938639e+00 -5.4335010553521830e+00
      7.7831277268947119e+00 -6.1359413079659548e+00
      -3.1962335971960405e+00 -3.6183169667910287e+00
      8.8919427466545908e-01 2.7705363775442620e+00
      5.1483044538279108e+00 1.2495267300192434e+00
      -6.1310653848542263e+00 2.4930417486527299e+00
      -5.0181932193269629e-01 1.8561683244799412e+00
      1.4394101908164952e-01 3.1954445902862840e+00
      2.5623523901824656e+00 2.5829044186454233e+00
      -3.2579846672619056e-01 -7.1236439969482435e+00
      -1.4666273675315292e-01 6.1773682529517604e+00
      -2.3910331453289015e+00 1.1112648096460067e+00
      4.0851310690767555e+00 2.6680024569234465e-02
      -2.1745542767691588e+00 -6.3693428767828275e-01
      2.0684972130737234e+00 4.0650228423297028e+00
      -3.6118689527304131e+00 1.0935552548362926e+00
      6.3190594951035339e-01 3.3172528299682766e+00
      -6.5725670981935247e+00 3.5298806751533345e+00
      1.2097364481373129e+01 2.5430073105873574e+00
      -2.4563032428768659e+00 -7.1353963924710140e+00
      -3.8965497192017389e+00 -4.0487247799082748e+00
      4.0471164645199176e+00 -3.3780784966836270e+00
      -1.1311050032088275e+00 5.7156491765530113e+00
      3.8793608561555688e+00 -1.8442397033028650e+00
      -1.6388743794872997e+00 7.0803924079790956e+00
      -1.5721586926452547e+00 -2.8090860795515649e-01
      1.4756031492744937e+00 4.0447387024356649e+00
      5.9958528149792301e+00 -3.4982774169637900e+00
      -3.8539932530422192e+00 6.5952448580143574e-01
      -1.4032935225478000e+00 1.9862397528758970e+00
      5.0334714608286886e+00 2.0267145391468415e+00
      3.0437190456060055e+00 -2.0225887895780446e+00
      1.7728555883153359e+00 1.6221826150924612e+00
      -1.1076262393590586e+01 -1.5432061043578016e+00
      -3.7118718404553608e+00 -4.6984504074795854e+00
      -5.6035208354255044e+00 -4.4500542775660836e+00
      1.1597109037917999e+00 4.6135644508740574e+00
      5.5033420665520856e+00 -1.7640038804778440e+00
      4.7879380655153012e+00 2.9191550364146175e+00
      -1.1181457812030378e+00 -1.4146554064262580e+00
      4.0968305645224570e+00 5.2386120502143143e+00
      2.5347093963016500e+00 -3.3916042976807137e-01
      -1.4761085681075489e-01 2.8094449936266690e+00
      3.5431820036576185e+00 3.8832696302431331e+00
      -6.3526495254490651e+00 1.0747418159030695e+00
      7.9536757178951933e-01 2.8026385644494384e-01
      -2.1600708647246294e+00 1.8766415661566718e+00
      1.3229237871561816e+00 -3.8651272576213782e+00
      -2.0057961382607177e+00 -8.6225265271500195e-01
      1.5239805580750547e+00 6.3261279885552311e+00
      3.0950924163642735e+00 3.2548672299166381e+00
      4.9256795448198041e+00 -6.8539674019466312e-01
      -5.0587334086294611e+00 1.7663943229946606e+00
      -5.0803679470224088e+00 -7.1602830799521622e-02
      -2.5251324029697728e+00 3.8729677669643663e+00
      -5.7120441171950542e+00 -3.7770884675892611e+00
      -4.7932653294349761e+00 1.2606442945094691e+00
      3.8076943120937718e+00 5.2279373365219983e-01
      2.0976005837275626e+00 -2.8120111425538113e-01
      -7.3521513460963717e-01 1.6050291274351485e+00
      8.6152426101746815e-01 7.4175457962851876e+00
      -2.9395704451466540e+00 3.0069573625888415e+00
      -1.8931632879160359e-01 4.2185966201423719e+00
      2.0752019763897995e+00 2.0227849831408315e+00
      -2.0077992066279307e+00 -1.1417397573777188e+00
      2.9639415329301149e+00 7.7953332812028708e-01
      8.1845011672360646e-01 -1.6104960214517791e-01
      -1.9707233608328216e+00 -3.5748193548427536e+00
      9.6220753311649843e-01 -1.4244384121868072e+00
      9.8447014383519105e-01 3.6228480680088202e+00
      -1.0150722674530635e-01 2.8998150776843041e+00
      -3.8932233498231290e+00 -8.4328849858610677e-01
      -4.0095574235838480e+00 2.6500761126819081e+00
      -5.9541791108683970e+00 1.3967766739589325e+00
      -1.4534926209322223e+00 1.6516046222961531e+00
      1.4338712996675995e+00 2.9182151387342543e+00
      4.6847612270081873e+00 1.4317505099737289e+00
      2.0053663190260345e+00 5.5477276912592388e-01
      -2.1089128023406514e+00 -8.6847921429155905e-01
      1.4140864794450572e+00 2.6660230332285515e+00
      -4.7770849188483764e+00 4.3667567511604002e+00
      -2.5384813691780139e+00 1.7067473564074580e+00
      -1.6552994988899197e+00 1.0931493121280258e+00
      -2.9640183696027539e-01 -4.6331219523428313e-01
      1.3053091971433941e+00 1.6836271949188397e+00
      4.6890505827891932e-01 1.6228791361291655e+00
      1.3264315310599735e+00 -1.6282196071202579e+00
      -1.4658322599723916e+00 -3.0154543838396246e+00
      -4.3103770102071763e+00 2.8266102926486227e+00
      -7.5989869862696724e-01 2.5200384406043335e+00
      -2.1868246902421760e+00 4.0087468855403214e+00
      2.2427813830072554e-01 -5.0827249537170505e-01
      -2.2251670657144991e+00 6.3577718381966053e-01
      2.4147442019194383e+00 -2.0770839037714106e-01
      -1.2259914934785010e+00 -2.3252392096868117e+00
      -4.5022999765577394e+00 -3.8116157439584608e-01
      -1.7758279208248799e+00 -1.8640442355095670e+00
      2.1700605792128300e+00 2.8481260300356726e-01
      1.6374354799730884e+00 -6.0820793668529516e-01
      6.5604423782796593e+00 -8.7690768428843713e-02
      3.1715299784163751e+00 3.6256297338676333e+00
      2.5785051218822113e+00 3.8819388876511365e+00
      -2.5529843978827484e+00 1.6346666579007443e+00
      -4.9729528779517995e-01 -4.7037092744128595e-01
      3.0633237313995793e-01 2.5480808280148337e+00
      1.1168972334973917e+00 2.6061027268255010e+00
      8.1349676592807274e-01 -2.3112925688688035e+00
      -1.4284432774871751e+00 -4.3154739671832987e+00
      -1.6196926066376818e+00 -4.0819534386136072e+00
      -4.3678712454326556e+00 3.9208120041769270e+00
      2.5296863698167100e+00 8.8210167125916283e-01
      -3.4976168660668777e-01 -3.4243868809003808e+00
      -7.3338473650672442e-01 1.7872560755105733e+00
      -4.5709940641031368e+00 1.2443354575705559e+00
      -9.0394144685498379e-01 -6.1291247563102091e-01
      -6.3607547098663595e+00 -2.6349206071690108e+00
      -4.0836906442604395e+00 3.9620552690995225e+00
      -4.3379215546478872e-01 1.1976230461899549e+00
      5.3848477133522454e+00 -3.2234379493612964e+00
      -5.6074119568901593e-01 2.6011351261410620e-01
      1.6041430489463713e+00 2.0373277000199326e+00
      -1.7074832093129551e+00 5.5755778792227140e-01
      -2.3573368861167827e+00 2.6527033958391426e+00
      8.8465398483779645e-01 -2.4906837029289801e+00
      -9.0654844271272439e-01 4.0969218867360793e+00
      -2.3030300990745651e+00 4.7463915434096009e+00
      3.5556454250152605e+00 4.4664418954731264e+00
      -2.3391555777819537e+00 2.3175129944320097e-01
      2.1692824367829990e+00 -3.2482404163022287e+00
      1.8092145154037680e+00 1.6463489600735128e+00
      -1.0077427398159633e+00 -8.3622690272754274e-01
      1.3599850883039208e+00 1.9374477242829258e+00
      -2.2980367420207223e-01 -6.3932095179879911e-01
      7.8620117430427694e-01 -6.7328225483064796e-01
      1.4229770355848648e-01 -5.1348027719532605e-02
      1.8200580247625962e-02 2.8855007877961261e+00
      -5.4640859770667272e-01 5.4395126960401559e+00
      1.5986112322267940e+00 1.8547736353171809e+00
      6.0536591789140315e-01 -4.4910242877668372e-02
      2.9128671007465088e+00 -2.2064465067720529e+00
      -2.2194909570727868e+00 3.0688427850475706e+00
      1.2268065664542529e+00 -5.8035263857862258e+00
      2.2206839451631475e+00 -1.1387548855384255e+00
      -4.5362337968892019e-01 6.1000298333050773e-01
      -2.8203837500761941e+00 -7.8330196913785122e-01
      3.0601254543457630e+00 3.5900721029184246e+00
      -1.9324824495792658e-01 5.2895455586084648e+00
      3.2522796927941968e+00 4.3205641474505826e-02
      1.8682487838362662e+00 -5.4778345196510152e+00
      -5.1817287638303302e+00 3.1201273980076585e+00
      -7.0103828870918452e+00 -1.1729324537874171e+00
      -7.2175611507584314e-01 3.6517278758090500e-02
      7.5931037925200540e-01 -1.1672096379751449e+00
      -2.4869666638286861e-01 2.6074445006156133e-01
      2.6741216973182986e+00 5.4295322943487923e-01
      4.5649951515619511e+00 2.9866092672734457e+00
      3.7702481297865833e+00 3.0486734178454058e+00
      1.3225142860363053e+00 -1.9559121253672755e+00
      1.7717798640564479e+00 -1.4250577644187894e+00
      -2.0804854622964367e-01 -4.1918905080102881e-01
      2.1445843126111659e+00 9.0535137401701355e+00
      -2.2101728742976534e+00 -9.1411874087357035e+00
      5.0306964977739188e+00 -3.3772982230417736e+00
      -2.9634401793954197e+00 -2.3593877773249243e+00
      -5.1959522714269504e+00 -4.7858747505602339e-01
      5.7104766399605316e+00 1.3120663949752378e+00
      3.7403248764697952e+00 2.5471778674579668e+00
      5.0496873827244171e-01 -1.4560032876233819e+00
      -5.5557783390757853e+00 5.5895228513724344e+00
      -4.6421336582688921e+00 2.3788619762714864e+00
      -6.0842915472719894e-01 -3.5190145086066011e+00
      -2.1268039007082309e+00 2.8497192290485840e+00
      -3.3110472413877932e+00 -1.9051769080713177e+00
      -9.8779379479703644e-01 2.6380915919699632e-01
      -5.8249277193293647e+00 -2.8028663561076512e+00
      6.0773206130577695e-01 2.6478586874894949e-01
      4.1629994626864946e+00 3.8367109243037119e+00
      1.7333588602652898e+00 -1.1477044278029924e+00
      1.1070099671717144e+00 -4.4707366771410245e-01
      1.5060116388377931e+00 -3.4487912570145953e+00
      5.5499541663704717e+00 4.8927620747992950e+00
      8.2428459898502227e-01 -8.4662794188084689e+00
      3.4313956107617396e+00 -2.9316543129636932e+00
      -4.8526754132238574e+00 6.4207585348863883e-01
      -7.9315678509309420e+00 1.0183305691156168e+00
      1.4581613889017822e+00 9.3987200013557786e+00
      2.5032588540109462e+00 -4.5281653808088151e+00
      -4.7633005247181872e+00 2.6540783462602144e+00
      -1.1007791924924017e+00 1.3675916502930702e+01
      3.1049144343755684e+00 -1.5845476811254902e+00
      -4.3094858986916389e+00 3.3712854921052164e+00
      1.8248179208468124e-01 -5.5954632836814922e+00
      -1.8046527595873292e+00 -3.9665907779356080e-01
      -2.3868928249113370e+00 1.2937909572535469e-01
      -2.8322921073424214e+00 -6.0310381906875454e+00
      6.3421338403617549e+00 -1.1406174997832226e+00
      -4.2318343414117994e+00 -1.9179210252837291e+00
      7.1513630259837557e-01 -3.8623382397383206e+00
      8.3231750192019938e+00 -3.8939768161397237e+00
      -6.9153893551357930e+00 -1.2584802136730586e+00
      1.0296448514362617e-01 -1.2324078082770227e+00
      1.3142300635565068e+01 -5.2321638707363505e+00
      4.4111083645318233e-01 -2.7311040862542315e+00
      -3.3872961857622212e+00 -2.0034075973641008e-01
      -2.4453378043178173e-01 -7.4520332812226198e-01
      -3.7740012183768523e+00 -1.1076908065238957e+00
      -1.4964717067743329e+00 -7.8059692681712578e+00
      1.7807048834982631e+00 -7.2669953921723274e-01
      2.1324666403862803e-02 4.8264686936155785e+00
      -4.9759576586025602e+00 -4.2944074426365511e+00
      5.5679469804310031e+00 8.6159470118192472e-01
      5.2441212924545146e+00 -1.1747313631251547e+01
      2.2496125792646499e-01 1.0367783776532452e-01
      -5.4377816018069778e+00 1.7510601443797588e-01
      3.8040161125284198e+00 3.7098426047487236e+00
      9.1573567649329331e-03 3.7935241739556389e+00
      -4.7156477498735336e+00 -6.3088544475115738e-01
      -6.7149706406885468e+00 2.5409036600141577e+00
      5.2525625728075358e+00 2.1606064640268490e+00
      2.0819528042871616e+00 2.5487669224814020e+00
      -2.6389772342863029e+00 1.8956680980716327e+00
      2.7452241960689228e+00 1.6787140836057524e+00
      4.4172540013491635e-01 8.0862164664114022e+00
      -1.1188731040706328e+00 8.5382804774679477e-01
      -6.1349775599008272e-01 5.7885628286046993e+00
      -9.0928584631567890e+00 2.0143206834460532e+00
      4.2332730541277348e+00 1.3004749617412115e+00
      2.1846605702394593e+00 -5.1206280935890318e-03
      -1.4128689947257153e-01 -4.7040459873462090e+00
      -1.9892982639435270e+00 -7.1957135434486776e+00
      8.3871262714856147e+00 -2.5879737997645220e+00
      -1.7716156852653295e+00 -6.3028987831728944e+00
      -1.8107694789032975e+00 3.9526313240151884e-01
      1.1763406123066238e-01 -5.1460595505509643e-01
      -1.5540195587866784e-01 4.0301492901762801e+00
      -3.5363299133007158e+00 -1.9286205432530112e+00
      4.5418622705374307e+00 -5.6011650581043071e-01
      5.8236880859102369e+00 1.9387935641868919e+00
      6.9758900455638448e+00 3.5588477550962732e+00
      -2.1666988556242130e+00 3.4202009270084393e+00
      -5.6302877070826689e+00 3.1615090162337975e+00
      -4.2345355902616753e+00 3.7452177871709202e+00
      -4.2888176893530272e-01 1.7551323908710801e+00
      -2.3148497498741061e+00 3.4958095962696509e+00
      -8.4505018338262623e+00 -4.4787811557845663e+00
      1.4925701061187091e+00 -5.3626915660946484e-01
      -2.0837546603029278e-01 5.2125748357704857e+00
      5.4303269248875374e-01 1.2575077485918897e+00
      -7.4041533175291763e+00 -1.0530106619381527e+00
      -1.3322178961089328e+00 1.2913425437258381e+00
      1.0321250130442787e+00 6.8025267133547542e+00
      6.4042092601172740e-01 -4.0628952349333156e+00
      2.8741947161549382e+00 -8.4989178275552124e-01
      -3.6318832120412861e+00 -3.5355460810357558e-01
      1.3871687763604805e+00 4.0140399409192238e+00
      2.8393966851218599e+00 3.2017001443442235e+00
      7.6422221689837135e+00 7.1402380291291667e-01
      2.8306499051395106e+00 -1.7667911812959634e+00
      1.1059755204228317e+01 3.5693717085307211e+00
      -2.4080142992879359e+00 1.8488926809408721e+00
      -6.5279805153335024e+00 1.1125333594547293e+00
      -2.1139309372629191e+00 -3.2865707957585660e-01
      -1.4492553108940681e-01 4.5355832057293659e+00
      3.8371734549116150e+00 4.0268907654191750e+00
      1.2275408131568669e-02 -6.0487637189546417e+00
      6.0184154123030611e+00 -3.3492812010029765e-01
      2.5899656674159313e+00 1.1266158793804486e+00
      -5.9005042731449624e+00 5.2640334522149224e-01
      -8.1602312686287837e-01 3.1834310651885893e+00
      5.4182755270939698e-01 2.0261947339308056e-01
      1.4546368930622122e+00 8.4997691917704241e+00
      7.0672453855155448e-01 -6.1687468024698133e-01
      3.9792518723282595e+00 1.5774456369595424e+00
      -3.3733096302472805e+00 6.9859792304993495e-01
      1.7689197856583079e+00 6.2461301138949867e+00
      -1.2106803673539204e+00 -1.5186733902991170e+00
      -3.2490829162563899e+00 -2.2274029195872189e+00
      5.4491756649245042e+00 5.8143413362900043e-01
      7.2946097419990819e-01 -7.3620744616777256e-01
      1.3947260688187146e-01 -3.2624304739380272e+00
      -2.3553032579160535e+00 -1.1506992876830588e+00
      -2.0984040545056617e+00 1.0778501704452710e+00
      1.6116137374115729e+00 1.2439374920486508e+00
      -2.1544105985621251e+00 5.6951580971630706e+00
      -2.5116777176599405e+00 -8.5043948418268354e+00
      5.9917478273918361e+00 -2.2537829618613152e+00
      1.8552462124924212e+00 3.1706341988285458e+00
      1.8149115484251997e-02 -3.5250111114452518e+00
      -6.4736523583296046e-01 1.8080006772205064e+00
      -2.0905715656620170e+00 3.0747917019670949e+00
      -2.8862240424386658e+00 2.4679812501686071e+00
      -1.5548245882509908e+00 -9.9407039703945299e-01
      -1.5412941028208342e+00 6.4795184864565458e-01
      -1.0067804003418810e+00 -5.0430765148591539e-01
      -6.4746266583516621e-01 -2.8469315966024040e+00
      -3.6452531913143691e+00 1.1789839957100527e+00
      -1.7615110095121891e+00 8.8166391985953141e-01
      4.7238414204866086e-01 2.2562775326085669e-02
      2.5173915674254410e-01 2.4272659076062683e-01
      8.8107346576286313e-02 -2.6354350311835018e-01
      4.8217713993573041e-01 8.2435452894337058e-01
      -1.0743139513741042e+00 2.1056724992546765e+00
      -2.8690999083976343e+00 2.9167126533779875e-01
      -1.9912949609089261e+00 -1.3568052301765199e+00
      -1.5828885168057136e+00 5.9198505567721094e-01
      -6.5032197226553046e-01 3.5784101405734461e+00
      -1.2648181778910628e+00 -3.8039208092502528e+00
      -2.0495369169391435e+00 -4.2585872166236269e+00
      -2.0946540417677226e-02 -2.6198426818870360e+00
      -3.8454016079418607e+00 3.7904711354745655e+00
      2.2522481758432239e-01 1.6546894612047172e+00
      -1.5271013182011643e+00 -2.2021984281320304e+00
      2.8781195380034141e-01 1.4124975591786064e+00
      9.1509081865872333e-01 2.1189642715945931e+00
      -2.2753497359630077e+00 -5.3559442212124093e+00
      -7.8396074094459527e+00 -1.0119126222790265e+00
      -7.7264996669953168e-01 4.4546129467651712e+00
      -1.2091782645893394e+00 9.0774523769704896e-01
      3.2637591869202334e+00 4.0586978045491628e+00
      -1.3333739182770465e+00 -1.2564587008684402e+00
      3.3890037977330040e-01 9.4242865644954876e-01
      -3.2540134407090462e+00 1.6991531443430850e+00
      -2.1796909905235493e+00 5.9268122485545061e-01
      1.3743876617327402e+00 -1.7320661445705448e+00
      2.3659742030847128e-01 1.8581284363048483e+00
      2.6962719797582437e+00 7.0505343450860476e+00
      -2.6244357761406629e+00 2.7666770020721434e+00
      -2.4823470151461797e+00 -1.1090659116367114e+00
      -3.2312260968230038e+00 6.9749705327476086e+00
      -7.9460401218768073e-01 8.0498925345582395e-01
      1.4288529509055690e+00 3.4433012424765801e+00
      2.3613316905770071e-01 -4.8757828038686923e-01
      -2.6967276777470777e+00 1.4846845470990082e+00
      3.1370617287590634e+00 -7.3178969166329100e-01
      -1.1565678783175880e-01 -5.5410080867951068e+00
      2.2661185861476856e+00 1.2903008915388181e+00
      -1.2753459444688239e-01 -3.3716839810079735e+00
      7.2065044932672606e-01 1.6085354963031939e+00
      2.8679060183222560e-01 -1.0242991021225609e+00
      4.4176830329877084e-03 2.0860772755064447e+00
