<?xml version="1.0"?>
<opencv_storage>
<opencv_ml_svm>
  <format>3</format>
  <svmType>C_SVC</svmType>
  <kernel>
    <type>RBF</type>
    <gamma>3.3750000000000002e-02</gamma></kernel>
  <C>1.2500000000000000e+01</C>
  <term_criteria><iterations>20000</iterations></term_criteria>
  <var_count>352</var_count>
  <class_count>2</class_count>
  <class_labels type_id="opencv-matrix">
    <rows>2</rows>
    <cols>1</cols>
    <dt>i</dt>
    <data>
      0 1</data></class_labels>
  <sv_total>511</sv_total>
  <support_vectors>
    <_>
      0. 0. 0. 0. 9.23076987e-01 1. 9.61538494e-01 5.76923072e-01
      1.53846160e-01 1.53846160e-01 3.46153855e-01 6.15384638e-01
      7.69230783e-01 8.07692349e-01 8.07692349e-01 8.46153855e-01
      8.46153855e-01 9.23076987e-01 9.23076987e-01 8.07692349e-01
      6.15384638e-01 3.84615391e-01 1.92307696e-01 1.15384623e-01
      1.15384623e-01 3.07692319e-01 9.23076987e-01 9.61538494e-01 1.
      9.61538494e-01 5.38461566e-01 4.23076928e-01 4.61538494e-01
      4.61538494e-01 4.23076928e-01 9.23076987e-01 9.61538494e-01
      9.23076987e-01 8.46153855e-01 8.07692349e-01 1.15384623e-01
      1.15384623e-01 1.15384623e-01 2.30769247e-01 3.07692319e-01
      3.07692319e-01 2.30769247e-01 2.30769247e-01 4.61538494e-01
      7.69230783e-01 8.84615421e-01 9.61538494e-01 8.84615421e-01
      7.30769277e-01 6.15384638e-01 6.15384638e-01 7.30769277e-01
      8.46153855e-01 9.23076987e-01 8.84615421e-01 8.07692349e-01
      3.84615391e-01 2.30769247e-01 2.30769247e-01 2.30769247e-01
      4.61538494e-01 5.76923072e-01 7.30769277e-01 7.69230783e-01
      7.30769277e-01 6.15384638e-01 6.92307711e-01 6.53846204e-01
      6.92307711e-01 8.07692349e-01 7.30769277e-01 6.15384638e-01
      4.61538494e-01 2.30769247e-01 2.30769247e-01 5.38461566e-01
      9.61538494e-01 9.61538494e-01 9.61538494e-01 9.61538494e-01
      6.53846204e-01 6.15384638e-01 5.76923072e-01 5.76923072e-01
      5.76923072e-01 5.76923072e-01 5.76923072e-01 5.38461566e-01
      3.46153855e-01 7.69230798e-02 1.15384623e-01 2.30769247e-01
      4.23076928e-01 4.61538494e-01 5.00000000e-01 6.15384638e-01
      6.15384638e-01 5.76923072e-01 6.53846204e-01 6.92307711e-01
      7.69230783e-01 9.23076987e-01 8.46153855e-01 7.30769277e-01
      5.00000000e-01 1.53846160e-01 1.15384623e-01 7.69230798e-02
      3.46153855e-01 5.38461566e-01 5.76923072e-01 6.92307711e-01
      6.15384638e-01 5.76923072e-01 6.92307711e-01 6.92307711e-01
      7.30769277e-01 8.84615421e-01 8.07692349e-01 6.92307711e-01
      5.00000000e-01 3.07692319e-01 2.69230783e-01 7.69230783e-01
      9.23076987e-01 6.92307711e-01 7.69230798e-02 7.69230798e-02
      2.30769247e-01 2.30769247e-01 2.30769247e-01 2.67857164e-02
      2.67857164e-02 3.03571433e-01 6.16071463e-01 9.28571463e-01
      5.89285731e-01 1.25000000e-01 7.14285746e-02 1.69642866e-01
      7.05357194e-01 8.03571463e-01 8.12500060e-01 6.42857194e-01
      5.26785731e-01 5.08928597e-01 5.44642866e-01 6.60714328e-01
      7.05357194e-01 7.05357194e-01 6.51785731e-01 4.82142866e-01
      4.73214298e-01 4.55357164e-01 5.17857194e-01 5.62500000e-01
      6.96428597e-01 6.51785731e-01 5.00000000e-01 2.67857164e-01
      6.25000000e-02 1.51785716e-01 6.78571463e-01 9.46428597e-01 1.
      1.42857149e-01 0. 3.55871883e-03 0. 0. 0. 0. 0. 0. 0. 0. 0. 0. 0.
      0. 0. 0. 0. 0. 0. 0. 0. 3.55871883e-03 0. 0. 0. 3.55871883e-03
      3.55871883e-03 0. 0. 0. 0. 7.11743766e-03 0. 0. 0. 0.
      7.11743766e-03 3.55871883e-03 0. 0. 0. 3.55871883e-03 0.
      2.84697507e-02 1.77935939e-02 0. 3.55871883e-03 1.06761567e-02 0.
      3.55871883e-03 0. 3.55871883e-03 0. 3.55871883e-03 0.
      1.06761567e-02 3.55871879e-02 1.42348753e-02 3.55871883e-03 0. 0.
      2.13523135e-02 0. 0. 7.11743766e-03 0. 3.55871883e-03
      5.33807836e-02 3.55871883e-03 1.77935939e-02 1.77935939e-02
      1.42348753e-02 1.06761567e-02 3.55871883e-03 4.98220623e-02
      4.27046269e-02 7.11743766e-03 7.11743766e-03 0. 0. 6.40569404e-02
      1.31672591e-01 0. 7.11743766e-03 2.49110311e-02 4.62633446e-02
      4.27046269e-02 7.11743766e-03 1.67259783e-01 1.06761567e-02
      2.13523135e-02 4.19928819e-01 2.84697507e-02 9.25266892e-02
      1.56583622e-01 9.60854068e-02 3.98576498e-01 2.09964409e-01
      1.10320285e-01 3.70106757e-01 2.49110311e-01 2.45551601e-01
      5.26690364e-01 3.73665482e-01 6.79715276e-01 4.80427057e-01
      8.04270446e-01 7.18861222e-01 9.03914571e-01 6.72597885e-01 1.
      8.00711751e-01 6.97508872e-01 8.57651234e-01 5.83629906e-01
      7.29537368e-01 3.84341627e-01 8.11387897e-01 2.20640570e-01
      2.95373648e-01 2.88256228e-01 4.02135223e-01 9.96441245e-02
      2.27758005e-01 1.85053378e-01 1.77935943e-01 3.41637015e-01
      9.25266892e-02 4.62633446e-02 5.69395013e-02 5.69395013e-02
      9.96441245e-02 2.84697507e-02 4.62633446e-02 7.82918110e-02
      1.06761567e-02 4.62633446e-02 3.20284702e-02 7.11743766e-03
      2.13523135e-02 2.13523135e-02 2.13523135e-02 2.13523135e-02
      1.77935939e-02 1.77935939e-02 1.42348753e-02 3.20284702e-02
      7.11743766e-03 7.11743766e-03 0. 1.06761567e-02 2.49110311e-02
      3.55871883e-03 0. 3.55871883e-03 0. 0. 0. 0. 0. 0. 0. 0. 0. 0. 0.
      3.55871883e-03 0. 0. 0. 0. 0. 0. 0. 0. 0. 0. 0. 0. 0. 0.</_>
    <_>
      0. 0. 1.93548381e-01 4.19354826e-01 1.29032254e-01 0.
      4.51612890e-01 6.45161271e-01 5.16129017e-01 3.54838699e-01
      1.93548381e-01 1.61290318e-01 9.67741907e-02 4.51612890e-01
      4.51612890e-01 2.25806445e-01 0. 0. 0. 7.74193525e-01
      8.38709652e-01 8.06451559e-01 6.77419305e-01 2.58064508e-01
      2.58064508e-01 2.25806445e-01 3.54838699e-01 5.80645144e-01
      7.09677398e-01 7.41935492e-01 5.48387051e-01 4.51612890e-01
      3.54838699e-01 3.22580636e-01 5.16129017e-01 3.54838699e-01
      3.87096763e-01 5.16129017e-01 5.80645144e-01 7.41935492e-01
      7.74193525e-01 9.67741907e-01 7.74193525e-01 2.90322572e-01
      6.45161271e-01 8.38709652e-01 8.38709652e-01 8.38709652e-01
      8.06451559e-01 4.51612890e-01 4.19354826e-01 5.48387051e-01
      6.45161271e-01 6.45161271e-01 6.45161271e-01 8.38709652e-01
      9.03225780e-01 8.38709652e-01 7.41935492e-01 5.48387051e-01 0. 0.
      3.22580636e-01 4.19354826e-01 5.48387051e-01 6.12903237e-01
      5.16129017e-01 4.19354826e-01 7.41935492e-01 8.38709652e-01
      8.70967746e-01 8.38709652e-01 7.74193525e-01 9.67741907e-02 0.
      2.58064508e-01 4.51612890e-01 6.45161271e-01 6.45161271e-01
      7.09677398e-01 7.09677398e-01 7.74193525e-01 8.06451559e-01
      8.06451559e-01 7.41935492e-01 5.16129017e-01 2.58064508e-01
      7.74193525e-01 8.38709652e-01 8.70967746e-01 8.70967746e-01
      8.06451559e-01 3.22580636e-02 1.61290318e-01 5.48387051e-01
      7.41935492e-01 7.74193525e-01 7.74193525e-01 7.74193525e-01
      7.41935492e-01 9.03225780e-01 9.03225780e-01 6.77419305e-01
      6.12903237e-01 7.41935492e-01 7.74193525e-01 8.70967746e-01 1.
      9.67741907e-01 9.35483813e-01 7.74193525e-01 7.09677398e-01
      7.74193525e-01 8.06451559e-01 8.70967746e-01 8.38709652e-01
      6.12903237e-01 6.77419305e-01 6.77419305e-01 8.06451559e-01
      8.38709652e-01 8.38709652e-01 8.70967746e-01 8.70967746e-01
      8.06451559e-01 7.09677398e-01 6.45161271e-01 6.12903237e-01
      6.77419305e-01 7.41935492e-01 8.06451559e-01 7.09677398e-01
      5.48387051e-01 1.93548381e-01 0. 0. 3.33333343e-01 5.61904788e-01
      7.42857158e-01 8.38095248e-01 9.42857206e-01 8.66666675e-01
      8.66666675e-01 8.95238101e-01 8.95238101e-01 9.42857206e-01
      9.71428633e-01 9.71428633e-01 9.61904824e-01 1. 9.90476251e-01
      9.23809588e-01 9.33333397e-01 8.85714293e-01 8.38095248e-01
      8.57142866e-01 8.57142866e-01 8.57142866e-01 8.28571439e-01
      7.71428585e-01 6.57142878e-01 5.14285743e-01 2.76190490e-01
      1.80952385e-01 9.52380970e-02 6.66666701e-02 1.23809531e-01
      1.90476194e-01 2.38095254e-01 1.52380958e-01 3.80952395e-02 0.
      4.55657512e-01 0. 0. 0. 0. 0. 4.58715623e-03 0. 0. 0. 0. 0. 0. 0.
      0. 0. 0. 0. 0. 0. 6.11620815e-03 0. 0. 0. 6.11620815e-03 0. 0. 0.
      0. 0. 4.12844047e-02 0. 0. 0. 0. 1.07033644e-02 1.52905202e-02 0.
      0. 0. 0. 0. 1.52905202e-02 4.58715623e-03 0. 0. 0. 0. 0. 0.
      6.26911372e-02 0. 0. 0. 0. 3.05810408e-03 0. 0. 0. 0. 0. 0. 0. 0.
      0. 0. 2.14067288e-02 0. 0. 0. 0. 0. 0. 0. 0. 3.86850178e-01 0. 0.
      0. 0. 2.29357798e-02 0. 0. 5.65749258e-02 1.52905204e-03 0. 0.
      2.14067288e-02 1.37614682e-02 0. 5.35168201e-02 1.52905204e-03
      2.29357798e-02 9.17431246e-03 1.52905204e-03 8.56269151e-02
      1.23853214e-01 7.64526008e-03 1.29969418e-01 6.88073412e-02
      7.18654469e-02 3.71559650e-01 1.95718661e-01 5.00000000e-01
      5.09174347e-01 1. 8.48623872e-01 7.82874644e-01 3.71559650e-01
      3.48623872e-01 2.47706428e-01 1.68195724e-01 8.86850208e-02
      4.43425104e-02 5.81039786e-02 3.36391442e-02 1.37614682e-02 0. 0.
      0. 9.32721719e-02 0. 0. 0. 6.11620815e-03 1.37614682e-02
      3.05810403e-02 0. 0. 0. 0. 0. 6.11620815e-03 6.11620815e-03 0. 0.
      0. 0. 0. 0. 1.52905204e-03 0. 0. 0. 0. 0. 0. 0. 0. 0. 0. 0. 0. 0.
      0. 0. 0. 0. 0. 0. 0. 0. 0. 0. 0. 1.83486249e-02 0. 0. 0. 0. 0. 0.
      0. 1.52905204e-03 0. 0. 0. 0. 0. 0.</_>
    <_>
      0. 0. 0. 3.88888896e-01 5.27777791e-01 2.77777791e-01
      1.66666672e-01 3.05555552e-01 9.44444478e-01 8.88888896e-01
      2.77777791e-01 3.33333343e-01 7.77777791e-01 7.50000000e-01
      7.22222209e-01 8.05555582e-01 7.22222209e-01 2.77777780e-02 0. 0.
      0. 9.16666687e-01 9.72222209e-01 9.44444478e-01 7.77777791e-01
      2.77777791e-01 2.50000000e-01 2.50000000e-01 2.50000000e-01
      2.50000000e-01 2.50000000e-01 2.77777791e-01 2.50000000e-01
      1.66666672e-01 0. 0. 0. 0. 0. 0. 1.11111112e-01 1.11111112e-01
      8.33333358e-02 0. 0. 0. 0. 1.11111112e-01 3.05555552e-01
      4.72222239e-01 6.66666687e-01 6.11111104e-01 6.38888896e-01
      3.88888896e-01 3.88888896e-01 4.16666657e-01 6.11111104e-01
      6.38888896e-01 4.72222239e-01 4.16666657e-01 2.22222224e-01 0. 0.
      0. 0. 5.55555560e-02 1.38888896e-01 1.38888896e-01 1.38888896e-01
      1.38888896e-01 1.38888896e-01 4.72222239e-01 6.66666687e-01
      7.77777791e-01 6.94444478e-01 5.27777791e-01 4.16666657e-01
      3.61111104e-01 2.50000000e-01 1.66666672e-01 0. 0. 0. 0.
      5.55555582e-01 7.22222209e-01 7.22222209e-01 7.22222209e-01
      4.44444448e-01 3.88888896e-01 3.33333343e-01 3.88888896e-01
      4.16666657e-01 4.44444448e-01 5.27777791e-01 6.66666687e-01
      5.83333313e-01 3.88888896e-01 0. 0. 0. 0. 0. 0. 0. 0. 0. 0.
      9.72222209e-01 1. 1. 1.11111112e-01 0. 0. 0. 0. 0. 0. 0. 0. 0.
      2.22222224e-01 3.33333343e-01 3.61111104e-01 4.16666657e-01
      3.88888896e-01 4.44444448e-01 4.44444448e-01 5.27777791e-01
      6.11111104e-01 5.55555582e-01 5.83333313e-01 7.50000000e-01
      6.11111104e-01 3.88888896e-01 0. 8.00000012e-01 9.20000017e-01 1.
      9.86666679e-01 6.80000007e-01 4.26666677e-01 4.26666677e-01
      4.93333340e-01 4.80000019e-01 4.93333340e-01 5.60000002e-01
      4.80000019e-01 5.33333361e-01 5.73333323e-01 7.20000029e-01
      7.46666670e-01 8.13333333e-01 7.33333349e-01 6.39999986e-01
      4.93333340e-01 4.80000019e-01 4.53333348e-01 4.39999998e-01
      4.53333348e-01 4.39999998e-01 4.39999998e-01 4.66666669e-01
      4.93333340e-01 5.20000041e-01 5.20000041e-01 5.06666660e-01
      5.60000002e-01 5.60000002e-01 4.80000019e-01 3.46666664e-01
      2.53333330e-01 6.72131181e-02 0. 0. 0. 0. 0. 0. 0. 0. 0. 0. 0. 0.
      0. 0. 0. 0. 0. 0. 0. 3.27868853e-03 0. 0. 0. 0. 0. 0. 0. 0. 0.
      1.63934417e-02 0. 0. 0. 0. 0. 0. 0. 0. 0. 0. 0. 0. 0. 0. 0. 0. 0.
      0. 0. 2.95081958e-02 0. 0. 0. 0. 0. 0. 0. 0. 0. 0. 0. 0. 0. 0. 0.
      4.91803279e-03 0. 0. 0. 3.27868853e-03 0. 0. 0. 0. 6.72131181e-02
      0. 0. 0. 0. 4.91803279e-03 0. 0. 1.14754103e-02 1.63934426e-03
      1.63934426e-03 0. 4.91803279e-03 0. 0. 6.55737706e-03 0. 0.
      4.91803279e-03 0. 1.63934426e-03 6.39344230e-02 0. 3.27868834e-02
      0. 0. 5.24590164e-02 0. 2.27868855e-01 4.91803288e-02
      1.96721312e-02 2.29508191e-01 1.96721312e-02 3.77049185e-02
      1.44262299e-01 1.39344260e-01 4.67213124e-01 2.13114753e-01
      3.54098350e-01 2.63934433e-01 5.11475384e-01 9.40983593e-01
      3.60655747e-02 2.21311480e-01 1.16393439e-01 1. 0. 3.72131139e-01
      2.45901644e-02 3.80327880e-01 7.62295067e-01 1.59016401e-01
      1.14754103e-02 9.34426263e-02 6.22950830e-02 1.04918033e-01 0.
      9.50819701e-02 1.63934425e-01 0. 5.24590164e-02 1.14754103e-02 0.
      9.18032825e-02 0. 7.37704933e-02 3.27868834e-02 2.13114750e-02 0.
      0. 3.27868834e-02 3.60655747e-02 0. 0. 0. 1.47540979e-02 0. 0. 0.
      0. 0. 9.83606558e-03 0. 0. 0. 0. 0. 0. 0. 0. 4.42622937e-02 0. 0.
      0. 0. 0. 0. 0. 4.91803279e-03 0. 0. 0. 0. 0. 0.</_>
    <_>
      0. 5.55555560e-02 4.72222239e-01 5.83333313e-01 5.83333313e-01
      6.38888896e-01 3.88888896e-01 3.05555552e-01 5.00000000e-01
      8.33333313e-01 8.33333313e-01 4.16666657e-01 8.33333358e-02 0. 0.
      0. 0. 8.88888896e-01 1. 1. 9.16666687e-01 3.88888896e-01
      3.61111104e-01 4.16666657e-01 5.00000000e-01 4.72222239e-01
      4.44444448e-01 4.44444448e-01 4.16666657e-01 1.94444448e-01
      1.38888896e-01 0. 0. 0. 1.38888896e-01 2.22222224e-01
      2.22222224e-01 1.38888896e-01 0. 0. 0. 9.44444478e-01 1. 1.
      5.27777791e-01 3.05555552e-01 2.22222224e-01 2.50000000e-01
      3.61111104e-01 3.61111104e-01 3.61111104e-01 7.50000000e-01 1.
      9.72222209e-01 9.16666687e-01 0. 0. 0. 2.50000000e-01
      3.88888896e-01 5.00000000e-01 6.66666687e-01 5.55555582e-01
      5.00000000e-01 4.72222239e-01 5.00000000e-01 5.83333313e-01
      6.66666687e-01 7.22222209e-01 6.11111104e-01 4.72222239e-01
      1.66666672e-01 0. 0. 0. 9.44444478e-01 9.72222209e-01
      9.72222209e-01 6.66666687e-01 8.33333358e-02 1.11111112e-01
      1.66666672e-01 1.94444448e-01 1.94444448e-01 1.38888896e-01
      1.38888896e-01 1.38888896e-01 1.38888896e-01 1.11111112e-01 0. 0.
      0. 1.38888896e-01 3.88888896e-01 4.44444448e-01 5.27777791e-01
      4.44444448e-01 3.88888896e-01 4.44444448e-01 5.83333313e-01
      5.83333313e-01 5.83333313e-01 7.22222209e-01 6.66666687e-01
      5.00000000e-01 2.77777791e-01 0. 0. 0. 3.33333343e-01
      6.11111104e-01 8.33333313e-01 8.61111104e-01 5.00000000e-01
      3.61111104e-01 3.05555552e-01 3.33333343e-01 4.44444448e-01
      6.11111104e-01 9.16666687e-01 8.33333313e-01 5.55555582e-01
      5.55555560e-02 0. 0. 0. 0. 0. 0. 0. 0. 0. 0. 0. 0. 0.
      6.66666687e-01 8.40579748e-01 8.98550749e-01 8.84057999e-01
      8.55072498e-01 6.81159437e-01 6.52173936e-01 6.08695686e-01
      5.94202936e-01 5.50724626e-01 5.36231875e-01 5.79710126e-01
      6.37681186e-01 7.53623188e-01 9.27536249e-01 1. 9.71014500e-01
      8.98550749e-01 8.55072498e-01 7.53623188e-01 5.94202936e-01
      5.79710126e-01 6.08695686e-01 6.08695686e-01 6.23188436e-01
      6.52173936e-01 6.08695686e-01 6.08695686e-01 6.95652187e-01
      7.82608688e-01 9.42028999e-01 9.56521749e-01 8.98550749e-01
      7.39130437e-01 4.34782624e-01 2.17391312e-01 2.91530937e-01 0. 0.
      1.62866444e-03 0. 0. 4.88599343e-03 0. 4.88599343e-03 0. 0.
      6.51465775e-03 0. 0. 0. 0. 0. 0. 0. 0. 1.62866444e-03 0. 0. 0. 0.
      0. 0. 0. 0. 0. 7.16612339e-02 0. 0. 0. 0. 0. 0. 0. 0. 0. 0. 0. 0.
      0. 0. 0. 0. 0. 0. 0. 0. 0. 0. 0. 0. 0. 0. 0. 0. 0. 0. 0. 0. 0. 0.
      0. 0. 0. 0. 0. 0. 0. 0. 0. 0. 3.58306170e-02 0. 0. 0.
      1.62866444e-03 1.62866444e-03 0. 0. 0. 0. 1.62866444e-03 0.
      4.88599343e-03 0. 0. 9.77198686e-03 0. 1.62866444e-03
      6.51465775e-03 0. 8.14332254e-03 1.30293155e-02 0. 1.79153085e-02
      1.62866444e-03 8.14332254e-03 7.65472278e-02 3.58306170e-02
      1.49837121e-01 8.46905485e-02 3.15960914e-01 5.61889231e-01
      8.69706810e-01 9.13680732e-01 9.99999940e-01 7.05211699e-01
      4.70684022e-01 4.85341996e-01 1.23778500e-01 3.61563504e-01
      1.36807814e-01 3.02931577e-01 2.93159597e-02 6.18892498e-02
      8.63192156e-02 1.57980457e-01 1.62866444e-03 1.02605857e-01
      4.07166108e-02 4.88599315e-02 7.65472278e-02 2.76872963e-02
      1.62866451e-02 2.44299658e-02 1.30293155e-02 8.14332254e-03 0.
      2.11726371e-02 2.28013024e-02 6.51465775e-03 3.25732888e-03
      6.51465775e-03 0. 8.14332254e-03 3.25732888e-03 1.30293155e-02
      9.77198686e-03 4.88599343e-03 1.62866444e-03 0. 4.88599343e-03
      3.25732888e-03 4.88599343e-03 1.62866444e-03 0. 4.88599343e-03 0.
      1.62866444e-03 0. 0. 0. 6.51465775e-03 0. 0. 0. 0. 0. 0. 0.
      1.62866444e-03 4.07166108e-02 0. 0. 0. 0. 4.88599343e-03 0. 0.
      6.51465775e-03 0. 1.62866444e-03 0. 4.88599343e-03 0. 0.</_>
    <_>
      0. 0. 1. 3.21428597e-01 1.42857149e-01 1.07142866e-01
      3.57142866e-01 5.35714328e-01 4.28571463e-01 2.50000000e-01
      8.21428597e-01 7.85714328e-01 2.85714298e-01 2.85714298e-01
      7.14285731e-01 6.78571463e-01 7.14285731e-01 6.42857194e-01
      1.07142866e-01 1.42857149e-01 1.42857149e-01 7.14285746e-02
      1.78571433e-01 2.50000000e-01 2.85714298e-01 2.50000000e-01
      1.78571433e-01 1.78571433e-01 2.14285731e-01 2.14285731e-01
      2.14285731e-01 8.21428597e-01 8.21428597e-01 7.85714328e-01
      2.50000000e-01 1.07142866e-01 1.42857149e-01 1.42857149e-01
      2.14285731e-01 2.14285731e-01 1.42857149e-01 1.07142866e-01
      7.14285746e-02 7.14285746e-02 7.85714328e-01 7.85714328e-01
      7.50000060e-01 3.21428597e-01 3.21428597e-01 3.21428597e-01
      3.57142866e-01 4.28571463e-01 5.00000000e-01 6.07142866e-01
      5.35714328e-01 3.57142866e-01 2.14285731e-01 7.14285746e-02
      1.07142866e-01 7.14285746e-02 3.21428597e-01 6.07142866e-01
      7.50000060e-01 5.35714328e-01 4.28571463e-01 4.28571463e-01
      4.28571463e-01 4.28571463e-01 5.35714328e-01 7.85714328e-01
      6.42857194e-01 5.35714328e-01 1.42857149e-01 1.42857149e-01
      1.07142866e-01 1.42857149e-01 1.42857149e-01 1.42857149e-01
      1.42857149e-01 1.42857149e-01 5.00000000e-01 8.21428597e-01
      8.21428597e-01 5.00000000e-01 1.07142866e-01 1.07142866e-01
      1.07142866e-01 1.07142866e-01 3.57142873e-02 3.57142873e-02
      7.14285746e-02 1.78571433e-01 6.07142866e-01 6.42857194e-01
      7.14285731e-01 2.85714298e-01 3.92857164e-01 2.85714298e-01
      2.85714298e-01 2.85714298e-01 3.21428597e-01 7.85714328e-01
      7.14285731e-01 6.42857194e-01 1.07142866e-01 1.07142866e-01
      1.07142866e-01 4.28571463e-01 6.78571463e-01 7.50000060e-01
      5.71428597e-01 2.85714298e-01 3.21428597e-01 3.21428597e-01
      2.85714298e-01 2.50000000e-01 3.21428597e-01 4.28571463e-01
      4.28571463e-01 3.57142866e-01 7.14285746e-02 1.07142866e-01
      4.28571463e-01 8.21428597e-01 7.14285746e-02 0. 0. 0. 0. 0. 0. 0.
      7.14285746e-02 1.07142866e-01 3.57142873e-02 0. 1.68067235e-02
      2.52100863e-02 8.40336177e-03 2.60504216e-01 9.15966451e-01
      6.72268942e-02 5.88235334e-02 1.68067235e-02 2.52100863e-02
      2.68907577e-01 4.36974823e-01 4.95798349e-01 3.36134464e-01
      3.27731103e-01 3.36134464e-01 3.36134464e-01 3.44537824e-01
      3.27731103e-01 4.03361380e-01 4.28571463e-01 3.52941185e-01
      3.27731103e-01 3.44537824e-01 3.61344546e-01 3.61344546e-01
      4.03361380e-01 5.21008432e-01 4.28571463e-01 2.10084051e-01
      8.40336177e-03 8.40336177e-03 8.40336177e-03 8.40336177e-03 1.
      4.87394989e-01 3.86554629e-01 5.90778068e-02 0. 5.76368859e-03
      1.15273772e-02 0. 5.76368859e-03 2.30547544e-02 0. 1.44092215e-03
      0. 0. 5.76368859e-03 0. 8.64553265e-03 0. 0. 0. 0. 0.
      1.44092215e-03 1.15273772e-02 0. 0. 0. 0. 0. 0. 0. 0. 0.
      5.76368859e-03 0. 0. 0. 0. 0. 0. 0. 0. 0. 0. 0. 0. 0. 0. 0. 0. 0.
      0. 0. 0. 0. 0. 0. 0. 0. 0. 0. 0. 0. 0. 0. 0. 0. 0. 0. 0. 0. 0. 0.
      0. 0. 0. 0. 0. 2.88184430e-03 0. 0. 0. 0. 0. 0. 0. 1.44092215e-03
      0. 0. 0. 0. 0. 0. 4.32276633e-03 0. 0. 0. 0. 0. 2.88184430e-03 0.
      4.32276633e-03 0. 0. 2.88184430e-03 0. 1.00864554e-02
      1.44092215e-03 8.64553265e-03 1.15273772e-02 1.44092217e-02
      1.72910653e-02 4.32276651e-02 8.50144103e-02 9.79827046e-02
      2.42074922e-01 3.54466856e-01 5.25936604e-01 4.26512957e-01 1.
      6.88760757e-01 3.76080692e-01 4.71181542e-01 5.18731952e-01
      1.48414984e-01 1.46974057e-01 2.44956762e-01 1.00864552e-01
      1.98847249e-01 8.64553303e-02 6.48414940e-02 4.75504324e-02
      1.29682990e-02 1.58501435e-02 7.20461085e-03 5.33141196e-02
      3.60230543e-02 1.15273772e-02 1.15273772e-02 3.17002870e-02 0.
      2.59365980e-02 0. 8.35734829e-02 1.72910653e-02 1.44092217e-02 0.
      1.72910653e-02 3.17002870e-02 1.87319871e-02 1.87319871e-02 0. 0.
      2.30547544e-02 0. 0. 4.32276633e-03 0. 8.64553265e-03
      6.77233413e-02 0. 3.17002870e-02 8.64553265e-03 4.46685851e-02 0.
      0. 3.60230543e-02 3.31412107e-02 3.74639742e-02 5.76368859e-03 0.
      0. 3.31412107e-02 1.12391926e-01 1.44092215e-03 0. 3.31412107e-02
      1.87319871e-02 1.15273772e-02 0. 4.03458215e-02 4.32276633e-03 0.</_>
    <_>
      1. 1. 1. 8.33333313e-01 6.94444478e-01 5.55555582e-01
      4.72222239e-01 4.16666657e-01 4.44444448e-01 5.00000000e-01
      6.38888896e-01 5.55555582e-01 3.05555552e-01 4.16666657e-01
      6.38888896e-01 7.22222209e-01 8.61111104e-01 1. 1. 1. 1.
      2.22222224e-01 1.94444448e-01 1.94444448e-01 2.50000000e-01
      6.66666687e-01 7.22222209e-01 7.22222209e-01 7.22222209e-01
      7.22222209e-01 6.94444478e-01 6.11111104e-01 5.83333313e-01
      6.11111104e-01 7.22222209e-01 8.61111104e-01 1. 1. 1.
      9.44444478e-01 9.16666687e-01 9.16666687e-01 9.16666687e-01 1. 1.
      1. 9.44444478e-01 7.77777791e-01 6.66666687e-01 6.38888896e-01
      5.55555582e-01 5.83333313e-01 6.38888896e-01 6.11111104e-01
      6.66666687e-01 6.11111104e-01 6.38888896e-01 5.00000000e-01
      5.83333313e-01 6.38888896e-01 8.05555582e-01 1. 1. 1.
      9.44444478e-01 2.22222224e-01 1.94444448e-01 1.94444448e-01
      6.38888896e-01 7.50000000e-01 7.22222209e-01 7.50000000e-01
      7.22222209e-01 7.50000000e-01 7.77777791e-01 6.11111104e-01
      1.94444448e-01 1.66666672e-01 2.22222224e-01 8.88888896e-01 1. 1.
      1. 7.50000000e-01 5.83333313e-01 5.00000000e-01 4.72222239e-01
      5.27777791e-01 5.83333313e-01 6.38888896e-01 6.66666687e-01
      6.38888896e-01 6.66666687e-01 6.11111104e-01 5.55555582e-01
      6.66666687e-01 7.77777791e-01 1. 1. 1. 1. 9.16666687e-01
      8.88888896e-01 8.33333313e-01 7.77777791e-01 8.05555582e-01
      8.05555582e-01 5.27777791e-01 3.61111104e-01 3.33333343e-01
      3.33333343e-01 6.11111104e-01 6.66666687e-01 7.22222209e-01
      8.05555582e-01 9.44444478e-01 1. 1. 1. 9.16666687e-01
      5.00000000e-01 4.44444448e-01 3.61111104e-01 5.83333313e-01
      6.66666687e-01 6.94444478e-01 6.94444478e-01 6.94444478e-01
      6.66666687e-01 6.11111104e-01 4.44444448e-01 5.00000000e-01
      5.83333313e-01 7.50000000e-01 1. 1. 9.26470578e-01 9.26470578e-01
      9.33823526e-01 9.41176474e-01 7.05882370e-01 5.00000000e-01
      4.41176474e-01 4.70588237e-01 6.61764681e-01 6.91176474e-01
      7.35294104e-01 7.79411793e-01 7.94117630e-01 7.57352948e-01
      7.50000000e-01 6.69117630e-01 5.80882370e-01 5.36764681e-01
      5.36764681e-01 5.88235319e-01 6.69117630e-01 6.69117630e-01
      6.69117630e-01 6.69117630e-01 6.69117630e-01 7.05882370e-01
      6.98529422e-01 6.91176474e-01 6.76470578e-01 5.88235319e-01
      4.77941185e-01 4.92647052e-01 5.80882370e-01 9.48529422e-01 1. 1.
      0. 0. 0. 0. 0. 0. 0. 0. 0. 0. 0. 0. 0. 0. 0. 0. 4.54132631e-03
      3.63306096e-03 1.81653048e-03 6.44868314e-02 1.48955494e-01
      2.51589477e-01 8.13805640e-01 8.11080873e-01 1. 3.73297006e-01
      6.43051803e-01 1.93460494e-01 6.26702979e-02 4.63215262e-02
      1.99818350e-02 0. 7.26612192e-03 9.08265240e-04 0. 0. 0. 0. 0. 0.
      0. 0. 0. 0. 0. 0. 0. 0. 0. 0. 0. 0. 0. 0. 0. 0. 0. 0. 0. 0. 0. 0.
      0. 0. 0. 0. 0. 0. 0. 0. 0. 0. 0. 0. 0. 0. 0. 0. 0. 0. 0. 0. 0. 0.
      0. 0. 0. 0. 0. 0. 0. 0. 0. 0. 0. 0. 0. 0. 0. 0. 0. 0. 0. 0. 0. 0.
      0. 0. 0. 0. 0. 0. 0. 0. 0. 0. 0. 0. 0. 0. 0. 0. 0. 0. 0. 0. 0. 0.
      0. 0. 0. 0. 0. 0. 0. 0. 0. 0. 0. 0. 0. 0. 0. 0. 0. 0. 0. 0. 0. 0.
      0. 0. 0. 0. 0. 0. 0. 0. 0. 0. 0. 0. 0. 0. 0. 0. 0. 0. 0. 0. 0. 0.
      0. 0. 0. 0. 0. 0. 0. 0.</_>
    <_>
      0. 0. 0. 0. 0. 0. 0. 0. 0. 0. 0. 0. 0. 0. 2.94117659e-01
      1.76470593e-01 2.05882356e-01 2.94117659e-01 2.94117659e-01
      2.05882356e-01 2.05882356e-01 1.76470593e-01 1.76470593e-01
      1.47058830e-01 2.05882356e-01 2.64705896e-01 5.29411793e-01
      9.41176474e-01 9.41176474e-01 1.47058830e-01 1.76470593e-01
      5.88235296e-02 1.17647059e-01 3.23529422e-01 3.23529422e-01
      2.94117659e-01 3.23529422e-01 2.64705896e-01 0. 0. 0. 0.
      8.82352948e-01 9.41176474e-01 8.23529422e-01 8.23529422e-01
      8.52941155e-01 9.70588267e-01 9.70588267e-01 1. 7.05882370e-01
      5.88235319e-01 4.11764711e-01 3.52941185e-01 4.70588237e-01
      4.11764711e-01 3.82352948e-01 4.11764711e-01 3.52941185e-01
      4.11764711e-01 5.29411793e-01 7.05882370e-01 1. 9.70588267e-01
      8.82352948e-01 8.52941155e-01 8.52941155e-01 8.52941155e-01
      6.17647052e-01 4.41176474e-01 2.35294119e-01 1.47058830e-01
      2.05882356e-01 5.58823526e-01 6.47058845e-01 7.94117630e-01 1. 1.
      7.94117630e-01 6.76470578e-01 5.88235319e-01 4.11764711e-01
      4.70588237e-01 4.41176474e-01 3.82352948e-01 4.11764711e-01
      3.82352948e-01 3.52941185e-01 4.70588237e-01 5.58823526e-01
      6.47058845e-01 8.52941155e-01 4.11764711e-01 8.82352963e-02
      5.88235296e-02 0. 0. 4.70588237e-01 5.29411793e-01 6.47058845e-01
      6.17647052e-01 1.76470593e-01 2.35294119e-01 3.23529422e-01
      3.82352948e-01 9.70588267e-01 1. 1. 1. 1. 1. 2.64705896e-01
      1.76470593e-01 1.76470593e-01 2.05882356e-01 4.11764711e-01 1. 1.
      1. 1. 2.05882356e-01 0. 0. 0. 0. 0. 0. 0. 0. 0. 0. 0. 0. 0. 0. 0.
      0. 4.82758611e-01 9.42528725e-01 9.88505721e-01 7.70114958e-01
      5.86206913e-01 4.94252861e-01 4.48275864e-01 4.02298838e-01
      5.17241359e-01 5.40229857e-01 5.74712634e-01 5.40229857e-01
      5.40229857e-01 5.40229857e-01 5.28735638e-01 4.25287366e-01
      4.25287366e-01 4.25287366e-01 4.94252861e-01 5.28735638e-01
      6.32183909e-01 6.43678188e-01 6.32183909e-01 6.09195411e-01
      6.32183909e-01 5.86206913e-01 5.63218415e-01 5.86206913e-01
      6.43678188e-01 7.12643683e-01 7.93103456e-01 9.77011502e-01 1.
      8.73563230e-01 0. 5.92417084e-03 0. 1.18483417e-03 4.73933667e-03
      0. 4.73933667e-03 7.10900500e-03 3.55450250e-03 1.06635075e-02
      1.18483417e-02 5.92417084e-03 2.60663517e-02 1.89573467e-02
      4.02843617e-02 3.67298573e-02 4.62085307e-02 6.99052140e-02
      1.29146919e-01 1.40995264e-01 2.54739344e-01 4.52606648e-01
      5.18957376e-01 9.19431329e-01 1. 6.72985792e-01 3.51895750e-01
      5.33175394e-02 2.36966833e-03 4.73933667e-03 4.73933667e-03
      3.08056884e-02 0. 2.36966833e-03 0. 2.36966833e-03 1.18483417e-02
      5.92417084e-03 0. 0. 0. 0. 0. 1.18483417e-03 2.36966833e-03 0. 0.
      0. 0. 5.92417084e-03 0. 1.18483417e-02 1.18483417e-03 0. 0. 0.
      3.55450250e-03 1.18483417e-03 0. 0. 0. 0. 0. 0. 0. 0. 0.
      1.06635075e-02 0. 1.18483417e-03 0. 1.18483417e-03 0. 0.
      2.36966833e-03 0. 5.92417084e-03 0. 0. 0. 0. 5.92417084e-03 0. 0.
      1.65876783e-02 0. 1.18483417e-03 0. 8.29383917e-03 0. 0.
      1.54028442e-02 0. 1.18483417e-03 8.29383917e-03 0. 1.18483417e-02
      3.43601927e-02 0. 4.73933667e-02 9.47867334e-03 2.36966833e-03
      1.06635079e-01 2.25118492e-02 1.81279629e-01 1.19668253e-01
      7.10900500e-02 7.34597147e-02 2.60663517e-02 2.60663517e-02
      1.77725125e-02 3.08056884e-02 1.77725125e-02 1.06635075e-02
      3.55450250e-03 1.06635075e-02 1.18483417e-03 0. 0. 0. 0.
      9.47867334e-03 0. 0. 0. 0. 0. 3.55450250e-03 0. 0. 0. 0. 0. 0. 0.
      0. 0. 0. 0. 0. 0. 4.73933667e-03 0. 0. 0. 0. 0. 0. 0. 0. 0. 0. 0.
      0. 0. 0. 0. 0. 0. 0. 0. 0. 0. 0. 0. 0. 0. 0. 0. 0. 0. 0. 0. 0. 0.
      0. 0. 0. 0. 0. 0.</_>
    <_>
      9.37500000e-02 3.12500000e-02 9.37500000e-02 9.37500000e-02
      3.12500000e-02 6.25000000e-02 9.37500000e-02 0. 0. 3.12500000e-02
      0. 0. 0. 0. 0. 0. 0. 0. 0. 0. 0. 0. 6.87500000e-01 6.87500000e-01
      6.25000000e-02 3.75000000e-01 7.18750000e-01 6.25000000e-01
      7.81250000e-01 6.25000000e-01 4.68750000e-01 8.75000000e-01
      7.81250000e-01 4.68750000e-01 5.62500000e-01 5.93750000e-01
      4.37500000e-01 6.25000000e-01 9.06250000e-01 8.75000000e-01
      6.25000000e-01 3.75000000e-01 5.62500000e-01 5.62500000e-01
      6.25000000e-01 6.56250000e-01 7.18750000e-01 5.31250000e-01
      5.00000000e-01 6.25000000e-01 9.06250000e-01 9.06250000e-01
      9.68750000e-01 9.06250000e-01 8.12500000e-01 7.81250000e-01
      8.43750000e-01 9.06250000e-01 6.87500000e-01 5.62500000e-01
      5.93750000e-01 5.93750000e-01 8.43750000e-01 8.75000000e-01
      7.81250000e-01 5.00000000e-01 6.56250000e-01 9.06250000e-01
      9.37500000e-01 9.06250000e-01 8.75000000e-01 7.81250000e-01
      7.81250000e-01 7.50000000e-01 8.12500000e-01 8.12500000e-01
      7.81250000e-01 8.12500000e-01 7.18750000e-01 3.43750000e-01
      9.06250000e-01 9.37500000e-01 9.37500000e-01 4.37500000e-01
      4.68750000e-01 7.50000000e-01 6.25000000e-01 4.68750000e-01
      9.68750000e-01 9.06250000e-01 7.18750000e-01 6.25000000e-02
      2.50000000e-01 3.75000000e-01 4.06250000e-01 5.31250000e-01
      5.62500000e-01 5.00000000e-01 4.37500000e-01 6.25000000e-01
      7.81250000e-01 8.75000000e-01 8.43750000e-01 5.62500000e-01
      5.31250000e-01 8.43750000e-01 9.06250000e-01 9.06250000e-01
      8.12500000e-01 8.43750000e-01 9.06250000e-01 8.43750000e-01
      8.12500000e-01 9.06250000e-01 9.06250000e-01 7.81250000e-01
      4.68750000e-01 1. 9.06250000e-01 0. 0. 0. 0. 0. 0. 6.25000000e-02
      9.37500000e-02 9.37500000e-02 9.37500000e-02 1.25000000e-01
      1.25000000e-01 0. 6.25000000e-02 1.25000000e-01 1.25000000e-01 0.
      0. 0. 8.42105269e-01 1. 7.47368455e-01 7.15789497e-01
      8.00000012e-01 8.21052670e-01 8.21052670e-01 9.05263186e-01
      9.05263186e-01 7.78947413e-01 7.57894754e-01 8.63157928e-01
      7.68421113e-01 7.36842155e-01 7.89473712e-01 8.63157928e-01
      8.31578970e-01 7.89473712e-01 8.10526371e-01 6.73684239e-01
      6.21052682e-01 7.05263197e-01 6.10526323e-01 6.21052682e-01
      5.89473724e-01 6.31578982e-01 6.52631581e-01 6.00000024e-01
      5.05263209e-01 3.26315790e-01 3.89473706e-01 4.00000006e-01
      2.52631605e-01 1.26315802e-01 5.28905280e-02 0. 0. 0. 0. 0. 0. 0.
      0. 0. 0. 0. 0. 0. 0. 0. 0. 0. 0. 0. 9.84009821e-03 0. 0. 0.
      1.23001228e-03 0. 0. 0. 0. 0. 2.33702324e-02 0. 0. 0. 0. 0.
      2.46002455e-03 0. 0. 0. 0. 0. 0. 0. 0. 3.69003695e-03 0. 0.
      4.92004910e-03 0. 7.38007389e-03 2.46002455e-03 3.69003695e-03 0.
      0. 3.69003695e-03 7.38007389e-03 0. 0. 0. 1.59901604e-02 0. 0. 0.
      0. 0. 6.15006126e-03 0. 0. 0. 0. 0. 0. 0. 0. 2.18942180e-01 0. 0.
      0. 1.23001228e-03 1.35301352e-02 0. 0. 1.13161132e-01
      1.23001228e-03 4.92004910e-03 0. 1.10701108e-02 1.23001228e-03 0.
      7.13407099e-02 1.23001228e-03 6.15006126e-03 1.23001225e-02
      3.69003695e-03 5.90405911e-02 2.97662973e-01 9.84009821e-03
      7.25707263e-02 4.42804433e-02 8.85608867e-02 2.77982771e-01
      2.76752770e-01 7.40467370e-01 7.22017229e-01 1. 6.72816694e-01
      3.08733076e-01 7.01107010e-02 4.67404649e-02 4.85854834e-01
      3.93603928e-02 8.61008558e-03 1.59901604e-02 3.69003676e-02
      9.84009821e-03 7.38007389e-03 0. 0. 0. 6.02706000e-02 0. 0. 0. 0.
      6.15006126e-03 2.33702324e-02 0. 0. 0. 0. 0. 1.23001228e-03 0. 0.
      0. 0. 0. 0. 0. 1.47601478e-02 0. 0. 0. 0. 0. 0. 0. 0. 0. 0. 0. 0.
      0. 0. 0. 0. 0. 0. 0. 0. 0. 0. 0. 0. 1.84501838e-02 0. 0. 0. 0. 0.
      0. 0. 1.23001228e-03 0. 0. 0. 0. 0. 0.</_>
    <_>
      9.37500000e-01 9.68750000e-01 9.68750000e-01 9.68750000e-01 1. 1.
      9.68750000e-01 1. 1. 1. 1. 1. 1. 1. 1. 1. 1.25000000e-01
      3.12500000e-02 3.12500000e-02 3.12500000e-02 6.56250000e-01
      7.18750000e-01 6.25000000e-02 6.25000000e-02 6.25000000e-02
      1.25000000e-01 1.56250000e-01 1.87500000e-01 2.50000000e-01
      6.25000000e-02 6.25000000e-02 1.25000000e-01 1.87500000e-01
      2.18750000e-01 1.25000000e-01 3.12500000e-02 6.25000000e-02
      6.25000000e-02 5.93750000e-01 6.56250000e-01 4.37500000e-01
      1.56250000e-01 1.56250000e-01 1.56250000e-01 1.56250000e-01
      1.56250000e-01 2.18750000e-01 1.56250000e-01 9.37500000e-02
      3.12500000e-02 3.12500000e-02 3.12500000e-02 3.12500000e-02
      3.12500000e-02 3.12500000e-02 3.12500000e-02 3.12500000e-02
      3.12500000e-02 3.12500000e-02 5.93750000e-01 5.93750000e-01
      1.56250000e-01 1.56250000e-01 1.87500000e-01 1.87500000e-01
      1.56250000e-01 1.87500000e-01 3.43750000e-01 6.25000000e-01
      5.62500000e-01 3.12500000e-02 3.12500000e-02 3.12500000e-02
      4.37500000e-01 5.00000000e-01 2.50000000e-01 1.56250000e-01
      1.56250000e-01 2.18750000e-01 2.18750000e-01 2.18750000e-01
      2.18750000e-01 4.06250000e-01 3.75000000e-01 3.12500000e-02
      3.12500000e-02 3.12500000e-02 3.12500000e-02 1.87500000e-01
      2.18750000e-01 9.37500000e-02 1.56250000e-01 2.50000000e-01
      2.50000000e-01 2.81250000e-01 3.12500000e-01 4.06250000e-01
      2.81250000e-01 6.25000000e-02 3.12500000e-02 3.12500000e-02
      3.12500000e-02 6.25000000e-02 1.87500000e-01 2.50000000e-01
      2.18750000e-01 2.18750000e-01 2.50000000e-01 2.18750000e-01
      2.18750000e-01 2.50000000e-01 3.12500000e-01 1.87500000e-01 0. 0.
      0. 0. 3.75000000e-01 4.37500000e-01 1.87500000e-01 1.56250000e-01
      1.56250000e-01 1.25000000e-01 1.25000000e-01 1.87500000e-01
      3.43750000e-01 3.12500000e-01 3.12500000e-02 0. 0. 3.75000000e-01
      5.93750000e-01 0. 0. 6.25000000e-02 4.68750000e-01 1.
      1.04166672e-01 1.97916672e-01 1.87500000e-01 1.87500000e-01
      1.77083343e-01 2.50000000e-01 2.18750000e-01 2.08333343e-01
      1.97916672e-01 1.97916672e-01 5.83333373e-01 6.66666687e-01
      4.58333343e-01 4.27083343e-01 4.06250000e-01 4.37500000e-01
      4.47916687e-01 4.68750000e-01 6.35416687e-01 6.14583373e-01
      4.37500000e-01 3.95833343e-01 4.37500000e-01 4.27083343e-01
      4.89583343e-01 5.00000000e-01 5.00000000e-01 6.45833373e-01
      4.37500000e-01 1.66666672e-01 1.77083343e-01 1.04166672e-01
      5.20833358e-02 0. 0. 1.25944579e-03 0. 0. 0. 0. 0. 0. 0. 0. 0. 0.
      0. 0. 0. 0. 0. 0. 0. 0. 0. 2.51889159e-03 0. 0. 0. 0. 0. 0. 0. 0.
      0. 1.13350125e-02 0. 0. 0. 0. 0. 0. 0. 0. 0. 0. 0. 0. 0. 0. 0. 0.
      0. 0. 0. 1.63727961e-02 0. 0. 0. 0. 0. 0. 0. 0. 0. 0. 0. 0. 0. 0.
      0. 1.25944577e-02 0. 0. 1.25944579e-03 2.14105789e-02
      3.77833750e-03 3.77833750e-03 8.81612021e-03 3.65239270e-02
      6.92695156e-02 1.13350125e-02 0. 0. 3.02267000e-02 1.41057923e-01
      0. 0. 7.55667463e-02 8.81612021e-03 2.64483616e-02 0.
      5.41561693e-02 2.51889159e-03 0. 1.07052892e-01 0. 0.
      1.25944577e-02 0. 2.01511327e-02 2.65743077e-01 0. 2.51889154e-02
      0. 0. 8.94206539e-02 5.03778318e-03 2.73299724e-01 6.04534000e-02
      4.28211577e-02 3.19899231e-01 6.54911846e-02 7.55667463e-02
      3.12342554e-01 3.80352616e-01 5.99496186e-01 7.39294708e-01
      1.83879092e-01 9.99999940e-01 2.02770770e-01 4.74811077e-01
      1.46095708e-01 4.65994962e-02 2.14105789e-02 1.02015108e-01 0.
      1.00755664e-02 2.51889159e-03 2.51889159e-03 1.00755664e-02
      2.26700250e-02 0. 1.25944579e-03 0. 0. 0. 1.25944579e-03 0. 0. 0.
      0. 0. 0. 0. 5.03778318e-03 0. 0. 0. 0. 0. 0. 0. 0. 0. 0. 0. 0. 0.
      0. 0. 0. 0. 0. 0. 0. 0. 0. 0. 0. 0. 0. 0. 0. 0. 0. 0. 0. 0. 0. 0.
      0. 0. 0. 0.</_>
    <_>
      7.22222209e-01 9.44444478e-01 1. 1. 9.16666687e-01 5.00000000e-01
      3.05555552e-01 7.77777791e-01 8.05555582e-01 8.05555582e-01
      8.33333313e-01 8.33333313e-01 8.33333313e-01 8.88888896e-01
      8.88888896e-01 8.88888896e-01 8.61111104e-01 7.77777791e-01
      5.83333313e-01 4.44444448e-01 3.05555552e-01 0. 5.55555560e-02
      2.22222224e-01 4.44444448e-01 5.00000000e-01 6.11111104e-01
      7.50000000e-01 7.77777791e-01 8.05555582e-01 8.61111104e-01
      8.88888896e-01 9.16666687e-01 8.33333313e-01 6.66666687e-01
      5.83333313e-01 4.16666657e-01 1.66666672e-01 0. 0. 0. 0. 0.
      2.77777780e-02 0. 0. 8.33333313e-01 9.16666687e-01 8.88888896e-01
      8.61111104e-01 8.33333313e-01 8.05555582e-01 4.16666657e-01
      4.16666657e-01 5.00000000e-01 4.44444448e-01 5.55555582e-01
      5.00000000e-01 4.72222239e-01 4.16666657e-01 3.61111104e-01
      2.22222224e-01 5.55555560e-02 2.77777780e-02 1.94444448e-01
      2.50000000e-01 2.77777791e-01 2.77777791e-01 3.05555552e-01
      2.22222224e-01 1.94444448e-01 1.94444448e-01 2.50000000e-01
      4.72222239e-01 7.77777791e-01 8.05555582e-01 8.33333313e-01
      7.77777791e-01 7.22222209e-01 1.66666672e-01 0. 0. 0. 0. 0.
      5.83333313e-01 8.05555582e-01 8.61111104e-01 8.33333313e-01
      8.61111104e-01 8.05555582e-01 1.38888896e-01 0. 0. 0. 0. 0.
      8.33333358e-02 2.77777791e-01 4.16666657e-01 6.11111104e-01
      7.22222209e-01 8.05555582e-01 8.33333313e-01 7.50000000e-01
      7.50000000e-01 6.94444478e-01 7.50000000e-01 6.66666687e-01
      6.38888896e-01 5.55555582e-01 5.27777791e-01 3.61111104e-01
      1.38888896e-01 0. 1.66666672e-01 1.94444448e-01 2.50000000e-01
      2.22222224e-01 5.27777791e-01 6.66666687e-01 7.50000000e-01
      8.88888896e-01 8.61111104e-01 8.88888896e-01 6.11111104e-01
      4.72222239e-01 3.88888896e-01 3.05555552e-01 2.22222224e-01
      5.00000000e-01 1. 1. 9.44444478e-01 7.50000000e-01 3.88888896e-01
      4.88888890e-01 3.44444454e-01 6.11111104e-01 8.11111152e-01
      8.77777815e-01 9.44444478e-01 9.55555558e-01 9.88888919e-01 1.
      9.22222257e-01 8.33333373e-01 8.44444454e-01 8.33333373e-01
      8.11111152e-01 8.88888896e-01 9.00000036e-01 9.00000036e-01
      9.11111116e-01 9.00000036e-01 9.00000036e-01 9.11111116e-01
      8.55555594e-01 8.22222233e-01 8.00000012e-01 8.11111152e-01
      8.22222233e-01 8.33333373e-01 8.44444454e-01 8.44444454e-01
      8.11111152e-01 6.99999988e-01 5.77777803e-01 4.22222227e-01
      1.88888893e-01 1.33333340e-01 2.22222224e-01 1. 0. 4.02515717e-02
      1.09433964e-01 0. 3.00628930e-01 5.20754695e-01 0. 2.37735853e-01
      1.13207549e-02 7.54716992e-03 4.60377365e-01 0. 3.71069163e-01
      7.54716992e-02 1.25786162e-03 3.27044018e-02 0. 0. 4.27672938e-02
      2.77987421e-01 1.00628929e-02 0. 0. 9.68553424e-02 1.50943398e-02
      0. 0. 0. 0. 1.49685532e-01 0. 0. 0. 0. 0. 5.91194965e-02 0. 0. 0.
      0. 0. 2.51572318e-02 0. 0. 0. 0. 0. 0. 0. 5.91194965e-02 0. 0. 0.
      0. 0. 0. 0. 0. 0. 2.51572323e-03 0. 0. 0. 0. 0. 8.80503096e-03 0.
      0. 0. 0. 0. 0. 0. 0. 2.66666651e-01 0. 0. 0. 0. 1.13207549e-02 0.
      0. 2.26415098e-02 0. 0. 0. 0. 0. 0. 0. 0. 0. 0. 0. 0.
      3.14465389e-02 0. 0. 0. 0. 0. 0. 2.51572323e-03 0. 0. 0. 0. 0. 0.
      7.67295584e-02 0. 0. 0. 2.51572323e-03 0. 0. 0. 0. 0.
      1.72327042e-01 0. 0. 0. 0. 0. 7.54716992e-03 0. 0. 0. 0. 0. 0. 0.
      0. 1.25786162e-03 0. 0. 0. 0. 1.08176097e-01 0. 0. 0. 0. 0. 0. 0.
      0. 0. 0. 0. 0. 0. 0. 0. 5.91194965e-02 0. 0. 0. 4.15094346e-02 0.
      0. 3.14465389e-02 0. 4.99371052e-01 0. 0. 0. 5.66037744e-02
      2.65408814e-01 0. 0. 2.61635214e-01 3.14465389e-02 4.52830195e-02
      0. 2.27672949e-01 2.01257858e-02 0.</_>
    <_>
      0. 0. 2.33333349e-01 7.66666710e-01 0. 0. 6.00000024e-01
      7.66666710e-01 7.66666710e-01 7.66666710e-01 6.66666687e-01
      5.66666722e-01 5.66666722e-01 9.00000036e-01 7.66666710e-01
      7.00000048e-01 7.33333349e-01 7.33333349e-01 4.66666698e-01
      1.66666672e-01 1.66666672e-01 1.66666672e-01 5.00000000e-01
      7.66666710e-01 8.33333373e-01 8.66666734e-01 8.33333373e-01
      4.33333367e-01 1.00000009e-01 1.00000009e-01 5.00000000e-01
      6.33333385e-01 6.33333385e-01 6.33333385e-01 6.33333385e-01
      6.00000024e-01 5.33333361e-01 4.33333367e-01 5.66666722e-01
      6.66666687e-01 7.33333349e-01 7.33333349e-01 5.66666722e-01
      5.66666722e-01 3.66666675e-01 7.00000048e-01 8.33333373e-01 1.
      9.00000036e-01 7.66666710e-01 3.00000012e-01 3.33333343e-01
      8.00000072e-01 8.00000072e-01 8.00000072e-01 7.33333349e-01
      2.00000018e-01 6.66666701e-02 1.33333340e-01 7.66666710e-01
      9.00000036e-01 9.00000036e-01 7.00000048e-01 7.66666710e-01
      7.66666710e-01 7.33333349e-01 6.66666687e-01 8.00000072e-01
      7.00000048e-01 6.00000024e-01 6.00000024e-01 6.00000024e-01
      5.66666722e-01 5.33333361e-01 6.00000024e-01 5.33333361e-01
      5.66666722e-01 6.33333385e-01 6.66666687e-01 6.00000024e-01
      5.33333361e-01 6.66666687e-01 7.00000048e-01 7.00000048e-01
      7.66666710e-01 8.33333373e-01 7.33333349e-01 7.66666710e-01
      5.66666722e-01 5.66666722e-01 5.66666722e-01 7.33333349e-01
      7.66666710e-01 7.66666710e-01 7.00000048e-01 2.00000018e-01
      1.00000009e-01 3.33333343e-01 5.66666722e-01 6.33333385e-01
      7.00000048e-01 7.00000048e-01 2.66666681e-01 2.33333349e-01
      4.00000036e-01 6.33333385e-01 5.33333361e-01 5.66666722e-01
      8.00000072e-01 7.66666710e-01 6.66666687e-01 5.66666722e-01
      1.66666672e-01 2.00000018e-01 2.33333349e-01 7.33333349e-01
      7.33333349e-01 7.66666710e-01 7.00000048e-01 7.66666710e-01
      6.66666687e-01 6.00000024e-01 5.33333361e-01 6.00000024e-01
      7.66666710e-01 8.33333373e-01 8.33333373e-01 7.33333349e-01
      4.00000036e-01 6.66666701e-02 2.00000018e-01 9.00000036e-01
      9.33333397e-01 0. 0. 0. 7.76699036e-02 1.84466019e-01
      4.85436916e-02 5.82524277e-02 2.52427191e-01 6.31067991e-01
      9.02912617e-01 9.70873773e-01 1. 9.90291297e-01 9.12621379e-01
      8.83495152e-01 8.64077687e-01 9.12621379e-01 8.73786390e-01
      8.83495152e-01 9.41747606e-01 9.32038844e-01 9.32038844e-01
      8.64077687e-01 7.86407769e-01 7.08737850e-01 6.50485456e-01
      6.50485456e-01 8.05825233e-01 8.73786390e-01 8.34951460e-01
      7.18446612e-01 4.56310689e-01 2.71844655e-01 1.94174767e-01
      4.56310689e-01 7.86407769e-01 3.20388347e-01 0. 0. 2.04819277e-01
      0. 0. 0. 0. 0. 2.89156623e-02 0. 0. 0. 0. 4.81927721e-03 0.
      1.20481933e-02 0. 2.40963860e-03 0. 0. 0. 0. 3.85542177e-02 0. 0.
      4.81927721e-03 4.81927721e-03 0. 0. 0. 0. 0. 3.37349400e-02 0. 0.
      0. 0. 2.40963860e-03 7.22891558e-03 0. 0. 0. 0. 0. 0. 0. 0. 0. 0.
      0. 0. 0. 5.30120507e-02 0. 0. 0. 0. 0. 0. 0. 0. 0. 1.20481933e-02
      0. 0. 0. 0. 0. 7.22891558e-03 0. 0. 0. 7.22891558e-03 0. 0. 0. 0.
      1.20481931e-01 0. 0. 0. 4.81927721e-03 1.92771088e-02 0. 0.
      2.16867477e-02 0. 0. 0. 1.44578312e-02 0. 0. 3.61445807e-02 0. 0.
      9.63855442e-03 0. 4.81927721e-03 9.15662646e-02 0. 3.61445807e-02
      4.81927721e-03 0. 6.26506060e-02 4.57831323e-02 3.49397600e-01
      1.75903618e-01 3.75903636e-01 7.34939754e-01 7.46987939e-01
      5.97590387e-01 1. 7.51807272e-01 9.34939802e-01 5.66265047e-01
      4.86746997e-01 4.50602412e-01 4.16867465e-01 4.67469901e-01
      9.63855442e-03 5.54216877e-02 2.40963865e-02 7.22891569e-01 0.
      6.02409653e-02 7.22891558e-03 2.31325299e-01 3.20481926e-01
      1.30120486e-01 2.40963860e-03 6.02409653e-02 1.44578312e-02
      1.46987960e-01 0. 1.01204820e-01 1.44578323e-01 0. 2.16867477e-02
      4.81927721e-03 0. 4.09638546e-02 0. 8.43373537e-02 6.74698800e-02
      1.44578312e-02 0. 4.81927721e-03 5.78313246e-02 3.37349400e-02
      4.81927721e-03 0. 0. 2.89156623e-02 0. 2.40963860e-03
      2.40963865e-02 0. 1.20481933e-02 9.63855460e-02 4.81927721e-03
      1.68674700e-02 9.63855442e-03 3.37349400e-02 4.81927721e-03 0.
      1.20481933e-02 2.65060253e-02 7.46987984e-02 0. 0. 0.
      1.20481933e-02 5.06024100e-02 0. 0. 5.78313246e-02 0. 0. 0.
      1.20481933e-02 0. 0.</_>
    <_>
      3.12500000e-01 4.68750000e-01 7.81250000e-01 8.43750000e-01
      8.43750000e-01 8.75000000e-01 8.75000000e-01 8.12500000e-01
      7.18750000e-01 8.43750000e-01 9.06250000e-01 9.06250000e-01
      7.81250000e-01 5.00000000e-01 4.37500000e-01 3.75000000e-01
      1.25000000e-01 1.25000000e-01 1.25000000e-01 3.12500000e-01
      4.06250000e-01 5.62500000e-01 6.56250000e-01 7.50000000e-01
      7.81250000e-01 7.18750000e-01 6.56250000e-01 7.50000000e-01
      8.12500000e-01 8.75000000e-01 8.75000000e-01 7.18750000e-01
      6.25000000e-01 4.68750000e-01 3.12500000e-01 1.25000000e-01
      1.25000000e-01 1.25000000e-01 1.25000000e-01 1.25000000e-01
      1.25000000e-01 1.56250000e-01 1.25000000e-01 1.25000000e-01
      1.25000000e-01 3.12500000e-01 4.37500000e-01 5.31250000e-01
      6.25000000e-01 6.56250000e-01 6.25000000e-01 6.87500000e-01
      6.87500000e-01 7.18750000e-01 7.50000000e-01 7.81250000e-01
      9.37500000e-01 8.43750000e-01 7.50000000e-01 6.56250000e-01
      5.00000000e-01 1.25000000e-01 1.25000000e-01 1.25000000e-01
      1.25000000e-01 1.25000000e-01 1.56250000e-01 1.25000000e-01
      1.25000000e-01 9.37500000e-01 9.68750000e-01 1. 9.68750000e-01
      8.75000000e-01 1.25000000e-01 1.25000000e-01 1.25000000e-01
      1.25000000e-01 1.56250000e-01 1.56250000e-01 1.87500000e-01
      1.56250000e-01 4.68750000e-01 6.25000000e-01 7.18750000e-01
      7.81250000e-01 8.12500000e-01 7.81250000e-01 7.81250000e-01
      7.81250000e-01 6.87500000e-01 6.87500000e-01 7.18750000e-01
      8.43750000e-01 7.18750000e-01 5.31250000e-01 4.68750000e-01
      3.75000000e-01 1.25000000e-01 1.87500000e-01 4.37500000e-01
      6.25000000e-01 7.18750000e-01 8.43750000e-01 9.06250000e-01
      8.75000000e-01 7.81250000e-01 7.81250000e-01 7.18750000e-01
      6.56250000e-01 6.87500000e-01 6.87500000e-01 7.50000000e-01
      5.62500000e-01 4.68750000e-01 4.06250000e-01 2.81250000e-01
      9.37500000e-02 9.37500000e-02 4.37500000e-01 7.50000000e-01
      8.12500000e-01 8.75000000e-01 8.75000000e-01 7.18750000e-01
      5.93750000e-01 5.93750000e-01 5.93750000e-01 5.93750000e-01
      6.87500000e-01 9.06250000e-01 8.75000000e-01 8.12500000e-01
      7.18750000e-01 4.68750000e-01 9.37500000e-02 5.00000000e-01 1.
      9.92647052e-01 8.08823526e-01 7.35294104e-01 1.17647059e-01
      8.82352963e-02 1.02941178e-01 1.54411763e-01 3.30882341e-01
      4.11764711e-01 4.92647052e-01 5.00000000e-01 4.92647052e-01
      4.11764711e-01 3.75000000e-01 3.52941185e-01 3.89705896e-01
      5.07352948e-01 5.58823526e-01 5.80882370e-01 6.02941155e-01
      5.80882370e-01 4.92647052e-01 4.70588237e-01 4.70588237e-01
      4.77941185e-01 5.29411793e-01 5.73529422e-01 5.73529422e-01
      6.17647052e-01 5.95588267e-01 5.29411793e-01 4.85294133e-01
      3.75000000e-01 2.57352948e-01 2.39999995e-01 0. 0. 3.63636366e-03
      0. 3.63636366e-03 1.05454549e-01 0. 1.09090907e-02 0. 0.
      1.05454549e-01 0. 1.09090909e-01 0. 1.09090907e-02 7.27272732e-03
      3.63636366e-03 7.27272732e-03 4.72727269e-02 1.12727277e-01
      4.36363630e-02 1.45454546e-02 3.63636366e-03 1.09090909e-01
      6.54545426e-02 3.63636366e-03 0. 3.63636366e-03 0. 2.29090914e-01
      0. 7.27272732e-03 0. 2.18181815e-02 6.54545426e-02 8.36363658e-02
      3.63636366e-03 3.63636366e-03 0. 2.90909093e-02 0. 2.14545459e-01
      6.90909103e-02 0. 0. 7.27272732e-03 0. 2.54545454e-02
      3.63636366e-03 1.89090908e-01 5.09090908e-02 1.45454546e-02
      3.63636366e-03 0. 1.59999996e-01 1.81818176e-02 3.63636366e-03 0.
      0. 6.54545426e-02 0. 0. 7.27272732e-03 0. 7.27272732e-03
      2.39999995e-01 0. 7.27272732e-03 3.63636366e-03 1.12727277e-01
      3.63636366e-03 0. 2.90909093e-02 3.27272713e-02 2.76363641e-01
      3.27272713e-02 3.63636366e-03 1.09090907e-02 6.18181825e-02
      5.09090900e-01 1.45454546e-02 3.63636366e-03 4.61818188e-01
      1.52727276e-01 6.18181825e-02 7.27272732e-03 3.81818175e-01
      3.27272713e-02 2.90909093e-02 5.63636363e-01 5.45454547e-02
      7.63636380e-02 2.47272730e-01 7.27272704e-02 4.98181820e-01
      7.74545431e-01 6.18181825e-02 5.05454540e-01 2.14545459e-01
      1.78181812e-01 8.61818194e-01 2.61818171e-01 1. 3.67272735e-01
      4.90909100e-01 5.81818163e-01 5.56363642e-01 4.32727277e-01
      7.12727249e-01 7.67272711e-01 7.34545469e-01 3.96363646e-01
      1.89090908e-01 4.54545468e-01 2.03636363e-01 1.49090916e-01
      1.81818176e-02 1.09090907e-02 0. 3.63636374e-01 0. 1.09090907e-02
      0. 5.81818186e-02 1.05454549e-01 1.45454541e-01 0. 1.81818176e-02
      3.63636366e-03 2.18181815e-02 0. 5.81818186e-02 5.09090908e-02 0.
      7.27272732e-03 3.63636366e-03 0. 1.45454546e-02 0. 1.41818181e-01
      2.54545454e-02 1.45454546e-02 0. 0. 2.90909093e-02 7.27272732e-03
      3.63636366e-03 0. 0. 1.09090907e-02 0. 0. 0. 0. 0. 4.36363630e-02
      0. 0. 0. 3.63636352e-02 0. 0. 7.27272732e-03 0. 1.30909085e-01 0.
      0. 0. 7.27272732e-03 1.23636365e-01 0. 0. 1.12727277e-01 0.
      7.27272732e-03 0. 3.99999991e-02 0. 0.</_>
    <_>
      1.11111112e-01 2.77777791e-01 4.44444448e-01 5.55555582e-01
      5.83333313e-01 5.55555582e-01 6.94444478e-01 6.66666687e-01
      5.00000000e-01 2.77777791e-01 2.22222224e-01 4.16666657e-01
      8.61111104e-01 8.61111104e-01 7.22222209e-01 2.50000000e-01
      1.94444448e-01 1.38888896e-01 2.77777780e-02 0. 0. 0. 0.
      1.38888896e-01 1. 1. 1. 1. 6.11111104e-01 1.38888896e-01
      1.38888896e-01 1.38888896e-01 1.38888896e-01 1.38888896e-01
      1.38888896e-01 1.66666672e-01 1.66666672e-01 2.22222224e-01
      4.16666657e-01 9.44444478e-01 9.16666687e-01 8.33333313e-01
      7.22222209e-01 0. 0. 0. 0. 0. 1.11111112e-01 1.38888896e-01
      1.66666672e-01 1.66666672e-01 8.33333358e-02 0. 0. 0. 0. 0.
      1.11111112e-01 1.38888896e-01 1.38888896e-01 1.11111112e-01
      1.11111112e-01 1.11111112e-01 1.11111112e-01 1.38888896e-01
      4.44444448e-01 6.38888896e-01 7.22222209e-01 8.33333313e-01
      5.83333313e-01 5.55555582e-01 4.44444448e-01 3.33333343e-01
      2.50000000e-01 1.94444448e-01 0. 0. 0. 0. 0. 2.77777780e-02
      5.83333313e-01 7.22222209e-01 8.05555582e-01 8.33333313e-01
      6.11111104e-01 3.88888896e-01 3.33333343e-01 3.33333343e-01
      3.05555552e-01 3.33333343e-01 3.33333343e-01 3.88888896e-01
      3.88888896e-01 4.72222239e-01 7.22222209e-01 6.94444478e-01
      5.83333313e-01 4.44444448e-01 1.94444448e-01 0. 0. 0. 0.
      3.33333343e-01 7.77777791e-01 8.88888896e-01 9.16666687e-01 1.
      4.44444448e-01 3.05555552e-01 2.22222224e-01 1.94444448e-01
      1.66666672e-01 1.94444448e-01 1.94444448e-01 2.50000000e-01
      2.50000000e-01 3.33333343e-01 9.44444478e-01 9.16666687e-01
      8.61111104e-01 7.77777791e-01 6.11111104e-01 0. 0. 0. 0.
      8.33333358e-02 1. 1. 1. 9.44444478e-01 1.66666672e-01
      1.11111112e-01 8.29268277e-01 9.02438998e-01 9.99999940e-01
      9.26829219e-01 6.70731664e-01 5.85365832e-01 5.48780441e-01
      4.63414609e-01 4.51219499e-01 3.90243888e-01 3.78048778e-01
      4.02438998e-01 4.51219499e-01 5.12195110e-01 6.46341443e-01
      6.95121944e-01 7.07317054e-01 6.82926774e-01 6.09756052e-01
      5.73170722e-01 5.12195110e-01 4.39024389e-01 4.87804860e-01
      5.24390221e-01 5.48780441e-01 5.12195110e-01 5.73170722e-01
      5.48780441e-01 5.36585331e-01 5.36585331e-01 5.36585331e-01
      5.97560942e-01 6.70731664e-01 7.43902385e-01 7.68292665e-01
      7.07317054e-01 0. 0. 0. 0. 0. 0. 0. 0. 0. 0. 0. 0. 0. 0. 0. 0. 0.
      0. 0. 0. 0. 0. 0. 0. 0. 0. 0. 0. 0. 0. 0. 0. 0. 0. 0. 0. 0. 0. 0.
      0. 0. 0. 0. 0. 0. 0. 0. 0. 0. 0. 0. 0. 0. 0. 0. 0. 0. 0. 0. 0. 0.
      0. 0. 0. 0. 0. 0. 0. 0. 0. 0. 0. 0. 0. 0. 0. 0. 0. 0. 0. 0. 0. 0.
      0. 0. 0. 0. 0. 0. 0. 0. 0. 0. 0. 0. 0. 0. 0. 0. 0. 0. 0. 0. 0. 0.
      0. 0. 0. 0. 0. 0. 0. 1.25899287e-02 1.79856122e-02 6.65467605e-02
      5.21582738e-02 3.65107924e-01 4.78417277e-01 7.35611498e-01 1. 1.
      6.97841763e-01 6.97841763e-01 6.99640274e-01 5.41366935e-01
      8.29136729e-01 4.28057551e-01 2.44604319e-01 1.34892091e-01
      2.37410083e-01 2.24820152e-01 5.75539581e-02 7.19424486e-02
      1.04316548e-01 1.97841730e-02 2.87769791e-02 1.25899287e-02
      7.19424477e-03 5.39568346e-03 3.59712238e-03 3.59712238e-03
      8.99280608e-03 1.79856119e-03 0. 7.19424477e-03 0. 0.
      3.59712238e-03 0. 0. 0. 0. 0. 1.79856119e-03 0. 0. 0.
      1.79856119e-03 1.79856119e-03 0. 0. 0. 0. 0. 0. 0. 0. 0. 0. 0. 0.
      0. 0. 0. 0. 0. 0. 0. 0. 0.</_>
    <_>
      1.11111112e-01 0. 0. 9.72222209e-01 1. 5.55555582e-01
      4.44444448e-01 4.16666657e-01 4.44444448e-01 5.27777791e-01
      7.77777791e-01 6.66666687e-01 4.16666657e-01 4.16666657e-01
      4.16666657e-01 4.16666657e-01 5.27777791e-01 7.22222209e-01
      9.72222209e-01 1. 1. 1. 3.05555552e-01 2.50000000e-01
      2.50000000e-01 6.66666687e-01 7.22222209e-01 6.94444478e-01
      6.38888896e-01 5.27777791e-01 5.27777791e-01 3.05555552e-01
      1.38888896e-01 1.11111112e-01 3.88888896e-01 8.88888896e-01 1. 1.
      9.44444478e-01 9.16666687e-01 9.16666687e-01 1. 1. 1. 1. 1. 1. 1.
      1. 1. 2.77777791e-01 2.50000000e-01 2.50000000e-01 8.88888896e-01
      1. 1. 1. 1. 1. 1. 1. 9.72222209e-01 9.16666687e-01 8.88888896e-01
      8.88888896e-01 8.88888896e-01 8.88888896e-01 6.38888896e-01
      5.00000000e-01 4.16666657e-01 5.27777791e-01 6.38888896e-01
      7.50000000e-01 8.33333313e-01 9.16666687e-01 1. 1. 1.
      8.05555582e-01 4.72222239e-01 4.44444448e-01 4.44444448e-01
      6.66666687e-01 7.50000000e-01 7.50000000e-01 6.94444478e-01
      7.50000000e-01 6.38888896e-01 5.00000000e-01 5.55555582e-01
      6.38888896e-01 1. 1. 1. 8.61111104e-01 5.83333313e-01
      5.27777791e-01 4.44444448e-01 4.44444448e-01 4.44444448e-01
      5.55555582e-01 6.66666687e-01 6.38888896e-01 5.83333313e-01
      5.00000000e-01 5.55555582e-01 6.66666687e-01 8.33333313e-01 1. 1.
      1. 8.33333313e-01 5.00000000e-01 4.16666657e-01 4.44444448e-01
      6.66666687e-01 7.22222209e-01 7.50000000e-01 7.50000000e-01
      6.94444478e-01 6.94444478e-01 5.00000000e-01 5.55555582e-01
      6.11111104e-01 1. 1. 9.72222209e-01 0. 0. 5.55555560e-02
      1.11111112e-01 8.33333358e-02 8.33333358e-02 1.11111112e-01
      1.11111112e-01 1.38888896e-01 9.27419305e-01 9.19354796e-01
      9.03225780e-01 9.11290288e-01 9.11290288e-01 5.72580636e-01
      5.00000000e-01 4.43548381e-01 5.56451619e-01 6.85483873e-01
      6.77419305e-01 7.01612890e-01 7.33870924e-01 7.41935492e-01
      6.85483873e-01 5.80645144e-01 5.40322542e-01 5.24193525e-01
      5.96774161e-01 7.09677398e-01 7.74193525e-01 7.66129017e-01
      7.41935492e-01 7.33870924e-01 6.93548381e-01 6.69354796e-01
      6.53225780e-01 6.53225780e-01 5.80645144e-01 6.20967746e-01
      7.09677398e-01 9.03225780e-01 1. 9.19354796e-01 8.87096763e-01
      8.70967746e-01 8.03571474e-03 0. 0. 0. 0. 1.78571430e-03
      8.92857148e-04 0. 8.92857148e-04 0. 2.67857150e-03 4.46428591e-03
      0. 3.57142859e-03 3.57142859e-03 6.25000009e-03 1.16071431e-02
      2.85714287e-02 6.60714284e-02 1.92857146e-01 3.87499988e-01
      6.89285696e-01 1. 7.30357170e-01 3.64285707e-01 1.76785722e-01
      1.87500000e-01 1.41964287e-01 7.76785687e-02 6.51785731e-02
      3.92857157e-02 2.05357149e-02 1.51785715e-02 1.33928573e-02
      2.23214291e-02 2.05357149e-02 6.25000009e-03 1.78571430e-03
      4.46428591e-03 8.92857148e-04 8.92857148e-04 0. 4.46428591e-03
      2.67857150e-03 0. 0. 0. 0. 0. 0. 5.35714300e-03 1.78571430e-03 0.
      0. 0. 8.92857148e-04 0. 0. 0. 0. 0. 0. 0. 0. 0. 0. 1.78571430e-03
      0. 0. 0. 0. 0. 0. 0. 0. 2.67857150e-03 0. 0. 0. 0. 8.92857148e-04
      0. 0. 8.92857183e-03 0. 0. 0. 0. 0. 0. 0. 0. 0. 0. 0. 0.
      1.78571430e-03 0. 0. 0. 0. 0. 0. 1.33928573e-02 0. 0.
      6.25000009e-03 0. 0. 3.57142859e-03 1.78571430e-03 2.67857150e-03
      0. 0. 5.35714300e-03 8.92857148e-04 0. 0. 0. 0. 6.25000009e-03 0.
      0. 0. 0. 8.92857148e-04 0. 0. 0. 0. 0. 0. 8.92857148e-04 0. 0. 0.
      0. 0. 0. 0. 8.92857148e-04 0. 0. 0. 0. 0. 0. 0. 0. 0. 0. 0. 0. 0.
      0. 0. 0. 0. 0. 0. 0. 0. 0. 0. 0. 0. 0. 0. 0. 0. 0. 0. 0. 0. 0. 0.
      0. 0. 0. 0.</_>
    <_>
      1. 7.50000060e-01 1.07142866e-01 3.57142873e-02 3.57142873e-02
      3.57142873e-02 3.57142873e-02 3.57142873e-02 1.78571433e-01
      7.14285731e-01 7.14285731e-01 7.14285731e-01 6.07142866e-01
      6.07142866e-01 7.14285731e-01 8.21428597e-01 8.21428597e-01
      7.85714328e-01 6.78571463e-01 7.50000060e-01 7.85714328e-01
      6.42857194e-01 3.21428597e-01 1.42857149e-01 3.21428597e-01
      8.57142925e-01 8.57142925e-01 8.21428597e-01 4.28571463e-01
      2.50000000e-01 3.21428597e-01 3.57142866e-01 5.00000000e-01
      7.85714328e-01 9.28571463e-01 7.85714328e-01 7.14285731e-01
      6.42857194e-01 6.07142866e-01 6.42857194e-01 7.14285731e-01
      8.21428597e-01 8.21428597e-01 8.21428597e-01 7.50000060e-01
      7.50000060e-01 5.35714328e-01 4.64285731e-01 5.71428597e-01
      5.71428597e-01 6.78571463e-01 5.35714328e-01 5.35714328e-01
      6.42857194e-01 6.78571463e-01 6.07142866e-01 6.42857194e-01
      7.14285731e-01 7.85714328e-01 8.21428597e-01 7.14285731e-01
      5.35714328e-01 5.35714328e-01 8.21428597e-01 7.50000060e-01
      7.85714328e-01 7.14285731e-01 4.28571463e-01 7.14285746e-02
      7.14285731e-01 7.85714328e-01 7.85714328e-01 7.85714328e-01
      1.07142866e-01 1.07142866e-01 7.85714328e-01 8.57142925e-01
      7.85714328e-01 8.21428597e-01 6.78571463e-01 6.42857194e-01
      6.42857194e-01 6.78571463e-01 6.07142866e-01 6.42857194e-01
      5.71428597e-01 5.71428597e-01 5.35714328e-01 5.00000000e-01
      4.64285731e-01 4.64285731e-01 6.07142866e-01 6.07142866e-01
      6.78571463e-01 6.78571463e-01 4.28571463e-01 5.00000000e-01
      6.78571463e-01 8.57142925e-01 8.92857194e-01 7.85714328e-01
      7.85714328e-01 6.07142866e-01 6.07142866e-01 5.35714328e-01
      5.00000000e-01 5.00000000e-01 6.07142866e-01 6.78571463e-01
      6.07142866e-01 5.35714328e-01 4.64285731e-01 1.07142866e-01
      1.42857149e-01 1.42857149e-01 4.64285731e-01 4.64285731e-01
      5.35714328e-01 5.00000000e-01 3.92857164e-01 3.57142866e-01
      3.92857164e-01 4.28571463e-01 3.92857164e-01 4.28571463e-01
      5.35714328e-01 4.28571463e-01 3.57142866e-01 0. 0. 3.57142873e-02
      3.57142873e-02 7.14285746e-02 1.42857149e-01 2.50000000e-01
      9.64285731e-01 1. 3.60000014e-01 4.80000004e-02 5.60000017e-02
      3.20000015e-02 5.60000017e-02 1.12000003e-01 1.28000006e-01
      2.24000007e-01 3.68000031e-01 7.28000045e-01 7.44000018e-01
      7.52000034e-01 6.24000013e-01 5.92000008e-01 6.40000045e-01
      6.48000002e-01 7.04000056e-01 7.04000056e-01 7.12000012e-01
      7.84000039e-01 7.28000045e-01 7.20000029e-01 6.88000023e-01
      6.80000007e-01 6.24000013e-01 6.32000029e-01 7.52000034e-01
      6.48000002e-01 3.68000031e-01 2.40000002e-02 6.40000030e-02
      2.08000004e-01 3.28000009e-01 1.92000002e-01 1.12000003e-01
      2.42902219e-01 0. 0. 3.15457419e-03 0. 0. 5.04731871e-02 0. 0. 0.
      0. 3.15457419e-03 0. 2.20820196e-02 0. 0. 0. 0. 0. 0.
      4.10094634e-02 0. 0. 0. 3.47003154e-02 0. 0. 0. 0. 0.
      1.07255526e-01 0. 0. 0. 0. 0. 1.26182968e-02 0. 0. 0. 0. 0.
      2.20820196e-02 9.46372282e-03 0. 0. 0. 0. 3.15457419e-03 0.
      5.99369109e-02 0. 0. 0. 0. 1.89274456e-02 6.30914839e-03 0. 0. 0.
      1.26182968e-02 0. 3.15457419e-03 2.20820196e-02 1.89274456e-02
      2.83911675e-02 9.46372226e-02 4.41640392e-02 2.20820196e-02
      1.23028390e-01 4.73186113e-02 5.36277629e-02 1.26182973e-01
      1.23028390e-01 1.64037853e-01 2.14511052e-01 5.99369109e-02
      7.88643584e-02 9.46372282e-03 4.73186113e-02 1.86119884e-01
      2.52365936e-02 0. 1.04100950e-01 5.36277629e-02 4.10094634e-02 0.
      1.16719246e-01 1.57728717e-02 0. 1.89274445e-01 1.26182968e-02
      1.89274456e-02 5.04731871e-02 6.30914839e-03 7.57097825e-02
      1.86119884e-01 9.46372282e-03 7.57097825e-02 1.26182968e-02
      1.26182968e-02 1.19873822e-01 1.57728717e-02 2.23974764e-01
      5.67823350e-02 3.78548913e-02 1.57728717e-01 1.07255526e-01
      1.00946374e-01 3.37539434e-01 4.66876984e-01 3.75394315e-01
      4.03785497e-01 4.29022104e-01 8.32807600e-01 5.33123016e-01
      9.11671937e-01 5.14195621e-01 4.32176679e-01 5.23659289e-01 1.
      1.89274445e-01 2.93375403e-01 3.31230283e-01 2.58675098e-01
      5.86750805e-01 2.99684554e-01 2.08201900e-01 1.26182973e-01
      1.13564670e-01 2.30283916e-01 9.14826542e-02 1.79810733e-01
      2.39747643e-01 6.62460551e-02 1.13564670e-01 1.54574141e-01
      2.52365936e-02 1.00946374e-01 2.52365936e-02 1.79810733e-01
      7.25552067e-02 3.78548913e-02 3.15457433e-02 2.83911675e-02
      7.57097825e-02 4.10094634e-02 1.89274456e-02 2.52365936e-02
      3.47003154e-02 2.52365936e-02 9.46372282e-03 9.46372282e-03
      3.47003154e-02 6.30914839e-03 1.26182968e-02 4.41640392e-02
      1.57728717e-02 0. 6.30914839e-03 3.47003154e-02 9.46372282e-03
      3.15457419e-03 1.57728717e-02 1.89274456e-02 1.26182973e-01
      9.46372282e-03 3.15457419e-03 0. 1.57728717e-02 9.77917984e-02 0.
      0. 3.78548913e-02 3.15457419e-03 6.30914839e-03 0. 1.57728717e-02
      0. 0.</_>
    <_>
      7.14285746e-02 3.57142873e-02 3.57142873e-02 7.14285746e-02
      7.14285746e-02 7.14285746e-02 7.14285746e-02 1.07142866e-01
      3.21428597e-01 3.57142866e-01 6.42857194e-01 6.07142866e-01
      6.07142866e-01 6.42857194e-01 7.14285731e-01 7.50000060e-01
      7.14285731e-01 6.42857194e-01 5.35714328e-01 4.28571463e-01
      1.42857149e-01 7.14285746e-02 7.14285746e-02 3.21428597e-01
      8.57142925e-01 8.92857194e-01 9.28571463e-01 8.21428597e-01
      5.71428597e-01 5.00000000e-01 4.28571463e-01 4.28571463e-01
      4.64285731e-01 5.00000000e-01 6.07142866e-01 6.07142866e-01
      5.00000000e-01 4.28571463e-01 4.28571463e-01 5.35714328e-01
      6.07142866e-01 6.42857194e-01 5.71428597e-01 4.28571463e-01
      2.50000000e-01 1.42857149e-01 5.35714328e-01 1. 9.64285731e-01 1.
      9.28571463e-01 5.71428597e-01 5.35714328e-01 5.35714328e-01
      6.42857194e-01 7.85714328e-01 8.57142925e-01 8.57142925e-01
      6.78571463e-01 5.35714328e-01 3.57142866e-01 1.07142866e-01
      1.07142866e-01 2.14285731e-01 5.00000000e-01 7.50000060e-01
      7.50000060e-01 7.14285731e-01 6.07142866e-01 5.35714328e-01
      5.35714328e-01 5.00000000e-01 5.35714328e-01 7.50000060e-01
      7.14285731e-01 6.07142866e-01 5.35714328e-01 2.14285731e-01
      1.07142866e-01 1.07142866e-01 5.00000000e-01 7.14285731e-01
      7.85714328e-01 8.21428597e-01 5.00000000e-01 3.92857164e-01
      4.28571463e-01 4.28571463e-01 3.92857164e-01 3.92857164e-01
      8.92857194e-01 8.57142925e-01 7.85714328e-01 6.42857194e-01
      1.42857149e-01 1.42857149e-01 1.78571433e-01 5.35714328e-01
      7.14285731e-01 7.85714328e-01 7.85714328e-01 6.42857194e-01
      5.71428597e-01 5.35714328e-01 5.00000000e-01 5.71428597e-01
      7.50000060e-01 7.50000060e-01 6.78571463e-01 6.07142866e-01
      3.21428597e-01 2.14285731e-01 2.14285731e-01 5.35714328e-01
      8.21428597e-01 8.92857194e-01 9.28571463e-01 6.07142866e-01
      4.64285731e-01 5.00000000e-01 6.07142866e-01 6.07142866e-01
      6.78571463e-01 8.57142925e-01 8.57142925e-01 7.85714328e-01
      7.14285731e-01 2.85714298e-01 2.50000000e-01 2.50000000e-01
      2.50000000e-01 2.50000000e-01 2.50000000e-01 2.50000000e-01
      2.85714298e-01 3.21428597e-01 6.89655185e-01 8.27586174e-01 1.
      8.53448272e-01 8.36206913e-01 4.74137932e-01 1.98275864e-01
      1.72413792e-02 3.44827585e-02 9.48275849e-02 3.01724136e-01
      5.08620679e-01 5.94827592e-01 7.06896544e-01 6.46551728e-01
      5.25862038e-01 3.87931019e-01 3.70689660e-01 4.48275864e-01
      5.25862038e-01 6.12068951e-01 6.29310369e-01 6.12068951e-01
      5.25862038e-01 4.65517253e-01 3.96551728e-01 3.96551728e-01
      4.31034476e-01 5.00000000e-01 5.43103456e-01 5.94827592e-01
      5.60344815e-01 3.79310340e-01 2.24137932e-01 6.89655170e-02 0. 0.
      0. 0. 0. 0. 0. 0. 0. 0. 0. 0. 0. 0. 0. 0. 0. 0. 0. 0. 0. 0. 0. 0.
      0. 0. 0. 0. 0. 0. 0. 0. 0. 0. 0. 0. 0. 0. 0. 0. 0. 0. 0. 0. 0. 0.
      0. 0. 0. 0. 0. 0. 0. 0. 0. 0. 0. 0. 0. 0. 0. 0. 0. 0. 0. 0. 0. 0.
      0. 3.96825420e-03 3.96825420e-03 0. 3.96825420e-03 7.93650839e-03
      7.93650839e-03 2.77777798e-02 3.96825420e-03 1.19047631e-02
      3.96825420e-03 0. 1.19047631e-02 9.12698433e-02 1.19047631e-02
      5.55555597e-02 4.36507948e-02 1.66666672e-01 1.42857149e-01
      1.19047627e-01 3.25396836e-01 1.42857149e-01 1.62698418e-01
      9.80158806e-01 3.49206358e-01 3.37301612e-01 3.53174627e-01
      4.68254000e-01 9.20634985e-01 4.52380985e-01 3.45238119e-01
      7.69841313e-01 4.84127015e-01 5.31746089e-01 9.04761970e-01
      6.03174627e-01 1. 6.26984179e-01 9.68254030e-01 9.28571463e-01
      8.05555582e-01 4.64285731e-01 6.19047642e-01 6.62698448e-01
      8.13492119e-01 7.53968298e-01 5.39682567e-01 2.69841284e-01
      3.09523821e-01 8.01587343e-01 4.76190522e-02 1.54761910e-01
      6.34920672e-02 2.38095254e-01 0. 2.73809552e-01 2.38095261e-02
      7.14285746e-02 8.73015895e-02 0. 2.77777798e-02 1.98412705e-02
      7.93650839e-03 0. 0. 0. 0. 0. 0. 0. 0. 0. 0. 0. 0. 0. 0. 0. 0. 0.
      0. 0. 0. 0. 0. 0. 0. 0. 0. 0. 0. 0. 0. 0. 0. 0. 0. 0. 0. 0. 0. 0.
      0. 0. 0. 0. 0. 0. 0. 0. 0. 0. 0.</_>
    <_>
      0. 3.61111104e-01 8.33333313e-01 6.11111104e-01 3.61111104e-01
      3.61111104e-01 4.16666657e-01 5.00000000e-01 2.77777791e-01
      3.05555552e-01 3.05555552e-01 3.05555552e-01 6.38888896e-01
      6.66666687e-01 6.66666687e-01 6.11111104e-01 6.11111104e-01
      6.11111104e-01 7.77777791e-01 9.44444478e-01 9.44444478e-01
      8.61111104e-01 6.94444478e-01 5.27777791e-01 3.88888896e-01
      2.22222224e-01 2.77777791e-01 3.61111104e-01 3.61111104e-01
      2.50000000e-01 1.38888896e-01 5.55555560e-02 1.38888896e-01
      1.94444448e-01 3.88888896e-01 5.27777791e-01 6.66666687e-01
      8.05555582e-01 8.88888896e-01 8.61111104e-01 7.22222209e-01
      6.94444478e-01 6.38888896e-01 7.22222209e-01 7.77777791e-01
      7.22222209e-01 1.94444448e-01 1.66666672e-01 1.66666672e-01
      1.94444448e-01 4.16666657e-01 7.22222209e-01 7.22222209e-01
      7.22222209e-01 7.22222209e-01 6.66666687e-01 5.55555582e-01
      5.83333313e-01 5.83333313e-01 6.66666687e-01 7.22222209e-01
      9.72222209e-01 9.72222209e-01 9.72222209e-01 3.88888896e-01
      3.61111104e-01 3.05555552e-01 2.50000000e-01 3.05555552e-01
      7.22222209e-01 6.94444478e-01 6.66666687e-01 6.66666687e-01
      6.66666687e-01 6.38888896e-01 2.50000000e-01 2.77777791e-01
      2.22222224e-01 2.50000000e-01 7.50000000e-01 9.44444478e-01
      9.44444478e-01 7.50000000e-01 6.66666687e-01 5.55555582e-01
      5.00000000e-01 4.44444448e-01 4.44444448e-01 4.72222239e-01
      5.55555582e-01 5.00000000e-01 4.44444448e-01 2.50000000e-01
      2.50000000e-01 3.33333343e-01 3.61111104e-01 4.44444448e-01
      4.72222239e-01 5.00000000e-01 5.27777791e-01 6.11111104e-01
      6.94444478e-01 7.22222209e-01 6.66666687e-01 4.16666657e-01 0. 0.
      0. 8.33333358e-02 3.05555552e-01 9.72222209e-01 9.44444478e-01 1.
      1. 9.72222209e-01 9.72222209e-01 9.72222209e-01 8.61111104e-01
      4.44444448e-01 3.33333343e-01 2.77777791e-01 2.77777791e-01
      5.55555582e-01 6.94444478e-01 6.38888896e-01 6.38888896e-01
      6.66666687e-01 6.38888896e-01 3.05555552e-01 1.38888896e-01
      1.66666672e-01 2.50000000e-01 4.72222239e-01 1. 7.22222209e-01 0.
      1.55963302e-01 5.32110095e-01 9.35779750e-01 9.54128385e-01
      8.80733907e-01 7.79816508e-01 5.68807304e-01 4.58715588e-01
      3.76146764e-01 4.31192636e-01 5.68807304e-01 5.77981651e-01
      5.59633017e-01 5.22935748e-01 5.96330225e-01 6.05504572e-01
      6.14678860e-01 6.23853207e-01 5.59633017e-01 5.13761461e-01
      5.22935748e-01 5.87155938e-01 7.15596318e-01 7.52293527e-01
      7.88990796e-01 7.33944893e-01 7.24770606e-01 6.78899050e-01
      6.33027494e-01 6.14678860e-01 6.78899050e-01 7.15596318e-01
      8.71559620e-01 9.99999940e-01 9.99999940e-01 9.17431176e-01
      9.52380989e-03 0. 0. 1.36054424e-03 5.44217695e-03 2.72108847e-03
      0. 2.72108847e-03 9.52380989e-03 5.44217695e-03 4.08163294e-03
      5.44217695e-03 1.36054419e-02 8.16326588e-03 2.85714287e-02
      6.80272132e-02 1.04761906e-01 2.00000003e-01 3.80952388e-01
      5.94557822e-01 8.93877566e-01 8.47619057e-01 1. 6.06802702e-01
      5.02040803e-01 1.94557831e-01 3.10204089e-01 1.19727895e-01
      1.30612254e-01 1.12925172e-01 9.11564603e-02 2.58503407e-02
      5.17006814e-02 7.48299360e-02 5.17006814e-02 7.61904791e-02
      1.49659868e-02 1.63265318e-02 1.63265318e-02 1.36054419e-02
      6.80272095e-03 2.72108847e-03 8.16326588e-03 8.16326588e-03 0.
      4.08163294e-03 2.72108847e-03 0. 1.36054424e-03 0. 6.80272095e-03
      0. 0. 0. 0. 4.08163294e-03 1.36054424e-03 1.36054424e-03 0. 0. 0.
      0. 0. 0. 0. 0. 5.44217695e-03 0. 0. 0. 1.36054424e-03 0. 0.
      1.36054424e-03 1.36054424e-03 0. 0. 0. 0. 1.36054424e-03
      1.36054424e-03 0. 0. 2.72108847e-03 0. 0. 0. 1.36054424e-03 0. 0.
      0. 0. 0. 0. 0. 0. 0. 0. 0. 0. 0. 1.36054424e-03 0. 0. 0. 0. 0. 0.
      0. 0. 0. 0. 0. 0. 0. 0. 0. 0. 0. 0. 0. 0. 0. 0. 0. 0. 0. 0. 0. 0.
      0. 0. 0. 0. 0. 0. 0. 0. 0. 0. 0. 0. 0. 0. 0. 0. 0. 0. 0. 0. 0. 0.
      0. 0. 0. 0. 0. 0. 0. 0. 0. 0. 0. 0. 0. 0. 0. 0. 0. 0. 0. 0. 0. 0.
      0. 0. 0. 0. 0. 0.</_>
    <_>
      5.29411793e-01 9.41176474e-01 4.70588237e-01 8.82352963e-02
      1.17647059e-01 4.41176474e-01 5.58823526e-01 5.58823526e-01
      5.00000000e-01 6.17647052e-01 5.88235319e-01 4.41176474e-01
      3.82352948e-01 6.17647052e-01 7.05882370e-01 5.29411793e-01
      4.70588237e-01 3.52941185e-01 3.82352948e-01 3.23529422e-01
      8.82352963e-02 3.52941185e-01 8.23529422e-01 8.52941155e-01
      8.23529422e-01 2.94117659e-01 2.35294119e-01 2.64705896e-01
      4.11764711e-01 6.17647052e-01 3.52941185e-01 3.52941185e-01
      8.82352948e-01 7.94117630e-01 7.64705896e-01 2.94117659e-01
      2.94117648e-02 5.88235296e-02 1.76470593e-01 3.23529422e-01
      5.29411793e-01 5.58823526e-01 3.23529422e-01 3.52941185e-01
      1.76470593e-01 1.47058830e-01 6.47058845e-01 7.05882370e-01
      7.64705896e-01 4.70588237e-01 2.64705896e-01 2.64705896e-01
      4.70588237e-01 5.29411793e-01 3.52941185e-01 3.52941185e-01
      8.23529422e-01 7.94117630e-01 6.47058845e-01 2.35294119e-01
      1.47058830e-01 1.17647059e-01 3.82352948e-01 7.05882370e-01
      7.64705896e-01 7.94117630e-01 3.82352948e-01 3.23529422e-01
      4.11764711e-01 5.88235319e-01 3.52941185e-01 2.94117659e-01
      3.52941185e-01 7.35294104e-01 6.76470578e-01 6.47058845e-01
      2.64705896e-01 1.17647059e-01 1.47058830e-01 4.70588237e-01
      5.58823526e-01 5.88235319e-01 5.58823526e-01 5.58823526e-01
      4.41176474e-01 3.82352948e-01 3.52941185e-01 4.11764711e-01
      4.70588237e-01 5.58823526e-01 6.47058845e-01 5.29411793e-01
      4.70588237e-01 1.17647059e-01 1.17647059e-01 4.41176474e-01
      6.76470578e-01 7.94117630e-01 8.52941155e-01 3.52941185e-01
      2.94117659e-01 6.47058845e-01 6.47058845e-01 3.23529422e-01
      2.64705896e-01 3.52941185e-01 7.35294104e-01 7.05882370e-01
      6.47058845e-01 5.88235296e-02 5.88235296e-02 3.52941185e-01
      4.41176474e-01 3.23529422e-01 3.23529422e-01 4.11764711e-01
      2.35294119e-01 4.11764711e-01 6.47058845e-01 7.05882370e-01
      5.88235319e-01 5.29411793e-01 4.70588237e-01 5.29411793e-01
      4.70588237e-01 4.41176474e-01 2.05882356e-01 1.17647059e-01
      6.47058845e-01 1. 6.17647052e-01 5.88235296e-02 2.64705896e-01
      2.94117659e-01 6.76470578e-01 8.23529422e-01 1. 7.52212405e-01
      4.51327443e-01 3.80530983e-01 2.83185840e-01 3.18584085e-01
      3.09734523e-01 4.42477882e-01 7.16814160e-01 8.23008835e-01
      7.43362844e-01 6.37168169e-01 5.48672557e-01 5.39822996e-01
      5.75221241e-01 6.10619485e-01 5.92920363e-01 5.66371679e-01
      5.30973434e-01 5.75221241e-01 6.10619485e-01 6.54867232e-01
      6.28318608e-01 5.84070802e-01 5.30973434e-01 5.13274312e-01
      5.22123873e-01 5.39822996e-01 5.84070802e-01 6.19469047e-01
      6.19469047e-01 4.86725658e-01 2.65486717e-01 1.32743359e-01
      8.84955749e-02 8.84955749e-02 0. 0. 0. 0. 0. 0. 0. 0. 0. 0. 0. 0.
      0. 0. 0. 0. 0. 0. 0. 0. 3.38983047e-03 0. 0. 0. 0. 0. 0. 0. 0. 0.
      3.38983047e-03 0. 0. 0. 0. 0. 0. 0. 0. 0. 0. 0. 0. 0. 0. 0. 0. 0.
      0. 0. 2.03389823e-02 0. 0. 0. 0. 0. 0. 0. 0. 0. 6.77966094e-03 0.
      0. 1.01694912e-02 0. 1.01694912e-02 3.05084735e-02 6.77966094e-03
      1.01694912e-02 2.03389823e-02 3.38983047e-03 1.01694912e-02
      1.69491526e-02 2.71186437e-02 5.42372875e-02 7.79661015e-02
      2.37288140e-02 7.79661015e-02 3.38983051e-02 2.37288140e-02
      1.32203385e-01 1.01694912e-02 3.72881368e-02 3.38983051e-02
      5.42372875e-02 5.42372875e-02 2.71186437e-02 1.45762712e-01
      1.01694912e-02 1.35593219e-02 1.35593221e-01 2.37288140e-02
      2.37288140e-02 5.76271191e-02 6.77966094e-03 2.77966112e-01
      1.28813565e-01 1.01694912e-02 2.67796606e-01 8.47457647e-02
      6.10169470e-02 3.86440665e-01 1.45762712e-01 5.22033870e-01
      2.94915259e-01 3.93220335e-01 7.15254247e-01 3.86440665e-01
      3.28813553e-01 7.35593200e-01 6.64406776e-01 1. 8.30508471e-01
      4.81355935e-01 7.45762706e-01 4.23728794e-01 9.45762694e-01
      1.62711859e-01 2.13559315e-01 1.96610168e-01 8.50847423e-01
      2.03389823e-02 3.05084735e-01 8.81355926e-02 2.77966112e-01
      6.10169470e-01 1.18644066e-01 1.01694912e-01 2.61016935e-01
      9.83050838e-02 1.55932203e-01 4.40677963e-02 1.38983056e-01
      3.01694900e-01 7.79661015e-02 8.47457647e-02 1.86440676e-01
      1.69491526e-02 1.93220332e-01 5.42372875e-02 4.06779647e-02
      1.38983056e-01 6.77966103e-02 2.37288140e-02 7.45762736e-02
      5.42372875e-02 7.45762736e-02 6.44067824e-02 3.38983051e-02
      3.38983047e-03 1.05084747e-01 3.38983047e-03 2.03389823e-02
      4.40677963e-02 0. 2.03389823e-02 8.13559294e-02 3.38983047e-03
      2.03389823e-02 1.69491526e-02 1.35593219e-02 3.38983047e-03 0.
      1.35593219e-02 1.35593219e-02 1.01694912e-02 0. 0. 0. 0.
      1.35593219e-02 0. 0. 1.01694912e-02 0. 0. 0. 0. 0. 0.</_>
    <_>
      1.21212125e-01 9.09090936e-01 9.09090936e-01 1.21212125e-01
      9.09090936e-02 9.39393997e-01 1. 9.69696999e-01 8.18181872e-01
      4.84848499e-01 4.24242437e-01 3.93939406e-01 4.54545468e-01
      4.84848499e-01 4.84848499e-01 4.84848499e-01 3.63636374e-01
      3.93939406e-01 4.84848499e-01 6.66666687e-01 9.09090936e-01
      9.39393997e-01 9.09090936e-01 9.39393997e-01 8.48484874e-01
      7.27272749e-01 6.36363626e-01 5.15151501e-01 5.45454562e-01
      5.15151501e-01 6.06060624e-01 4.84848499e-01 2.42424250e-01
      3.33333343e-01 4.24242437e-01 5.45454562e-01 6.36363626e-01
      9.09090936e-01 9.69696999e-01 9.69696999e-01 9.69696999e-01
      9.09090936e-01 8.48484874e-01 8.48484874e-01 9.39393997e-01
      9.69696999e-01 9.69696999e-01 9.39393997e-01 9.39393997e-01
      9.39393997e-01 9.39393997e-01 9.39393997e-01 8.78787875e-01
      3.33333343e-01 3.03030312e-01 3.33333343e-01 9.39393997e-01
      9.39393997e-01 9.39393997e-01 9.39393997e-01 9.69696999e-01
      9.69696999e-01 9.39393997e-01 9.39393997e-01 8.48484874e-01
      6.06060624e-01 4.84848499e-01 4.24242437e-01 5.75757623e-01
      6.66666687e-01 7.27272749e-01 7.27272749e-01 6.96969748e-01
      6.06060624e-01 3.63636374e-01 4.24242437e-01 5.15151501e-01
      7.27272749e-01 9.39393997e-01 9.39393997e-01 9.39393997e-01
      7.87878811e-01 5.45454562e-01 4.24242437e-01 3.63636374e-01
      6.36363626e-01 6.96969748e-01 6.66666687e-01 6.96969748e-01
      6.36363626e-01 5.75757623e-01 3.63636374e-01 4.54545468e-01
      6.66666687e-01 9.39393997e-01 9.09090936e-01 9.09090936e-01
      8.78787875e-01 6.36363626e-01 5.75757623e-01 5.45454562e-01
      5.45454562e-01 6.06060624e-01 5.45454562e-01 7.27272749e-01
      6.96969748e-01 6.06060624e-01 5.45454562e-01 4.54545468e-01
      4.54545468e-01 6.36363626e-01 9.39393997e-01 9.69696999e-01
      9.69696999e-01 9.69696999e-01 5.75757623e-01 5.15151501e-01
      4.54545468e-01 4.84848499e-01 6.96969748e-01 7.27272749e-01
      6.96969748e-01 7.27272749e-01 6.96969748e-01 6.36363626e-01
      5.15151501e-01 5.75757623e-01 6.66666687e-01 9.69696999e-01 1.
      6.66666687e-01 1.21212125e-01 1.51515156e-01 3.03030312e-01 1.
      2.12121218e-01 3.44537824e-01 6.89075649e-01 8.31932843e-01
      5.71428597e-01 5.29411793e-01 6.05042040e-01 7.73109257e-01
      9.83193338e-01 8.73949647e-01 7.81512618e-01 6.97479010e-01
      8.06722760e-01 7.73109257e-01 7.64705896e-01 7.98319340e-01
      7.14285731e-01 6.38655484e-01 5.71428597e-01 6.30252123e-01
      6.63865566e-01 6.63865566e-01 8.15126121e-01 7.64705896e-01
      6.80672288e-01 7.14285731e-01 6.30252123e-01 5.54621875e-01
      5.04201710e-01 6.47058845e-01 8.40336204e-01 9.24369812e-01
      9.66386616e-01 1. 8.15126121e-01 4.03361380e-01 3.69747907e-01
      2.41327304e-02 0. 0. 1.50829565e-03 0. 6.03318261e-03
      2.41327304e-02 0. 6.03318261e-03 0. 0. 2.41327304e-02 0.
      5.88235296e-02 2.71493215e-02 1.65912528e-02 3.61990966e-02
      2.56410260e-02 3.31825055e-02 1.01055808e-01 1.80995479e-01
      2.68476635e-01 6.86274529e-01 8.89894426e-01 1. 6.28959298e-01
      6.62141800e-01 4.02714938e-01 2.63951749e-01 2.80543000e-01
      2.11161390e-01 1.82503775e-01 1.55354455e-01 1.50829569e-01
      1.13122173e-01 1.55354455e-01 7.08898976e-02 1.96078438e-02
      2.11161394e-02 1.05580697e-02 1.20663652e-02 9.04977415e-03
      1.05580697e-02 7.54147815e-03 0. 1.50829565e-03 3.01659130e-03 0.
      0. 0. 6.03318261e-03 0. 0. 0. 0. 1.50829565e-03 0. 0. 0. 0. 0. 0.
      0. 0. 0. 0. 6.03318261e-03 0. 0. 0. 0. 0. 0. 0. 0. 1.50829563e-02
      0. 0. 0. 0. 0. 0. 0. 4.52488707e-03 0. 0. 0. 1.50829565e-03 0. 0.
      3.01659130e-03 0. 0. 0. 0. 0. 1.05580697e-02 0. 0. 0. 0. 0. 0.
      1.50829563e-02 4.52488707e-03 1.50829565e-03 1.05580697e-02
      3.01659130e-03 3.01659130e-03 1.35746608e-02 4.52488707e-03
      1.35746608e-02 6.03318261e-03 1.20663652e-02 1.35746608e-02
      1.96078438e-02 3.46908011e-02 0. 9.04977415e-03 4.52488707e-03
      3.31825055e-02 0. 1.80995483e-02 0. 1.50829563e-02 4.07239832e-02
      1.05580697e-02 1.20663652e-02 6.03318261e-03 6.03318261e-03
      1.35746608e-02 4.52488707e-03 1.20663652e-02 2.41327304e-02 0.
      3.01659130e-03 0. 0. 3.01659130e-03 0. 9.04977415e-03
      7.54147815e-03 4.52488707e-03 0. 1.50829565e-03 1.50829565e-03
      4.52488707e-03 1.50829565e-03 0. 0. 1.65912528e-02 0. 0.
      3.01659130e-03 0. 4.52488707e-03 2.41327304e-02 0. 6.03318261e-03
      1.50829565e-03 4.52488707e-03 0. 0. 4.52488707e-03 4.52488707e-03
      1.50829563e-02 0. 0. 0. 9.04977415e-03 2.86576170e-02 0. 0.
      2.26244349e-02 0. 1.50829565e-03 0. 6.03318261e-03 0. 0.</_>
    <_>
      1. 1. 1. 3.05555552e-01 3.33333343e-01 9.16666687e-01
      9.16666687e-01 9.44444478e-01 9.16666687e-01 4.72222239e-01
      3.61111104e-01 3.33333343e-01 4.16666657e-01 5.00000000e-01
      4.16666657e-01 3.61111104e-01 3.61111104e-01 4.72222239e-01
      3.88888896e-01 5.00000000e-01 6.66666687e-01 8.33333313e-01
      8.33333313e-01 8.33333313e-01 8.05555582e-01 2.50000000e-01
      2.50000000e-01 2.77777791e-01 5.55555582e-01 5.00000000e-01
      5.27777791e-01 5.00000000e-01 5.00000000e-01 3.05555552e-01
      1.11111112e-01 5.55555560e-02 5.55555560e-02 5.55555560e-02
      5.55555582e-01 6.94444478e-01 8.33333313e-01 8.61111104e-01
      8.33333313e-01 8.33333313e-01 8.05555582e-01 8.05555582e-01
      8.05555582e-01 7.77777791e-01 2.77777791e-01 1.94444448e-01
      3.05555552e-01 7.22222209e-01 7.50000000e-01 7.50000000e-01
      7.50000000e-01 7.77777791e-01 7.77777791e-01 7.50000000e-01
      3.33333343e-01 2.22222224e-01 3.33333343e-01 8.88888896e-01
      8.61111104e-01 8.33333313e-01 7.22222209e-01 3.88888896e-01
      3.61111104e-01 5.27777791e-01 6.11111104e-01 6.38888896e-01
      6.38888896e-01 6.66666687e-01 6.38888896e-01 5.83333313e-01
      4.72222239e-01 3.88888896e-01 4.16666657e-01 7.77777791e-01
      8.33333313e-01 8.05555582e-01 8.61111104e-01 7.22222209e-01
      5.55555582e-01 4.72222239e-01 5.55555582e-01 5.00000000e-01
      5.00000000e-01 5.27777791e-01 5.27777791e-01 5.55555582e-01
      5.27777791e-01 5.27777791e-01 6.11111104e-01 7.22222209e-01
      8.33333313e-01 8.33333313e-01 8.05555582e-01 6.94444478e-01
      3.88888896e-01 1.11111112e-01 8.33333358e-02 1.94444448e-01
      3.05555552e-01 3.61111104e-01 3.61111104e-01 4.44444448e-01
      4.16666657e-01 3.05555552e-01 3.05555552e-01 3.88888896e-01
      7.50000000e-01 8.33333313e-01 8.33333313e-01 8.33333313e-01
      6.66666687e-01 4.44444448e-01 3.61111104e-01 3.05555552e-01
      4.44444448e-01 5.27777791e-01 6.11111104e-01 5.55555582e-01
      5.27777791e-01 3.05555552e-01 2.50000000e-01 3.33333343e-01
      6.11111104e-01 9.16666687e-01 9.16666687e-01 8.88888896e-01
      1.38888896e-01 1.66666672e-01 2.22222224e-01 1. 1. 1.
      9.52381045e-02 7.93650821e-02 1.58730164e-01 8.57142925e-01
      8.80952418e-01 8.88888955e-01 7.38095284e-01 6.50793672e-01
      5.39682567e-01 5.95238149e-01 5.95238149e-01 6.34920657e-01
      6.98412716e-01 6.58730209e-01 6.19047642e-01 5.63492119e-01
      4.68254000e-01 4.60317492e-01 6.42857194e-01 6.66666687e-01
      6.90476239e-01 6.74603224e-01 6.58730209e-01 6.19047642e-01
      5.55555582e-01 6.34920657e-01 7.38095284e-01 9.36508000e-01
      9.28571463e-01 9.12698448e-01 4.28571463e-01 1.11111119e-01
      1.26984134e-01 5.79365134e-01 1. 9.36508000e-01 0. 0. 0. 0. 0. 0.
      0. 0. 0. 0. 0. 0. 0. 0. 0. 0. 6.93374453e-03 2.15716492e-02
      2.08012331e-02 1.41756549e-01 3.38983059e-01 7.08012342e-01 1.
      6.80277348e-01 2.82742679e-01 8.47457647e-02 1.97996929e-01
      7.16486946e-02 6.00924529e-02 4.31432985e-02 3.38983051e-02
      1.61787365e-02 2.08012331e-02 1.54083213e-02 9.24499240e-03
      1.15562407e-02 0. 0. 0. 3.85208032e-03 0. 0. 0. 0. 0.
      1.54083211e-03 0. 0. 7.70416053e-04 0. 0. 0. 0. 0. 0. 0. 0. 0. 0.
      0. 0. 0. 0. 0. 0. 0. 0. 0. 0. 0. 0. 0. 0. 0. 0. 0. 0. 0. 0. 0. 0.
      0. 0. 0. 0. 0. 0. 0. 0. 0. 0. 0. 0. 0. 0. 0. 0. 0. 0. 0. 0. 0. 0.
      0. 0. 0. 0. 0. 0. 0. 0. 0. 0. 0. 0. 0. 0. 0. 0. 0. 0. 0. 0. 0. 0.
      0. 0. 0. 0. 0. 0. 0. 0. 0. 0. 0. 0. 0. 0. 0. 0. 0. 0. 0. 0. 0. 0.
      0. 0. 0. 0. 0. 0. 0. 0. 0. 0. 0. 0. 0. 0. 0. 0. 0. 0. 0. 0. 0. 0.
      0. 0. 0. 0. 0. 0. 0. 0. 0. 0. 0.</_>
    <_>
      4.19354826e-01 0. 6.45161271e-02 5.48387051e-01 6.45161271e-01
      2.90322572e-01 2.90322572e-01 8.70967746e-01 8.06451559e-01
      2.90322572e-01 3.87096763e-01 7.41935492e-01 6.12903237e-01
      6.77419305e-01 5.80645144e-01 3.22580636e-02 3.22580636e-02
      3.22580636e-02 5.48387051e-01 6.45161271e-01 7.09677398e-01
      2.90322572e-01 2.90322572e-01 1.93548381e-01 1.93548381e-01
      1.61290318e-01 1.93548381e-01 3.87096763e-01 3.87096763e-01
      3.22580636e-01 1.29032254e-01 3.22580636e-02 6.45161271e-02
      1.61290318e-01 2.58064508e-01 2.25806445e-01 1.93548381e-01
      6.45161271e-02 6.45161271e-02 6.45161271e-02 3.87096763e-01
      5.48387051e-01 6.77419305e-01 5.48387051e-01 3.87096763e-01
      3.22580636e-01 3.22580636e-01 3.87096763e-01 5.48387051e-01
      7.74193525e-01 6.77419305e-01 4.19354826e-01 1.29032254e-01 0.
      9.67741907e-02 3.22580636e-01 3.87096763e-01 4.51612890e-01
      5.16129017e-01 5.48387051e-01 5.16129017e-01 4.83870953e-01
      4.51612890e-01 6.12903237e-01 6.12903237e-01 7.41935492e-01
      6.77419305e-01 4.51612890e-01 4.51612890e-01 4.83870953e-01
      5.16129017e-01 5.80645144e-01 5.80645144e-01 4.83870953e-01
      2.58064508e-01 3.87096763e-01 7.74193525e-01 7.74193525e-01
      5.80645144e-01 9.67741907e-02 1.29032254e-01 3.54838699e-01
      4.83870953e-01 5.48387051e-01 5.48387051e-01 2.58064508e-01
      2.90322572e-01 3.54838699e-01 4.19354826e-01 4.19354826e-01
      3.87096763e-01 3.87096763e-01 4.83870953e-01 5.48387051e-01
      6.12903237e-01 8.06451559e-01 7.74193525e-01 6.12903237e-01
      5.80645144e-01 4.19354826e-01 4.51612890e-01 3.54838699e-01
      7.41935492e-01 1. 1. 6.45161271e-01 5.16129017e-01 5.80645144e-01
      6.45161271e-01 6.45161271e-01 6.45161271e-01 6.45161271e-01
      9.67741907e-01 9.35483813e-01 2.58064508e-01 2.25806445e-01
      3.54838699e-01 9.67741907e-01 9.67741907e-01 4.19354826e-01
      1.61290318e-01 0. 0. 0. 0. 0. 0. 0. 0. 0. 0. 0. 0. 0. 0. 0. 0.
      5.55555560e-02 1.94444448e-01 4.16666657e-01 5.97222209e-01
      6.25000000e-01 5.27777791e-01 4.58333343e-01 4.72222239e-01
      5.55555582e-01 6.80555582e-01 5.97222209e-01 6.94444478e-01
      7.63888896e-01 9.16666687e-01 1. 9.86111104e-01 9.02777791e-01
      8.61111104e-01 8.61111104e-01 8.61111104e-01 9.86111104e-01
      9.02777791e-01 9.72222209e-01 9.16666687e-01 8.05555582e-01
      6.38888896e-01 4.58333343e-01 4.16666657e-01 4.72222239e-01
      7.36111104e-01 7.91666687e-01 9.02777791e-01 8.05555582e-01
      5.55555582e-01 4.16666679e-02 1.85185179e-01 0. 0. 1.19474309e-03
      0. 1.19474309e-03 4.54002358e-02 0. 1.19474309e-03 0. 0.
      5.97371534e-03 0. 4.30107526e-02 2.38948618e-03 0. 1.19474309e-03
      0. 0. 2.86738351e-02 8.48267600e-02 3.58422939e-03 1.19474309e-03
      2.38948618e-03 2.27001179e-02 4.77897236e-03 0. 0. 0. 0.
      2.74790917e-02 0. 0. 0. 0. 0. 1.07526882e-02 0. 1.19474309e-03 0.
      0. 0. 5.97371534e-03 0. 0. 0. 0. 0. 0. 0. 1.79211460e-02
      1.19474309e-03 0. 0. 0. 8.36320128e-03 0. 0. 0. 0. 3.58422939e-03
      0. 0. 0. 0. 0. 5.97371534e-03 0. 0. 0. 0. 0. 0. 0. 0.
      5.73476702e-02 0. 0. 0. 0. 4.77897236e-03 0. 0. 1.55316601e-02 0.
      0. 0. 2.38948618e-03 0. 0. 5.97371534e-03 0. 0. 3.58422939e-03 0.
      0. 2.27001179e-02 3.58422939e-03 5.97371534e-03 2.38948618e-03
      4.77897236e-03 4.42054942e-02 2.62843482e-02 8.24372768e-02
      1.20669052e-01 2.38948613e-01 4.10991609e-01 6.92950964e-01
      9.99999940e-01 8.75746667e-01 5.28076470e-01 2.92712063e-01
      2.23416954e-01 8.00477862e-02 1.27837509e-01 5.01792096e-02
      8.12425315e-02 2.27001179e-02 1.79211460e-02 1.43369175e-02
      8.12425315e-02 0. 1.19474307e-02 2.38948618e-03 8.36320128e-03
      2.74790917e-02 1.55316601e-02 1.19474309e-03 2.38948618e-03 0.
      2.38948618e-03 0. 3.58422939e-03 3.58422939e-03 0. 0. 0. 0.
      3.58422939e-03 0. 1.31421741e-02 1.19474309e-03 0. 0. 0.
      3.58422939e-03 0. 0. 0. 0. 0. 0. 0. 0. 0. 0. 7.16845877e-03 0. 0.
      0. 0. 0. 0. 0. 0. 5.97371534e-02 0. 0. 0. 0. 1.19474309e-03 0. 0.
      2.03106329e-02 0. 0. 0. 2.38948618e-03 0. 0.</_>
    <_>
      1.11111112e-01 1.11111112e-01 1.11111112e-01 1.11111112e-01
      8.33333358e-02 8.33333358e-02 8.33333358e-02 1.11111112e-01
      8.33333358e-02 8.33333358e-02 5.55555560e-02 0. 0. 2.77777780e-02
      0. 7.50000000e-01 1. 1. 8.33333313e-01 5.83333313e-01
      4.16666657e-01 3.88888896e-01 5.00000000e-01 6.94444478e-01
      6.11111104e-01 3.33333343e-01 4.44444448e-01 7.22222209e-01
      8.33333313e-01 1. 1. 1. 2.50000000e-01 2.50000000e-01
      2.50000000e-01 6.94444478e-01 6.94444478e-01 6.94444478e-01
      5.55555582e-01 5.55555582e-01 4.16666657e-01 4.44444448e-01
      5.55555582e-01 8.05555582e-01 9.72222209e-01 1. 9.16666687e-01
      8.88888896e-01 9.16666687e-01 1. 1. 1. 7.77777791e-01
      6.66666687e-01 6.11111104e-01 6.11111104e-01 6.11111104e-01
      6.38888896e-01 6.11111104e-01 6.38888896e-01 5.27777791e-01
      5.55555582e-01 6.94444478e-01 9.72222209e-01 1. 1. 8.88888896e-01
      7.50000000e-01 5.55555582e-01 5.00000000e-01 6.11111104e-01
      6.66666687e-01 6.66666687e-01 5.00000000e-01 5.27777791e-01
      6.94444478e-01 8.33333313e-01 1. 1. 1. 9.16666687e-01
      7.22222209e-01 6.38888896e-01 6.66666687e-01 6.11111104e-01
      6.66666687e-01 6.38888896e-01 5.83333313e-01 5.55555582e-01
      5.27777791e-01 6.11111104e-01 8.05555582e-01 1. 9.72222209e-01
      8.05555582e-01 5.83333313e-01 5.00000000e-01 4.44444448e-01
      4.44444448e-01 4.72222239e-01 5.83333313e-01 5.27777791e-01
      5.55555582e-01 4.16666657e-01 5.27777791e-01 7.50000000e-01 1. 1.
      1. 6.38888896e-01 3.88888896e-01 3.33333343e-01 5.27777791e-01
      6.94444478e-01 7.22222209e-01 6.66666687e-01 5.55555582e-01
      3.33333343e-01 3.88888896e-01 6.66666687e-01 1. 9.72222209e-01
      5.83333313e-01 0. 0. 0. 0. 0. 0. 0. 5.55555560e-02 8.33333358e-02
      8.33333358e-02 1.11111112e-01 1.11111112e-01 5.55555560e-02 1.
      9.90291297e-01 9.70873773e-01 9.80582535e-01 9.90291297e-01
      6.79611683e-01 5.72815537e-01 4.85436887e-01 5.43689311e-01
      6.31067991e-01 6.60194159e-01 7.18446612e-01 8.05825233e-01
      7.86407769e-01 7.57281542e-01 6.89320385e-01 6.11650467e-01
      6.21359229e-01 6.79611683e-01 7.96116531e-01 7.57281542e-01
      7.28155375e-01 7.28155375e-01 7.28155375e-01 6.89320385e-01
      7.18446612e-01 7.08737850e-01 6.11650467e-01 4.36893195e-01
      4.46601957e-01 5.04854381e-01 6.89320385e-01 1. 9.41747606e-01
      9.12621379e-01 8.64077687e-01 3.28227575e-03 0. 0. 0. 0. 0.
      6.56455150e-03 1.09409192e-03 5.47045935e-03 5.47045935e-03
      9.84682702e-03 1.31291030e-02 1.75054707e-02 3.93873081e-02
      3.28227580e-02 4.81400453e-02 1.09409191e-01 3.15098464e-01
      7.65864313e-01 1. 9.25601780e-01 4.84682709e-01 2.81181633e-01
      1.47702411e-01 7.43982494e-02 5.47045954e-02 4.70459536e-02
      3.06345746e-02 9.84682702e-03 7.65864365e-03 9.84682702e-03
      6.56455150e-03 2.18818383e-03 3.28227575e-03 2.18818383e-03
      8.75273533e-03 2.18818383e-03 0. 0. 0. 0. 0. 0. 0. 0. 0. 0. 0. 0.
      0. 0. 0. 0. 0. 0. 2.18818383e-03 0. 0. 0. 0. 0. 0. 0. 0. 0. 0.
      2.18818383e-03 0. 0. 0. 0. 0. 0. 0. 0. 2.18818383e-03 0. 0. 0. 0.
      0. 0. 0. 2.18818383e-03 0. 0. 0. 0. 0. 0. 0. 0. 0. 0. 0. 0.
      1.09409192e-03 0. 0. 0. 0. 0. 0. 0. 0. 0. 4.37636767e-03 0.
      5.47045935e-03 1.09409192e-03 2.07877457e-02 7.43982494e-02
      5.47045954e-02 9.73741785e-02 3.71991247e-02 1.00656457e-01
      2.28665218e-01 1.09409192e-03 5.57986870e-02 1.96936540e-02
      5.79868704e-02 0. 4.04813997e-02 1.09409192e-03 8.75273533e-03
      2.07877457e-02 7.65864365e-03 0. 2.18818383e-03 1.09409192e-03
      1.09409192e-03 0. 3.28227575e-03 2.18818383e-03 0. 0. 0. 0. 0. 0.
      6.56455150e-03 0. 0. 0. 0. 0. 0. 0. 0. 0. 0. 0. 0. 0. 0. 0.
      4.37636767e-03 0. 0. 0. 0. 0. 0. 0. 0. 2.18818383e-03 0. 0. 0. 0.
      0. 0. 0. 1.42231947e-02 0. 0. 0. 0. 0. 0.</_>
    <_>
      0. 0. 0. 0. 0. 1.71428576e-01 4.28571433e-01 5.71428597e-01
      5.42857170e-01 3.14285725e-01 3.71428579e-01 2.85714298e-01
      4.28571433e-01 6.00000024e-01 6.57142878e-01 3.42857152e-01
      3.14285725e-01 5.71428575e-02 0. 0. 0. 1.14285715e-01
      9.42857146e-01 9.42857146e-01 9.42857146e-01 3.42857152e-01
      1.71428576e-01 2.00000003e-01 2.00000003e-01 2.57142872e-01
      2.85714298e-01 2.57142872e-01 2.85714298e-01 2.57142872e-01
      1.71428576e-01 2.85714287e-02 0. 0. 0. 2.85714287e-02
      1.42857149e-01 1.71428576e-01 1.14285715e-01 0. 0. 0. 0. 0. 0. 0.
      0. 9.14285719e-01 1. 9.71428573e-01 7.71428585e-01 2.85714287e-02
      0. 0. 0. 0. 0. 0. 0. 8.57142881e-02 6.28571451e-01 7.42857158e-01
      7.42857158e-01 6.28571451e-01 3.71428579e-01 3.42857152e-01
      3.14285725e-01 3.42857152e-01 3.71428579e-01 5.71428597e-01
      6.57142878e-01 5.42857170e-01 4.57142860e-01 8.57142881e-02 0. 0.
      0. 6.28571451e-01 8.00000012e-01 8.57142866e-01 5.14285743e-01
      2.57142872e-01 2.57142872e-01 2.57142872e-01 2.57142872e-01
      2.28571430e-01 3.14285725e-01 8.57142866e-01 8.57142866e-01
      7.71428585e-01 6.57142878e-01 0. 0. 0. 0. 2.57142872e-01
      4.28571433e-01 5.14285743e-01 8.28571439e-01 5.42857170e-01
      3.71428579e-01 3.42857152e-01 2.85714298e-01 4.28571433e-01
      4.85714287e-01 4.28571433e-01 3.71428579e-01 2.00000003e-01
      5.71428575e-02 0. 0. 1.42857149e-01 2.00000003e-01 2.00000003e-01
      2.28571430e-01 2.00000003e-01 1.42857149e-01 1.14285715e-01
      1.14285715e-01 1.14285715e-01 1.42857149e-01 1.71428576e-01
      8.57142866e-01 8.85714293e-01 8.28571439e-01 2.85714298e-01 0. 0.
      0. 0. 0. 0. 4.90909070e-01 6.90909088e-01 9.99999940e-01
      9.45454538e-01 9.81818140e-01 8.18181813e-01 5.63636363e-01
      5.45454502e-01 5.27272701e-01 5.09090900e-01 5.45454502e-01
      6.54545426e-01 7.45454550e-01 8.54545414e-01 9.27272677e-01
      9.81818140e-01 9.09090877e-01 8.54545414e-01 7.27272689e-01
      5.99999964e-01 6.18181825e-01 5.99999964e-01 5.99999964e-01
      5.27272701e-01 5.09090900e-01 5.81818163e-01 6.36363626e-01
      7.09090889e-01 7.63636351e-01 7.99999952e-01 7.99999952e-01
      8.54545414e-01 7.99999952e-01 6.18181825e-01 4.18181807e-01
      2.36363634e-01 0. 0. 0. 0. 0. 0. 0. 0. 0. 0. 0. 0. 0. 0. 0. 0. 0.
      0. 0. 0. 0. 0. 0. 0. 0. 0. 0. 0. 0. 0. 0. 0. 0. 0. 0. 0. 0. 0. 0.
      0. 0. 0. 0. 0. 0. 0. 0. 0. 0. 0. 0. 0. 0. 0. 0. 0. 0. 0. 0. 0. 0.
      0. 0. 0. 0. 0. 0. 0. 0. 0. 0. 0. 0. 0. 0. 0. 0. 0. 0. 0. 0. 0. 0.
      0. 0. 0. 0. 0. 0. 0. 0. 0. 0. 1.21654500e-03 0. 2.43309001e-03
      1.21654500e-03 0. 9.73236002e-03 2.43309001e-03 2.43309001e-03
      9.73236002e-03 6.08272478e-03 2.55474448e-02 2.55474448e-02
      5.83941601e-02 1.30170316e-01 3.09002429e-01 5.24330914e-01 1.
      8.11435521e-01 4.67153281e-01 4.29440379e-01 2.59124100e-01
      2.49391720e-01 1.28953770e-01 2.32360095e-01 1.50851578e-01
      1.35036498e-01 1.47201940e-01 1.24087587e-01 8.02919716e-02
      9.61070582e-02 7.17761517e-02 6.20437935e-02 8.15085173e-02
      7.42092431e-02 3.89294401e-02 2.31143553e-02 3.28467153e-02
      2.43308991e-02 1.94647200e-02 1.45985400e-02 1.58150848e-02
      7.29927002e-03 8.51581525e-03 1.45985400e-02 3.64963501e-03
      8.51581525e-03 6.08272478e-03 6.08272478e-03 4.86618001e-03
      3.64963501e-03 7.29927002e-03 0. 4.86618001e-03 2.43309001e-03 0.
      0. 0. 0. 0. 0. 0. 0. 0. 0. 0. 0. 0. 0. 0. 0. 0. 0. 0. 0. 0. 0. 0.
      0. 0. 0. 0. 0. 0. 0. 0. 0. 0.</_>
    <_>
      6.36363626e-01 5.90909123e-01 6.36363626e-01 6.36363626e-01
      6.36363626e-01 5.90909123e-01 6.36363626e-01 5.90909123e-01
      1.36363640e-01 0. 0. 0. 0. 0. 0. 0. 0. 4.54545468e-02 0. 0. 0.
      2.72727281e-01 5.45454562e-01 2.27272734e-01 2.72727281e-01
      9.09090936e-01 4.09090936e-01 3.63636374e-01 7.72727311e-01
      7.27272749e-01 7.27272749e-01 1.36363640e-01 0. 0. 3.63636374e-01
      9.54545498e-01 1. 4.09090936e-01 3.18181813e-01 3.18181813e-01
      4.09090936e-01 4.54545468e-01 7.27272749e-01 7.72727311e-01
      5.90909123e-01 4.54545468e-02 0. 0. 4.54545468e-02 1.36363640e-01
      4.54545468e-02 4.54545468e-02 4.54545468e-02 1.81818187e-01
      5.00000000e-01 6.36363626e-01 5.45454562e-01 5.45454562e-01
      4.54545468e-01 4.54545468e-01 4.09090936e-01 5.00000000e-01
      4.54545468e-01 3.18181813e-01 4.54545468e-02 4.54545468e-02
      4.54545468e-02 9.54545498e-01 9.54545498e-01 9.54545498e-01
      3.63636374e-01 3.18181813e-01 3.63636374e-01 3.63636374e-01
      4.09090936e-01 3.63636374e-01 3.63636374e-01 2.27272734e-01
      4.54545468e-02 4.54545468e-02 1.36363640e-01 9.54545498e-01
      9.54545498e-01 2.72727281e-01 1.36363640e-01 1.36363640e-01
      1.81818187e-01 1.81818187e-01 1.36363640e-01 1.36363640e-01
      1.36363640e-01 4.54545468e-02 4.54545468e-02 4.54545468e-02
      3.63636374e-01 7.27272749e-01 9.54545498e-01 6.36363626e-01
      4.09090936e-01 4.09090936e-01 4.09090936e-01 5.90909123e-01
      8.63636374e-01 6.81818187e-01 4.09090936e-01 4.54545468e-02
      4.54545468e-02 4.54545468e-02 4.09090936e-01 5.90909123e-01
      5.90909123e-01 5.45454562e-01 5.00000000e-01 4.09090936e-01
      4.09090936e-01 5.00000000e-01 5.00000000e-01 3.18181813e-01 0.
      4.54545468e-02 0. 9.09090936e-02 1.36363640e-01 3.18181813e-01 0.
      0. 0. 0. 0. 0. 0. 0. 0. 0. 4.54545468e-02 1.36363640e-01 1.
      1.78571433e-01 1.54761910e-01 1.54761910e-01 1.30952388e-01
      1.07142858e-01 1.07142858e-01 2.02380955e-01 5.11904776e-01
      6.19047642e-01 4.40476209e-01 3.92857164e-01 3.80952388e-01
      4.76190478e-01 3.45238090e-01 3.57142866e-01 5.23809552e-01
      5.83333373e-01 5.83333373e-01 4.52380955e-01 4.16666687e-01
      3.45238090e-01 3.80952388e-01 3.92857164e-01 4.28571433e-01
      5.47619045e-01 6.66666687e-01 5.23809552e-01 2.38095243e-02 0. 0.
      0. 0. 1.19047621e-02 0. 0. 2.37741452e-02 0. 0. 0. 0. 0. 0. 0. 0.
      0. 0. 0. 0. 0. 0. 0. 0. 0. 0. 0. 0. 0. 0. 0. 0. 0. 0. 0. 0. 0. 0.
      0. 0. 0. 0. 0. 0. 0. 0. 0. 0. 0. 0. 0. 0. 0. 0. 0. 0. 0. 0. 0. 0.
      0. 0. 0. 0. 0. 0. 0. 0. 0. 0. 7.42942048e-03 0. 0. 8.91530421e-03
      0. 1.48588407e-03 0. 2.97176815e-03 0. 0. 8.91530421e-03
      4.45765210e-03 3.56612168e-02 0. 0. 0. 1.48588407e-03
      5.05200587e-02 0. 0. 5.34918271e-02 0. 2.97176815e-03 0.
      7.87518546e-02 0. 0. 1.66419014e-01 0. 0. 1.18870726e-02 0.
      2.97176815e-03 4.42793459e-01 0. 1.78306084e-02 0. 0.
      8.02377388e-02 1.48588407e-03 2.42199108e-01 4.01188694e-02
      4.75482903e-02 1.38187215e-01 1.57503709e-01 2.10995540e-01
      3.68499249e-01 6.37444258e-01 5.92867732e-01 1. 7.48885572e-01
      9.40564632e-01 3.04606229e-01 4.14561659e-01 1.12927191e-01
      6.98365495e-02 5.94353639e-02 9.21248123e-02 4.45765210e-03
      7.42942048e-03 7.42942048e-03 4.45765210e-03 1.33729568e-02
      7.42942048e-03 0. 0. 2.97176815e-03 5.94353629e-03 0.
      1.48588407e-03 0. 0. 0. 0. 0. 0. 0. 2.67459136e-02 0. 0. 0. 0. 0.
      0. 0. 0. 0. 1.48588407e-03 0. 0. 0. 0. 0. 1.48588407e-03 0. 0. 0.
      0. 0. 0. 0. 0. 5.94353629e-03 0. 0. 0. 0. 0. 0. 0. 1.48588407e-03
      0. 0. 0. 0. 0. 0.</_>
    <_>
      0. 0. 0. 0. 0. 0. 8.33333358e-02 3.33333343e-01 6.66666687e-01
      7.50000000e-01 7.50000000e-01 7.50000000e-01 7.22222209e-01
      7.22222209e-01 8.33333313e-01 8.33333313e-01 8.33333313e-01
      7.77777791e-01 7.22222209e-01 5.00000000e-01 3.61111104e-01 0.
      1.66666672e-01 6.94444478e-01 8.33333313e-01 8.61111104e-01
      8.61111104e-01 8.61111104e-01 7.77777791e-01 6.11111104e-01
      5.00000000e-01 4.72222239e-01 4.72222239e-01 5.27777791e-01
      8.05555582e-01 8.61111104e-01 8.61111104e-01 8.61111104e-01
      8.33333313e-01 6.66666687e-01 8.33333358e-02 1.11111112e-01
      4.72222239e-01 6.38888896e-01 6.94444478e-01 4.16666657e-01
      1.66666672e-01 1.94444448e-01 6.11111104e-01 7.50000000e-01
      8.88888896e-01 9.44444478e-01 1. 5.00000000e-01 3.33333343e-01
      5.00000000e-01 5.55555582e-01 4.72222239e-01 8.61111104e-01
      9.16666687e-01 9.16666687e-01 8.88888896e-01 8.33333313e-01
      6.11111104e-01 5.55555560e-02 8.33333358e-02 2.50000000e-01
      5.27777791e-01 7.22222209e-01 7.50000000e-01 7.50000000e-01
      7.50000000e-01 7.50000000e-01 7.50000000e-01 6.66666687e-01
      6.38888896e-01 6.11111104e-01 5.83333313e-01 4.44444448e-01
      2.77777791e-01 3.05555552e-01 3.05555552e-01 3.05555552e-01
      3.61111104e-01 5.83333313e-01 6.66666687e-01 6.94444478e-01
      5.83333313e-01 5.55555582e-01 5.83333313e-01 6.94444478e-01
      8.05555582e-01 8.33333313e-01 7.77777791e-01 6.66666687e-01
      5.00000000e-01 4.16666657e-01 2.77777791e-01 2.77777791e-01
      1.94444448e-01 5.55555560e-02 3.61111104e-01 5.00000000e-01
      5.55555582e-01 6.11111104e-01 6.94444478e-01 7.22222209e-01
      6.94444478e-01 6.38888896e-01 6.38888896e-01 6.38888896e-01
      6.38888896e-01 5.27777791e-01 4.44444448e-01 4.72222239e-01
      5.55555582e-01 4.16666657e-01 0. 2.77777791e-01 5.00000000e-01
      7.22222209e-01 7.50000000e-01 7.50000000e-01 7.50000000e-01
      7.77777791e-01 6.66666687e-01 5.83333313e-01 5.55555582e-01
      6.66666687e-01 7.50000000e-01 6.94444478e-01 6.11111104e-01
      4.44444448e-01 1.94444448e-01 0. 0. 8.49056616e-02 1.69811323e-01
      3.49056602e-01 4.71698105e-01 6.32075489e-01 7.26415098e-01
      8.01886797e-01 8.58490586e-01 8.39622676e-01 8.58490586e-01
      8.86792481e-01 8.67924571e-01 9.43396211e-01 9.71698105e-01
      9.62264180e-01 9.62264180e-01 9.52830195e-01 1. 9.81132090e-01
      9.62264180e-01 9.33962286e-01 9.43396211e-01 9.43396211e-01
      9.33962286e-01 9.15094376e-01 9.24528301e-01 8.67924571e-01
