<?xml version="1.0"?>
<opencv_storage>
<opencv_ml_svm>
  <format>3</format>
  <svmType>C_SVC</svmType>
  <kernel>
    <type>RBF</type>
    <gamma>3.3750000000000002e-02</gamma></kernel>
  <C>2.5000000000000000e+00</C>
  <term_criteria><iterations>20000</iterations></term_criteria>
  <var_count>352</var_count>
  <class_count>2</class_count>
  <class_labels type_id="opencv-matrix">
    <rows>2</rows>
    <cols>1</cols>
    <dt>i</dt>
    <data>
      0 1</data></class_labels>
  <sv_total>12</sv_total>
  <support_vectors>
    <_>
      0. 0. 9.37500000e-02 4.37500000e-01 6.25000000e-01 4.68750000e-01
      2.50000000e-01 2.81250000e-01 7.18750000e-01 6.56250000e-01
      2.50000000e-01 2.81250000e-01 4.68750000e-01 5.31250000e-01
      4.06250000e-01 2.18750000e-01 0. 0. 0. 0. 8.12500000e-01
      9.68750000e-01 1. 6.87500000e-01 2.81250000e-01 2.81250000e-01
      2.81250000e-01 2.50000000e-01 2.81250000e-01 2.50000000e-01
      2.81250000e-01 7.18750000e-01 9.37500000e-01 9.37500000e-01
      9.06250000e-01 0. 0. 0. 0. 1.25000000e-01 1.25000000e-01 0. 0. 0.
      0. 0. 9.37500000e-02 2.81250000e-01 5.00000000e-01 5.93750000e-01
      7.50000000e-01 5.93750000e-01 5.31250000e-01 5.31250000e-01
      6.56250000e-01 5.93750000e-01 5.31250000e-01 3.75000000e-01
      2.18750000e-01 3.12500000e-02 0. 0. 0. 0. 1.25000000e-01
      2.50000000e-01 2.50000000e-01 2.50000000e-01 2.81250000e-01
      4.06250000e-01 4.06250000e-01 4.37500000e-01 5.93750000e-01
      5.00000000e-01 5.31250000e-01 7.18750000e-01 5.93750000e-01
      3.43750000e-01 0. 0. 0. 0. 9.37500000e-02 5.62500000e-01
      7.18750000e-01 8.75000000e-01 5.62500000e-01 4.06250000e-01
      2.81250000e-01 2.81250000e-01 3.12500000e-01 4.06250000e-01
      5.00000000e-01 8.43750000e-01 8.12500000e-01 5.93750000e-01
      1.25000000e-01 0. 0. 0. 1.25000000e-01 9.37500000e-01
      9.37500000e-01 9.37500000e-01 3.43750000e-01 2.81250000e-01
      2.81250000e-01 2.81250000e-01 2.81250000e-01 2.81250000e-01
      2.81250000e-01 2.81250000e-01 3.12500000e-01 2.18750000e-01
      1.25000000e-01 0. 0. 0. 0. 1.25000000e-01 6.56250000e-01
      6.56250000e-01 6.56250000e-01 6.25000000e-01 3.12500000e-01
      2.81250000e-01 2.81250000e-01 2.81250000e-01 3.43750000e-01
      4.06250000e-01 5.93750000e-01 5.31250000e-01 4.37500000e-01
      6.25000000e-02 0. 0. 2.15384617e-01 4.15384620e-01 6.61538482e-01
      7.53846169e-01 6.92307711e-01 8.46153855e-01 7.38461554e-01
      6.92307711e-01 4.92307693e-01 4.92307693e-01 5.38461566e-01
      8.00000012e-01 8.30769241e-01 9.23076928e-01 9.38461542e-01
      8.92307699e-01 7.53846169e-01 6.76923096e-01 7.23076940e-01
      6.92307711e-01 5.69230795e-01 5.38461566e-01 5.53846180e-01
      6.30769253e-01 6.92307711e-01 7.53846169e-01 8.15384626e-01
      9.23076928e-01 1. 9.69230771e-01 8.00000012e-01 4.76923078e-01
      2.76923090e-01 3.07692308e-02 0. 0. 7.39644980e-04 0. 0. 0. 0. 0.
      0. 0. 0. 0. 0. 0. 0. 0. 0. 0. 0. 0. 0. 0. 7.39644980e-04 0. 0. 0.
      0. 0. 0. 0. 0. 0. 1.47928996e-03 0. 0. 0. 0. 0. 0. 0. 0. 0. 0. 0.
      1.47928996e-03 2.21893494e-03 0. 0. 0. 0. 7.39644980e-04 0. 0.
      1.47928996e-03 0. 0. 0. 1.47928996e-03 0. 0. 0. 0. 5.17751463e-03
      0. 7.39644980e-04 7.39644980e-04 0. 0. 5.17751463e-03
      7.39644980e-04 0. 0. 3.69822490e-03 7.39644980e-04 0.
      3.69822490e-03 7.39644980e-04 3.69822490e-03 7.39644980e-04 0. 0.
      2.21893494e-03 1.33136101e-02 0. 0. 4.43786988e-03 2.21893494e-03
      2.21893494e-03 0. 1.10946745e-02 0. 0. 1.18343197e-02 0.
      2.95857992e-03 5.17751463e-03 0. 2.81065088e-02 8.13609455e-03 0.
      1.77514795e-02 1.03550293e-02 1.03550293e-02 5.69526628e-02
      2.36686394e-02 4.80769239e-02 5.69526628e-02 1.13905326e-01
      1.08727813e-01 1.79733723e-01 3.34319532e-01 1. 9.85946774e-01
      3.94970417e-01 1.01331361e-01 1.33136101e-02 8.87573976e-03
      6.65680505e-03 8.13609455e-03 7.39644980e-04 7.39644980e-04 0.
      2.95857992e-03 0. 2.21893494e-03 7.39644980e-04 2.21893494e-03
      1.47928996e-03 7.39644980e-04 0. 0. 0. 0. 0. 7.39644980e-04 0. 0.
      0. 0. 0. 0. 0. 0. 0. 0. 0. 0. 0. 0. 0. 0. 0. 0. 0. 0. 0. 0. 0. 0.
      0. 0. 0. 0. 0. 0. 0. 0. 7.39644980e-04 0. 0. 0. 0. 0. 0. 0. 0. 0.
      0. 0. 0. 0. 0.</_>
    <_>
      0. 2.90322572e-01 7.41935492e-01 6.45161271e-02 6.45161271e-02
      1.61290318e-01 3.54838699e-01 7.41935492e-01 6.45161271e-01
      3.54838699e-01 4.83870953e-01 7.09677398e-01 7.09677398e-01
      4.19354826e-01 3.87096763e-01 6.12903237e-01 7.41935492e-01
      6.45161271e-01 2.25806445e-01 9.67741907e-02 3.22580636e-02
      3.22580636e-02 1.93548381e-01 9.35483813e-01 9.67741907e-01
      9.67741907e-01 4.51612890e-01 4.19354826e-01 4.19354826e-01
      3.87096763e-01 3.87096763e-01 3.87096763e-01 4.19354826e-01
      7.41935492e-01 1. 1. 8.06451559e-01 0. 0. 0. 3.22580636e-02
      1.29032254e-01 9.67741907e-02 0. 0. 0. 0. 9.35483813e-01
      9.67741907e-01 9.67741907e-01 8.38709652e-01 2.25806445e-01
      2.25806445e-01 2.58064508e-01 2.58064508e-01 2.58064508e-01
      2.58064508e-01 5.80645144e-01 8.70967746e-01 8.06451559e-01
      6.77419305e-01 0. 0. 0. 1.61290318e-01 3.22580636e-01
      3.54838699e-01 4.83870953e-01 5.48387051e-01 4.83870953e-01
      4.83870953e-01 5.48387051e-01 5.16129017e-01 5.16129017e-01
      5.16129017e-01 4.19354826e-01 3.54838699e-01 2.25806445e-01 0. 0.
      0. 1.61290318e-01 4.51612890e-01 7.41935492e-01 8.38709652e-01
      6.45161271e-01 4.19354826e-01 3.54838699e-01 3.54838699e-01
      3.87096763e-01 4.83870953e-01 8.06451559e-01 8.38709652e-01
      6.12903237e-01 2.90322572e-01 0. 0. 0. 0. 2.58064508e-01
      4.19354826e-01 5.80645144e-01 4.51612890e-01 4.19354826e-01
      3.87096763e-01 3.87096763e-01 4.83870953e-01 4.83870953e-01
      5.48387051e-01 5.80645144e-01 4.83870953e-01 2.90322572e-01 0. 0.
      0. 1.29032254e-01 2.90322572e-01 3.22580636e-01 2.90322572e-01
      3.22580636e-01 4.19354826e-01 4.51612890e-01 5.48387051e-01
      5.80645144e-01 6.77419305e-01 7.41935492e-01 6.12903237e-01
      4.19354826e-01 0. 0. 1.29032254e-01 6.12903237e-01 1.29032254e-01
      0. 0. 0. 4.23728824e-01 2.37288132e-01 2.88135588e-01
      3.72881353e-01 7.11864412e-01 7.45762706e-01 8.47457647e-01
      8.98305058e-01 8.30508471e-01 7.11864412e-01 8.81355941e-01
      8.64406765e-01 9.49152529e-01 7.28813589e-01 7.79661000e-01 1. 1.
      1. 8.64406765e-01 8.30508471e-01 7.79661000e-01 7.79661000e-01
      7.79661000e-01 9.32203412e-01 9.15254235e-01 8.13559294e-01
      7.62711883e-01 7.62711883e-01 8.30508471e-01 8.64406765e-01
      9.15254235e-01 8.98305058e-01 8.64406765e-01 7.11864412e-01
      5.08474588e-01 3.22033912e-01 9.13241995e-04 0. 0. 0. 0. 0. 0. 0.
      0. 0. 0. 0. 0. 0. 0. 0. 0. 0. 0. 0. 9.13241995e-04 0. 0. 0. 0. 0.
      0. 0. 0. 0. 1.82648399e-03 0. 9.13241995e-04 0. 2.73972610e-03
      7.30593596e-03 1.82648399e-03 9.13241995e-04 6.39269408e-03
      9.13241995e-04 2.73972610e-03 0. 7.30593596e-03 3.65296798e-03 0.
      1.82648399e-03 3.65296798e-03 0. 6.39269408e-03 0. 6.39269408e-03
      1.64383557e-02 1.82648399e-03 0. 3.65296798e-03 5.47945220e-03
      5.47945220e-03 4.56620986e-03 9.13241995e-04 0. 1.36986300e-02 0.
      0. 6.39269408e-03 0. 0. 1.73515975e-02 9.13241995e-04
      7.30593596e-03 3.65296798e-03 1.00456616e-02 0. 9.13241995e-04
      1.00456616e-02 9.13241971e-03 7.30593596e-03 3.65296798e-03 0. 0.
      1.46118719e-02 4.10958901e-02 0. 0. 5.47945220e-03 8.21917783e-03
      1.27853882e-02 0. 4.93150689e-02 0. 0. 3.10502276e-02 0.
      7.30593596e-03 1.55251138e-02 9.13241995e-04 5.38812764e-02
      3.83561626e-02 1.82648399e-03 4.56621014e-02 1.73515975e-02
      2.28310507e-02 9.77168903e-02 3.56164388e-02 7.94520527e-02
      6.21004552e-02 1.06849313e-01 1.07762553e-01 1.93607301e-01
      2.30136976e-01 4.81278539e-01 9.22374427e-01 1. 4.45662081e-01
      1.00456618e-01 2.64840182e-02 5.47945220e-03 4.56620986e-03 0. 0.
      0. 8.21917783e-03 0. 0. 0. 9.13241995e-04 4.56620986e-03
      3.65296798e-03 0. 9.13241995e-04 0. 9.13241995e-04 0. 0. 0. 0. 0.
      0. 0. 0. 0. 9.13241995e-04 0. 0. 0. 0. 0. 0. 0. 0. 0. 0. 0. 0. 0.
      0. 0. 0. 0. 0. 0. 0. 0. 0. 0. 0. 0. 0. 0. 0. 0. 0. 0. 0. 0. 0. 0.
      0. 0. 0. 0.</_>
    <_>
      0. 0. 1.17647059e-01 2.05882356e-01 6.17647052e-01 5.88235319e-01
      4.70588237e-01 2.94117659e-01 6.76470578e-01 7.05882370e-01
      6.76470578e-01 2.35294119e-01 2.94117659e-01 5.29411793e-01
      6.47058845e-01 2.64705896e-01 1.76470593e-01 0. 0. 0. 0. 1. 1. 1.
      4.70588237e-01 3.52941185e-01 3.52941185e-01 3.52941185e-01
      3.52941185e-01 3.52941185e-01 3.82352948e-01 4.41176474e-01 1. 1.
      1. 7.35294104e-01 0. 0. 0. 5.88235296e-02 8.82352963e-02
      8.82352963e-02 5.88235296e-02 0. 0. 0. 8.82352963e-02 1. 1. 1.
      1.17647059e-01 1.17647059e-01 8.82352963e-02 8.82352963e-02
      8.82352963e-02 8.82352963e-02 8.82352963e-02 8.82352963e-02
      8.82352963e-02 8.82352963e-02 8.82352963e-02 0. 0. 0.
      2.94117648e-02 7.35294104e-01 8.23529422e-01 8.82352948e-01
      9.11764681e-01 2.94117659e-01 2.35294119e-01 2.05882356e-01
      2.05882356e-01 2.05882356e-01 2.64705896e-01 5.58823526e-01
      9.11764681e-01 8.52941155e-01 7.64705896e-01 5.00000000e-01 0. 0.
      0. 9.41176474e-01 9.70588267e-01 1. 9.70588267e-01 2.05882356e-01
      2.35294119e-01 2.05882356e-01 2.05882356e-01 2.05882356e-01
      2.64705896e-01 2.94117659e-01 5.00000000e-01 4.41176474e-01
      3.52941185e-01 2.35294119e-01 0. 0. 0. 8.82352963e-02
      2.94117659e-01 3.82352948e-01 5.00000000e-01 5.00000000e-01
      4.41176474e-01 3.82352948e-01 4.11764711e-01 4.41176474e-01
      5.00000000e-01 5.29411793e-01 6.76470578e-01 6.17647052e-01
      5.00000000e-01 3.23529422e-01 0. 0. 0. 0. 6.17647052e-01
      7.05882370e-01 7.35294104e-01 7.05882370e-01 3.52941185e-01
      3.23529422e-01 2.94117659e-01 2.94117659e-01 3.23529422e-01
      3.82352948e-01 7.05882370e-01 6.47058845e-01 5.88235319e-01
      3.82352948e-01 0. 0. 0. 2.13333338e-01 6.53333366e-01
      7.73333371e-01 1. 7.73333371e-01 5.86666703e-01 5.60000002e-01
      5.46666682e-01 5.33333361e-01 7.06666708e-01 7.06666708e-01
      6.39999986e-01 6.39999986e-01 7.33333349e-01 7.73333371e-01
      8.40000033e-01 9.20000017e-01 9.20000017e-01 8.40000033e-01
      6.93333328e-01 5.20000041e-01 5.06666660e-01 5.06666660e-01
      5.60000002e-01 5.46666682e-01 6.00000024e-01 5.73333323e-01
      6.00000024e-01 6.00000024e-01 6.13333344e-01 7.33333349e-01
      8.66666675e-01 7.20000029e-01 5.60000002e-01 0. 0. 0. 0. 0. 0. 0.
      0. 0. 0. 0. 0. 0. 0. 0. 0. 0. 0. 0. 0. 0. 0. 0. 0. 0. 0. 0. 0. 0.
      0. 0. 0. 0. 0. 0. 0. 0. 0. 0. 0. 0. 0. 0. 7.56429625e-04 0. 0. 0.
      0. 0. 0. 0. 7.56429625e-04 7.56429625e-04 7.56429625e-04 0. 0.
      7.56429625e-04 0. 0. 0. 0. 2.26928899e-03 0. 0. 0. 0. 0.
      7.56429625e-04 0. 0. 0. 7.56429625e-04 0. 0. 0. 0. 7.56429625e-04
      0. 0. 0. 7.56429625e-04 4.53857798e-03 0. 0. 3.78214801e-03
      1.51285925e-03 7.56429625e-04 0. 8.32072552e-03 0. 0.
      7.56429601e-03 0. 2.26928899e-03 4.53857798e-03 0. 1.43721625e-02
      9.07715596e-03 0. 1.96671709e-02 3.02571850e-03 5.29500749e-03
      3.78214829e-02 1.81543119e-02 3.02571841e-02 3.55521925e-02
      8.16944018e-02 4.46293466e-02 1.00605138e-01 6.80786669e-02
      1.58093795e-01 2.14826018e-01 2.73827523e-01 7.70045340e-01
      9.99999940e-01 6.22541606e-01 1.21028736e-01 2.72314660e-02
      2.26928899e-03 1.51285925e-03 7.56429625e-04 7.56429625e-04 0. 0.
      0. 0. 0. 0. 0. 0. 0. 0. 0. 0. 0. 0. 0. 0. 0. 0. 0. 0. 0. 0. 0. 0.
      0. 0. 0. 0. 0. 0. 0. 0. 0. 0. 0. 0. 0. 0. 0. 0. 0. 0. 0. 0. 0. 0.
      0. 0. 0. 0. 0. 0. 0. 0. 0. 0. 0. 0. 0.</_>
    <_>
      0. 0. 9.59999979e-01 3.99999991e-02 3.99999991e-02 7.99999982e-02
      3.99999976e-01 7.19999969e-01 5.19999981e-01 3.19999993e-01
      4.39999998e-01 7.59999990e-01 7.19999969e-01 3.19999993e-01
      2.80000001e-01 5.19999981e-01 6.39999986e-01 3.99999976e-01
      2.39999995e-01 3.99999991e-02 3.99999991e-02 3.99999991e-02
      3.99999991e-02 1. 1. 9.59999979e-01 3.99999976e-01 3.19999993e-01
      3.19999993e-01 3.59999985e-01 3.59999985e-01 3.19999993e-01
      3.99999976e-01 9.19999957e-01 9.59999979e-01 9.19999957e-01
      1.19999997e-01 0. 0. 0. 3.99999991e-02 1.59999996e-01
      1.99999988e-01 7.99999982e-02 7.99999982e-02 3.99999991e-02 0.
      1.19999997e-01 5.19999981e-01 7.59999990e-01 7.19999969e-01
      5.19999981e-01 3.99999976e-01 3.19999993e-01 2.80000001e-01
      3.59999985e-01 4.39999998e-01 6.39999986e-01 7.99999952e-01
      5.99999964e-01 3.19999993e-01 0. 0. 0. 0. 1.19999997e-01
      2.39999995e-01 3.19999993e-01 3.99999976e-01 3.19999993e-01
      3.59999985e-01 2.80000001e-01 3.19999993e-01 4.79999989e-01
      9.19999957e-01 9.19999957e-01 8.39999974e-01 7.99999982e-02 0. 0.
      0. 0. 6.39999986e-01 9.19999957e-01 9.19999957e-01 3.99999976e-01
      2.80000001e-01 2.39999995e-01 2.39999995e-01 2.39999995e-01
      2.39999995e-01 2.80000001e-01 2.80000001e-01 3.19999993e-01
      1.99999988e-01 7.99999982e-02 0. 0. 0. 0. 1.59999996e-01
      3.19999993e-01 3.99999976e-01 4.39999998e-01 3.99999976e-01
      3.19999993e-01 3.19999993e-01 3.59999985e-01 3.99999976e-01
      3.99999976e-01 5.19999981e-01 4.79999989e-01 3.19999993e-01 0. 0.
      0. 0. 1.99999988e-01 5.19999981e-01 7.99999952e-01 6.80000007e-01
      4.39999998e-01 3.19999993e-01 3.59999985e-01 3.59999985e-01
      2.80000001e-01 4.39999998e-01 7.19999969e-01 6.80000007e-01
      4.39999998e-01 0. 0. 0. 0. 0. 0. 0. 5.15151501e-01 1.36363640e-01
      6.06060624e-02 3.03030312e-02 1.51515156e-02 1.51515156e-02
      1.21212125e-01 7.12121248e-01 1. 8.33333373e-01 5.60606062e-01
      5.00000000e-01 6.36363626e-01 6.51515186e-01 6.36363626e-01
      6.06060624e-01 7.27272749e-01 8.63636374e-01 9.24242437e-01
      7.42424250e-01 5.60606062e-01 6.06060624e-01 5.90909123e-01
      6.51515186e-01 6.81818187e-01 7.27272749e-01 6.66666687e-01
      8.03030312e-01 8.78787875e-01 6.96969748e-01 0. 0. 0. 0. 0. 0. 0.
      0. 0. 0. 0. 0. 0. 0. 0. 0. 0. 0. 0. 0. 0. 0. 0. 0. 0. 0. 0. 0. 0.
      0. 0. 0. 0. 0. 0. 0. 0. 0. 0. 0. 0. 0. 0. 0. 0. 0. 0. 0. 0. 0. 0.
      0. 0. 0. 0. 0. 0. 0. 0. 0. 0. 0. 0. 0. 0. 0. 0. 0. 0. 0. 0. 0. 0.
      0. 0. 0. 0. 0. 0. 0. 0. 0. 0. 0. 0. 1.67224079e-03 0. 0.
      1.67224079e-03 0. 1.67224079e-03 0. 3.34448158e-03 0.
      1.67224079e-03 1.50501672e-02 3.34448158e-03 8.36120360e-03
      6.68896316e-03 1.67224079e-03 2.67558526e-02 1.17056854e-02
      1.17056854e-02 2.34113708e-02 2.84280926e-02 1.67224072e-02
      6.52173907e-02 3.34448144e-02 1.13712370e-01 5.68561852e-02
      1.03678927e-01 9.69899669e-02 1.65551841e-01 1.40468225e-01
      3.24414700e-01 4.51505005e-01 4.64882940e-01 9.13043499e-01
      9.29765880e-01 1. 5.48494995e-01 6.80602014e-01 4.49832767e-01
      2.77591974e-01 2.87625402e-01 1.87290967e-01 1.18729100e-01
      5.01672253e-02 1.97324410e-01 6.52173907e-02 1.13712370e-01
      3.51170562e-02 6.02006689e-02 3.34448158e-03 3.51170562e-02
      3.17725763e-02 5.01672225e-03 3.34448158e-03 1.33779263e-02 0. 0.
      0. 0. 0. 0. 0. 0. 0. 0. 0. 0. 0. 0. 0. 0. 0. 0. 0. 0. 0. 0. 0. 0.
      0. 0. 0. 0. 0. 0. 0. 0. 0. 0. 0. 0. 0. 0. 0. 0. 0. 0. 0. 0. 0. 0.</_>
    <_>
      0. 0. 1.99999988e-01 7.99999982e-02 3.99999991e-02 3.99999991e-02
      1.99999988e-01 5.99999964e-01 5.19999981e-01 1.19999997e-01
      1.59999996e-01 3.59999985e-01 6.39999986e-01 9.59999979e-01
      9.59999979e-01 6.80000007e-01 5.60000002e-01 5.60000002e-01
      4.39999998e-01 3.99999991e-02 3.99999991e-02 3.99999991e-02
      3.99999991e-02 6.39999986e-01 7.99999952e-01 8.79999995e-01
      3.59999985e-01 2.80000001e-01 3.19999993e-01 3.19999993e-01
      3.99999976e-01 4.39999998e-01 4.79999989e-01 7.99999952e-01
      8.39999974e-01 7.99999952e-01 1.19999997e-01 3.99999991e-02
      3.99999991e-02 3.99999991e-02 3.99999991e-02 1.19999997e-01
      1.19999997e-01 3.99999991e-02 3.99999991e-02 3.99999991e-02
      3.99999991e-02 1.19999997e-01 5.99999964e-01 1. 9.59999979e-01
      5.60000002e-01 4.79999989e-01 4.79999989e-01 5.60000002e-01
      4.39999998e-01 5.99999964e-01 6.39999986e-01 9.59999979e-01
      9.59999979e-01 3.19999993e-01 3.99999991e-02 3.99999991e-02
      3.99999991e-02 3.99999991e-02 2.39999995e-01 3.59999985e-01
      3.59999985e-01 3.99999976e-01 3.99999976e-01 4.39999998e-01
      4.79999989e-01 5.60000002e-01 5.19999981e-01 5.60000002e-01
      7.19999969e-01 5.99999964e-01 3.19999993e-01 3.99999991e-02
      7.99999982e-02 3.99999991e-02 3.99999991e-02 3.19999993e-01
      5.19999981e-01 6.80000007e-01 5.60000002e-01 5.60000002e-01
      4.39999998e-01 4.39999998e-01 4.79999989e-01 4.79999989e-01
      4.79999989e-01 5.60000002e-01 3.99999976e-01 2.80000001e-01
      3.99999991e-02 3.99999991e-02 3.99999991e-02 3.99999991e-02
      1.59999996e-01 3.19999993e-01 3.99999976e-01 4.39999998e-01
      4.39999998e-01 3.99999976e-01 3.99999976e-01 4.39999998e-01
      4.79999989e-01 5.60000002e-01 5.60000002e-01 5.99999964e-01
      3.59999985e-01 7.99999982e-02 0. 0. 0. 3.99999991e-02
      3.99999991e-02 0. 0. 0. 3.99999991e-02 1. 1. 9.19999957e-01
      3.99999991e-02 0. 0. 0. 3.99999991e-02 3.99999991e-02 0.
      3.99999991e-02 1. 0. 0. 2.97029689e-02 1. 9.90098994e-03 0.
      9.90098994e-03 9.90098994e-03 3.96039598e-02 4.05940592e-01
      5.14851451e-01 5.14851451e-01 4.05940592e-01 3.66336614e-01
      3.86138618e-01 3.96039605e-01 4.05940592e-01 4.25742567e-01
      4.85148519e-01 5.94059408e-01 5.04950464e-01 4.85148519e-01
      4.55445528e-01 4.15841579e-01 3.76237631e-01 4.05940592e-01
      4.25742567e-01 5.04950464e-01 5.04950464e-01 5.34653485e-01
      4.75247502e-01 3.36633652e-01 1.98019799e-02 9.90098994e-03
      9.90098994e-03 0. 9.90098994e-03 3.96039598e-02 0. 0. 0. 0. 0. 0.
      0. 0. 0. 0. 0. 0. 0. 0. 0. 0. 0. 0. 0. 0. 0. 0. 0. 0. 0. 0. 0. 0.
      0. 0. 0. 0. 0. 0. 0. 0. 0. 0. 0. 0. 0. 0. 0. 0. 0. 0. 0. 0. 0. 0.
      0. 0. 0. 0. 0. 0. 0. 0. 0. 0. 0. 0. 0. 0. 0. 0. 0. 0. 0. 0. 0. 0.
      0. 0. 0. 0. 0. 0. 0. 0. 2.67379684e-03 0. 0. 0. 0. 4.01069503e-03
      0. 4.01069503e-03 0. 0. 2.13903747e-02 4.01069503e-03
      2.67379684e-03 1.20320860e-02 4.01069503e-03 1.73796788e-02
      1.73796788e-02 8.02139007e-03 3.60962562e-02 3.20855603e-02
      2.13903747e-02 4.54545468e-02 3.20855603e-02 7.21925125e-02
      5.34759387e-02 1.04278080e-01 9.49197859e-02 1.57754019e-01
      1.60427809e-01 2.70053476e-01 3.42245996e-01 3.58288765e-01
      7.54010737e-01 9.58556175e-01 1. 7.71390378e-01 4.90641713e-01
      2.43315518e-01 1.39037430e-01 1.16310164e-01 7.21925125e-02
      1.06951874e-02 3.20855603e-02 2.00534761e-02 1.20320860e-02
      1.87165774e-02 4.01069503e-03 8.02139007e-03 0. 0. 9.35828872e-03
      1.33689842e-03 0. 1.33689842e-03 0. 1.33689842e-03 1.33689842e-03
      0. 0. 0. 0. 0. 0. 1.33689842e-03 0. 0. 0. 0. 0. 0. 0. 0. 0. 0. 0.
      0. 0. 0. 0. 0. 0. 0. 0. 0. 0. 0. 0. 0. 0. 0. 0. 0. 0. 0. 0. 0. 0.
      0. 0. 0.</_>
    <_>
      0. 0. 1.19999997e-01 1.19999997e-01 1.19999997e-01 7.99999982e-02
      3.59999985e-01 6.80000007e-01 6.39999986e-01 3.99999976e-01
      4.79999989e-01 7.99999952e-01 7.59999990e-01 4.39999998e-01
      3.19999993e-01 5.60000002e-01 6.80000007e-01 5.60000002e-01
      2.39999995e-01 3.99999991e-02 3.99999991e-02 3.99999991e-02
      3.99999991e-02 1. 1. 1. 4.39999998e-01 3.59999985e-01
      3.59999985e-01 3.59999985e-01 3.59999985e-01 3.19999993e-01
      3.19999993e-01 7.59999990e-01 9.19999957e-01 9.19999957e-01
      7.99999952e-01 3.99999991e-02 3.99999991e-02 3.99999991e-02
      3.99999991e-02 1.19999997e-01 1.19999997e-01 3.99999991e-02
      3.99999991e-02 3.99999991e-02 3.99999991e-02 8.79999995e-01
      9.59999979e-01 9.59999979e-01 6.80000007e-01 2.80000001e-01
      2.39999995e-01 2.39999995e-01 1.99999988e-01 1.99999988e-01
      1.99999988e-01 2.80000001e-01 9.59999979e-01 9.59999979e-01
      9.59999979e-01 3.99999991e-02 3.99999991e-02 0. 3.99999991e-02
      1.59999996e-01 3.59999985e-01 5.60000002e-01 7.19999969e-01
      6.39999986e-01 4.39999998e-01 3.99999976e-01 3.99999976e-01
      5.19999981e-01 5.60000002e-01 5.19999981e-01 3.19999993e-01
      1.59999996e-01 0. 0. 0. 0. 1.99999988e-01 5.19999981e-01
      7.19999969e-01 6.80000007e-01 4.79999989e-01 3.59999985e-01
      2.80000001e-01 3.19999993e-01 3.99999976e-01 4.79999989e-01
      7.59999990e-01 6.80000007e-01 5.19999981e-01 3.99999991e-02 0.
      3.99999991e-02 0. 1.19999997e-01 6.80000007e-01 7.59999990e-01
      3.99999976e-01 2.39999995e-01 1.99999988e-01 1.99999988e-01
      1.99999988e-01 1.59999996e-01 2.39999995e-01 3.19999993e-01
      7.99999952e-01 7.19999969e-01 6.39999986e-01 0. 0. 0. 0.
      1.19999997e-01 3.19999993e-01 3.99999976e-01 4.39999998e-01
      3.59999985e-01 3.59999985e-01 3.99999976e-01 3.59999985e-01
      3.59999985e-01 3.99999976e-01 5.19999981e-01 3.99999976e-01
      2.80000001e-01 0. 0. 0. 0. 0. 0. 0. 4.37500000e-01 7.50000000e-01
      1.56250000e-02 0. 0. 0. 1.71875000e-01 7.03125000e-01 1. 1.
      7.50000000e-01 6.87500000e-01 8.28125000e-01 8.59375000e-01
      7.65625000e-01 7.50000000e-01 7.03125000e-01 7.34375000e-01
      8.12500000e-01 7.18750000e-01 6.56250000e-01 6.25000000e-01
      6.87500000e-01 6.71875000e-01 6.56250000e-01 7.03125000e-01
      7.03125000e-01 9.21875000e-01 7.81250000e-01 3.43750000e-01 0. 0.
      0. 0. 2.18750000e-01 0. 0. 0. 0. 0. 0. 0. 0. 0. 0. 0. 0. 0. 0. 0.
      0. 0. 0. 0. 0. 0. 0. 0. 0. 0. 0. 0. 0. 0. 0. 0. 0. 0. 0. 0. 0. 0.
      0. 0. 0. 0. 0. 0. 0. 0. 0. 0. 0. 0. 0. 0. 0. 0. 0. 0. 0. 0. 0. 0.
      0. 0. 0. 0. 0. 0. 0. 0. 0. 0. 0. 0. 0. 0. 0. 0. 0. 0. 0. 0. 0. 0.
      0. 0. 0. 0. 0. 0. 0. 0. 0. 0. 0. 0. 0. 0. 0. 0. 0. 0. 0. 0. 0. 0.
      4.21940908e-03 4.21940908e-03 4.21940908e-03 1.54711669e-02
      2.95358635e-02 3.09423339e-02 1.12517580e-01 2.19409272e-01
      1.99718699e-01 5.37271440e-01 6.66666627e-01 6.94796026e-01
      5.21800280e-01 1. 6.66666627e-01 4.05063272e-01 4.65541482e-01
      2.53164560e-01 1.77215189e-01 1.22362867e-01 2.08157524e-01
      9.00140628e-02 1.98312238e-01 5.20393811e-02 5.62587902e-02
      2.53164545e-02 3.51617448e-02 1.96905769e-02 1.26582272e-02
      2.81293946e-03 1.54711669e-02 0. 5.62587893e-03 1.12517579e-02 0.
      8.43881816e-03 1.40646973e-03 2.81293946e-03 5.62587893e-03 0. 0.
      1.40646973e-03 1.40646973e-03 0. 1.40646973e-03 0. 0. 0. 0. 0. 0.
      0. 0. 0. 0. 0. 0. 0. 0. 0. 0. 0. 0. 0. 0. 0. 0. 0. 0. 0. 0. 0. 0.
      0. 0. 0. 0.</_>
    <_>
      1. 1. 1. 1. 1. 1. 1. 1. 1. 1. 1. 1. 1. 1. 8.61111104e-01
      8.33333313e-01 8.05555582e-01 8.05555582e-01 8.05555582e-01
      8.05555582e-01 8.05555582e-01 8.05555582e-01 8.05555582e-01
      8.05555582e-01 1. 1. 1. 1. 1. 1. 1. 1. 1. 1. 1. 1. 1. 1. 1. 1. 1.
      1. 1. 1. 1. 1. 1. 1. 1. 1. 1. 1. 1. 1. 1. 1. 1. 1. 1. 1. 1. 1. 1.
      1. 1. 1. 1. 1. 1. 1. 1. 1. 1. 1. 1. 1. 1. 1. 1. 1. 1. 1. 1. 1. 1.
      1. 1. 1. 1. 1. 1. 1. 1. 1. 1. 1. 1. 1. 1. 1. 1. 1. 1. 1. 1. 1. 1.
      1. 8.33333313e-01 7.50000000e-01 6.38888896e-01 5.83333313e-01
      5.55555582e-01 5.00000000e-01 4.16666657e-01 2.77777791e-01 0. 0.
      0. 0. 0. 0. 0. 0. 0. 0. 0. 0. 0. 0. 0. 0. 0. 0. 0. 0.
      8.44827592e-01 8.44827592e-01 8.44827592e-01 8.44827592e-01
      8.44827592e-01 8.53448272e-01 8.70689631e-01 9.39655185e-01
      9.39655185e-01 9.48275864e-01 9.48275864e-01 9.48275864e-01
      9.48275864e-01 9.56896544e-01 9.56896544e-01 9.65517223e-01
      9.74137902e-01 9.74137902e-01 9.82758641e-01 9.82758641e-01
      9.82758641e-01 9.91379321e-01 9.91379321e-01 9.91379321e-01
      9.91379321e-01 9.91379321e-01 1. 1. 1. 1. 1. 1. 1. 1. 1. 1. 0. 0.
      0. 0. 0. 0. 0. 0. 0. 0. 0. 0. 0. 0. 0. 0. 0. 0. 0. 0. 0. 0. 0. 0.
      0. 0. 0. 0. 0. 0. 2.61780098e-02 0. 0. 0. 1.30890049e-02
      4.97382209e-02 5.75916246e-02 0. 0. 0. 4.86910999e-01 0.
      2.38219902e-01 1. 0. 0. 0. 0. 6.22382224e-01 0. 0. 5.64790606e-01
      7.98429325e-02 0. 0. 2.09424086e-02 4.45026197e-02 0. 0. 0. 0. 0.
      0. 0. 0. 0. 0. 0. 0. 0. 0. 0. 0. 0. 0. 0. 0. 0. 0. 0. 0. 0. 0. 0.
      0. 0. 0. 0. 0. 0. 0. 0. 0. 0. 0. 0. 0. 0. 0. 0. 0. 0. 0. 0. 0. 0.
      0. 0. 0. 0. 0. 0. 0. 0. 0. 0. 0. 0. 0. 0. 0. 0. 0. 0. 0. 0. 0. 0.
      0. 0. 0. 0. 0. 0. 0. 0. 0. 0. 0. 0. 0. 0. 0. 0. 0. 0. 0. 0. 0. 0.
      0. 0. 0. 0. 0. 0. 0. 0. 0. 0. 0. 0. 0. 0. 0. 0. 0. 0. 0. 0. 0. 0.
      0. 0. 0. 0. 0. 0. 0. 0.</_>
    <_>
      0. 0. 1.42857149e-01 2.14285731e-01 4.28571463e-01 7.14285731e-01
      1. 8.57142925e-01 5.71428597e-01 5.71428597e-01 5.71428597e-01
      5.00000000e-01 4.28571463e-01 4.28571463e-01 5.00000000e-01
      5.71428597e-01 7.14285731e-01 6.42857194e-01 7.14285731e-01
      6.42857194e-01 7.14285731e-01 3.57142866e-01 4.28571463e-01
      3.57142866e-01 4.28571463e-01 4.28571463e-01 3.57142866e-01
      2.85714298e-01 4.28571463e-01 5.71428597e-01 5.00000000e-01
      4.28571463e-01 5.00000000e-01 4.28571463e-01 4.28571463e-01
      4.28571463e-01 5.00000000e-01 3.57142866e-01 2.85714298e-01
      3.57142866e-01 4.28571463e-01 2.85714298e-01 4.28571463e-01
      5.71428597e-01 6.42857194e-01 7.14285731e-01 6.42857194e-01
      5.00000000e-01 5.71428597e-01 5.71428597e-01 7.14285731e-01
      8.57142925e-01 7.14285731e-01 7.14285731e-01 6.42857194e-01
      7.14285731e-01 7.85714328e-01 6.42857194e-01 6.42857194e-01
      7.14285731e-01 8.57142925e-01 8.57142925e-01 6.42857194e-01
      5.00000000e-01 4.28571463e-01 4.28571463e-01 3.57142866e-01
      2.14285731e-01 2.14285731e-01 2.14285731e-01 2.14285731e-01
      2.85714298e-01 2.85714298e-01 2.14285731e-01 2.14285731e-01
      2.14285731e-01 2.85714298e-01 5.71428597e-01 6.42857194e-01
      7.14285731e-01 6.42857194e-01 6.42857194e-01 5.71428597e-01
      4.28571463e-01 2.85714298e-01 2.85714298e-01 2.14285731e-01
      2.85714298e-01 2.14285731e-01 2.85714298e-01 2.85714298e-01
      5.00000000e-01 5.00000000e-01 5.71428597e-01 5.00000000e-01
      5.71428597e-01 5.71428597e-01 6.42857194e-01 6.42857194e-01
      5.00000000e-01 5.71428597e-01 5.00000000e-01 5.00000000e-01
      5.00000000e-01 5.71428597e-01 6.42857194e-01 5.71428597e-01
      8.57142925e-01 7.85714328e-01 6.42857194e-01 5.00000000e-01
      4.28571463e-01 4.28571463e-01 5.00000000e-01 5.71428597e-01
      5.71428597e-01 3.57142866e-01 3.57142866e-01 3.57142866e-01
      3.57142866e-01 3.57142866e-01 3.57142866e-01 3.57142866e-01
      3.57142866e-01 3.57142866e-01 2.85714298e-01 2.85714298e-01
      2.85714298e-01 2.85714298e-01 2.85714298e-01 2.85714298e-01
      3.57142866e-01 2.14285731e-01 2.14285731e-01 2.14285731e-01
      2.14285731e-01 6.07843161e-01 6.86274529e-01 6.86274529e-01
      6.07843161e-01 5.09803951e-01 2.94117659e-01 3.52941185e-01
      6.07843161e-01 7.64705896e-01 9.60784376e-01 1. 7.84313738e-01
      6.27451003e-01 6.66666687e-01 5.88235319e-01 5.88235319e-01
      5.09803951e-01 4.11764711e-01 3.33333343e-01 2.94117659e-01
      4.50980395e-01 5.49019635e-01 5.88235319e-01 5.29411793e-01
      3.52941185e-01 2.94117659e-01 1.96078435e-01 2.15686277e-01
      2.54901975e-01 2.94117659e-01 4.31372553e-01 5.09803951e-01
      4.11764711e-01 3.92156869e-01 2.15686277e-01 1.96078438e-02
      9.55678672e-02 0. 0. 0. 0. 0. 1.52354566e-02 0. 1.38504151e-03 0.
      0. 8.31024908e-03 0. 1.66204982e-02 0. 1.38504151e-03
      5.54016605e-03 1.38504151e-03 1.38504151e-03 4.15512454e-03
      2.49307472e-02 8.31024908e-03 1.38504151e-03 2.77008303e-03
      1.24653736e-02 6.92520756e-03 4.15512454e-03 0. 0. 0.
      6.64819926e-02 0. 1.38504151e-03 0. 8.31024908e-03 2.07756236e-02
      3.18559557e-02 0. 5.54016605e-03 1.38504151e-03 2.07756236e-02 0.
      4.15512472e-02 1.80055387e-02 0. 9.69529059e-03 1.38504151e-03 0.
      3.32409963e-02 0. 1.27423823e-01 3.18559557e-02 9.69529059e-03 0.
      6.92520756e-03 3.73961218e-02 1.66204982e-02 2.77008303e-03 0. 0.
      3.46260369e-02 0. 1.38504151e-03 8.31024908e-03 0. 5.54016605e-03
      1.17728531e-01 5.54016605e-03 2.77008303e-02 8.31024908e-03
      7.75623247e-02 4.15512454e-03 2.77008303e-03 4.29362878e-02
      5.26315793e-02 2.60387808e-01 3.04709133e-02 1.66204982e-02 0.
      8.31024945e-02 3.78116339e-01 8.31024908e-03 0. 2.89473683e-01
      3.04709133e-02 4.98614945e-02 0. 1.88365638e-01 6.92520756e-03
      1.38504151e-03 3.42105240e-01 2.77008303e-03 9.69529059e-03
      8.31024945e-02 4.15512454e-03 5.54016605e-02 5.58171749e-01 0.
      7.06371143e-02 9.69529059e-03 1.38504151e-03 1.53739601e-01
      6.92520756e-03 2.86703587e-01 5.81717417e-02 3.46260369e-02
      9.14127380e-02 8.31024908e-03 1.10803321e-02 1.26038775e-01 1.
      7.61772841e-02 2.77008303e-03 2.63157897e-02 3.06094170e-01
      9.41828191e-02 8.31024908e-03 0. 0. 0. 2.54847646e-01 0.
      1.38504151e-03 0. 3.18559557e-02 7.75623247e-02 1.59279779e-01 0.
      1.10803321e-02 9.69529059e-03 2.35457048e-02 0. 8.31024945e-02
      3.04709133e-02 0. 6.92520756e-03 4.15512454e-03 0. 1.38504151e-02
      0. 5.26315793e-02 9.69529059e-03 6.92520756e-03 1.38504151e-03 0.
      1.38504151e-02 2.77008303e-03 0. 0. 0. 2.90858708e-02 0. 0. 0. 0.
      0. 1.38504151e-02 0. 0. 0. 5.54016605e-03 0. 0. 0. 0.
      3.04709133e-02 0. 0. 0. 0. 1.93905812e-02 0. 0. 2.21606642e-02 0.
      0. 0. 0. 0. 0.</_>
    <_>
      0. 0. 0. 0. 0. 0. 0. 0. 0. 0. 0. 0. 0. 0. 0. 0. 0. 0. 0. 0. 0. 0.
      0. 0. 0. 0. 0. 0. 0. 0. 0. 0. 0. 0. 0. 0. 0. 0. 0. 0. 0.
      2.50000000e-01 3.33333343e-01 4.44444448e-01 6.11111104e-01
      8.05555582e-01 1. 1. 1. 1. 1. 1. 1. 1. 1. 1. 1. 1. 1. 1. 1. 1. 1.
      1. 1. 1. 1. 1. 1. 1. 1. 1. 1. 1. 1. 1. 1. 1. 1. 1. 1. 1. 1. 1. 1.
      1. 1. 1. 1. 1. 1. 1. 1. 1. 1. 1. 1. 1. 1. 1. 1. 1. 1. 1. 1. 1. 1.
      1. 1. 1. 1. 1. 1. 1. 1. 1. 1. 1. 8.88888896e-01 8.05555582e-01
      7.77777791e-01 7.50000000e-01 6.94444478e-01 5.83333313e-01 0. 0.
      0. 0. 0. 0. 0. 0. 0. 0. 0. 0. 9.99999940e-01 9.99999940e-01
      9.99999940e-01 9.99999940e-01 9.99999940e-01 9.99999940e-01
      9.99999940e-01 9.99999940e-01 9.99999940e-01 9.87951756e-01
      9.87951756e-01 9.87951756e-01 9.75903571e-01 9.75903571e-01
      9.75903571e-01 9.63855386e-01 9.75903571e-01 9.63855386e-01
      9.63855386e-01 9.63855386e-01 9.63855386e-01 9.51807201e-01
      9.39759016e-01 9.39759016e-01 9.39759016e-01 9.27710831e-01
      9.27710831e-01 9.15662646e-01 9.03614402e-01 8.79518032e-01
      8.79518032e-01 8.79518032e-01 8.67469847e-01 8.67469847e-01
      8.67469847e-01 8.67469847e-01 2.43445691e-02 0. 0. 0. 0. 0. 0. 0.
      0. 0. 0. 0. 0. 0. 0. 0. 0. 0. 0. 0. 7.49063678e-03 0. 0.
      5.74282147e-02 2.07865164e-01 3.68289620e-01 0. 0. 0. 0. 1. 0. 0.
      0. 2.19725341e-01 6.34207249e-01 3.24594267e-02 0. 0. 0. 0. 0.
      7.49063678e-03 0. 0. 0. 0. 0. 0. 0. 2.49687880e-02 0. 0. 0. 0. 0.
      0. 0. 0. 0. 0. 0. 0. 0. 0. 0. 0. 0. 0. 0. 0. 0. 0. 0. 0.
      2.74656676e-02 0. 0. 0. 0. 0. 0. 0. 2.24719103e-02 0. 0. 0. 0. 0.
      0. 0. 0. 0. 0. 0. 0. 3.74531820e-02 0. 0. 0. 0. 2.24719103e-02 0.
      3.62047441e-02 0. 7.49063678e-03 4.18227203e-02 1.49812736e-02
      5.18102348e-02 1.06117353e-02 5.49313352e-02 4.93133590e-02
      3.43320854e-02 1.56054925e-02 2.49687880e-02 1.99750308e-02 0. 0.
      0. 0. 0. 0. 0. 0. 0. 0. 0. 0. 0. 0. 0. 0. 0. 0. 0. 0. 0. 0. 0. 0.
      0. 0. 0. 0. 0. 0. 0. 0. 0. 0. 0. 0. 0. 0. 0. 0. 0. 0. 0. 0. 0. 0.
      0. 0. 0. 0. 0. 0. 0. 0. 0. 0. 0. 0. 0. 0. 0. 0. 0. 0.</_>
    <_>
      7.14285731e-01 7.61904776e-01 6.66666687e-01 7.14285731e-01
      6.66666687e-01 6.66666687e-01 6.66666687e-01 6.66666687e-01
      7.61904776e-01 7.61904776e-01 8.09523821e-01 8.09523821e-01
      7.14285731e-01 6.66666687e-01 7.61904776e-01 7.14285731e-01
      6.66666687e-01 6.66666687e-01 7.61904776e-01 7.61904776e-01
      7.14285731e-01 7.61904776e-01 7.14285731e-01 6.66666687e-01
      6.66666687e-01 6.66666687e-01 6.66666687e-01 7.14285731e-01
      7.61904776e-01 7.14285731e-01 6.66666687e-01 6.19047642e-01
      6.66666687e-01 6.19047642e-01 7.14285731e-01 7.14285731e-01
      7.61904776e-01 7.61904776e-01 7.61904776e-01 7.61904776e-01
      8.09523821e-01 8.09523821e-01 7.61904776e-01 7.61904776e-01
      5.71428597e-01 3.80952388e-01 2.85714298e-01 3.33333343e-01
      9.52380970e-02 2.38095239e-01 2.85714298e-01 3.80952388e-01
      2.85714298e-01 9.52380970e-02 0. 9.52380970e-02 0. 1.42857149e-01
      1.90476194e-01 3.33333343e-01 4.28571433e-01 4.28571433e-01
      4.76190478e-01 5.71428597e-01 6.19047642e-01 6.66666687e-01
      7.14285731e-01 8.09523821e-01 8.09523821e-01 7.14285731e-01
      7.61904776e-01 7.61904776e-01 7.14285731e-01 6.19047642e-01
      5.71428597e-01 7.14285731e-01 6.66666687e-01 7.61904776e-01
      7.14285731e-01 7.61904776e-01 5.23809552e-01 5.71428597e-01
      7.14285731e-01 6.66666687e-01 6.66666687e-01 4.76190478e-01
      4.28571433e-01 4.76190478e-01 5.23809552e-01 5.23809552e-01
      5.23809552e-01 5.23809552e-01 4.76190478e-01 3.33333343e-01
      3.33333343e-01 3.80952388e-01 3.80952388e-01 2.38095239e-01
      1.42857149e-01 9.52380970e-02 0. 9.52380970e-02 1.90476194e-01
      2.85714298e-01 3.33333343e-01 2.85714298e-01 2.85714298e-01
      3.80952388e-01 4.76190478e-01 4.28571433e-01 4.76190478e-01
      3.80952388e-01 4.28571433e-01 4.76190478e-01 4.76190478e-01
      5.23809552e-01 5.71428597e-01 6.19047642e-01 6.66666687e-01
      7.14285731e-01 7.14285731e-01 7.14285731e-01 7.61904776e-01
      7.14285731e-01 8.09523821e-01 6.19047642e-01 6.66666687e-01
      7.14285731e-01 8.57142866e-01 9.52380955e-01 1. 7.14285731e-01
      6.19047642e-01 6.19047642e-01 6.19047642e-01 5.71428597e-01
      6.48648679e-01 5.54054081e-01 4.59459484e-01 3.64864886e-01
      2.83783793e-01 1.75675675e-01 2.02702701e-01 3.24324340e-01
      4.05405402e-01 4.18918937e-01 5.67567587e-01 5.40540576e-01
      3.91891897e-01 4.05405402e-01 5.00000000e-01 7.16216207e-01
      7.56756783e-01 6.75675690e-01 6.89189196e-01 7.29729772e-01
      7.02702701e-01 8.64864886e-01 1. 9.05405402e-01 7.29729772e-01
      7.97297299e-01 8.37837875e-01 8.10810804e-01 6.75675690e-01
      6.62162185e-01 7.97297299e-01 7.29729772e-01 7.97297299e-01
      7.97297299e-01 6.75675690e-01 3.64864886e-01 1.24897286e-01 0. 0.
      0. 0. 0. 1.06820054e-02 0. 0. 0. 0. 0. 0. 0. 0. 0. 0. 0. 0. 0.
      4.10846341e-03 0. 0. 0. 0. 0. 0. 0. 0. 0. 2.38290876e-02 0. 0. 0.
      0. 0. 6.57354156e-03 0. 0. 0. 0. 0. 0. 0. 0. 0. 0. 0. 0. 0.
      1.39687760e-02 0. 0. 0. 0. 0. 0. 0. 0. 0. 0. 0. 0. 0. 0. 0.
      1.15036974e-02 0. 0. 0. 0. 0. 0. 0. 0. 1.06820047e-01 0. 0. 0. 0.
      3.20460163e-02 0. 0. 3.45110931e-02 0. 0. 0. 4.27280217e-02 0. 0.
      8.21692720e-02 0. 0. 2.46507814e-03 0. 0. 2.25143805e-01 0.
      7.39523442e-03 0. 0. 9.03861970e-02 0. 3.07313055e-01
      4.76581752e-02 0. 1.24897286e-01 0. 9.03861970e-03 1.21610522e-01
      1. 1.29827440e-01 3.28677078e-03 2.87592448e-02 3.95234197e-01
      1.24897286e-01 8.21692694e-04 0. 0. 0. 5.42317152e-01 0. 0. 0. 0.
      5.09449467e-02 1.86524242e-01 0. 0. 0. 1.64338539e-03 0.
      1.97206251e-02 1.47904688e-02 0. 0. 0. 0. 0. 0. 3.77978645e-02
      1.64338539e-03 0. 0. 0. 2.46507814e-03 0. 0. 0. 0. 0. 0. 0. 0. 0.
      0. 0. 0. 0. 0. 0. 0. 0. 0. 0. 4.93015610e-02 0. 0. 0. 0. 0. 0. 0.
      3.28677078e-03 0. 0. 0. 0. 0. 0.</_>
    <_>
      0. 0. 0. 0. 0. 0. 0. 0. 0. 0. 0. 0. 0. 0. 0. 0. 0. 0. 0.
      2.72727281e-01 1.81818187e-01 1.81818187e-01 9.09090936e-02 0.
      9.09090936e-02 9.09090936e-02 2.72727281e-01 3.63636374e-01
      4.54545468e-01 4.54545468e-01 6.36363626e-01 7.27272749e-01
      6.36363626e-01 7.27272749e-01 5.45454562e-01 7.27272749e-01
      7.27272749e-01 6.36363626e-01 8.18181872e-01 7.27272749e-01
      8.18181872e-01 6.36363626e-01 7.27272749e-01 5.45454562e-01
      3.63636374e-01 2.72727281e-01 3.63636374e-01 2.72727281e-01
      3.63636374e-01 3.63636374e-01 2.72727281e-01 3.63636374e-01
      4.54545468e-01 4.54545468e-01 6.36363626e-01 5.45454562e-01
      6.36363626e-01 6.36363626e-01 6.36363626e-01 5.45454562e-01
      2.72727281e-01 2.72727281e-01 2.72727281e-01 3.63636374e-01
      3.63636374e-01 3.63636374e-01 2.72727281e-01 2.72727281e-01
      4.54545468e-01 6.36363626e-01 7.27272749e-01 7.27272749e-01
      7.27272749e-01 8.18181872e-01 1. 1. 9.09090936e-01 9.09090936e-01
      9.09090936e-01 1. 1. 1. 1. 9.09090936e-01 9.09090936e-01
      7.27272749e-01 7.27272749e-01 4.54545468e-01 5.45454562e-01
      6.36363626e-01 8.18181872e-01 7.27272749e-01 6.36363626e-01
      4.54545468e-01 2.72727281e-01 2.72727281e-01 2.72727281e-01
      2.72727281e-01 3.63636374e-01 2.72727281e-01 2.72727281e-01
      3.63636374e-01 2.72727281e-01 2.72727281e-01 2.72727281e-01
      3.63636374e-01 3.63636374e-01 3.63636374e-01 4.54545468e-01
      3.63636374e-01 2.72727281e-01 2.72727281e-01 3.63636374e-01
      4.54545468e-01 3.63636374e-01 3.63636374e-01 2.72727281e-01
      2.72727281e-01 2.72727281e-01 2.72727281e-01 2.72727281e-01
      2.72727281e-01 1.81818187e-01 2.72727281e-01 2.72727281e-01
      2.72727281e-01 2.72727281e-01 2.72727281e-01 2.72727281e-01
      2.72727281e-01 2.72727281e-01 3.63636374e-01 2.72727281e-01
      2.72727281e-01 0. 0. 0. 8.57142881e-02 1.14285715e-01
      2.00000003e-01 2.00000003e-01 2.00000003e-01 3.71428579e-01
      7.14285731e-01 8.85714293e-01 9.71428573e-01 1. 8.57142866e-01
      8.57142866e-01 7.42857158e-01 5.71428597e-01 4.57142860e-01
      4.28571433e-01 4.00000006e-01 4.00000006e-01 3.71428579e-01
      5.71428597e-01 5.42857170e-01 4.85714287e-01 4.85714287e-01
      5.14285743e-01 3.14285725e-01 3.14285725e-01 3.71428579e-01
      4.00000006e-01 4.85714287e-01 6.00000024e-01 7.14285731e-01
      5.71428597e-01 5.14285743e-01 3.14285725e-01 0. 1.10041268e-01 0.
      0. 0. 0. 0. 1.37551585e-02 0. 1.37551583e-03 0. 1.37551583e-03 0.
      0. 1.23796426e-02 0. 1.37551583e-03 0. 0. 0. 8.25309474e-03
      3.43878940e-02 0. 0. 1.37551583e-03 2.47592852e-02 8.25309474e-03
      0. 0. 0. 0. 7.15268254e-02 0. 0. 0. 6.87757926e-03 1.51306745e-02
      4.67675366e-02 0. 0. 0. 6.87757926e-03 0. 6.46492466e-02
      3.30123790e-02 0. 0. 0. 1.37551583e-03 5.50206332e-03 0.
      1.74690515e-01 1.37551585e-02 1.37551583e-03 0. 1.37551583e-03
      5.36451191e-02 2.75103166e-03 4.12654737e-03 0. 0. 3.02613489e-02
      0. 0. 9.62861069e-03 0. 1.37551583e-03 9.76616219e-02
      5.50206332e-03 1.37551583e-03 2.75103166e-03 6.60247579e-02
      1.37551583e-03 1.37551583e-03 1.78817064e-02 2.06327382e-02
      2.98486948e-01 1.51306745e-02 0. 0. 3.57634127e-02 1.62310869e-01
      1.37551583e-03 0. 1.85694635e-01 9.62861069e-03 1.78817064e-02
      1.37551583e-03 1.38927102e-01 6.87757926e-03 2.75103166e-03
      1.85694635e-01 0. 8.25309474e-03 3.02613489e-02 0. 3.71389277e-02
      4.31911975e-01 0. 7.15268254e-02 4.12654737e-03 5.50206332e-03
      1.95323244e-01 2.75103166e-03 3.71389270e-01 7.29023367e-02
      3.16368639e-02 1.41678125e-01 1.23796426e-02 2.47592852e-02
      1.26547456e-01 1. 1.60935357e-01 3.85144427e-02 9.07840431e-02
      3.48005503e-01 1.56808808e-01 1.11416779e-01 6.87757926e-03
      1.65061895e-02 1.78817064e-02 2.94360399e-01 0. 3.43878940e-02
      1.10041266e-02 7.01513067e-02 1.63686380e-01 1.14167817e-01
      1.65061895e-02 3.43878940e-02 2.06327382e-02 2.06327382e-02
      1.37551583e-03 3.43878940e-02 6.32737279e-02 1.37551583e-03
      1.92572214e-02 0. 0. 2.47592852e-02 0. 4.53920215e-02
      2.20082533e-02 8.25309474e-03 1.37551583e-03 4.12654737e-03
      1.51306745e-02 1.65061895e-02 4.12654737e-03 0. 0. 6.05226979e-02
      0. 0. 0. 0. 0. 1.10041266e-02 0. 0. 0. 5.50206332e-03
      1.37551583e-03 0. 1.37551583e-03 0. 4.26409915e-02 0. 0.
      1.37551583e-03 0. 9.62861069e-03 0. 0. 5.50206332e-03 0. 0. 0. 0.
      0. 0.</_>
    <_>
      7.50000000e-01 7.22222209e-01 6.11111104e-01 6.11111104e-01
      3.61111104e-01 2.50000000e-01 2.22222224e-01 1.66666672e-01
      8.33333358e-02 0. 0. 0. 0. 0. 0. 0. 0. 0. 0. 0. 0. 0. 0. 0. 0. 0.
      0. 2.77777780e-02 2.50000000e-01 4.16666657e-01 5.83333313e-01
      7.77777791e-01 7.77777791e-01 6.94444478e-01 4.72222239e-01
      3.05555552e-01 2.50000000e-01 5.00000000e-01 5.55555582e-01
      5.83333313e-01 5.55555582e-01 4.16666657e-01 1.11111112e-01
      1.11111112e-01 1.11111112e-01 1.38888896e-01 3.05555552e-01
      5.27777791e-01 5.00000000e-01 5.00000000e-01 5.55555582e-01
      4.16666657e-01 4.16666657e-01 4.16666657e-01 3.88888896e-01
      4.72222239e-01 2.22222224e-01 3.05555552e-01 3.61111104e-01
      3.05555552e-01 2.22222224e-01 2.50000000e-01 3.33333343e-01
      3.61111104e-01 3.33333343e-01 3.33333343e-01 4.16666657e-01
      4.16666657e-01 4.44444448e-01 4.72222239e-01 5.27777791e-01
      6.11111104e-01 7.22222209e-01 7.50000000e-01 7.22222209e-01
      8.88888896e-01 8.61111104e-01 7.77777791e-01 7.22222209e-01
      6.94444478e-01 6.66666687e-01 6.66666687e-01 6.11111104e-01
      5.83333313e-01 4.44444448e-01 4.44444448e-01 4.16666657e-01
      3.61111104e-01 2.77777791e-01 2.22222224e-01 1.94444448e-01
      1.66666672e-01 1.94444448e-01 2.22222224e-01 1.66666672e-01 0. 0.
      5.55555560e-02 1.11111112e-01 0. 0. 5.55555560e-02 8.33333358e-02
      0. 0. 0. 0. 0. 0. 0. 0. 0. 0. 0. 0. 0. 0. 0. 0. 0. 0. 0. 0. 0. 0.
      0. 0. 0. 0. 2.77777780e-02 8.33333358e-02 4.72222239e-01 1. 1. 1.
      1. 1. 9.81132090e-01 9.62264180e-01 8.49056602e-01 7.92452812e-01
      7.73584902e-01 7.54716992e-01 7.35849082e-01 7.54716992e-01
      7.35849082e-01 7.92452812e-01 6.79245293e-01 6.79245293e-01
      6.41509414e-01 6.41509414e-01 6.03773594e-01 5.66037774e-01
      5.66037774e-01 5.47169805e-01 5.84905684e-01 6.41509414e-01
      6.98113203e-01 6.22641504e-01 6.79245293e-01 6.79245293e-01
      7.54716992e-01 7.16981173e-01 7.54716992e-01 7.73584902e-01
      8.11320782e-01 8.30188692e-01 7.16981173e-01 7.16981173e-01
      6.98113203e-01 7.35849082e-01 6.79245293e-01 1.11932941e-01 0. 0.
      0. 0. 0. 1.47928996e-02 0. 0. 0. 0. 0. 0. 1.72583833e-02 0. 0. 0.
      0. 0. 1.97238661e-03 1.89842209e-01 0. 0. 0. 2.19428018e-01
      1.18836291e-01 0. 0. 0. 0. 1. 0. 0. 0. 6.90335315e-03
      5.71992099e-02 5.17751515e-01 0. 0. 0. 0. 0. 6.06508888e-02
      3.94477323e-03 0. 0. 0. 0. 0. 0. 3.15581858e-02 0. 0. 0. 0. 0. 0.
      0. 0. 0. 0. 0. 0. 0. 0. 0. 0. 0. 0. 0. 0. 0. 0. 0. 0.
      7.88954645e-03 0. 0. 0. 0. 0. 0. 0. 0. 0. 0. 0. 0. 0. 0. 0. 0. 0.
      0. 0. 0. 0. 0. 0. 0. 0. 0. 0. 0. 0. 0. 0. 0. 0. 0. 0. 0. 0. 0. 0.
      0. 0. 0. 0. 0. 0. 0. 0. 0. 0. 0. 0. 0. 0. 0. 0. 0. 0. 0. 0. 0. 0.
      0. 0. 0. 0. 0. 0. 0. 0. 0. 0. 0. 0. 0. 0. 0. 0. 0. 0. 0. 0. 0. 0.
      0. 0. 0. 0. 0. 0. 5.42406328e-02 0. 0. 0. 0. 0. 0. 0. 0. 0. 0. 0.
      0. 0. 0.</_></support_vectors>
  <decision_functions>
    <_>
      <sv_count>12</sv_count>
      <rho>-3.5290932512694489e-01</rho>
      <alpha>
        3.9499012051016219e-01 1.1871211486103319e+00
        4.7654635714066196e-01 9.7337522516787522e-01
        7.8615055427587843e-01 1.0196941096843160e+00
        -1.0980834001968218e+00 -1.0407244720866011e+00
        -1.0965189678975125e+00 -3.2683790366859700e-01
        -9.2882547706865493e-01 -3.4688729447103828e-01</alpha>
      <index>
        6 7 8 9 10 11 0 1 2 3 4 5</index></_></decision_functions></opencv_ml_svm>
</opencv_storage>
